tree
version=v4
num_class=1
num_tree_per_iteration=1
label_index=0
max_feature_idx=2
objective=regression
feature_names=Column_0 Column_1 Column_2
feature_infos=[0:10] [-1.4998354911804199:1.4998016357421875] [-10:10]
tree_sizes=731 729 728 731 725 730 731 742 724 731 729 731 728 730 732 727 728 738 731 723 728 729 726 729 726 740 745 740 743 730 728 731 743 731 743 730 730 727 744 730 727 731 712 727 729 730 741 741 731 726 729 730 732 730 749 745 739 739 739 748 753 757 743 740 745 751 750 737 757 729 739 734 736 751 731 737 733 739 743 737 733 739 734 747 751 738 756 740 730 728 739 747 740 734 751 737 740 733 738 734 750 739 733 734 739 735 757 739 735 741 735 736 739 731 740 730 751 740 740 732 741 740 735 740 751 737 754 740 754 752 757 741 740 742 741 753 738 720 740 743 721 741 745 723 754 739 740 739 743 752 752 741 755 742 740 741 742 744 742 741 742 744 742 753 741 753 753 742 741 753 738 742 741 738 742 754 744 742 741 743 744 740 743 745 746 742 741 751 746 748 742 747 742 746 748 745 749 745 750 743 754 755 718 753 724 721 752 723 754 732 723 722 751 726 720 755 753 755 726 734 754 755 752 740 731 744 735 732 754 733 756 733 733 753 736 734 754 734 751 734 755 731 728 748 756 735 720 728 757 756 746 721 732 752 736 753 738 742 728 755 741 740 744 757 732 754 754 754 740 742 756 739 739 741 742 757 740 741 730 755 757 757 743 738 757 754 760 738 743 758 758 757 754 719 737 729 759 738 756 756

Tree=0
num_leaves=6
num_cat=0
split_feature=2 2 2 2 2
split_gain=0.160337 0.157572 0.104745 0.0356996 0.0208234
threshold=0.59700945019721996 -1.0000000180025095e-35 7.1385040283203134 4.4156987667083749 -4.3133802413940421
decision_type=2 2 2 2 2
left_child=1 4 3 -2 -1
right_child=2 -3 -4 -5 -6
leaf_value=0.00045341203729877425 0.00043436432494806294 0.00048677381862859966 0.00045666188651332827 0.00040070728709572061 0.00046790191417887009
leaf_weight=43812 7099 25145 15226 6402 12720
leaf_count=43812 7099 25145 15226 6402 12720
internal_value=0.000458792 0.000465939 0.000438472 0.000418181 0.000456725
internal_weight=110404 81677 28727 13501 56532
internal_count=110404 81677 28727 13501 56532
is_linear=0
shrinkage=1


Tree=1
num_leaves=6
num_cat=0
split_feature=2 2 2 2 2
split_gain=0.157171 0.154435 0.10266 0.0349651 0.0204102
threshold=0.59700945019721996 -1.0000000180025095e-35 7.1385040283203134 4.4156987667083749 -4.3133802413940421
decision_type=2 2 2 2 2
left_child=1 4 3 -2 -1
right_child=2 -3 -4 -5 -6
leaf_value=-5.3266523076011156e-06 -2.4183897797653988e-05 2.7701514020756275e-05 -2.1093015537674668e-06 -5.7504381680926668e-05 9.0183269378036855e-06
leaf_weight=43812 7099 25145 15226 6402 12720
leaf_count=43812 7099 25145 15226 6402 12720
internal_value=0 7.07548e-06 -2.0119e-05 -4.02072e-05 -2.04586e-06
internal_weight=110404 81677 28727 13501 56532
internal_count=110404 81677 28727 13501 56532
is_linear=0
shrinkage=0.01


Tree=2
num_leaves=6
num_cat=0
split_feature=2 2 2 2 2
split_gain=0.154067 0.151361 0.100618 0.0342455 0.0200053
threshold=0.59700945019721996 -1.0000000180025095e-35 7.1385040283203134 4.4156987667083749 -4.3133802413940421
decision_type=2 2 2 2 2
left_child=1 4 3 -2 -1
right_child=2 -3 -4 -5 -6
leaf_value=-5.2733867852703162e-06 -2.3942070179436832e-05 2.7424501398328883e-05 -2.088209436633161e-06 -5.6929365835675023e-05 8.9281473536119595e-06
leaf_weight=43812 7099 25145 15226 6402 12720
leaf_count=43812 7099 25145 15226 6402 12720
internal_value=0 7.00472e-06 -1.992e-05 -3.98073e-05 -2.02487e-06
internal_weight=110404 81677 28727 13501 56532
internal_count=110404 81677 28727 13501 56532
is_linear=0
shrinkage=0.01


Tree=3
num_leaves=6
num_cat=0
split_feature=2 2 2 2 2
split_gain=0.151025 0.148347 0.0986154 0.0335404 0.0196084
threshold=0.59700945019721996 -1.0000000180025095e-35 7.1385040283203134 4.4156987667083749 -4.3133802413940421
decision_type=2 2 2 2 2
left_child=1 4 3 -2 -1
right_child=2 -3 -4 -5 -6
leaf_value=-5.2206540199059051e-06 -2.3702659011172114e-05 2.7150259495512466e-05 -2.0673286943117342e-06 -5.636009931854635e-05 8.8388672066411337e-06
leaf_weight=43812 7099 25145 15226 6402 12720
leaf_count=43812 7099 25145 15226 6402 12720
internal_value=0 6.93468e-06 -1.97229e-05 -3.94115e-05 -2.00409e-06
internal_weight=110404 81677 28727 13501 56532
internal_count=110404 81677 28727 13501 56532
is_linear=0
shrinkage=0.01


Tree=4
num_leaves=6
num_cat=0
split_feature=2 2 2 2 1
split_gain=0.14805 0.13521 0.10786 0.0241952 0.0204857
threshold=1.2727960944175722 -1.0000000180025095e-35 7.1385040283203134 5.9620046615600595 -0.34844964742660517
decision_type=2 2 2 2 2
left_child=1 -1 3 -2 -3
right_child=2 4 -4 -5 -6
leaf_value=-1.9835174664520829e-06 -3.2261052979508457e-05 1.5389114983147644e-06 -2.0466554432704259e-06 -6.4479818746755618e-05 2.8832372531862384e-05
leaf_weight=56532 8702 3392 15226 3654 22898
leaf_count=56532 8702 3392 15226 3654 22898
internal_value=0 6.68057e-06 -2.00686e-05 -4.20331e-05 2.54251e-05
internal_weight=110404 82822 27582 12356 26290
internal_count=110404 82822 27582 12356 26290
is_linear=0
shrinkage=0.01


Tree=5
num_leaves=6
num_cat=0
split_feature=2 2 2 2 2
split_gain=0.145285 0.142642 0.0948514 0.0322865 0.0192182
threshold=0.59700945019721996 -1.0000000180025095e-35 7.1385040283203134 4.4156987667083749 -4.3133802413940421
decision_type=2 2 2 2 2
left_child=1 4 3 -2 -1
right_child=2 -3 -4 -5 -6
leaf_value=-5.1486116738160684e-06 -2.3229007460435587e-05 2.6623708204964771e-05 -2.0261897331242086e-06 -5.529004550113855e-05 8.7703149948556342e-06
leaf_weight=43812 7099 25145 15226 6402 12720
leaf_count=43812 7099 25145 15226 6402 12720
internal_value=0 6.80054e-06 -1.93455e-05 -3.8655e-05 -1.96368e-06
internal_weight=110404 81677 28727 13501 56532
internal_count=110404 81677 28727 13501 56532
is_linear=0
shrinkage=0.01


Tree=6
num_leaves=6
num_cat=0
split_feature=2 2 2 2 2
split_gain=0.142417 0.139802 0.0929639 0.0316211 0.0188369
threshold=0.59700945019721996 -1.0000000180025095e-35 7.1385040283203134 4.4156987667083749 -4.3133802413940421
decision_type=2 2 2 2 2
left_child=1 4 3 -2 -1
right_child=2 -3 -4 -5 -6
leaf_value=-5.0971263224907449e-06 -2.299672686246662e-05 2.6357474990898988e-05 -2.0059267849147802e-06 -5.4737172023518458e-05 8.6826137923726705e-06
leaf_weight=43812 7099 25145 15226 6402 12720
leaf_count=43812 7099 25145 15226 6402 12720
internal_value=0 6.73253e-06 -1.91542e-05 -3.82707e-05 -1.94352e-06
internal_weight=110404 81677 28727 13501 56532
internal_count=110404 81677 28727 13501 56532
is_linear=0
shrinkage=0.01


Tree=7
num_leaves=6
num_cat=0
split_feature=0 1 1 1 1
split_gain=0.041271 0.0276012 0.0674922 0.00726426 0.00586201
threshold=1.0000000180025095e-35 -0.025551197119057175 1.0000000180025095e-35 -0.8824939727783202 0.025812538340687755
decision_type=2 2 2 2 2
left_child=4 3 -3 -2 -1
right_child=1 2 -4 -5 -6
leaf_value=-2.5179964645386504e-06 -1.9542656679416784e-05 2.8755334545592748e-05 -6.726290197792206e-07 -4.858905315760105e-07 -8.7860011028586274e-06
leaf_weight=38866 2512 14150 16919 11630 26327
leaf_count=38866 2512 14150 16919 11630 26327
internal_value=0 7.33817e-06 1.26336e-05 -4.08336e-06 -5.09526e-06
internal_weight=110404 45211 31069 14142 65193
internal_count=110404 45211 31069 14142 65193
is_linear=0
shrinkage=0.01


Tree=8
num_leaves=6
num_cat=0
split_feature=2 2 2 2 1
split_gain=0.13927 0.126169 0.101618 0.023033 0.0197428
threshold=1.2727960944175722 -1.0000000180025095e-35 7.1385040283203134 5.9620046615600595 -0.34844964742660517
decision_type=2 2 2 2 2
left_child=1 -1 3 -2 -3
right_child=2 4 -4 -5 -6
leaf_value=-1.8909310823708131e-06 -3.1238007080298771e-05 1.1302552831234744e-06 -1.9683790463445451e-06 -6.270187163893778e-05 2.7927180834427055e-05
leaf_weight=56532 8702 3392 15226 3654 22898
leaf_count=56532 8702 3392 15226 3654 22898
internal_value=0 6.47676e-06 -1.9467e-05 -4.07868e-05 2.45839e-05
internal_weight=110404 82822 27582 12356 26290
internal_count=110404 82822 27582 12356 26290
is_linear=0
shrinkage=0.01


Tree=9
num_leaves=6
num_cat=0
split_feature=2 2 2 2 2
split_gain=0.136614 0.133086 0.0893251 0.0304425 0.0184655
threshold=0.59700945019721996 -1.0000000180025095e-35 7.1385040283203134 4.4156987667083749 -4.3133802413940421
decision_type=2 2 2 2 2
left_child=1 4 3 -2 -1
right_child=2 -3 -4 -5 -6
leaf_value=-4.9950761845796982e-06 -2.2501179972001783e-05 2.5739669188209127e-05 -1.9486968930687928e-06 -5.3663137465855577e-05 8.6488573776331006e-06
leaf_weight=43812 7099 25145 15226 6402 12720
leaf_count=43812 7099 25145 15226 6402 12720
internal_value=0 6.59182e-06 -1.8762e-05 -3.75008e-05 -1.87202e-06
internal_weight=110404 81677 28727 13501 56532
internal_count=110404 81677 28727 13501 56532
is_linear=0
shrinkage=0.01


Tree=10
num_leaves=6
num_cat=0
split_feature=2 2 2 2 1
split_gain=0.133922 0.121276 0.0976928 0.0222332 0.0193036
threshold=1.2727960944175722 -1.0000000180025095e-35 7.1385040283203134 5.9620046615600595 -0.34844964742660517
decision_type=2 2 2 2 2
left_child=1 -1 3 -2 -3
right_child=2 4 -4 -5 -6
leaf_value=-1.8527710901795232e-06 -3.0602230810821461e-05 9.0808168921692525e-07 -1.9292098389987116e-06 -6.1538318157054893e-05 2.7407752841107414e-05
leaf_weight=56532 8702 3392 15226 3654 22898
leaf_count=56532 8702 3392 15226 3654 22898
internal_value=0 6.3501e-06 -1.90906e-05 -3.99949e-05 2.41029e-05
internal_weight=110404 82822 27582 12356 26290
internal_count=110404 82822 27582 12356 26290
is_linear=0
shrinkage=0.01


Tree=11
num_leaves=6
num_cat=0
split_feature=2 2 2 2 2
split_gain=0.131423 0.127968 0.085915 0.0293019 0.018098
threshold=0.59700945019721996 -1.0000000180025095e-35 7.1385040283203134 4.4156987667083749 -4.3133802413940421
decision_type=2 2 2 2 2
left_child=1 4 3 -2 -1
right_child=2 -3 -4 -5 -6
leaf_value=-4.9265980501695132e-06 -2.2051522901575378e-05 2.5240501647714158e-05 -1.9099181685801311e-06 -5.2643960875643027e-05 8.5808983788316255e-06
leaf_weight=43812 7099 25145 15226 6402 12720
leaf_count=43812 7099 25145 15226 6402 12720
internal_value=0 6.46429e-06 -1.84032e-05 -3.67811e-05 -1.83424e-06
internal_weight=110404 81677 28727 13501 56532
internal_count=110404 81677 28727 13501 56532
is_linear=0
shrinkage=0.01


Tree=12
num_leaves=6
num_cat=0
split_feature=2 2 2 2 2
split_gain=0.12883 0.12542 0.0842053 0.028697 0.017739
threshold=0.59700945019721996 -1.0000000180025095e-35 7.1385040283203134 4.4156987667083749 -4.3133802413940421
decision_type=2 2 2 2 2
left_child=1 4 3 -2 -1
right_child=2 -3 -4 -5 -6
leaf_value=-4.8773323371972627e-06 -2.1831016885389115e-05 2.4988098944402271e-05 -1.8908190276817627e-06 -5.211754579293998e-05 8.4950919091091762e-06
leaf_weight=43812 7099 25145 15226 6402 12720
leaf_count=43812 7099 25145 15226 6402 12720
internal_value=0 6.39965e-06 -1.82212e-05 -3.64155e-05 -1.81537e-06
internal_weight=110404 81677 28727 13501 56532
internal_count=110404 81677 28727 13501 56532
is_linear=0
shrinkage=0.01


Tree=13
num_leaves=6
num_cat=0
split_feature=2 2 2 2 1
split_gain=0.126327 0.114314 0.0921519 0.0243722 0.0188444
threshold=1.2727960944175722 -1.0000000180025095e-35 7.0456371307373056 6.1319255828857431 -0.34844964742660517
decision_type=2 2 2 2 2
left_child=1 -1 3 -2 -3
right_child=2 4 -4 -5 -6
leaf_value=-1.7966853742839445e-06 -3.0493300836594759e-05 4.8747899076650596e-07 -2.1444925839250013e-06 -6.5017322219318845e-05 2.6665019234241773e-05
leaf_weight=56532 9160 3392 15454 2968 22898
leaf_count=56532 9160 3392 15454 2968 22898
internal_value=0 6.16581e-06 -1.85431e-05 -3.91909e-05 2.34017e-05
internal_weight=110404 82822 27582 12128 26290
internal_count=110404 82822 27582 12128 26290
is_linear=0
shrinkage=0.01


Tree=14
num_leaves=6
num_cat=0
split_feature=2 2 2 2 2
split_gain=0.123935 0.120597 0.0810182 0.0276617 0.017386
threshold=0.59700945019721996 -1.0000000180025095e-35 7.1385040283203134 4.4156987667083749 -4.3133802413940421
decision_type=2 2 2 2 2
left_child=1 4 3 -2 -1
right_child=2 -3 -4 -5 -6
leaf_value=-4.8105930285872097e-06 -2.1387925090788936e-05 2.4503483872472511e-05 -1.8504663911239576e-06 -5.1141524700945097e-05 8.4281083648739924e-06
leaf_weight=43812 7099 25145 15226 6402 12720
leaf_count=43812 7099 25145 15226 6402 12720
internal_value=0 6.27582e-06 -1.78728e-05 -3.57197e-05 -1.77872e-06
internal_weight=110404 81677 28727 13501 56532
internal_count=110404 81677 28727 13501 56532
is_linear=0
shrinkage=0.01


Tree=15
num_leaves=6
num_cat=0
split_feature=2 2 2 2 2
split_gain=0.12149 0.118196 0.079406 0.02709 0.0170411
threshold=0.59700945019721996 -1.0000000180025095e-35 7.1385040283203134 4.4156987667083749 -4.3133802413940421
decision_type=2 2 2 2 2
left_child=1 4 3 -2 -1
right_child=2 -3 -4 -5 -6
leaf_value=-4.7624875650690521e-06 -2.1174055026534376e-05 2.425845040391307e-05 -1.8319619155385213e-06 -5.0630133177003376e-05 8.3438301526955815e-06
leaf_weight=43812 7099 25145 15226 6402 12720
leaf_count=43812 7099 25145 15226 6402 12720
internal_value=0 6.21307e-06 -1.76962e-05 -3.53648e-05 -1.7604e-06
internal_weight=110404 81677 28727 13501 56532
internal_count=110404 81677 28727 13501 56532
is_linear=0
shrinkage=0.01


Tree=16
num_leaves=6
num_cat=0
split_feature=2 2 2 2 1
split_gain=0.119166 0.107752 0.087003 0.0233215 0.0183976
threshold=1.2727960944175722 -1.0000000180025095e-35 7.0456371307373056 6.1319255828857431 -0.34844964742660517
decision_type=2 2 2 2 2
left_child=1 -1 3 -2 -3
right_child=2 4 -4 -5 -6
leaf_value=-1.7422658895059758e-06 -2.9555544881022105e-05 8.3059029520413021e-08 -2.0717528831378132e-06 -6.3349601451395408e-05 2.5943383250592217e-05
leaf_weight=56532 9160 3392 15454 2968 22898
leaf_count=56532 9160 3392 15454 2968 22898
internal_value=0 5.98688e-06 -1.80114e-05 -3.80744e-05 2.2721e-05
internal_weight=110404 82822 27582 12128 26290
internal_count=110404 82822 27582 12128 26290
is_linear=0
shrinkage=0.01


Tree=17
num_leaves=6
num_cat=0
split_feature=0 1 1 1 1
split_gain=0.0356962 0.0239008 0.0474689 0.00567106 0.00545639
threshold=1.0000000180025095e-35 -0.21417796611785886 1.0000000180025095e-35 -0.8824939727783202 0.025812538340687755
decision_type=2 2 2 2 2
left_child=4 3 -3 -2 -1
right_child=1 2 -4 -5 -6
leaf_value=-2.2561440810938322e-06 -1.897786424993484e-05 2.283827927307068e-05 -6.4940581686368912e-07 -1.4475994681406931e-06 -8.3034040648594017e-06
leaf_weight=38866 2512 17017 16919 8763 26327
leaf_count=38866 2512 17017 16919 8763 26327
internal_value=0 6.81897e-06 1.104e-05 -5.6197e-06 -4.74426e-06
internal_weight=110404 45211 33936 11275 65193
internal_count=110404 45211 33936 11275 65193
is_linear=0
shrinkage=0.01


Tree=18
num_leaves=6
num_cat=0
split_feature=2 2 2 2 2
split_gain=0.116604 0.112642 0.0763136 0.0261145 0.0167059
threshold=0.59700945019721996 -1.0000000180025095e-35 7.1385040283203134 4.4156987667083749 -4.3133802413940421
decision_type=2 2 2 2 2
left_child=1 4 3 -2 -1
right_child=2 -3 -4 -5 -6
leaf_value=-4.6709772394549871e-06 -2.0714917458493852e-05 2.3701141296137177e-05 -1.7824810013993458e-06 -4.9653136080377727e-05 8.3064514335232939e-06
leaf_weight=43812 7099 25145 15226 6402 12720
leaf_count=43812 7099 25145 15226 6402 12720
internal_value=0 6.08476e-06 -1.73388e-05 -3.466e-05 -1.69789e-06
internal_weight=110404 81677 28727 13501 56532
internal_count=110404 81677 28727 13501 56532
is_linear=0
shrinkage=0.01


Tree=19
num_leaves=6
num_cat=0
split_feature=2 2 2 2 2
split_gain=0.114339 0.10335 0.083605 0.043837 0.0225817
threshold=1.2727960944175722 -4.3133802413940421 7.0456371307373056 -9.0238108634948713 6.1319255828857431
decision_type=2 2 2 2 2
left_child=1 3 4 -1 -2
right_child=2 -3 -4 -5 -6
leaf_value=1.2932549455852328e-06 -2.8921480399787618e-05 1.7716564660965898e-05 -2.015649558479251e-06 -2.130120405502924e-05 -6.2193002779306183e-05
leaf_weight=32205 9160 39010 15454 11607 2968
leaf_count=32205 9160 39010 15454 11607 2968
internal_value=0 5.86229e-06 -1.76449e-05 -4.62427e-06 -3.73125e-05
internal_weight=110404 82822 27582 43812 12128
internal_count=110404 82822 27582 43812 12128
is_linear=0
shrinkage=0.01


Tree=20
num_leaves=6
num_cat=0
split_feature=2 2 2 2 2
split_gain=0.112173 0.108881 0.0735742 0.0316998 0.0185823
threshold=0.59700945019721996 -1.0000000180025095e-35 7.624183416366578 8.6868214607238787 4.4156987667083749
decision_type=2 2 2 2 2
left_child=1 -1 4 -4 -2
right_child=2 -3 3 -5 -6
leaf_value=-1.6838771051312132e-06 -2.0293794024896916e-05 2.3286970558702597e-05 3.8183454893305156e-05 -6.4703658828352249e-06 -4.3994083547111618e-05
leaf_weight=56532 7099 25145 1824 12262 7542
leaf_count=56532 7099 25145 1824 12262 7542
internal_value=0 5.96695e-06 -1.70072e-05 -4.74467e-07 -3.2708e-05
internal_weight=110404 81677 28727 14086 14641
internal_count=110404 81677 28727 14086 14641
is_linear=0
shrinkage=0.01


Tree=21
num_leaves=6
num_cat=0
split_feature=2 2 2 2 1
split_gain=0.109948 0.106718 0.0721638 0.0247382 0.0164095
threshold=0.59700945019721996 -1.0000000180025095e-35 7.1385040283203134 4.4156987667083749 -0.32325121760368342
decision_type=2 2 2 2 2
left_child=1 -1 3 -2 -3
right_child=2 4 -4 -5 -6
leaf_value=-1.6670386822709548e-06 -2.0090864539490862e-05 8.7264052867307628e-07 -1.7051959650670069e-06 -4.828284674578694e-05 2.614146048269231e-05
leaf_weight=56532 7099 3191 15226 6402 21954
leaf_count=56532 7099 3191 15226 6402 21954
internal_value=0 5.90691e-06 -1.68382e-05 -3.36821e-05 2.30541e-05
internal_weight=110404 81677 28727 13501 25145
internal_count=110404 81677 28727 13501 25145
is_linear=0
shrinkage=0.01


Tree=22
num_leaves=6
num_cat=0
split_feature=2 2 2 2 2
split_gain=0.107846 0.0984859 0.0791427 0.0429654 0.021655
threshold=1.2727960944175722 -4.3133802413940421 7.0456371307373056 -9.0238108634948713 6.1319255828857431
decision_type=2 2 2 2 2
left_child=1 3 4 -1 -2
right_child=2 -3 -4 -5 -6
leaf_value=1.3138311006192789e-06 -2.804682487079441e-05 1.7264246352857475e-05 -1.9263551364429887e-06 -2.1054689360301297e-05 -6.0648459218126788e-05
leaf_weight=32205 9160 39010 15454 11607 2968
leaf_count=32205 9160 39010 15454 11607 2968
internal_value=0 5.6918e-06 -1.71382e-05 -4.54383e-06 -3.62739e-05
internal_weight=110404 82822 27582 43812 12128
internal_count=110404 82822 27582 43812 12128
is_linear=0
shrinkage=0.01


Tree=23
num_leaves=6
num_cat=0
split_feature=2 2 2 2 2
split_gain=0.105771 0.103165 0.0695937 0.0310672 0.0176066
threshold=0.59700945019721996 -1.0000000180025095e-35 7.624183416366578 8.6868214607238787 4.4156987667083749
decision_type=2 2 2 2 2
left_child=1 -1 4 -4 -2
right_child=2 -3 3 -5 -6
leaf_value=-1.6534690148006104e-06 -1.9682587269489534e-05 2.2652116511899584e-05 3.7837992880106071e-05 -6.3693481097321245e-06 -4.2780379125504706e-05
leaf_weight=56532 7099 25145 1824 12262 7542
leaf_count=56532 7099 25145 1824 12262 7542
internal_value=0 5.79255e-06 -1.65163e-05 -4.31271e-07 -3.17865e-05
internal_weight=110404 81677 28727 14086 14641
internal_count=110404 81677 28727 14086 14641
is_linear=0
shrinkage=0.01


Tree=24
num_leaves=6
num_cat=0
split_feature=2 2 2 2 2
split_gain=0.103695 0.095176 0.0763329 0.0421121 0.0210048
threshold=1.2727960944175722 -4.3133802413940421 7.0456371307373056 -9.0238108634948713 6.1319255828857431
decision_type=2 2 2 2 2
left_child=1 3 4 -1 -2
right_child=2 -3 -4 -5 -6
leaf_value=1.3172280256528978e-06 -2.7488706563333346e-05 1.695676416332357e-05 -1.8633450818905852e-06 -2.0827613694466297e-05 -5.961427509178792e-05
leaf_weight=32205 9160 39010 15454 11607 2968
leaf_count=32205 9160 39010 15454 11607 2968
internal_value=0 5.58011e-06 -1.68062e-05 -4.48118e-06 -3.55992e-05
internal_weight=110404 82822 27582 43812 12128
internal_count=110404 82822 27582 43812 12128
is_linear=0
shrinkage=0.01


Tree=25
num_leaves=6
num_cat=0
split_feature=0 1 1 1 1
split_gain=0.0320981 0.0218425 0.042991 0.00553519 0.00513271
threshold=1.0000000180025095e-35 -0.21417796611785886 1.0000000180025095e-35 -0.8824939727783202 0.025812538340687755
decision_type=2 2 2 2 2
left_child=4 3 -3 -2 -1
right_child=1 2 -4 -5 -6
leaf_value=-2.0881938451513993e-06 -1.8611951289182039e-05 2.172679997793779e-05 -6.1763630473212647e-07 -1.298800897432139e-06 -7.9546162493427714e-06
leaf_weight=38866 2512 17017 16919 8763 26327
leaf_count=38866 2512 17017 16919 8763 26327
internal_value=0 6.46168e-06 1.04985e-05 -5.42252e-06 -4.50328e-06
internal_weight=110404 45211 33936 11275 65193
internal_count=110404 45211 33936 11275 65193
is_linear=0
shrinkage=0.01


Tree=26
num_leaves=6
num_cat=0
split_feature=0 1 1 1 1
split_gain=0.0314505 0.0214258 0.0521463 0.00665022 0.00502789
threshold=1.0000000180025095e-35 -0.025551197119057175 1.0000000180025095e-35 -0.8824939727783202 0.025812538340687755
decision_type=2 2 2 2 2
left_child=4 3 -3 -2 -1
right_child=1 2 -4 -5 -6
leaf_value=-2.0673122895709846e-06 -1.8425853368853051e-05 2.5235710883125293e-05 -6.1145939626431322e-07 -2.0005000591415397e-07 -7.8750705471468528e-06
leaf_weight=38866 2512 14150 16919 11630 26327
leaf_count=38866 2512 14150 16919 11630 26327
internal_value=0 6.39507e-06 1.10639e-05 -3.6499e-06 -4.45871e-06
internal_weight=110404 45211 31069 14142 65193
internal_count=110404 45211 31069 14142 65193
is_linear=0
shrinkage=0.01


Tree=27
num_leaves=6
num_cat=0
split_feature=0 1 1 1 1
split_gain=0.0308159 0.0210283 0.0413303 0.00530306 0.00492519
threshold=1.0000000180025095e-35 -0.21417796611785886 1.0000000180025095e-35 -0.8824939727783202 0.025812538340687755
decision_type=2 2 2 2 2
left_child=4 3 -3 -2 -1
right_child=1 2 -4 -5 -6
leaf_value=-2.0466396402885086e-06 -1.824161702990968e-05 2.1300033483483929e-05 -6.05345523094547e-07 -1.2838129054902131e-06 -7.7963209509190801e-06
leaf_weight=38866 2512 17017 16919 8763 26327
leaf_count=38866 2512 17017 16919 8763 26327
internal_value=0 6.32913e-06 1.02907e-05 -5.32836e-06 -4.41459e-06
internal_weight=110404 45211 33936 11275 65193
internal_count=110404 45211 33936 11275 65193
is_linear=0
shrinkage=0.01


Tree=28
num_leaves=6
num_cat=0
split_feature=0 1 1 1 1
split_gain=0.030194 0.020746 0.0502495 0.00634868 0.00482456
threshold=1.0000000180025095e-35 -0.025551197119057175 1.0000000180025095e-35 -0.8824939727783202 0.025812538340687755
decision_type=2 2 2 2 2
left_child=4 3 -3 -2 -1
right_child=1 2 -4 -5 -6
leaf_value=-2.0261728317320643e-06 -1.8059222835747285e-05 2.4770364061446718e-05 -5.9929211589093859e-07 -2.4088344292143263e-07 -7.7183586558504305e-06
leaf_weight=38866 2512 14150 16919 11630 26327
leaf_count=38866 2512 14150 16919 11630 26327
internal_value=0 6.26385e-06 1.08586e-05 -3.61835e-06 -4.3709e-06
internal_weight=110404 45211 31069 14142 65193
internal_count=110404 45211 31069 14142 65193
is_linear=0
shrinkage=0.01


Tree=29
num_leaves=6
num_cat=0
split_feature=2 2 2 2 2
split_gain=0.100673 0.0959426 0.0667743 0.0305361 0.0170247
threshold=0.59700945019721996 -1.0000000180025095e-35 7.624183416366578 8.6868214607238787 4.4156987667083749
decision_type=2 2 2 2 2
left_child=1 -1 4 -4 -2
right_child=2 -3 3 -5 -6
leaf_value=-1.5324420456800676e-06 -1.9163718146122687e-05 2.1904998640063918e-05 3.7582915169250691e-05 -6.2476639763575624e-06 -4.1888704674007212e-05
leaf_weight=56532 7099 25145 1824 12262 7542
leaf_count=56532 7099 25145 1824 12262 7542
internal_value=0 5.64631e-06 -1.61183e-05 -3.58378e-07 -3.10755e-05
internal_weight=110404 81677 28727 14086 14641
internal_count=110404 81677 28727 14086 14641
is_linear=0
shrinkage=0.01


Tree=30
num_leaves=6
num_cat=0
split_feature=2 2 2 2 2
split_gain=0.098701 0.0894813 0.0733306 0.0411705 0.0203991
threshold=1.2727960944175722 -4.3133802413940421 7.0456371307373056 -9.0238108634948713 6.1319255828857431
decision_type=2 2 2 2 2
left_child=1 3 4 -1 -2
right_child=2 -3 -4 -5 -6
leaf_value=1.4180200096097759e-06 -2.6822016144660721e-05 1.6470643407392861e-05 -1.7516834820174905e-06 -2.0478888671034038e-05 -5.8491296110699497e-05
leaf_weight=32205 9160 39010 15454 11607 2968
leaf_count=32205 9160 39010 15454 11607 2968
internal_value=0 5.43921e-06 -1.64014e-05 -4.3147e-06 -3.48208e-05
internal_weight=110404 82822 27582 43812 12128
internal_count=110404 82822 27582 43812 12128
is_linear=0
shrinkage=0.01


Tree=31
num_leaves=6
num_cat=0
split_feature=2 2 2 2 1
split_gain=0.0968371 0.0927329 0.064354 0.0223208 0.0153552
threshold=0.59700945019721996 -1.0000000180025095e-35 7.1385040283203134 4.4156987667083749 -0.32325121760368342
decision_type=2 2 2 2 2
left_child=1 -1 3 -2 -3
right_child=2 4 -4 -5 -6
leaf_value=-1.5202089774281518e-06 -1.8773704507238312e-05 6.2506797153925616e-08 -1.5076799943151285e-06 -4.559651132489083e-05 2.4503570337403135e-05
leaf_weight=56532 7099 3191 15226 6402 21954
leaf_count=56532 7099 3191 15226 6402 21954
internal_value=0 5.53663e-06 -1.58093e-05 -3.17157e-05 2.15212e-05
internal_weight=110404 81677 28727 13501 25145
internal_count=110404 81677 28727 13501 25145
is_linear=0
shrinkage=0.01


Tree=32
num_leaves=6
num_cat=0
split_feature=0 1 1 1 1
split_gain=0.0284712 0.0195727 0.0474429 0.00620243 0.00465005
threshold=1.0000000180025095e-35 -0.025551197119057175 1.0000000180025095e-35 -0.8824939727783202 0.025812538340687755
decision_type=2 2 2 2 2
left_child=4 3 -3 -2 -1
right_child=1 2 -4 -5 -6
leaf_value=-1.9436407381309065e-06 -1.7783708237354782e-05 2.4061536485213566e-05 -5.8481250326194677e-07 -1.7371970517495612e-07 -7.5330661769811657e-06
leaf_weight=38866 2512 14150 16919 11630 26327
leaf_count=38866 2512 14150 16919 11630 26327
internal_value=0 6.08e-06 1.05436e-05 -3.51417e-06 -4.24687e-06
internal_weight=110404 45211 31069 14142 65193
internal_count=110404 45211 31069 14142 65193
is_linear=0
shrinkage=0.01


Tree=33
num_leaves=6
num_cat=0
split_feature=2 2 2 2 2
split_gain=0.0946531 0.0899696 0.0630964 0.0299456 0.0161346
threshold=0.59700945019721996 -1.0000000180025095e-35 7.624183416366578 8.6868214607238787 4.4156987667083749
decision_type=2 2 2 2 2
left_child=1 -1 4 -4 -2
right_child=2 -3 3 -5 -6
leaf_value=-1.4777529377429999e-06 -1.8555509434150339e-05 2.1217036985174821e-05 3.7266194641307736e-05 -6.1404062111512414e-06 -4.0704927399242872e-05
leaf_weight=56532 7099 25145 1824 12262 7542
leaf_count=56532 7099 25145 1824 12262 7542
internal_value=0 5.47236e-06 -1.56315e-05 -3.06027e-07 -3.01708e-05
internal_weight=110404 81677 28727 14086 14641
internal_count=110404 81677 28727 14086 14641
is_linear=0
shrinkage=0.01


Tree=34
num_leaves=6
num_cat=0
split_feature=0 1 1 1 1
split_gain=0.0275426 0.0190146 0.0371172 0.00495784 0.00452438
threshold=1.0000000180025095e-35 -0.21417796611785886 1.0000000180025095e-35 -0.8824939727783202 0.025812538340687755
decision_type=2 2 2 2 2
left_child=4 3 -3 -2 -1
right_child=1 2 -4 -5 -6
leaf_value=-1.9054249452034361e-06 -1.7583903687484667e-05 2.0180713948094597e-05 -5.6949315281032481e-07 -1.1771578709455884e-06 -7.4203987491383541e-06
leaf_weight=38866 2512 17017 16919 8763 26327
leaf_count=38866 2512 17017 16919 8763 26327
internal_value=0 5.97846e-06 9.74726e-06 -5.09892e-06 -4.17859e-06
internal_weight=110404 45211 33936 11275 65193
internal_count=110404 45211 33936 11275 65193
is_linear=0
shrinkage=0.01


Tree=35
num_leaves=6
num_cat=0
split_feature=2 2 2 2 2
split_gain=0.0926338 0.0841386 0.0692832 0.0403024 0.0195766
threshold=1.2727960944175722 -4.3133802413940421 7.0456371307373056 -9.0238108634948713 6.1319255828857431
decision_type=2 2 2 2 2
left_child=1 3 4 -1 -2
right_child=2 -3 -4 -5 -6
leaf_value=1.4806985422422284e-06 -2.5951729803699985e-05 1.5963487197561821e-05 -1.6476044838899279e-06 -2.0184666222533387e-05 -5.6992141825130076e-05
leaf_weight=32205 9160 39010 15454 11607 2968
leaf_count=32205 9160 39010 15454 11607 2968
internal_value=0 5.26594e-06 -1.58927e-05 -4.19068e-06 -3.37966e-05
internal_weight=110404 82822 27582 43812 12128
internal_count=110404 82822 27582 43812 12128
is_linear=0
shrinkage=0.01


Tree=36
num_leaves=6
num_cat=0
split_feature=2 2 2 2 2
split_gain=0.0908752 0.0874918 0.0596346 0.0293712 0.0165441
threshold=0.46587525308132177 -1.0000000180025095e-35 7.624183416366578 8.6868214607238787 4.4156987667083749
decision_type=2 2 2 2 2
left_child=1 -1 4 -4 -2
right_child=2 -3 3 -5 -6
leaf_value=-1.4421038619764459e-06 -1.7752021185130631e-05 2.1008536949565319e-05 3.6933374030729573e-05 -6.055906653466363e-06 -3.9936674490721574e-05
leaf_weight=56532 7328 24916 1824 12262 7542
leaf_count=56532 7328 24916 1824 12262 7542
internal_value=0 5.38906e-06 -1.52363e-05 -2.75572e-07 -2.92063e-05
internal_weight=110404 81448 28956 14086 14870
internal_count=110404 81448 28956 14086 14870
is_linear=0
shrinkage=0.01


Tree=37
num_leaves=6
num_cat=0
split_feature=2 2 2 2 2
split_gain=0.08908 0.0813292 0.0668348 0.0395021 0.0189864
threshold=1.2727960944175722 -4.3133802413940421 7.0456371307373056 -9.0238108634948713 6.1319255828857431
decision_type=2 2 2 2 2
left_child=1 3 4 -1 -2
right_child=2 -3 -4 -5 -6
leaf_value=1.4803123617932405e-06 -2.5437063158326304e-05 1.5680625544715862e-05 -1.5913184460369812e-06 -1.9968404112373352e-05 -5.6022952442154421e-05
leaf_weight=32205 9160 39010 15454 11607 2968
leaf_count=32205 9160 39010 15454 11607 2968
internal_value=0 5.16287e-06 -1.5586e-05 -4.13366e-06 -3.31707e-05
internal_weight=110404 82822 27582 43812 12128
internal_count=110404 82822 27582 43812 12128
is_linear=0
shrinkage=0.01


Tree=38
num_leaves=6
num_cat=0
split_feature=0 1 1 1 1
split_gain=0.0260524 0.0181623 0.043647 0.00591236 0.00435625
threshold=1.0000000180025095e-35 -0.025551197119057175 1.0000000180025095e-35 -0.8824939727783202 0.025812538340687755
decision_type=2 2 2 2 2
left_child=4 3 -3 -2 -1
right_child=1 2 -4 -5 -6
leaf_value=-1.8344187590079527e-06 -1.7356595939068043e-05 2.3079081402328949e-05 -5.5387098204503376e-07 -1.5740813040060992e-07 -7.2474398388649555e-06
leaf_weight=38866 2512 14150 16919 11630 26327
leaf_count=38866 2512 14150 16919 11630 26327
internal_value=0 5.81202e-06 1.0113e-05 -3.42488e-06 -4.06641e-06
internal_weight=110404 45211 31069 14142 65193
internal_count=110404 45211 31069 14142 65193
is_linear=0
shrinkage=0.01


Tree=39
num_leaves=6
num_cat=0
split_feature=2 2 2 2 2
split_gain=0.0871766 0.0837211 0.0574167 0.0386956 0.0288036
threshold=0.46587525308132177 -4.3133802413940421 7.624183416366578 -9.0238108634948713 8.6868214607238787
decision_type=2 2 2 2 2
left_child=1 3 -2 -1 -4
right_child=2 -3 4 -5 -6
leaf_value=1.4896993127945372e-06 -2.8632606044078406e-05 1.6231135820489374e-05 3.6605412580799927e-05 -1.9738645660239205e-05 -5.9676979681164618e-06
leaf_weight=32205 14870 37636 1824 11607 12262
leaf_count=32205 14870 37636 1824 11607 12262
internal_value=0 5.27628e-06 -1.4925e-05 -4.06589e-06 -2.41259e-07
internal_weight=110404 81448 28956 43812 14086
internal_count=110404 81448 28956 43812 14086
is_linear=0
shrinkage=0.01


Tree=40
num_leaves=6
num_cat=0
split_feature=2 2 2 2 2
split_gain=0.08548 0.0776171 0.0643678 0.0379279 0.0186118
threshold=1.2727960944175722 -4.3133802413940421 7.0456371307373056 -9.0238108634948713 6.1319255828857431
decision_type=2 2 2 2 2
left_child=1 3 4 -1 -2
right_child=2 -3 -4 -5 -6
leaf_value=1.4748026732886188e-06 -2.4866871857186224e-05 1.5331296020171045e-05 -1.5316303058060541e-06 -1.9541264172341051e-05 -5.514981646529006e-05
leaf_weight=32205 9160 39010 15454 11607 2968
leaf_count=32205 9160 39010 15454 11607 2968
internal_value=0 5.05605e-06 -1.52692e-05 -4.02455e-06 -3.25263e-05
internal_weight=110404 82822 27582 43812 12128
internal_count=110404 82822 27582 43812 12128
is_linear=0
shrinkage=0.01


Tree=41
num_leaves=6
num_cat=0
split_feature=2 2 2 2 2
split_gain=0.0838691 0.0813722 0.0553298 0.0282487 0.0157537
threshold=0.46587525308132177 -1.0000000180025095e-35 7.624183416366578 8.9038767814636248 4.4156987667083749
decision_type=2 2 2 2 2
left_child=1 -1 4 -4 -2
right_child=2 -3 3 -5 -6
leaf_value=-1.4115324020972764e-06 -1.6908334996040681e-05 2.0238420692478282e-05 3.3845152168795893e-05 -6.2803006233191545e-06 -3.8566945140954727e-05
leaf_weight=56532 7328 24916 2052 12034 7542
leaf_count=56532 7328 24916 2052 12034 7542
internal_value=0 5.17469e-06 -1.46397e-05 -2.21394e-07 -2.80958e-05
internal_weight=110404 81448 28956 14086 14870
internal_count=110404 81448 28956 14086 14870
is_linear=0
shrinkage=0.01


Tree=42
num_leaves=6
num_cat=0
split_feature=2 2 2 2 1
split_gain=0.0822057 0.079756 0.0543916 0.0228403 0.0146085
threshold=0.46587525308132177 -1.0000000180025095e-35 7.0456371307373056 5.9620046615600595 -0.32325121760368342
decision_type=2 2 2 2 2
left_child=1 -1 3 -2 -3
right_child=2 4 -4 -5 -6
leaf_value=-1.3974175503017668e-06 -2.1078200138198888e-05 0 -1.4782105942283624e-06 -5.2087510910277773e-05 2.2936310504654698e-05
leaf_weight=56532 10076 3126 15454 3426 21790
leaf_count=56532 10076 3126 15454 3426 21790
internal_value=0 5.12257e-06 -1.44943e-05 -2.91697e-05 2.0036e-05
internal_weight=110404 81448 28956 13502 24916
internal_count=110404 81448 28956 13502 24916
is_linear=0
shrinkage=0.01


Tree=43
num_leaves=6
num_cat=0
split_feature=2 2 2 2 2
split_gain=0.0806673 0.0739993 0.0609351 0.0371739 0.017676
threshold=1.2727960944175722 -4.3133802413940421 7.0456371307373056 -9.0238108634948713 6.1319255828857431
decision_type=2 2 2 2 2
left_child=1 3 4 -1 -2
right_child=2 -3 -4 -5 -6
leaf_value=1.4881440953816514e-06 -2.414705159317345e-05 1.4943144275551129e-05 -1.4634282550623579e-06 -1.9317767455673561e-05 -5.3691921377362879e-05
leaf_weight=32205 9160 39010 15454 11607 2968
leaf_count=32205 9160 39010 15454 11607 2968
internal_value=0 4.90974e-06 -1.4835e-05 -3.95553e-06 -3.16259e-05
internal_weight=110404 82822 27582 43812 12128
internal_count=110404 82822 27582 43812 12128
is_linear=0
shrinkage=0.01


Tree=44
num_leaves=6
num_cat=0
split_feature=2 2 2 2 2
split_gain=0.0791006 0.0770924 0.0523601 0.0277031 0.015052
threshold=0.46587525308132177 -1.0000000180025095e-35 7.624183416366578 8.6868214607238787 4.4156987667083749
decision_type=2 2 2 2 2
left_child=1 -1 4 -4 -2
right_child=2 -3 3 -5 -6
leaf_value=-1.3858807439398312e-06 -1.6360315690631089e-05 1.9686025481775108e-05 3.5945748391362563e-05 -5.8079494270805382e-06 -3.7548629296456267e-05
leaf_weight=56532 7328 24916 1824 12262 7542
leaf_count=56532 7328 24916 1824 12262 7542
internal_value=0 5.0235e-06 -1.42193e-05 -1.87628e-07 -2.73092e-05
internal_weight=110404 81448 28956 14086 14870
internal_count=110404 81448 28956 14086 14870
is_linear=0
shrinkage=0.01


Tree=45
num_leaves=6
num_cat=0
split_feature=2 2 2 2 2
split_gain=0.0775734 0.0715265 0.0588386 0.0364357 0.0199629
threshold=1.2727960944175722 -4.3133802413940421 6.9724597930908212 -9.0238108634948713 6.1319255828857431
decision_type=2 2 2 2 2
left_child=1 3 4 -1 -2
right_child=2 -3 -4 -5 -6
leaf_value=1.4871215265006605e-06 -2.3667834126430303e-05 1.4678259577806438e-05 -1.6232151123961634e-06 -1.9110736583354073e-05 -5.5844207208686918e-05
leaf_weight=32205 9160 39010 15682 11607 2740
leaf_count=32205 9160 39010 15682 11607 2740
internal_value=0 4.81359e-06 -1.45488e-05 -3.90144e-06 -3.13298e-05
internal_weight=110404 82822 27582 43812 11900
internal_count=110404 82822 27582 43812 11900
is_linear=0
shrinkage=0.01


Tree=46
num_leaves=6
num_cat=0
split_feature=0 1 1 1 1
split_gain=0.0234656 0.0166558 0.0320084 0.00472658 0.00410763
threshold=1.0000000180025095e-35 -0.21417796611785886 1.0000000180025095e-35 -0.8824939727783202 0.025812538340687755
decision_type=2 2 2 2 2
left_child=4 3 -3 -2 -1
right_child=1 2 -4 -5 -6
leaf_value=-1.6940989039363705e-06 -1.7028463966887821e-05 1.873102931358557e-05 -5.2652496495186279e-07 -1.0109863050511817e-06 -6.9513879415322995e-06
leaf_weight=38866 2512 17017 16919 8763 26327
leaf_count=38866 2512 17017 16919 8763 26327
internal_value=0 5.51196e-06 9.04174e-06 -4.84601e-06 -3.8632e-06
internal_weight=110404 45211 33936 11275 65193
internal_count=110404 45211 33936 11275 65193
is_linear=0
shrinkage=0.01


Tree=47
num_leaves=6
num_cat=0
split_feature=0 1 1 1 1
split_gain=0.0229911 0.0163317 0.0313768 0.00462966 0.0040236
threshold=1.0000000180025095e-35 -0.21417796611785886 1.0000000180025095e-35 -0.8824939727783202 0.025812538340687755
decision_type=2 2 2 2 2
left_child=4 3 -3 -2 -1
right_child=1 2 -4 -5 -6
leaf_value=-1.6771581288915085e-06 -1.6858199064516512e-05 1.8543721888067473e-05 -5.2125994389494595e-07 -1.0008768647785967e-06 -6.881874869477577e-06
leaf_weight=38866 2512 17017 16919 8763 26327
leaf_count=38866 2512 17017 16919 8763 26327
internal_value=0 5.45485e-06 8.95044e-06 -4.80021e-06 -3.82503e-06
internal_weight=110404 45211 33936 11275 65193
internal_count=110404 45211 33936 11275 65193
is_linear=0
shrinkage=0.01


Tree=48
num_leaves=6
num_cat=0
split_feature=2 2 2 2 2
split_gain=0.075743 0.0732348 0.0504169 0.0305214 0.0212514
threshold=0.46587525308132177 -3.5698500871658321 7.0456371307373056 -9.0238108634948713 5.9620046615600595
decision_type=2 2 2 2 2
left_child=1 3 4 -1 -2
right_child=2 -3 -4 -5 -6
leaf_value=1.5121423582559289e-06 -2.022440885128998e-05 1.5445125214419124e-05 -1.3782148033596275e-06 -1.6717903227358181e-05 -5.0170861370820444e-05
leaf_weight=32205 10076 36523 15454 12720 3426
leaf_count=32205 10076 36523 15454 12720 3426
internal_value=0 4.91292e-06 -1.39171e-05 -3.58279e-06 -2.80462e-05
internal_weight=110404 81448 28956 44925 13502
internal_count=110404 81448 28956 44925 13502
is_linear=0
shrinkage=0.01


Tree=49
num_leaves=6
num_cat=0
split_feature=2 2 2 2 2
split_gain=0.074295 0.0679594 0.0565215 0.035036 0.0191932
threshold=1.2727960944175722 -4.3133802413940421 6.9724597930908212 -9.0238108634948713 6.1319255828857431
decision_type=2 2 2 2 2
left_child=1 3 4 -1 -2
right_child=2 -3 -4 -5 -6
leaf_value=1.4970219340000698e-06 -2.3164666272064244e-05 1.4323865920875519e-05 -1.568406417223518e-06 -1.8700700638635533e-05 -5.473990871246221e-05
leaf_weight=32205 9160 39010 15682 11607 2740
leaf_count=32205 9160 39010 15682 11607 2740
internal_value=0 4.70798e-06 -1.42408e-05 -3.78553e-06 -3.06882e-05
internal_weight=110404 82822 27582 43812 11900
internal_count=110404 82822 27582 43812 11900
is_linear=0
shrinkage=0.01


Tree=50
num_leaves=6
num_cat=0
split_feature=2 2 2 2 2
split_gain=0.0728868 0.0711123 0.0486421 0.0272091 0.0141973
threshold=0.46587525308132177 -1.0000000180025095e-35 7.624183416366578 8.9038767814636248 4.4156987667083749
decision_type=2 2 2 2 2
left_child=1 -1 4 -4 -2
right_child=2 -3 3 -5 -6
leaf_value=-1.3355000515066659e-06 -1.5620102642715524e-05 1.8901045114485014e-05 3.3311603661283754e-05 -6.0724301137966463e-06 -3.62178100214354e-05
leaf_weight=56532 7328 24916 2052 12034 7542
leaf_count=56532 7328 24916 2052 12034 7542
internal_value=0 4.81834e-06 -1.36532e-05 -1.21539e-07 -2.62694e-05
internal_weight=110404 81448 28956 14086 14870
internal_count=110404 81448 28956 14086 14870
is_linear=0
shrinkage=0.01


Tree=51
num_leaves=6
num_cat=0
split_feature=2 2 2 2 2
split_gain=0.0714457 0.0656862 0.0545541 0.0343402 0.0186325
threshold=1.2727960944175722 -4.3133802413940421 6.9724597930908212 -9.0238108634948713 6.1319255828857431
decision_type=2 2 2 2 2
left_child=1 3 4 -1 -2
right_child=2 -3 -4 -5 -6
leaf_value=1.4954063100174571e-06 -2.2704742080270698e-05 1.4069762078252031e-05 -1.5128539345483928e-06 -1.8500343688292258e-05 -5.3830431161781921e-05
leaf_weight=32205 9160 39010 15682 11607 2740
leaf_count=32205 9160 39010 15682 11607 2740
internal_value=0 4.61574e-06 -1.39662e-05 -3.73363e-06 -3.01248e-05
internal_weight=110404 82822 27582 43812 11900
internal_count=110404 82822 27582 43812 11900
is_linear=0
shrinkage=0.01


Tree=52
num_leaves=6
num_cat=0
split_feature=2 2 2 2 1
split_gain=0.0701286 0.068741 0.0468962 0.0266821 0.0139711
threshold=0.46587525308132177 -1.0000000180025095e-35 7.624183416366578 8.6868214607238787 -0.32325121760368342
decision_type=2 2 2 2 2
left_child=1 -1 -2 -4 -3
right_child=2 4 3 -5 -6
leaf_value=-1.3243376361304305e-06 -2.5781098081097419e-05 -2.7093502357545927e-07 3.5357233207597893e-05 -5.6232465654448948e-06 2.1412101818529601e-05
leaf_weight=56532 14870 3126 1824 12262 21790
leaf_count=56532 14870 3126 1824 12262 21790
internal_value=0 4.72522e-06 -1.33934e-05 -1.0306e-07 1.85713e-05
internal_weight=110404 81448 28956 14086 24916
internal_count=110404 81448 28956 14086 24916
is_linear=0
shrinkage=0.01


Tree=53
num_leaves=6
num_cat=0
split_feature=2 2 2 2 2
split_gain=0.0687471 0.0635099 0.0526043 0.0336583 0.0182594
threshold=1.2727960944175722 -4.3133802413940421 6.9724597930908212 -9.0238108634948713 6.1319255828857431
decision_type=2 2 2 2 2
left_child=1 3 4 -1 -2
right_child=2 -3 -4 -5 -6
leaf_value=1.4936955119266103e-06 -2.2219899260078947e-05 1.3823079197733525e-05 -1.4686426891534048e-06 -1.8302102135153937e-05 -5.3034403428335674e-05
leaf_weight=32205 9160 39010 15682 11607 2740
leaf_count=32205 9160 39010 15682 11607 2740
internal_value=0 4.52667e-06 -1.37009e-05 -3.68237e-06 -2.95683e-05
internal_weight=110404 82822 27582 43812 11900
internal_count=110404 82822 27582 43812 11900
is_linear=0
shrinkage=0.01


Tree=54
num_leaves=6
num_cat=0
split_feature=0 1 1 1 1
split_gain=0.0209735 0.0151183 0.0288486 0.00452062 0.00384375
threshold=1.0000000180025095e-35 -0.21417796611785886 1.0000000180025095e-35 -0.8824939727783202 0.6349732279777528
decision_type=2 2 2 2 2
left_child=4 3 -3 -2 -1
right_child=1 2 -4 -5 -6
leaf_value=-2.6043225874724992e-06 -1.6563975228667479e-05 1.7769991261072308e-05 -5.0408657259587589e-07 -8.9799604479894399e-07 -9.8004793482147394e-06
leaf_weight=56074 2512 17017 16919 8763 9119
leaf_count=56074 2512 17017 16919 8763 9119
internal_value=-2.14491e-10 5.20634e-06 8.57101e-06 -4.6547e-06 -3.65696e-06
internal_weight=110404 45211 33936 11275 65193
internal_count=110404 45211 33936 11275 65193
is_linear=0
shrinkage=0.01


Tree=55
num_leaves=6
num_cat=0
split_feature=2 2 2 2 1
split_gain=0.0673025 0.0658472 0.0451567 0.0261904 0.0135501
threshold=0.46587525308132177 -1.0000000180025095e-35 7.624183416366578 8.9038767814636248 -0.32325121760368342
decision_type=2 2 2 2 2
left_child=1 -1 -2 -4 -3
right_child=2 4 3 -5 -6
leaf_value=-1.2926779289481135e-06 -2.5278298283805144e-05 -3.6796973524248772e-07 3.2721304735383372e-05 -5.9199723293872185e-06 2.0977204413835813e-05
leaf_weight=56532 14870 3126 2052 12034 21790
leaf_count=56532 14870 3126 2052 12034 21790
internal_value=-1.02832e-09 4.62712e-06 -1.31227e-05 -7.72942e-08 1.81788e-05
internal_weight=110404 81448 28956 14086 24916
internal_count=110404 81448 28956 14086 24916
is_linear=0
shrinkage=0.01


Tree=56
num_leaves=6
num_cat=0
split_feature=2 2 2 2 2
split_gain=0.0660006 0.061019 0.0506738 0.0329671 0.0178967
threshold=1.2727960944175722 -4.3133802413940421 6.9724597930908212 -9.0238108634948713 6.1319255828857431
decision_type=2 2 2 2 2
left_child=1 3 4 -1 -2
right_child=2 -3 -4 -5 -6
leaf_value=1.5099435306248758e-06 -2.1722180248145165e-05 1.3546048894477363e-05 -1.4170241572283616e-06 -1.8081449928417787e-05 -5.2229773924996955e-05
leaf_weight=32205 9160 39010 15682 11607 2740
leaf_count=32205 9160 39010 15682 11607 2740
internal_value=-1.2892e-09 4.43343e-06 -1.34263e-05 -3.61197e-06 -2.89999e-05
internal_weight=110404 82822 27582 43812 11900
internal_count=110404 82822 27582 43812 11900
is_linear=0
shrinkage=0.01


Tree=57
num_leaves=6
num_cat=0
split_feature=2 2 2 2 2
split_gain=0.0647458 0.063642 0.0435287 0.0256819 0.0133634
threshold=0.46587525308132177 -1.0000000180025095e-35 7.624183416366578 8.6868214607238787 4.4156987667083749
decision_type=2 2 2 2 2
left_child=1 -1 4 -4 -2
right_child=2 -3 3 -5 -6
leaf_value=-1.2817078788139641e-06 -1.4467152659391873e-05 1.7860381271426108e-05 3.4726494182964108e-05 -5.480192471756408e-06 -3.4453683709197558e-05
leaf_weight=56532 7328 24916 1824 12262 7542
leaf_count=56532 7328 24916 1824 12262 7542
internal_value=-1.55022e-09 4.53732e-06 -1.28721e-05 -6.0216e-08 -2.48065e-05
internal_weight=110404 81448 28956 14086 14870
internal_count=110404 81448 28956 14086 14870
is_linear=0
shrinkage=0.01


Tree=58
num_leaves=6
num_cat=0
split_feature=2 2 2 2 2
split_gain=0.0634694 0.0589784 0.0489122 0.032315 0.0173729
threshold=1.2727960944175722 -4.3133802413940421 6.9724597930908212 -8.8879747390747053 6.1319255828857431
decision_type=2 2 2 2 2
left_child=1 3 4 -1 -2
right_child=2 -3 -4 -5 -6
leaf_value=1.4599939761080977e-06 -2.1290348118167787e-05 1.3305789102863727e-05 -1.3653308636759246e-06 -1.8022442456977531e-05 -5.1363033679237644e-05
leaf_weight=32364 9160 39010 15682 11448 2740
leaf_count=32364 9160 39010 15682 11448 2740
internal_value=-1.8065e-09 4.34651e-06 -1.31674e-05 -3.56235e-06 -2.84679e-05
internal_weight=110404 82822 27582 43812 11900
internal_count=110404 82822 27582 43812 11900
is_linear=0
shrinkage=0.01


Tree=59
num_leaves=6
num_cat=0
split_feature=0 1 1 1 1
split_gain=0.01958 0.014402 0.0187599 0.00372864 0.00212201
threshold=1.0000000180025095e-35 -0.55955016613006581 1.0000000180025095e-35 0.6349732279777528 -0.033632295206189149
decision_type=2 2 2 2 2
left_child=3 -2 -3 4 -1
right_child=1 2 -4 -5 -6
leaf_value=-4.5934273752332439e-06 -9.1674975106288944e-06 1.3314034205750586e-05 -4.8837669373868696e-07 -9.585716456493251e-06 -5.6048705517184998e-07
leaf_weight=26206 6010 22282 16919 9119 29868
leaf_count=26206 6010 22282 16919 9119 29868
internal_value=-2.062e-09 5.02761e-06 7.28048e-06 -3.53614e-06 -2.49878e-06
internal_weight=110404 45211 39201 65193 56074
internal_count=110404 45211 39201 65193 56074
is_linear=0
shrinkage=0.01


Tree=60
num_leaves=6
num_cat=0
split_feature=0 1 1 1 1
split_gain=0.0191885 0.0141249 0.033027 0.00519696 0.00370676
threshold=1.0000000180025095e-35 -0.025551197119057175 1.0000000180025095e-35 -0.8824939727783202 0.025812538340687755
decision_type=2 2 2 2 2
left_child=4 3 -3 -2 -1
right_child=1 2 -4 -5 -6
leaf_value=-1.438651691991204e-06 -1.6211789368069676e-05 2.0052786092687956e-05 -4.8349347143256833e-07 -7.496332377300436e-08 -6.4333299629668355e-06
leaf_weight=38866 2512 14150 16919 11630 26327
leaf_count=38866 2512 14150 16919 11630 26327
internal_value=-2.85707e-09 4.97601e-06 8.77305e-06 -3.15371e-06 -3.5017e-06
internal_weight=110404 45211 31069 14142 65193
internal_count=110404 45211 31069 14142 65193
is_linear=0
shrinkage=0.01


Tree=61
num_leaves=6
num_cat=0
split_feature=0 1 1 1 1
split_gain=0.0187999 0.0138802 0.0180417 0.00363092 0.00748213
threshold=1.0000000180025095e-35 -0.55955016613006581 1.0000000180025095e-35 0.025812538340687755 -0.033632295206189149
decision_type=2 2 2 2 2
left_child=3 -2 -3 4 -1
right_child=1 2 -4 -5 -6
leaf_value=-4.5331074590736486e-06 -9.0076336119398457e-06 1.3053827997259681e-05 -4.7865852024921028e-07 -6.3689974958446539e-06 4.7739824661886877e-06
leaf_weight=26206 6010 22282 16919 26327 12660
leaf_count=26206 6010 22282 16919 26327 12660
internal_value=-3.64358e-09 4.92426e-06 7.13677e-06 -3.46714e-06 -1.42427e-06
internal_weight=110404 45211 39201 65193 38866
internal_count=110404 45211 39201 65193 38866
is_linear=0
shrinkage=0.01


Tree=62
num_leaves=6
num_cat=0
split_feature=2 2 2 2 2
split_gain=0.0618844 0.0600144 0.0418604 0.0316107 0.0184557
threshold=0.46587525308132177 -4.3133802413940421 7.0456371307373056 -9.0238108634948713 5.9620046615600595
decision_type=2 2 2 2 2
left_child=1 3 4 -1 -2
right_child=2 -3 -4 -5 -6
leaf_value=1.5455201795381085e-06 -1.8146108536281202e-05 1.3710616208560927e-05 -1.1446091211709026e-06 -1.7638468056712101e-05 -4.6099090151150386e-05
leaf_weight=32205 10076 37636 15454 11607 3426
leaf_count=32205 10076 37636 15454 11607 3426
internal_value=-3.87904e-09 4.43294e-06 -1.25874e-05 -3.46846e-06 -2.5462e-05
internal_weight=110404 81448 28956 43812 13502
internal_count=110404 81448 28956 43812 13502
is_linear=0
shrinkage=0.01


Tree=63
num_leaves=6
num_cat=0
split_feature=2 2 2 2 2
split_gain=0.0606846 0.0556416 0.0469282 0.030987 0.0167062
threshold=1.2727960944175722 -4.3133802413940421 6.9724597930908212 -8.8879747390747053 6.1319255828857431
decision_type=2 2 2 2 2
left_child=1 3 4 -1 -2
right_child=2 -3 -4 -5 -6
leaf_value=1.4834597113445799e-06 -2.0816517113238428e-05 1.2949625686811636e-05 -1.3140219206461196e-06 -1.7594108029701522e-05 -5.0329905372379862e-05
leaf_weight=32364 9160 39010 15682 11448 2740
leaf_count=32364 9160 39010 15682 11448 2740
internal_value=-4.11376e-09 4.24713e-06 -1.28782e-05 -3.43309e-06 -2.78652e-05
internal_weight=110404 82822 27582 43812 11900
internal_count=110404 82822 27582 43812 11900
is_linear=0
shrinkage=0.01


Tree=64
num_leaves=6
num_cat=0
split_feature=2 2 2 2 1
split_gain=0.0595539 0.0582555 0.0403781 0.0252408 0.0128807
threshold=0.46587525308132177 -1.0000000180025095e-35 7.624183416366578 8.9038767814636248 -0.32325121760368342
decision_type=2 2 2 2 2
left_child=1 -1 -2 -4 -3
right_child=2 4 3 -5 -6
leaf_value=-1.2175548755225688e-06 -2.3843121547149975e-05 -9.9358494917418559e-07 3.2195061822472962e-05 -5.7423377391385101e-06 1.9827308994136232e-05
leaf_weight=56532 14870 3126 2052 12034 21790
leaf_count=56532 14870 3126 2052 12034 21790
internal_value=-4.34649e-09 4.34761e-06 -1.23491e-05 -2.20709e-09 1.70947e-05
internal_weight=110404 81448 28956 14086 24916
internal_count=110404 81448 28956 14086 24916
is_linear=0
shrinkage=0.01


Tree=65
num_leaves=6
num_cat=0
split_feature=0 1 1 1 1
split_gain=0.0177593 0.0133211 0.0308746 0.0049751 0.00355632
threshold=1.0000000180025095e-35 -0.025551197119057175 1.0000000180025095e-35 -0.8824939727783202 0.6349732279777528
decision_type=2 2 2 2 2
left_child=4 3 -3 -2 -1
right_child=1 2 -4 -5 -6
leaf_value=-2.3574407514023942e-06 -1.5885226199973226e-05 1.9379033683780302e-05 -4.7141089734420585e-07 -8.8903476844303799e-08 -9.2785553457365058e-06
leaf_weight=56074 2512 14150 16919 11630 9119
leaf_count=56074 2512 14150 16919 11630 9119
internal_value=-4.57409e-09 4.78422e-06 8.47278e-06 -3.10716e-06 -3.3716e-06
internal_weight=110404 45211 31069 14142 65193
internal_count=110404 45211 31069 14142 65193
is_linear=0
shrinkage=0.01


Tree=66
num_leaves=6
num_cat=0
split_feature=0 1 1 1 1
split_gain=0.0173993 0.0130771 0.0244051 0.00406618 0.00348355
threshold=1.0000000180025095e-35 -0.21417796611785886 1.0000000180025095e-35 -0.8824939727783202 0.6349732279777528
decision_type=2 2 2 2 2
left_child=4 3 -3 -2 -1
right_child=1 2 -4 -5 -6
leaf_value=-2.3338665137353743e-06 -1.5726393714149239e-05 1.6328115153533319e-05 -4.6669646408412234e-07 -8.4523539312195404e-07 -9.1857729096549361e-06
leaf_weight=56074 2512 17017 16919 8763 9119
leaf_count=56074 2512 17017 16919 8763 9119
internal_value=-5.34367e-09 4.73439e-06 7.86663e-06 -4.42706e-06 -3.33835e-06
internal_weight=110404 45211 33936 11275 65193
internal_count=110404 45211 33936 11275 65193
is_linear=0
shrinkage=0.01


Tree=67
num_leaves=6
num_cat=0
split_feature=2 2 2 2 2
split_gain=0.0580941 0.053071 0.0451678 0.0303345 0.0163771
threshold=1.2727960944175722 -4.3133802413940421 6.9724597930908212 -9.0238108634948713 6.1319255828857431
decision_type=2 2 2 2 2
left_child=1 3 4 -1 -2
right_child=2 -3 -4 -5 -6
leaf_value=1.5636266944450066e-06 -2.0324910304608399e-05 1.2652265613241115e-05 -1.254204625751737e-06 -1.7228763692709401e-05 -4.9545439570071905e-05
leaf_weight=32205 9160 39010 15682 11607 2740
leaf_count=32205 9160 39010 15682 11607 2740
internal_value=-6.10612e-09 4.15282e-06 -1.2603e-05 -3.3466e-06 -2.73062e-05
internal_weight=110404 82822 27582 43812 11900
internal_count=110404 82822 27582 43812 11900
is_linear=0
shrinkage=0.01


Tree=68
num_leaves=6
num_cat=0
split_feature=0 1 1 1 1
split_gain=0.0168549 0.0127841 0.0294708 0.00474939 0.00342558
threshold=1.0000000180025095e-35 -0.025551197119057175 1.0000000180025095e-35 -0.8824939727783202 0.025812538340687755
decision_type=2 2 2 2 2
left_child=4 3 -3 -2 -1
right_child=1 2 -4 -5 -6
leaf_value=-1.3013541345511781e-06 -1.5557466106718587e-05 1.8928060722298411e-05 -4.6209463084474034e-07 -1.1433561212432157e-07 -6.1048198753230937e-06
leaf_weight=38866 2512 14150 16919 11630 26327
leaf_count=38866 2512 14150 16919 11630 26327
internal_value=-6.31863e-09 4.65823e-06 8.27246e-06 -3.06985e-06 -3.28718e-06
internal_weight=110404 45211 31069 14142 65193
internal_count=110404 45211 31069 14142 65193
is_linear=0
shrinkage=0.01


Tree=69
num_leaves=6
num_cat=0
split_feature=2 2 2 2 2
split_gain=0.0568105 0.0546537 0.0388036 0.024792 0.012467
threshold=0.46587525308132177 -1.0000000180025095e-35 7.624183416366578 8.6868214607238787 4.4156987667083749
decision_type=2 2 2 2 2
left_child=1 -1 4 -4 -2
right_child=2 -3 3 -5 -6
leaf_value=-1.1459023341110116e-06 -1.3334893467881817e-05 1.6589606957662353e-05 3.4221724817242558e-05 -5.2866646419262437e-06 -3.2647034341707579e-05
leaf_weight=56532 7328 24916 1824 12262 7542
leaf_count=56532 7328 24916 1824 12262 7542
internal_value=-7.07104e-09 4.24283e-06 -1.20648e-05 0 -2.33321e-05
internal_weight=110404 81448 28956 14086 14870
internal_count=110404 81448 28956 14086 14870
is_linear=0
shrinkage=0.01


Tree=70
num_leaves=6
num_cat=0
split_feature=2 2 2 2 2
split_gain=0.0557062 0.0509189 0.0435598 0.0297199 0.0159002
threshold=1.2727960944175722 -4.3133802413940421 6.9724597930908212 -8.8879747390747053 6.1319255828857431
decision_type=2 2 2 2 2
left_child=1 3 4 -1 -2
right_child=2 -3 -4 -5 -6
leaf_value=1.5336375111236607e-06 -1.989645582856388e-05 1.2390388884697949e-05 -1.1948088815809084e-06 -1.7150037918220738e-05 -4.8701628811785024e-05
leaf_weight=32364 9160 39010 15682 11448 2740
leaf_count=32364 9160 39010 15682 11448 2740
internal_value=-7.2716e-09 4.06472e-06 -1.23431e-05 -3.27998e-06 -2.67821e-05
internal_weight=110404 82822 27582 43812 11900
internal_count=110404 82822 27582 43812 11900
is_linear=0
shrinkage=0.01


Tree=71
num_leaves=6
num_cat=0
split_feature=2 2 2 2 1
split_gain=0.0546626 0.0528281 0.0374104 0.0243236 0.0122095
threshold=0.46587525308132177 -1.0000000180025095e-35 7.624183416366578 8.9038767814636248 -0.32325121760368342
decision_type=2 2 2 2 2
left_child=1 -1 -2 -4 -3
right_child=2 4 3 -5 -6
leaf_value=-1.1363726687110327e-06 -2.2898706922071506e-05 -1.3029764766278668e-06 3.1661353051635535e-05 -5.5825613552250577e-06 1.8962772228686045e-05
leaf_weight=56532 14870 3126 2052 12034 21790
leaf_count=56532 14870 3126 2052 12034 21790
internal_value=-7.47276e-09 4.16079e-06 -1.18356e-05 0 1.62998e-05
internal_weight=110404 81448 28956 14086 24916
internal_count=110404 81448 28956 14086 24916
is_linear=0
shrinkage=0.01


Tree=72
num_leaves=6
num_cat=0
split_feature=2 2 2 2 2
split_gain=0.053604 0.0492348 0.0420036 0.0291311 0.0155817
threshold=1.2727960944175722 -4.3133802413940421 6.9724597930908212 -9.0238108634948713 6.1319255828857431
decision_type=2 2 2 2 2
left_child=1 3 4 -1 -2
right_child=2 -3 -4 -5 -6
leaf_value=1.5752194696740421e-06 -1.9468518227939779e-05 1.2173380436390844e-05 -1.1581471741081028e-06 -1.684019749050381e-05 -4.7985704199944134e-05
leaf_weight=32205 9160 39010 15682 11607 2740
leaf_count=32205 9160 39010 15682 11607 2740
internal_value=-7.669e-09 3.98623e-06 -1.2109e-05 -3.23514e-06 -2.62878e-05
internal_weight=110404 82822 27582 43812 11900
internal_count=110404 82822 27582 43812 11900
is_linear=0
shrinkage=0.01


Tree=73
num_leaves=6
num_cat=0
split_feature=0 1 1 1 1
split_gain=0.015719 0.0122053 0.0153932 0.00333862 0.00192713
threshold=1.0000000180025095e-35 -0.55955016613006581 1.0000000180025095e-35 0.6349732279777528 -0.033632295206189149
decision_type=2 2 2 2 2
left_child=3 -2 -3 4 -1
right_child=1 2 -4 -5 -6
leaf_value=-4.1842943481750996e-06 -8.5587902204381725e-06 1.2039880044619753e-05 -4.476756151829512e-07 -8.8995458722201935e-06 -3.4541332272111213e-07
leaf_weight=26206 6010 22282 16919 9119 29868
leaf_count=26206 6010 22282 16919 9119 29868
internal_value=-7.86605e-09 4.4958e-06 6.57381e-06 -3.17716e-06 -2.19302e-06
internal_weight=110404 45211 39201 65193 56074
internal_count=110404 45211 39201 65193 56074
is_linear=0
shrinkage=0.01


Tree=74
num_leaves=6
num_cat=0
split_feature=2 2 2 2 2
split_gain=0.0524981 0.0507747 0.0360164 0.0245491 0.0238609
threshold=0.46587525308132177 -3.5698500871658321 7.624183416366578 -9.0238108634948713 8.6868214607238787
decision_type=2 2 2 2 2
left_child=1 3 -2 -1 -4
right_child=2 -3 4 -5 -6
leaf_value=1.5725689885309428e-06 -2.2455678082383958e-05 1.2848104604852144e-05 3.3599305607179301e-05 -1.4774592764211826e-05 -5.1609683301456163e-06
leaf_weight=32205 14870 36523 1824 12720 12262
leaf_count=32205 14870 36523 1824 12720 12262
internal_value=-8.60307e-09 4.07575e-06 -1.16007e-05 -2.98923e-06 0
internal_weight=110404 81448 28956 44925 14086
internal_count=110404 81448 28956 44925 14086
is_linear=0
shrinkage=0.01


Tree=75
num_leaves=6
num_cat=0
split_feature=2 2 2 2 2
split_gain=0.0515053 0.0471526 0.040459 0.0292927 0.0152717
threshold=1.2727960944175722 -4.478102207183837 6.9724597930908212 -8.8879747390747053 6.1319255828857431
decision_type=2 2 2 2 2
left_child=1 3 4 -1 -2
right_child=2 -3 -4 -5 -6
leaf_value=1.5130382082195358e-06 -1.9032765926513775e-05 1.1857431955632823e-05 -1.1196172997912148e-06 -1.7230896316090802e-05 -4.726573745071264e-05
leaf_weight=32364 9160 39328 15682 11130 2740
leaf_count=32364 9160 39328 15682 11130 2740
internal_value=-8.24517e-09 3.90615e-06 -1.18709e-05 -3.2146e-06 -2.57866e-05
internal_weight=110404 82822 27582 43494 11900
internal_count=110404 82822 27582 43494 11900
is_linear=0
shrinkage=0.01


Tree=76
num_leaves=6
num_cat=0
split_feature=2 2 2 2 1
split_gain=0.050509 0.0492505 0.0347165 0.0234113 0.0118588
threshold=0.46587525308132177 -1.0000000180025095e-35 7.624183416366578 8.9038767814636248 -0.34844964742660517
decision_type=2 2 2 2 2
left_child=1 -1 -2 -4 -3
right_child=2 4 3 -5 -6
leaf_value=-1.1157292690450648e-06 -2.2036547897494068e-05 -2.0376456053182048e-06 3.1087411337130084e-05 -5.4521770404339873e-06 1.8288686757232264e-05
leaf_weight=56532 14870 3003 2052 12034 21913
leaf_count=56532 14870 3003 2052 12034 21913
internal_value=-8.43664e-09 3.99727e-06 -1.13793e-05 0 1.57185e-05
internal_weight=110404 81448 28956 14086 24916
internal_count=110404 81448 28956 14086 24916
is_linear=0
shrinkage=0.01


Tree=77
num_leaves=6
num_cat=0
split_feature=2 2 2 2 2
split_gain=0.0495624 0.0455973 0.039014 0.0274827 0.0149658
threshold=1.2727960944175722 -4.3133802413940421 6.9724597930908212 -8.8879747390747053 6.1319255828857431
decision_type=2 2 2 2 2
left_child=1 3 4 -1 -2
right_child=2 -3 -4 -5 -6
leaf_value=1.5090650117139064e-06 -1.8622085980179599e-05 1.1710254314026211e-05 -1.0848347956816636e-06 -1.6455926066532189e-05 -4.6572790177359201e-05
leaf_weight=32364 9160 39010 15682 11448 2740
leaf_count=32364 9160 39010 15682 11448 2740
internal_value=-8.6231e-09 3.83071e-06 -1.16459e-05 -3.11676e-06 -2.53109e-05
internal_weight=110404 82822 27582 43812 11900
internal_count=110404 82822 27582 43812 11900
is_linear=0
shrinkage=0.01


Tree=78
num_leaves=6
num_cat=0
split_feature=2 2 2 2 1
split_gain=0.048591 0.0476005 0.0334674 0.0162317 0.0116292
threshold=0.46587525308132177 -1.0000000180025095e-35 7.0456371307373056 4.4156987667083749 -0.32325121760368342
decision_type=2 2 2 2 2
left_child=1 -1 3 -2 -3
right_child=2 4 -4 -5 -6
leaf_value=-1.1062359170603446e-06 -1.1975850864299968e-05 -1.7372971549346173e-06 -9.0999959637300778e-07 -3.4884980869810572e-05 1.8045322851679257e-05
leaf_weight=56532 7328 3126 15454 6174 21790
leaf_count=56532 7328 3126 15454 6174 21790
internal_value=-8.81076e-09 3.91959e-06 -1.11622e-05 -2.26741e-05 1.5443e-05
internal_weight=110404 81448 28956 13502 24916
internal_count=110404 81448 28956 13502 24916
is_linear=0
shrinkage=0.01


Tree=79
num_leaves=6
num_cat=0
split_feature=2 2 2 2 2
split_gain=0.0476666 0.0440882 0.037534 0.028159 0.0144937
threshold=1.2727960944175722 -4.478102207183837 6.9724597930908212 -8.8879747390747053 6.1319255828857431
decision_type=2 2 2 2 2
left_child=1 3 4 -1 -2
right_child=2 -3 -4 -5 -6
leaf_value=1.505037022258783e-06 -1.8235937196642054e-05 1.1444337918688653e-05 -1.0599472702004833e-06 -1.6871817728642817e-05 -4.5758302230519723e-05
leaf_weight=32364 9160 39328 15682 11130 2740
leaf_count=32364 9160 39328 15682 11130 2740
internal_value=-9.53867e-09 3.75512e-06 -1.14226e-05 -3.12866e-06 -2.48261e-05
internal_weight=110404 82822 27582 43494 11900
internal_count=110404 82822 27582 43494 11900
is_linear=0
shrinkage=0.01


Tree=80
num_leaves=6
num_cat=0
split_feature=2 2 2 2 1
split_gain=0.0467592 0.0460105 0.0323159 0.0229498 0.0114008
threshold=0.46587525308132177 -1.0000000180025095e-35 7.624183416366578 8.6868214607238787 -0.34844964742660517
decision_type=2 2 2 2 2
left_child=1 -1 -2 -4 -3
right_child=2 4 3 -5 -6
leaf_value=-1.0969663152401272e-06 -2.1233414993148764e-05 -2.2314220331485422e-06 3.2994282954263348e-05 -5.0198903407107743e-06 1.7694918517273769e-05
leaf_weight=56532 14870 3003 1824 12262 21913
leaf_count=56532 14870 3003 1824 12262 21913
internal_value=-9.71686e-09 3.8434e-06 -1.09514e-05 0 1.51729e-05
internal_weight=110404 81448 28956 14086 24916
internal_count=110404 81448 28956 14086 24916
is_linear=0
shrinkage=0.01


Tree=81
num_leaves=6
num_cat=0
split_feature=2 2 2 2 2
split_gain=0.0458688 0.0426319 0.0361925 0.0275998 0.0142034
threshold=1.2727960944175722 -4.478102207183837 6.9724597930908212 -8.8879747390747053 6.1319255828857431
decision_type=2 2 2 2 2
left_child=1 3 4 -1 -2
right_child=2 -3 -4 -5 -6
leaf_value=1.500956227851928e-06 -1.7841256992942942e-05 1.1244061420650558e-05 -1.0268627986151469e-06 -1.6692134390803182e-05 -4.5088458114140724e-05
leaf_weight=32364 9160 39328 15682 11130 2740
leaf_count=32364 9160 39328 15682 11130 2740
internal_value=-9.89077e-09 3.68257e-06 -1.12061e-05 -3.08572e-06 -2.43681e-05
internal_weight=110404 82822 27582 43494 11900
internal_count=110404 82822 27582 43494 11900
is_linear=0
shrinkage=0.01


Tree=82
num_leaves=6
num_cat=0
split_feature=2 2 2 2 1
split_gain=0.0449841 0.0444733 0.0311503 0.0225177 0.0111802
threshold=0.46587525308132177 -1.0000000180025095e-35 7.624183416366578 8.9038767814636248 -0.32325121760368342
decision_type=2 2 2 2 2
left_child=1 -1 -2 -4 -3
right_child=2 4 3 -5 -6
leaf_value=-1.0876584095833658e-06 -2.0837391589391685e-05 -1.9323156412475767e-06 3.0529730423550228e-05 -5.3066430406219166e-06 1.7461045415553199e-05
leaf_weight=56532 14870 3126 2052 12034 21790
leaf_count=56532 14870 3126 2052 12034 21790
internal_value=-1.00652e-08 3.76868e-06 -1.07425e-05 0 1.49075e-05
internal_weight=110404 81448 28956 14086 24916
internal_count=110404 81448 28956 14086 24916
is_linear=0
shrinkage=0.01


Tree=83
num_leaves=6
num_cat=0
split_feature=0 1 1 1 1
split_gain=0.0137777 0.0111203 0.0137465 0.00321114 0.00178199
threshold=1.0000000180025095e-35 -0.55955016613006581 1.0000000180025095e-35 0.6349732279777528 -0.8824939727783202
decision_type=2 2 2 2 2
left_child=3 4 -3 -1 -2
right_child=1 2 -4 -5 -6
leaf_value=-2.0136524244050771e-06 -1.498934677917674e-05 1.1356255373238624e-05 -4.3590886117780581e-07 -8.5863750689054251e-06 -2.5511513953364845e-06
leaf_weight=56074 2512 22282 16919 9119 3498
leaf_count=56074 2512 22282 16919 9119 3498
internal_value=-1.02359e-08 4.20439e-06 6.19031e-06 -2.97908e-06 -8.24958e-06
internal_weight=110404 45211 39201 65193 6010
internal_count=110404 45211 39201 65193 6010
is_linear=0
shrinkage=0.01


Tree=84
num_leaves=6
num_cat=0
split_feature=0 1 1 1 1
split_gain=0.0134978 0.0109077 0.0134766 0.00314547 0.00175765
threshold=1.0000000180025095e-35 -0.55955016613006581 1.0000000180025095e-35 0.6349732279777528 -0.89896544814109791
decision_type=2 2 2 2 2
left_child=3 -2 -3 4 -1
right_child=1 2 -4 -5 -6
leaf_value=-8.1600345964411495e-06 -8.1720806943783329e-06 1.1242693599963935e-05 -4.3155010163535149e-07 -8.5005142132526123e-06 -1.4022333814014379e-06
leaf_weight=4462 6010 22282 16919 9119 51612
leaf_count=4462 6010 22282 16919 9119 51612
internal_value=-1.09494e-08 4.16035e-06 6.12764e-06 -2.94975e-06 -1.99352e-06
internal_weight=110404 45211 39201 65193 56074
internal_count=110404 45211 39201 65193 56074
is_linear=0
shrinkage=0.01


Tree=85
num_leaves=6
num_cat=0
split_feature=2 2 2 2 2
split_gain=0.0440016 0.0408096 0.0348219 0.0270135 0.0139227
threshold=1.2727960944175722 -4.478102207183837 6.9724597930908212 -8.8879747390747053 6.1319255828857431
decision_type=2 2 2 2 2
left_child=1 3 4 -1 -2
right_child=2 -3 -4 -5 -6
leaf_value=1.5204043527836149e-06 -1.7424094872028081e-05 1.1002764482776522e-05 -9.8980976757271158e-07 -1.6478463581260755e-05 -4.440062020527289e-05
leaf_weight=32364 9160 39328 15682 11130 2740
leaf_count=32364 9160 39328 15682 11130 2740
internal_value=-1.16558e-08 3.6043e-06 -1.09782e-05 -3.01657e-06 -2.38886e-05
internal_weight=110404 82822 27582 43494 11900
internal_count=110404 82822 27582 43494 11900
is_linear=0
shrinkage=0.01


Tree=86
num_leaves=6
num_cat=0
split_feature=0 1 1 1 1
split_gain=0.0130794 0.0107289 0.0327797 0.00486971 0.00310214
threshold=1.0000000180025095e-35 -1.0000000180025095e-35 1.0000000180025095e-35 -0.8824939727783202 0.025812538340687755
decision_type=2 2 2 2 2
left_child=4 3 -3 -2 -1
right_child=1 2 -4 -5 -6
leaf_value=-1.0143958810517012e-06 -1.4747992724327533e-05 2.1859038069538467e-05 -4.2752509658478765e-07 1.0101446870322071e-07 -5.5823795896812894e-06
leaf_weight=38866 2512 10560 16919 15220 26327
leaf_count=38866 2512 10560 16919 15220 26327
internal_value=-1.18123e-08 4.0939e-06 8.02803e-06 -1.8336e-06 -2.90513e-06
internal_weight=110404 45211 27479 17732 65193
internal_count=110404 45211 27479 17732 65193
is_linear=0
shrinkage=0.01


Tree=87
num_leaves=6
num_cat=0
split_feature=2 2 2 2 2
split_gain=0.0429706 0.0396317 0.0341148 0.0264721 0.0136351
threshold=1.2727960944175722 -4.478102207183837 6.9724597930908212 -8.8879747390747053 6.1319255828857431
decision_type=2 2 2 2 2
left_child=1 3 4 -1 -2
right_child=2 -3 -4 -5 -6
leaf_value=1.5278094110652456e-06 -1.7225299822492688e-05 1.0852151866346119e-05 -9.6124052917991314e-07 -1.6289622771840553e-05 -4.3934062103708559e-05
leaf_weight=32364 9160 39328 15682 11130 2740
leaf_count=32364 9160 39328 15682 11130 2740
internal_value=-1.19661e-08 3.56106e-06 -1.08496e-05 -2.96273e-06 -2.36281e-05
internal_weight=110404 82822 27582 43494 11900
internal_count=110404 82822 27582 43494 11900
is_linear=0
shrinkage=0.01


Tree=88
num_leaves=6
num_cat=0
split_feature=2 2 2 2 2
split_gain=0.0421697 0.0412494 0.0294441 0.0221052 0.0108252
threshold=0.46587525308132177 -1.0000000180025095e-35 7.624183416366578 8.6868214607238787 4.4156987667083749
decision_type=2 2 2 2 2
left_child=1 -1 4 -4 -2
right_child=2 -3 3 -5 -6
leaf_value=-1.0294882024802446e-06 -1.089047408086987e-05 1.4373331579410292e-05 3.2433853200684358e-05 -4.8751577906696235e-06 -2.8883602198247842e-05
leaf_weight=56532 7328 24916 1824 12262 7542
leaf_count=56532 7328 24916 1824 12262 7542
internal_value=-1.21202e-08 3.64564e-06 -1.04043e-05 0 -2.02187e-05
internal_weight=110404 81448 28956 14086 14870
internal_count=110404 81448 28956 14086 14870
is_linear=0
shrinkage=0.01


Tree=89
num_leaves=6
num_cat=0
split_feature=2 2 2 2 2
split_gain=0.0413345 0.0404874 0.028864 0.0248612 0.0216912
threshold=0.46587525308132177 -4.3133802413940421 7.624183416366578 -9.0238108634948713 8.9038767814636248
decision_type=2 2 2 2 2
left_child=1 3 -2 -1 -4
right_child=2 -3 4 -5 -6
leaf_value=1.5665507589782185e-06 -2.0018493092637899e-05 1.1232155630715411e-05 3.0005770849613312e-05 -1.5443410904890393e-05 -5.1674145045441144e-06
leaf_weight=32205 14870 37636 2052 11607 12034
leaf_count=32205 14870 37636 2052 11607 12034
internal_value=-1.227e-08 3.60881e-06 -1.03013e-05 -2.87146e-06 0
internal_weight=110404 81448 28956 43812 14086
internal_count=110404 81448 28956 43812 14086
is_linear=0
shrinkage=0.01


Tree=90
num_leaves=6
num_cat=0
split_feature=2 2 2 2 2
split_gain=0.0405639 0.0375941 0.0323992 0.0254526 0.0132437
threshold=1.2727960944175722 -4.478102207183837 6.9724597930908212 -8.8879747390747053 6.1319255828857431
decision_type=2 2 2 2 2
left_child=1 3 4 -1 -2
right_child=2 -3 -4 -5 -6
leaf_value=1.5079962696590079e-06 -1.6680999122172348e-05 1.0560542592488388e-05 -9.0107391852225583e-07 -1.596200619772202e-05 -4.3005802104746581e-05
leaf_weight=32364 9160 39328 15682 11130 2740
leaf_count=32364 9160 39328 15682 11130 2740
internal_value=-1.18759e-08 3.45887e-06 -1.05424e-05 -2.89364e-06 -2.29954e-05
internal_weight=110404 82822 27582 43494 11900
internal_count=110404 82822 27582 43494 11900
is_linear=0
shrinkage=0.01


Tree=91
num_leaves=6
num_cat=0
split_feature=0 1 1 1 1
split_gain=0.012246 0.0102387 0.0123812 0.00301294 0.00169283
threshold=1.0000000180025095e-35 -0.55955016613006581 1.0000000180025095e-35 0.6349732279777528 -0.8824939727783202
decision_type=2 2 2 2 2
left_child=3 4 -3 -1 -2
right_child=1 2 -4 -5 -6
leaf_value=-1.8757832909492616e-06 -1.4553893236412476e-05 1.0770619333915364e-05 -4.1239367669009955e-07 -8.2433872778372616e-06 -2.4080504247659677e-06
leaf_weight=56074 2512 22282 16919 9119 3498
leaf_count=56074 2512 22282 16919 9119 3498
internal_value=-1.20306e-08 3.95983e-06 5.86758e-06 -2.81252e-06 -7.98427e-06
internal_weight=110404 45211 39201 65193 6010
internal_count=110404 45211 39201 65193 6010
is_linear=0
shrinkage=0.01


Tree=92
num_leaves=6
num_cat=0
split_feature=2 2 2 2 2
split_gain=0.0397091 0.0366578 0.0317202 0.0249352 0.0129688
threshold=1.2727960944175722 -4.478102207183837 6.9724597930908212 -9.0238108634948713 6.1319255828857431
decision_type=2 2 2 2 2
left_child=1 3 4 -1 -2
right_child=2 -3 -4 -5 -6
leaf_value=1.5471183001977645e-06 -1.6499830831398548e-05 1.0433818719808642e-05 -8.9010732883248904e-07 -1.5664188427576444e-05 -4.2562747355984129e-05
leaf_weight=32205 9160 39328 15682 11289 2740
leaf_count=32205 9160 39328 15682 11289 2740
internal_value=-1.27258e-08 3.42096e-06 -1.04319e-05 -2.85123e-06 -2.27539e-05
internal_weight=110404 82822 27582 43494 11900
internal_count=110404 82822 27582 43494 11900
is_linear=0
shrinkage=0.01


Tree=93
num_leaves=6
num_cat=0
split_feature=2 2 2 2 1
split_gain=0.0389782 0.0384882 0.0273284 0.0212757 0.0107038
threshold=0.46587525308132177 -1.0000000180025095e-35 7.624183416366578 8.6868214607238787 -1.0000000180025095e-35
decision_type=2 2 2 2 2
left_child=1 -1 -2 -4 -3
right_child=2 4 3 -5 -6
leaf_value=-1.0116307692096249e-06 -1.946024182399509e-05 2.2482206480820261e-06 3.1838775317618052e-05 -4.7636551645311492e-06 1.7770901241475973e-05
leaf_weight=56532 14870 6462 1824 12262 18454
leaf_count=56532 14870 6462 1824 12262 18454
internal_value=-1.2872e-08 3.50269e-06 -1.00051e-05 0 1.38656e-05
internal_weight=110404 81448 28956 14086 24916
internal_count=110404 81448 28956 14086 24916
is_linear=0
shrinkage=0.01


Tree=94
num_leaves=6
num_cat=0
split_feature=0 1 1 1 1
split_gain=0.0116949 0.00989085 0.0119028 0.00294376 0.00167391
threshold=1.0000000180025095e-35 -0.55955016613006581 1.0000000180025095e-35 0.6349732279777528 -0.89896544814109791
decision_type=2 2 2 2 2
left_child=3 -2 -3 4 -1
right_child=1 2 -4 -5 -6
leaf_value=-7.8320962502899941e-06 -7.8683729902254602e-06 1.0551874293052018e-05 -4.0994420672929117e-07 -8.1175166231398659e-06 -1.2457188881480515e-06
leaf_weight=4462 6010 22282 16919 9119 51612
leaf_count=4462 6010 22282 16919 9119 51612
internal_value=-1.24712e-08 3.86834e-06 5.7443e-06 -2.74982e-06 -1.82336e-06
internal_weight=110404 45211 39201 65193 56074
internal_count=110404 45211 39201 65193 56074
is_linear=0
shrinkage=0.01


Tree=95
num_leaves=6
num_cat=0
split_feature=0 1 1 1 1
split_gain=0.0114608 0.0098774 0.0294883 0.00451636 0.00291564
threshold=1.0000000180025095e-35 -1.0000000180025095e-35 1.0000000180025095e-35 -0.8824939727783202 0.025812538340687755
decision_type=2 2 2 2 2
left_child=4 3 -3 -2 -1
right_child=1 2 -4 -5 -6
leaf_value=-8.8897219229243591e-07 -1.4285119238309469e-05 2.0723738440179252e-05 -4.0584514872239335e-07 0 -5.3171404802647543e-06
leaf_weight=38866 2512 10560 16919 15220 26327
leaf_count=38866 2512 10560 16919 15220 26327
internal_value=-1.31621e-08 3.82833e-06 7.60508e-06 -1.85528e-06 -2.72324e-06
internal_weight=110404 45211 27479 17732 65193
internal_count=110404 45211 27479 17732 65193
is_linear=0
shrinkage=0.01


Tree=96
num_leaves=6
num_cat=0
split_feature=2 2 2 2 2
split_gain=0.0380024 0.0349501 0.0305404 0.0244177 0.0127373
threshold=1.2727960944175722 -4.478102207183837 6.9724597930908212 -8.8879747390747053 5.9620046615600595
decision_type=2 2 2 2 2
left_child=1 3 4 -1 -2
right_child=2 -3 -4 -5 -6
leaf_value=1.5319247322752248e-06 -1.5452969475291164e-05 1.0193115404531152e-05 -8.4056249951697329e-07 -1.5579177760210859e-05 -3.9979680281210993e-05
leaf_weight=32364 8702 39328 15682 11130 3198
leaf_count=32364 8702 39328 15682 11130 3198
internal_value=-1.33028e-08 3.34519e-06 -1.02067e-05 -2.77786e-06 -2.22972e-05
internal_weight=110404 82822 27582 43494 11900
internal_count=110404 82822 27582 43494 11900
is_linear=0
shrinkage=0.01


Tree=97
num_leaves=6
num_cat=0
split_feature=2 2 2 2 1
split_gain=0.0372837 0.0364679 0.026298 0.0208941 0.0102738
threshold=0.46587525308132177 -1.0000000180025095e-35 7.624183416366578 8.9038767814636248 -1.0000000180025095e-35
decision_type=2 2 2 2 2
left_child=1 -1 -2 -4 -3
right_child=2 4 3 -5 -6
leaf_value=-9.6861950075778907e-07 -1.9061813558288963e-05 2.1213740456890921e-06 2.9496667459563822e-05 -5.024399858000165e-06 1.7337378046903644e-05
leaf_weight=56532 14870 6462 2052 12034 18454
leaf_count=56532 14870 6462 2052 12034 18454
internal_value=-1.3443e-08 3.42426e-06 -9.78661e-06 0 1.35116e-05
internal_weight=110404 81448 28956 14086 24916
internal_count=110404 81448 28956 14086 24916
is_linear=0
shrinkage=0.01


Tree=98
num_leaves=6
num_cat=0
split_feature=2 2 2 2 2
split_gain=0.0365743 0.0338036 0.0294491 0.0239367 0.0124858
threshold=1.2727960944175722 -4.478102207183837 6.9724597930908212 -9.0238108634948713 6.1319255828857431
decision_type=2 2 2 2 2
left_child=1 3 4 -1 -2
right_child=2 -3 -4 -5 -6
leaf_value=1.5682580325333532e-06 -1.574525906375052e-05 1.0016218128622546e-05 -8.127986120978085e-07 -1.5294837289620933e-05 -4.1316813837053564e-05
leaf_weight=32205 9160 39328 15682 11289 2740
leaf_count=32205 9160 39328 15682 11289 2740
internal_value=-1.30363e-08 3.28123e-06 -1.00136e-05 -2.73971e-06 -2.18862e-05
internal_weight=110404 82822 27582 43494 11900
internal_count=110404 82822 27582 43494 11900
is_linear=0
shrinkage=0.01


Tree=99
num_leaves=6
num_cat=0
split_feature=2 2 2 2 1
split_gain=0.0358731 0.0352608 0.0253487 0.0204793 0.0100965
threshold=0.46587525308132177 -1.0000000180025095e-35 7.624183416366578 8.6868214607238787 -0.34844964742660517
decision_type=2 2 2 2 2
left_child=1 -1 -2 -4 -3
right_child=2 4 3 -5 -6
leaf_value=-9.6042525467192209e-07 -1.8706461545800131e-05 -3.1019352561661073e-06 3.1273322074067642e-05 -4.6375634153101744e-06 1.5659073980007467e-05
leaf_weight=56532 14870 3003 1824 12262 21913
leaf_count=56532 14870 3003 1824 12262 21913
internal_value=-1.31795e-08 3.35834e-06 -9.60019e-06 0 1.32775e-05
internal_weight=110404 81448 28956 14086 24916
internal_count=110404 81448 28956 14086 24916
is_linear=0
shrinkage=0.01


Tree=100
num_leaves=6
num_cat=0
split_feature=0 1 1 1 1
split_gain=0.0106772 0.00923269 0.0109992 0.00283762 0.00161487
threshold=1.0000000180025095e-35 -0.55955016613006581 1.0000000180025095e-35 0.6349732279777528 -0.8824939727783202
decision_type=2 2 2 2 2
left_child=3 4 -3 -1 -2
right_child=1 2 -4 -5 -6
leaf_value=-1.7197829617947921e-06 -1.4046668045646698e-05 1.0129639313486364e-05 -4.0189466641473993e-07 -7.8981002358760124e-06 -2.1816631031979676e-06
leaf_weight=56074 2512 22282 16919 9119 3498
leaf_count=56074 2512 22282 16919 9119 3498
internal_value=-1.33187e-08 3.69355e-06 5.50777e-06 -2.63004e-06 -7.64048e-06
internal_weight=110404 45211 39201 65193 6010
internal_count=110404 45211 39201 65193 6010
is_linear=0
shrinkage=0.01


Tree=101
num_leaves=6
num_cat=0
split_feature=2 2 2 2 2
split_gain=0.0351426 0.0325218 0.0283656 0.0234468 0.0122611
threshold=1.2727960944175722 -4.478102207183837 6.9724597930908212 -8.8879747390747053 5.9620046615600595
decision_type=2 2 2 2 2
left_child=1 3 4 -1 -2
right_child=2 -3 -4 -5 -6
leaf_value=1.5316554103322721e-06 -1.4749719015681586e-05 9.8210032010313332e-06 -7.838518423471766e-07 -1.523528569268677e-05 -3.8813658056931377e-05
leaf_weight=32364 8702 39328 15682 11130 3198
leaf_count=32364 8702 39328 15682 11130 3198
internal_value=-1.40011e-08 3.21461e-06 -9.81741e-06 -2.69006e-06 -2.14696e-05
internal_weight=110404 82822 27582 43494 11900
internal_count=110404 82822 27582 43494 11900
is_linear=0
shrinkage=0.01


Tree=102
num_leaves=6
num_cat=0
split_feature=2 2 2 2 2
split_gain=0.0344554 0.0338331 0.0244033 0.0201108 0.00995452
threshold=0.46587525308132177 -1.0000000180025095e-35 7.624183416366578 8.9038767814636248 4.4156987667083749
decision_type=2 2 2 2 2
left_child=1 -1 4 -4 -2
right_child=2 -3 3 -5 -6
leaf_value=-9.3987428484688788e-07 -9.3978544208746959e-06 1.3005976315114652e-05 2.8955509458224234e-05 -4.9122243396098633e-06 -2.6640148188963771e-05
leaf_weight=56532 7328 24916 2052 12034 7542
leaf_count=56532 7328 24916 2052 12034 7542
internal_value=-1.41346e-08 3.28954e-06 -9.41032e-06 0 -1.83452e-05
internal_weight=110404 81448 28956 14086 14870
internal_count=110404 81448 28956 14086 14870
is_linear=0
shrinkage=0.01


Tree=103
num_leaves=6
num_cat=0
split_feature=0 1 1 1 1
split_gain=0.0102129 0.00902501 0.0266926 0.00425717 0.0027665
threshold=1.0000000180025095e-35 -1.0000000180025095e-35 1.0000000180025095e-35 -0.8824939727783202 0.6349732279777528
decision_type=2 2 2 2 2
left_child=4 3 -3 -2 -1
right_child=1 2 -4 -5 -6
leaf_value=-1.6746102046096301e-06 -1.3883870911454171e-05 1.9703910596246339e-05 -3.9124341395508999e-07 0 -7.7755944579289904e-06
leaf_weight=56074 2512 10560 16919 15220 9119
leaf_count=56074 2512 10560 16919 15220 9119
internal_value=-1.42651e-08 3.61051e-06 7.22215e-06 -1.81725e-06 -2.57405e-06
internal_weight=110404 45211 27479 17732 65193
internal_count=110404 45211 27479 17732 65193
is_linear=0
shrinkage=0.01


Tree=104
num_leaves=6
num_cat=0
split_feature=0 1 1 1 1
split_gain=0.0100088 0.00884257 0.0261657 0.00417341 0.00273917
threshold=1.0000000180025095e-35 -1.0000000180025095e-35 1.0000000180025095e-35 -0.8824939727783202 0.025812538340687755
decision_type=2 2 2 2 2
left_child=4 3 -3 -2 -1
right_child=1 2 -4 -5 -6
leaf_value=-7.6965915801866171e-07 -1.3745048815929551e-05 1.9506876234897353e-05 -3.8733125119930256e-07 0 -5.0612362356269248e-06
leaf_weight=38866 2512 10560 16919 15220 26327
leaf_count=38866 2512 10560 16919 15220 26327
internal_value=-1.44255e-08 3.57366e-06 7.14884e-06 -1.79758e-06 -2.54877e-06
internal_weight=110404 45211 27479 17732 65193
internal_count=110404 45211 27479 17732 65193
is_linear=0
shrinkage=0.01


Tree=105
num_leaves=6
num_cat=0
split_feature=0 1 1 1 1
split_gain=0.00980879 0.00866378 0.0256493 0.00409132 0.00268331
threshold=1.0000000180025095e-35 -1.0000000180025095e-35 1.0000000180025095e-35 -0.8824939727783202 0.6349732279777528
decision_type=2 2 2 2 2
left_child=4 3 -3 -2 -1
right_child=1 2 -4 -5 -6
leaf_value=-1.6369973525280135e-06 -1.360761529097929e-05 1.9311813473759364e-05 -3.8345763769775946e-07 0 -7.6472299485135756e-06
leaf_weight=56074 2512 10560 16919 15220 9119
leaf_count=56074 2512 10560 16919 15220 9119
internal_value=-1.45839e-08 3.53719e-06 7.07626e-06 -1.77811e-06 -2.52374e-06
internal_weight=110404 45211 27479 17732 65193
internal_count=110404 45211 27479 17732 65193
is_linear=0
shrinkage=0.01


Tree=106
num_leaves=6
num_cat=0
split_feature=0 1 1 1 1
split_gain=0.00961274 0.00851744 0.009994 0.00265694 0.00530327
threshold=1.0000000180025095e-35 -0.55955016613006581 1.0000000180025095e-35 0.025812538340687755 -0.033632295206189149
decision_type=2 2 2 2 2
left_child=3 -2 -3 4 -1
right_child=1 2 -4 -5 -6
leaf_value=-3.3788148112375595e-06 -7.3786606997427429e-06 9.6515634872294937e-06 -3.796225565300457e-07 -4.9734367442348475e-06 4.4681251651296767e-06
leaf_weight=26206 6010 22282 16919 26327 12660
leaf_count=26206 6010 22282 16919 26327 12660
internal_value=-1.4741e-08 3.50107e-06 5.24564e-06 -2.49896e-06 -7.45593e-07
internal_weight=110404 45211 39201 65193 38866
internal_count=110404 45211 39201 65193 38866
is_linear=0
shrinkage=0.01


Tree=107
num_leaves=6
num_cat=0
split_feature=0 1 1 1 1
split_gain=0.00941728 0.00849404 0.0248873 0.00393658 0.00260362
threshold=1.0000000180025095e-35 -1.0000000180025095e-35 1.0000000180025095e-35 -0.8824939727783202 0.025812538340687755
decision_type=2 2 2 2 2
left_child=4 3 -3 -2 -1
right_child=1 2 -4 -5 -6
leaf_value=-7.3736518751088946e-07 -1.339777735946954e-05 1.9022188268291465e-05 -3.7582696723276704e-07 0 -4.9237027075346859e-06
leaf_weight=38866 2512 10560 16919 15220 26327
leaf_count=38866 2512 10560 16919 15220 26327
internal_value=-1.48654e-08 3.46474e-06 6.96966e-06 -1.79763e-06 -2.47397e-06
internal_weight=110404 45211 27479 17732 65193
internal_count=110404 45211 27479 17732 65193
is_linear=0
shrinkage=0.01


Tree=108
num_leaves=6
num_cat=0
split_feature=0 1 1 1 1
split_gain=0.00922845 0.00832314 0.0243962 0.00385888 0.00257769
threshold=1.0000000180025095e-35 -1.0000000180025095e-35 1.0000000180025095e-35 -0.8824939727783202 0.6349732279777528
decision_type=2 2 2 2 2
left_child=4 3 -3 -2 -1
right_child=1 2 -4 -5 -6
leaf_value=-1.5794417639624785e-06 -1.326381482926649e-05 1.8831969724110957e-05 -3.7206863723129807e-07 0 -7.4717916653367514e-06
leaf_weight=56074 2512 10560 16919 15220 9119
leaf_count=56074 2512 10560 16919 15220 9119
internal_value=-1.50988e-08 3.42916e-06 6.89887e-06 -1.77865e-06 -2.44969e-06
internal_weight=110404 45211 27479 17732 65193
internal_count=110404 45211 27479 17732 65193
is_linear=0
shrinkage=0.01


Tree=109
num_leaves=6
num_cat=0
split_feature=2 2 2 2 2
split_gain=0.0330751 0.0298633 0.0272987 0.0229411 0.0119162
threshold=1.2727960944175722 -4.478102207183837 6.9724597930908212 -9.0238108634948713 6.1319255828857431
decision_type=2 2 2 2 2
left_child=1 3 4 -1 -2
right_child=2 -3 -4 -5 -6
leaf_value=1.6767793297158825e-06 -1.4950773024998267e-05 9.4471219351759992e-06 -6.6194507353206141e-07 -1.4833745645134762e-05 -3.9935746848570729e-05
leaf_weight=32205 9160 39328 15682 11289 2740
leaf_count=32205 9160 39328 15682 11289 2740
internal_value=-1.53299e-08 3.11604e-06 -9.52677e-06 -2.53968e-06 -2.09566e-05
internal_weight=110404 82822 27582 43494 11900
internal_count=110404 82822 27582 43494 11900
is_linear=0
shrinkage=0.01


Tree=110
num_leaves=6
num_cat=0
split_feature=0 1 1 1 1
split_gain=0.00893666 0.0080892 0.0236964 0.00377788 0.00251879
threshold=1.0000000180025095e-35 -1.0000000180025095e-35 1.0000000180025095e-35 -0.8824939727783202 0.6349732279777528
decision_type=2 2 2 2 2
left_child=4 3 -3 -2 -1
right_child=1 2 -4 -5 -6
leaf_value=-1.5507300691985936e-06 -1.3122897747813771e-05 1.8555346198803343e-05 -3.6895106193808863e-07 0 -7.3765101935392225e-06
leaf_weight=56074 2512 10560 16919 15220 9119
leaf_count=56074 2512 10560 16919 15220 9119
internal_value=-1.54497e-08 3.37347e-06 6.79448e-06 -1.75886e-06 -2.41167e-06
internal_weight=110404 45211 27479 17732 65193
internal_count=110404 45211 27479 17732 65193
is_linear=0
shrinkage=0.01


Tree=111
num_leaves=6
num_cat=0
split_feature=2 2 2 2 2
split_gain=0.0323063 0.0287433 0.0273783 0.0224816 0.0112646
threshold=1.4531758427619936 -4.478102207183837 6.9724597930908212 -8.8879747390747053 6.1319255828857431
decision_type=2 2 2 2 2
left_child=1 3 4 -1 -2
right_child=2 -3 -4 -5 -6
leaf_value=1.638240866048916e-06 -1.5079470191565429e-05 9.2464968823469242e-06 -6.3922080344214424e-07 -1.478179206224462e-05 -3.9516970314092854e-05
leaf_weight=32364 8931 39557 15682 11130 2740
leaf_count=32364 8931 39557 15682 11130 2740
internal_value=-1.56777e-08 3.0615e-06 -9.4684e-06 -2.4947e-06 -2.10746e-05
internal_weight=110404 83051 27353 43494 11671
internal_count=110404 83051 27353 43494 11671
is_linear=0
shrinkage=0.01


Tree=112
num_leaves=6
num_cat=0
split_feature=0 1 1 1 1
split_gain=0.00865446 0.00786238 0.0230181 0.00369856 0.00248004
threshold=1.0000000180025095e-35 -1.0000000180025095e-35 1.0000000180025095e-35 -0.8824939727783202 0.025812538340687755
decision_type=2 2 2 2 2
left_child=4 3 -3 -2 -1
right_child=1 2 -4 -5 -6
leaf_value=-6.7798749290968539e-07 -1.2983529883973397e-05 1.8283321717314147e-05 -3.6583879531100786e-07 0 -4.7645413019855708e-06
leaf_weight=38866 2512 10560 16919 15220 26327
leaf_count=38866 2512 10560 16919 15220 26327
internal_value=-1.57941e-08 3.31874e-06 6.69186e-06 -1.73937e-06 -2.3743e-06
internal_weight=110404 45211 27479 17732 65193
internal_count=110404 45211 27479 17732 65193
is_linear=0
shrinkage=0.01


Tree=113
num_leaves=6
num_cat=0
split_feature=2 2 2 2 2
split_gain=0.0315809 0.0298014 0.0230379 0.0220341 0.0197484
threshold=0.46587525308132177 -4.478102207183837 7.624183416366578 -9.0238108634948713 8.9038767814636248
decision_type=2 2 2 2 2
left_child=1 3 -2 -1 -4
right_child=2 -3 4 -5 -6
leaf_value=1.6807927273355346e-06 -1.7694748445577409e-05 9.6371756544496964e-06 2.8821713014121623e-05 -1.4499791801183184e-05 -4.7367401178936058e-06
leaf_weight=32205 14870 37954 2052 11289 12034
leaf_count=32205 14870 37954 2052 11289 12034
internal_value=-1.60191e-08 3.14568e-06 -9.01285e-06 -2.45002e-06 0
internal_weight=110404 81448 28956 43494 14086
internal_count=110404 81448 28956 43494 14086
is_linear=0
shrinkage=0.01


Tree=114
num_leaves=6
num_cat=0
split_feature=2 2 2 2 2
split_gain=0.0309829 0.0273869 0.0263969 0.0215986 0.0110449
threshold=1.4531758427619936 -4.478102207183837 6.9724597930908212 -8.8879747390747053 5.9620046615600595
decision_type=2 2 2 2 2
left_child=1 3 4 -1 -2
right_child=2 -3 -4 -5 -6
leaf_value=1.6245953893981254e-06 -1.4110268527529921e-05 9.0349665540376467e-06 -6.0039193039897873e-07 -1.446909562237365e-05 -3.7106334379637355e-05
leaf_weight=32364 8473 39557 15682 11130 3198
leaf_count=32364 8473 39557 15682 11130 3198
internal_value=-1.55868e-08 2.99733e-06 -9.27322e-06 -2.42483e-06 -2.06693e-05
internal_weight=110404 83051 27353 43494 11671
internal_count=110404 83051 27353 43494 11671
is_linear=0
shrinkage=0.01


Tree=115
num_leaves=6
num_cat=0
split_feature=2 2 2 2 2
split_gain=0.0303929 0.0286487 0.0222098 0.0193804 0.0176334
threshold=0.46587525308132177 -3.5698500871658321 7.624183416366578 8.6868214607238787 -9.0238108634948713
decision_type=2 2 2 2 2
left_child=1 4 -2 -4 -1
right_child=2 -3 3 -5 -6
leaf_value=1.6477389346301469e-06 -1.736669937215877e-05 9.6785034765031487e-06 3.0564204030185048e-05 -4.3668520971968571e-06 -1.2205156773196099e-05
leaf_weight=32205 14870 36523 1824 12262 12720
leaf_count=32205 14870 36523 1824 12262 12720
internal_value=-1.57045e-08 3.08544e-06 -8.8422e-06 0 -2.20783e-06
internal_weight=110404 81448 28956 14086 44925
internal_count=110404 81448 28956 14086 44925
is_linear=0
shrinkage=0.01


Tree=116
num_leaves=6
num_cat=0
split_feature=0 1 1 1 1
split_gain=0.00819774 0.00761087 0.00882279 0.00242023 0.00158708
threshold=1.0000000180025095e-35 -0.55955016613006581 0.14610653370618823 0.6349732279777528 -0.89896544814109791
decision_type=2 2 2 2 2
left_child=3 -2 -3 4 -1
right_child=1 2 -4 -5 -6
leaf_value=-7.288370858664169e-06 -7.0471054265400562e-06 7.9778716986914414e-06 -2.2452959944905384e-06 -7.1768588903277149e-06 -9.0517954240452096e-07
leaf_weight=4462 6010 27621 11580 9119 51612
leaf_count=4462 6010 27621 11580 9119 51612
internal_value=-1.52753e-08 3.22934e-06 4.88142e-06 -2.31142e-06 -1.46665e-06
internal_weight=110404 45211 39201 65193 56074
internal_count=110404 45211 39201 65193 56074
is_linear=0
shrinkage=0.01


Tree=117
num_leaves=6
num_cat=0
split_feature=2 2 2 2 2
split_gain=0.0297853 0.0262611 0.0254314 0.0207897 0.0108455
threshold=1.4531758427619936 -4.478102207183837 6.9724597930908212 -8.8879747390747053 6.1319255828857431
decision_type=2 2 2 2 2
left_child=1 3 4 -1 -2
right_child=2 -3 -4 -5 -6
leaf_value=1.600588888008596e-06 -1.4392083706017214e-05 8.8501984148395663e-06 -5.7710950535867125e-07 -1.4188000755580183e-05 -3.8369658146199545e-05
leaf_weight=32364 8931 39557 15682 11130 2740
leaf_count=32364 8931 39557 15682 11130 2740
internal_value=-1.59379e-08 2.93764e-06 -9.09341e-06 -2.37077e-06 -2.02792e-05
internal_weight=110404 83051 27353 43494 11671
internal_count=110404 83051 27353 43494 11671
is_linear=0
shrinkage=0.01


Tree=118
num_leaves=6
num_cat=0
split_feature=2 2 2 2 2
split_gain=0.0292041 0.0259768 0.0243556 0.0203802 0.0110226
threshold=1.2727960944175722 -4.478102207183837 6.9724597930908212 -9.0238108634948713 5.9620046615600595
decision_type=2 2 2 2 2
left_child=1 3 4 -1 -2
right_child=2 -3 -4 -5 -6
leaf_value=1.6232566373704873e-06 -1.3360112955033125e-05 8.8304407408050584e-06 -5.7133851393101191e-07 -1.393630476686555e-05 -3.6200840183215033e-05
leaf_weight=32205 8702 39328 15682 11289 3198
leaf_count=32205 8702 39328 15682 11289 3198
internal_value=-1.60519e-08 2.92473e-06 -8.95519e-06 -2.34637e-06 -1.97512e-05
internal_weight=110404 82822 27582 43494 11900
internal_count=110404 82822 27582 43494 11900
is_linear=0
shrinkage=0.01


Tree=119
num_leaves=6
num_cat=0
split_feature=2 2 2 2 2
split_gain=0.0286705 0.0270527 0.0210282 0.0190096 0.00913924
threshold=0.46587525308132177 -1.0000000180025095e-35 7.624183416366578 8.9038767814636248 4.4156987667083749
decision_type=2 2 2 2 2
left_child=1 -1 4 -4 -2
right_child=2 -3 3 -5 -6
leaf_value=-7.8144328300788348e-07 -8.3021084478912831e-06 1.168381195353395e-05 2.8294232417210895e-05 -4.6298387588992139e-06 -2.4824825824967876e-05
leaf_weight=56532 7328 24916 2052 12034 7542
leaf_count=56532 7328 24916 2052 12034 7542
internal_value=-1.61648e-08 2.99504e-06 -8.58968e-06 0 -1.68844e-05
internal_weight=110404 81448 28956 14086 14870
internal_count=110404 81448 28956 14086 14870
is_linear=0
shrinkage=0.01


Tree=120
num_leaves=6
num_cat=0
split_feature=2 2 2 2 2
split_gain=0.0281033 0.0265553 0.0206342 0.0199767 0.0115828
threshold=0.46587525308132177 -4.478102207183837 7.1385040283203134 -8.8879747390747053 4.4156987667083749
decision_type=2 2 2 2 2
left_child=1 3 4 -1 -2
right_child=2 -3 -4 -5 -6
leaf_value=1.5769294441216943e-06 -8.2190908453304127e-06 9.0934222564012881e-06 -2.8707232899042347e-07 -1.3898951195446306e-05 -2.7437795922446587e-05
leaf_weight=32364 7328 37954 15226 11130 6402
leaf_count=32364 7328 37954 15226 11130 6402
internal_value=-1.62749e-08 2.96472e-06 -8.50482e-06 -2.3144e-06 -1.73993e-05
internal_weight=110404 81448 28956 43494 13730
internal_count=110404 81448 28956 43494 13730
is_linear=0
shrinkage=0.01


Tree=121
num_leaves=6
num_cat=0
split_feature=2 2 2 2 2
split_gain=0.0275633 0.0243951 0.0236451 0.0195832 0.0102107
threshold=1.4531758427619936 -4.478102207183837 6.9724597930908212 -9.0238108634948713 6.1319255828857431
decision_type=2 2 2 2 2
left_child=1 3 4 -1 -2
right_child=2 -3 -4 -5 -6
leaf_value=1.5990694607357521e-06 -1.3809353789650909e-05 8.5231063997696266e-06 -5.3109029998375555e-07 -1.3652324837464908e-05 -3.710146545729106e-05
leaf_weight=32205 8931 39557 15682 11289 2740
leaf_count=32205 8931 39557 15682 11289 2740
internal_value=-1.63848e-08 2.82385e-06 -8.74971e-06 -2.29057e-06 -1.95355e-05
internal_weight=110404 83051 27353 43494 11671
internal_count=110404 83051 27353 43494 11671
is_linear=0
shrinkage=0.01


Tree=122
num_leaves=6
num_cat=0
split_feature=2 2 2 2 1
split_gain=0.0270568 0.0257836 0.019904 0.0186551 0.00890346
threshold=0.46587525308132177 -1.0000000180025095e-35 7.624183416366578 8.6868214607238787 -0.34844964742660517
decision_type=2 2 2 2 2
left_child=1 -1 -2 -4 -3
right_child=2 4 3 -5 -6
leaf_value=-7.7776831559282707e-07 -1.6416082926391777e-05 -4.0006984216329858e-06 3.0005578396927851e-05 -4.2647782160686232e-06 1.3637023341938571e-05
leaf_weight=56532 14870 3003 1824 12262 21913
leaf_count=56532 14870 3003 1824 12262 21913
internal_value=-1.64943e-08 2.90795e-06 -8.34599e-06 0 1.13908e-05
internal_weight=110404 81448 28956 14086 24916
internal_count=110404 81448 28956 14086 24916
is_linear=0
shrinkage=0.01


Tree=123
num_leaves=6
num_cat=0
split_feature=2 2 2 2 2
split_gain=0.0265332 0.0235926 0.0228068 0.0191954 0.0100059
threshold=1.4531758427619936 -4.478102207183837 6.9724597930908212 -8.8879747390747053 6.1319255828857431
decision_type=2 2 2 2 2
left_child=1 3 4 -1 -2
right_child=2 -3 -4 -5 -6
leaf_value=1.5536969056744467e-06 -1.3507109425979662e-05 8.3745853808964473e-06 -5.1062581987814954e-07 -1.3615668209512364e-05 -3.6566348688681453e-05
leaf_weight=32364 8931 39557 15682 11130 2740
leaf_count=32364 8931 39557 15682 11130 2740
internal_value=-1.66005e-08 2.76954e-06 -8.58568e-06 -2.2592e-06 -1.91786e-05
internal_weight=110404 83051 27353 43494 11671
internal_count=110404 83051 27353 43494 11671
is_linear=0
shrinkage=0.01


Tree=124
num_leaves=6
num_cat=0
split_feature=0 1 1 1 1
split_gain=0.00736891 0.00714999 0.00816245 0.00233476 0.00150467
threshold=1.0000000180025095e-35 -0.55955016613006581 0.14610653370618823 0.6349732279777528 -0.89896544814109791
decision_type=2 2 2 2 2
left_child=3 -2 -3 4 -1
right_child=1 2 -4 -5 -6
leaf_value=-7.0290739229440405e-06 -6.8992088248768364e-06 7.640800351649758e-06 -2.1868130134114158e-06 -6.9709005587652809e-06 -8.1700711115944499e-07
leaf_weight=4462 6010 27621 11580 9119 51612
leaf_count=4462 6010 27621 11580 9119 51612
internal_value=-1.67078e-08 3.05805e-06 4.66119e-06 -2.19506e-06 -1.36486e-06
internal_weight=110404 45211 39201 65193 56074
internal_count=110404 45211 39201 65193 56074
is_linear=0
shrinkage=0.01


Tree=125
num_leaves=6
num_cat=0
split_feature=2 2 2 2 1
split_gain=0.0259943 0.0247521 0.019162 0.0182979 0.00871148
threshold=0.46587525308132177 -1.0000000180025095e-35 7.624183416366578 8.9038767814636248 -1.0000000180025095e-35
decision_type=2 2 2 2 2
left_child=1 -1 -2 -4 -3
right_child=2 4 3 -5 -6
leaf_value=-7.6168506826164688e-07 -1.6100512213639448e-05 6.7239459392109146e-07 2.7772272934270736e-05 -4.5290262912846987e-06 1.4669993964060775e-05
leaf_weight=56532 14870 6462 2052 12034 18454
leaf_count=56532 14870 6462 2052 12034 18454
internal_value=-1.73562e-08 2.84855e-06 -8.18219e-06 0 1.11602e-05
internal_weight=110404 81448 28956 14086 24916
internal_count=110404 81448 28956 14086 24916
is_linear=0
shrinkage=0.01


Tree=126
num_leaves=6
num_cat=0
split_feature=1 1 1 1 1
split_gain=0.00721579 0.026052 0.00744687 0.00364367 0.00183266
threshold=0.025812538340687755 -1.0000000180025095e-35 1.0000000180025095e-35 -0.8824939727783202 0.61217582225799572
decision_type=2 2 2 2 2
left_child=1 3 -3 -1 -2
right_child=4 2 -4 -5 -6
leaf_value=-8.7893205107137116e-06 -1.6735253668133592e-06 1.5280961136033537e-05 2.6784089111522934e-06 -9.501932401141223e-07 -6.3865290500533367e-06
leaf_weight=7210 25382 14178 7959 41311 14364
leaf_count=7210 25382 14178 7959 41311 14364
internal_value=-1.69105e-08 1.87308e-06 1.08855e-05 -2.17693e-06 -3.45229e-06
internal_weight=110404 70658 22137 48521 39746
internal_count=110404 70658 22137 48521 39746
is_linear=0
shrinkage=0.01


Tree=127
num_leaves=6
num_cat=0
split_feature=2 2 2 2 2
split_gain=0.0253809 0.0224923 0.0219702 0.0187974 0.00980905
threshold=1.4531758427619936 -4.478102207183837 6.9724597930908212 -9.0238108634948713 5.9620046615600595
decision_type=2 2 2 2 2
left_child=1 3 4 -1 -2
right_child=2 -3 -4 -5 -6
leaf_value=1.6079651511231815e-06 -1.2592164722837335e-05 8.1804940090547916e-06 -4.6962930815138642e-07 -1.333421011268378e-05 -3.4288720326857414e-05
leaf_weight=32205 8473 39557 15682 11289 3198
leaf_count=32205 8473 39557 15682 11289 3198
internal_value=-1.7013e-08 2.70736e-06 -8.39854e-06 -2.20141e-06 -1.87951e-05
internal_weight=110404 83051 27353 43494 11671
internal_count=110404 83051 27353 43494 11671
is_linear=0
shrinkage=0.01


Tree=128
num_leaves=6
num_cat=0
split_feature=1 1 1 1 1
split_gain=0.00702178 0.0253307 0.00721707 0.00356147 0.00179187
threshold=0.025812538340687755 -1.0000000180025095e-35 1.0000000180025095e-35 -0.8824939727783202 0.61217582225799572
decision_type=2 2 2 2 2
left_child=1 3 -3 -1 -2
right_child=4 2 -4 -5 -6
leaf_value=-8.6835296975932759e-06 -1.645883187601381e-06 1.5062126115149571e-05 2.6468973377448846e-06 -9.3223000215179236e-07 -6.3082544524394244e-06
leaf_weight=7210 25382 14178 7959 41311 14364
leaf_count=7210 25382 14178 7959 41311 14364
internal_value=-1.71158e-08 1.84692e-06 1.0734e-05 -2.14591e-06 -3.40635e-06
internal_weight=110404 70658 22137 48521 39746
internal_count=110404 70658 22137 48521 39746
is_linear=0
shrinkage=0.01


Tree=129
num_leaves=6
num_cat=0
split_feature=1 1 1 1 1
split_gain=0.00688296 0.0248354 0.00706707 0.00348933 0.00175419
threshold=0.025812538340687755 -1.0000000180025095e-35 1.0000000180025095e-35 -0.8824939727783202 0.61217582225799572
decision_type=2 2 2 2 2
left_child=1 3 -3 -1 -2
right_child=4 2 -4 -5 -6
leaf_value=-8.5966979707746e-06 -1.6294248911151753e-06 1.4911506662966514e-05 2.620429401323225e-06 -9.2290770502455716e-07 -6.2451731976003507e-06
leaf_weight=7210 25382 14178 7959 41311 14364
leaf_count=7210 25382 14178 7959 41311 14364
internal_value=-1.72166e-08 1.82803e-06 1.06281e-05 -2.12507e-06 -3.37305e-06
internal_weight=110404 70658 22137 48521 39746
internal_count=110404 70658 22137 48521 39746
is_linear=0
shrinkage=0.01


Tree=130
num_leaves=6
num_cat=0
split_feature=0 1 1 1 1
split_gain=0.00676647 0.00665387 0.00695931 0.00216828 0.00432696
threshold=1.0000000180025095e-35 -0.65270596742629994 0.14610653370618823 0.025812538340687755 -0.033632295206189149
decision_type=2 2 2 2 2
left_child=3 -2 -3 4 -1
right_child=1 2 -4 -5 -6
leaf_value=-2.9035427324308148e-06 -7.9819401969926467e-06 6.9541817840037823e-06 -2.0507531308513854e-06 -4.3386133776604765e-06 4.1886078149855853e-06
leaf_weight=26206 4804 28827 11580 26327 12660
leaf_count=26206 4804 28827 11580 26327 12660
internal_value=-1.73158e-08 2.9279e-06 4.29927e-06 -2.10583e-06 -5.16182e-07
internal_weight=110404 45211 40407 65193 38866
internal_count=110404 45211 40407 65193 38866
is_linear=0
shrinkage=0.01


Tree=131
num_leaves=6
num_cat=0
split_feature=2 2 2 2 2
split_gain=0.0246022 0.0215007 0.021494 0.0184042 0.00962869
threshold=1.4531758427619936 6.9724597930908212 -4.478102207183837 -8.8879747390747053 6.1319255828857431
decision_type=2 2 2 2 2
left_child=2 4 3 -1 -2
right_child=1 -3 -4 -5 -6
leaf_value=1.5993985331840443e-06 -1.2984321027477167e-05 -4.2432603400800028e-07 8.0149425365868509e-06 -1.3254843044371472e-05 -3.5610667401664322e-05
leaf_weight=32364 8931 15682 39557 11130 2740
leaf_count=32364 8931 15682 39557 11130 2740
internal_value=-1.74148e-08 -8.26976e-06 2.66441e-06 -2.13285e-06 -1.85541e-05
internal_weight=110404 27353 83051 43494 11671
internal_count=110404 27353 83051 43494 11671
is_linear=0
shrinkage=0.01


Tree=132
num_leaves=6
num_cat=0
split_feature=2 2 2 2 2
split_gain=0.0241506 0.0224989 0.0181315 0.0180416 0.0179723
threshold=0.46587525308132177 -4.478102207183837 7.624183416366578 -9.0238108634948713 8.6868214607238787
decision_type=2 2 2 2 2
left_child=1 3 -2 -1 -4
right_child=2 -3 4 -5 -6
leaf_value=1.6197841609192707e-06 -1.5591755783507993e-05 8.3862820654791489e-06 2.9521492094207614e-05 -1.3018961479585771e-05 -4.1119293326780868e-06
leaf_weight=32205 14870 37954 1824 11289 12262
leaf_count=32205 14870 37954 1824 11289 12262
internal_value=-1.75138e-08 2.7439e-06 -7.88843e-06 -2.11084e-06 3.08347e-08
internal_weight=110404 81448 28956 43494 14086
internal_count=110404 81448 28956 43494 14086
is_linear=0
shrinkage=0.01


Tree=133
num_leaves=6
num_cat=0
split_feature=2 2 2 2 2
split_gain=0.0236865 0.0207382 0.0206662 0.0176849 0.00943759
threshold=1.4531758427619936 6.9724597930908212 -4.478102207183837 -8.8879747390747053 5.9620046615600595
decision_type=2 2 2 2 2
left_child=2 4 3 -1 -2
right_child=1 -3 -4 -5 -6
leaf_value=1.5679266805736453e-06 -1.2123925258778893e-05 -4.0639989375096858e-07 7.8606475821478053e-06 -1.2992111545897858e-05 -3.3413389644235368e-05
leaf_weight=32364 8473 15682 39557 11130 3198
