tree
version=v4
num_class=1
num_tree_per_iteration=1
label_index=0
max_feature_idx=10
objective=regression
feature_names=Column_0 Column_1 Column_2 Column_3 Column_4 Column_5 Column_6 Column_7 Column_8 Column_9 Column_10
feature_infos=[0:0.7162229260923314] [0.46506071389014014:20.4209205808591] [-0.37954567924312732:0.12944539678761882] [-70000000:70000000] [0:100000000] [1.1167821838269782:52.547015713236391] [0.002486825329792055:0.67170969324328145] [0:13428575.189825613] [-0.24085745773956885:0.48005684740359889] -1:2:1 [-1137.2418836935428:755.28784374309362]
tree_sizes=1571 1555 1546 1549 1539 1551 1561 1520 1557 1547 1540 1568 1546 1544 1548 1554 1508 1550 1537 1559 1559 1576 1532 1569 1532 1525 1522 1548 1526 1511 1522 1571 1573 1568 1563 1539 1567 1567 1546 1575 1581 1555 1580 1560 1568 1573 1555 1564 1571 1525

Tree=0
num_leaves=15
num_cat=0
split_feature=4 7 1 1 8 7 6 4 7 1 8 8 6 8
split_gain=0.525834 0.321456 0.285596 0.477049 0.57114 0.290166 0.150949 0.148202 0.0502974 0.0455791 0.0509567 0.0284338 0.0197928 0.000667954
threshold=50000000.605290145 55123.370049640384 6.1827636104370951 9.1180754775924964 -0.022487110889034882 1160310.2408759205 0.2586718312753003 0.14643818726861638 27097.04873740637 1.1396961370154515 0.0073183382382515571 0.128685354939823 0.37163173506456043 -0.042909134036565787
decision_type=2 2 2 2 2 2 2 2 2 2 2 2 2 2
left_child=7 6 12 4 -4 -5 8 -1 -2 11 -11 -8 13 -3
right_child=1 2 3 5 -6 -7 9 -9 -10 10 -12 -13 -14 -15
leaf_value=3.9601614204921748e-05 -5.6088395194467316e-05 -0.00015375153990331578 -5.6088395194467316e-05 -4.2906439294193333e-05 7.6696830274846026e-05 -0.00014120881576704461 -1.8947422111491817e-05 0.00024995661290551309 3.6667251529313823e-05 -6.092334912511521e-05 -7.072376217749788e-05 -6.6130065460288061e-05 -5.6088395194467316e-05 -0.00011053421575909684
leaf_weight=343 237 229 1478 17884 1848 778 889 145 492 34254 22889 388 58 891
leaf_count=343 237 229 1478 17884 1848 778 889 145 492 34254 22889 388 58 891
internal_value=-5.60884e-05 -5.7059e-05 -4.1306e-05 -3.71553e-05 1.81108e-05 -4.71407e-05 -6.32711e-05 0.000107472 7.82386e-06 -6.42016e-05 -6.48928e-05 -3.52385e-05 -0.000116635 -0.000121641
internal_weight=82803 82315 23166 21988 3326 18662 59149 488 729 58420 57143 1277 1178 1120
internal_count=82803 82315 23166 21988 3326 18662 59149 488 729 58420 57143 1277 1178 1120
is_linear=0
shrinkage=1


Tree=1
num_leaves=15
num_cat=0
split_feature=5 8 3 8 10 6 6 10 5 7 5 5 7 6
split_gain=0.716618 0.514897 0.398023 0.35566 0.295756 0.509336 0.145326 0.144757 0.152446 0.147385 0.137851 0.15285 0.154641 0.119583
threshold=2.1920803104026487 -0.019078178784966943 -0.78608812787665883 0.079452765578015713 -1.0000000180025095e-35 0.33367583389815897 0.2586718312753003 -578.66970962996766 1.5790412508681813 952371.27617292001 3.7538048709159173 2.4901345504882442 291489.61069683271 0.34157536781821218
decision_type=2 2 2 2 2 2 2 2 2 2 2 2 2 2
left_child=6 10 3 13 -4 -6 -1 -8 -9 -10 11 12 -2 -3
right_child=1 2 4 -5 5 -7 7 8 9 -11 -12 -13 -14 -15
leaf_value=6.3599461789834059e-05 5.9733902914955557e-05 -0.00011998327706154174 2.8596266124693034e-05 0.00021493699412320221 -3.6576289075435861e-05 0.00013165429874006584 2.2220815548810668e-05 -5.8403772453224633e-06 -3.2782162513945191e-05 8.2477788870204271e-05 -5.6237239436661474e-05 3.7952969188360133e-05 -6.9051903635416602e-05 4.7983194613604528e-06
leaf_weight=729 294 205 1852 198 498 3180 3939 56973 8174 275 1203 1708 904 2671
leaf_count=729 294 205 1852 198 498 3180 3939 56973 8174 275 1203 1708 904 2671
internal_value=0 3.45373e-05 5.65745e-05 1.00267e-05 8.1994e-05 0.000108194 -6.26429e-06 -7.03507e-06 -8.83491e-06 -2.87301e-05 -1.1e-05 6.87316e-06 -3.5349e-05 -3.24626e-06
internal_weight=82803 12713 8604 3074 5530 3678 70090 69361 65422 8449 4109 2906 1198 2876
internal_count=82803 12713 8604 3074 5530 3678 70090 69361 65422 8449 4109 2906 1198 2876
is_linear=0
shrinkage=0.005


Tree=2
num_leaves=15
num_cat=0
split_feature=5 8 3 8 1 7 1 5 1 7 1 7 7 5
split_gain=0.709493 0.509773 0.393996 0.352118 0.326479 0.209029 0.142637 0.136487 0.161643 0.118396 0.1143 0.113586 0.0889762 0.159955
threshold=2.1920803104026487 -0.019078178784966943 -0.78608812787665883 0.079452765578015713 9.1180754775924964 1040154.8986812589 2.3021304486958871 3.7538048709159173 15.711378721587115 1334384.8920437524 20.093939506989731 418498.27437700826 952371.27617292001 1.9983343782813803
decision_type=2 2 2 2 2 2 2 2 2 2 2 2 2 2
left_child=10 7 3 9 6 -6 -4 8 11 -3 12 -2 13 -1
right_child=1 2 4 -5 5 -7 -8 -9 -10 -11 -12 -13 -14 -15
leaf_value=-5.9117996010459452e-06 5.0766422261993107e-05 4.7743327856115391e-06 0.00030793660794288665 0.00021386501086879901 7.0089857405445849e-05 -3.6696804369187708e-05 0.00012510234207325398 -5.5956169894215583e-05 -6.6209652978698689e-05 -0.00011938482200060664 5.9854899026434142e-05 -2.247713926316207e-05 8.2066149236178018e-05 -5.1410260031494943e-05
leaf_weight=67168 1581 2671 140 198 3430 496 1464 1203 585 205 640 740 275 2007
leaf_count=67168 1581 2671 140 198 3430 496 1464 1203 585 205 640 740 275 2007
internal_value=0 3.43657e-05 5.62931e-05 9.97666e-06 8.15841e-05 5.59591e-05 0.00014271 -1.0942e-05 6.83882e-06 -3.22578e-06 -6.23261e-06 2.63376e-05 -6.87804e-06 -7.26837e-06
internal_weight=82803 12713 8604 3074 5530 3926 1604 4109 2906 2876 70090 2321 69450 69175
internal_count=82803 12713 8604 3074 5530 3926 1604 4109 2906 2876 70090 2321 69450 69175
is_linear=0
shrinkage=0.005


Tree=3
num_leaves=15
num_cat=0
split_feature=4 0 2 1 2 10 6 6 4 1 10 2 0 10
split_gain=0.510926 0.253725 0.381422 0.363709 0.812052 0.196995 0.153989 0.145743 0.145388 0.0888657 0.0838476 0.0577859 0.0519599 0.0516783
threshold=50000000.605290145 0.05578327034245685 -1.9335538725684382e-11 15.112827140453616 -1.1693918056110418e-11 -32.1702831300315 0.38253101637816755 0.2586718312753003 0.14643818726861638 11.623838860288041 536.06763760751539 0.097593052860122417 0.36989354441652328 365.48313038701446
decision_type=2 2 2 2 2 2 2 2 2 2 2 2 2 2
left_child=8 2 6 4 -4 -5 9 13 -1 -2 12 -12 -9 -3
right_child=1 7 3 5 -6 -7 -8 10 -10 -11 11 -13 -14 -15
leaf_value=9.3930706182180254e-05 -3.5536264866695186e-05 9.0788029369152549e-05 0.00011675759578297796 1.099297023164214e-05 1.692066508258104e-05 -4.2992641961066517e-05 5.9015068714760563e-05 -1.787414891713938e-06 0.00030236104880923667 -0.00011091471174776812 3.7581388961690532e-07 -7.591822505919181e-05 -1.1464458218746791e-05 0
leaf_weight=343 2248 511 2563 5110 10367 2499 338 28701 145 540 277 743 28200 218
leaf_count=343 2248 511 2563 5110 10367 2499 338 28701 145 540 277 743 28200 218
internal_value=0 -9.55881e-07 1.28278e-05 2.07382e-05 3.69076e-05 -6.41048e-06 -3.83419e-05 -6.56022e-06 0.000161226 -5.10499e-05 -7.48333e-06 -5.27593e-05 -6.62733e-06 6.33112e-05
internal_weight=82803 82315 23665 20539 12930 7609 3126 58650 488 2788 57921 1020 56901 729
internal_count=82803 82315 23665 20539 12930 7609 3126 58650 488 2788 57921 1020 56901 729
is_linear=0
shrinkage=0.005


Tree=4
num_leaves=15
num_cat=0
split_feature=4 0 2 1 2 10 4 1 1 10 0 0 10 2
split_gain=0.506001 0.251195 0.377639 0.360091 0.803917 0.195036 0.143784 0.131772 0.106926 0.0871571 0.0728811 0.0978725 0.0908113 0.0564909
threshold=50000000.605290145 0.05578327034245685 -1.9335538725684382e-11 15.112827140453616 -1.1693918056110418e-11 -32.1702831300315 0.14643818726861638 11.623838860288041 5.76431856950067 536.06763760751539 0.36989354441652328 0.4275474172373917 61.724283302698161 0.097593052860122417
decision_type=2 2 2 2 2 2 2 2 2 2 2 2 2 2
left_child=6 2 7 4 -4 -5 -1 8 -2 10 12 -12 -3 -11
right_child=1 9 3 5 -6 -7 -8 -9 -10 13 11 -13 -14 -15
leaf_value=9.3461733792326915e-05 -6.7504974488234609e-05 -4.6706254945773251e-06 0.00011617392135424319 1.093801058839244e-05 1.6836065656198221e-05 -4.2777721538528362e-05 0.00030085444680808747 -0.00011036064925686062 0 0 -2.3382655308680625e-05 -3.9594094455355976e-06 1.6933572335297511e-05 -7.5538888938158822e-05
leaf_weight=343 863 23271 2563 5110 10367 2499 145 540 1723 289 10684 17516 6147 743
leaf_count=343 863 23271 2563 5110 10367 2499 145 540 1723 289 10684 17516 6147 743
internal_value=0 -9.50965e-07 1.27637e-05 2.06351e-05 3.6724e-05 -6.37679e-06 0.000160447 -3.81503e-05 -2.20866e-05 -6.52744e-06 -5.66277e-06 -1.14071e-05 -7.11568e-08 -5.23559e-05
internal_weight=82803 82315 23665 20539 12930 7609 488 3126 2586 58650 57618 28200 29418 1032
internal_count=82803 82315 23665 20539 12930 7609 488 3126 2586 58650 57618 28200 29418 1032
is_linear=0
shrinkage=0.005


Tree=5
num_leaves=15
num_cat=0
split_feature=5 2 8 2 1 5 1 2 1 3 1 2 7 5
split_gain=0.692695 0.550971 0.697249 0.684785 0.440873 0.193521 0.532067 0.146159 0.141333 0.121135 0.112638 0.0872797 0.121942 0.110894
threshold=2.1920803104026487 -1.3361511896903264e-11 0.034709377485134939 -1.1693918056110418e-11 9.1180754775924964 2.7690153936392066 11.514193285779518 -1.3214485061752155e-11 2.3021304486958871 -1.0624921727917207 20.093939506989731 0.043316895034455911 23899.325918171362 1.2816729187972631
decision_type=2 2 2 2 2 2 2 2 2 2 2 2 2 2
left_child=10 2 5 7 -5 -2 -7 -3 -4 -6 11 12 13 -1
right_child=1 3 8 4 9 6 -8 -9 -10 -11 -12 -13 -14 -15
leaf_value=-1.9723413736363319e-05 -7.6190485775924044e-05 5.4418255273344394e-05 0.00030339706198600689 0.00014277951351973259 -1.4022074881386088e-05 -3.0246512947530136e-05 0.0001591348809005577 0.00019493616037121364 0.00010344756737513869 3.7031001707028695e-05 5.9446286194586374e-05 -2.0291013653878564e-05 2.7599339851369703e-06 0
leaf_weight=17337 1378 292 140 883 1608 2804 426 1022 461 3699 640 10310 29352 12451
leaf_count=17337 1378 292 140 883 1608 2804 426 1022 461 3699 640 10310 29352 12451
internal_value=0 3.39569e-05 -5.10904e-06 6.14067e-05 3.8864e-05 -2.64693e-05 -4.47464e-06 0.000165644 0.000154395 2.10912e-05 -6.15787e-06 -6.79885e-06 -4.40431e-06 -1.15475e-05
internal_weight=82803 12713 5209 7504 6190 4608 3230 1314 601 5307 70090 69450 59140 29788
internal_count=82803 12713 5209 7504 6190 4608 3230 1314 601 5307 70090 69450 59140 29788
is_linear=0
shrinkage=0.005


Tree=6
num_leaves=15
num_cat=0
split_feature=5 2 8 2 1 5 1 2 6 10 5 2 1 6
split_gain=0.685892 0.545484 0.69047 0.678002 0.436457 0.191588 0.526769 0.144536 0.141855 0.140701 0.14966 0.145008 0.139777 0.110203
threshold=2.1920803104026487 -1.3361511896903264e-11 0.034709377485134939 -1.1693918056110418e-11 9.1180754775924964 2.7690153936392066 11.514193285779518 -1.3214485061752155e-11 0.2586718312753003 -578.66970962996766 1.5790412508681813 -1.7936990781564073e-11 2.3021304486958871 0.36431179662055091
decision_type=2 2 2 2 2 2 2 2 2 2 2 2 2 2
left_child=8 2 5 7 -5 -2 -7 -3 -1 -10 -11 -12 -4 -6
right_child=1 3 12 4 13 6 -8 -9 9 10 11 -13 -14 -15
leaf_value=6.2896238948897197e-05 -7.5809671010153087e-05 5.4146629596615619e-05 0.00030188547440695166 0.00014206601937260684 4.8359473442550059e-05 -3.0095307650740752e-05 0.00015834014301580255 0.00019396195339611369 2.1952564962215447e-05 -5.6965059126543845e-06 7.9508307292733507e-05 -3.2480422932504469e-05 0.00010293088983270145 1.169512224303367e-06
leaf_weight=729 1378 292 140 883 2175 2804 426 1022 3939 56973 287 8162 461 3132
leaf_count=729 1378 292 140 883 2175 2804 426 1022 3939 56973 287 8162 461 3132
internal_value=0 3.37903e-05 -5.07848e-06 6.11032e-05 3.86697e-05 -2.6337e-05 -4.4483e-06 0.000164826 -6.12705e-06 -6.88899e-06 -8.66388e-06 -2.8376e-05 0.000153645 2.09834e-05
internal_weight=82803 12713 5209 7504 6190 4608 3230 1314 70090 69361 65422 8449 601 5307
internal_count=82803 12713 5209 7504 6190 4608 3230 1314 70090 69361 65422 8449 601 5307
is_linear=0
shrinkage=0.005


Tree=7
num_leaves=15
num_cat=0
split_feature=4 7 2 1 2 10 6 6 4 10 1 10 7 2
split_gain=0.491094 0.302291 0.395232 0.473473 0.672193 0.180563 0.15047 0.144448 0.139315 0.104967 0.0858988 0.0511552 0.0501953 0.0315232
threshold=50000000.605290145 55123.370049640384 -1.9335538725684382e-11 15.112827140453616 -1.1693918056110418e-11 -32.1702831300315 0.38253101637816755 0.2586718312753003 0.14643818726861638 536.06763760751539 11.623838860288041 365.48313038701446 23899.325918171362 -0.077448498759103632
decision_type=2 2 2 2 2 2 2 2 2 2 2 2 2 2
left_child=8 7 6 4 -4 -5 10 11 -1 12 -3 -2 -9 -11
right_child=1 2 3 5 -6 -7 -8 9 -10 13 -12 -13 -14 -15
leaf_value=9.1961291276346869e-05 8.9921984286252366e-05 -3.4937096586507687e-05 0.00011456561361747045 8.7062144520485867e-06 2.2664636097121209e-05 -4.2258509220248556e-05 5.8567673643489342e-05 -1.1461666868427122e-05 0.00029640787393110722 0 -0.00010911290697021338 0 -1.9779348111758461e-06 -7.2143377419140662e-05
leaf_weight=343 511 2248 2563 5562 9416 2499 338 29788 145 173 540 218 27640 819
leaf_count=343 511 2248 2563 5562 9416 2499 338 29788 145 173 540 218 27640 819
internal_value=0 -9.35206e-07 1.434e-05 2.2575e-05 4.25402e-05 -6.78494e-06 -3.7648e-05 -6.96015e-06 0.000158068 -7.87126e-06 -5.02175e-05 6.2582e-05 -6.94075e-06 -5.91897e-05
internal_weight=82803 82315 23166 20040 11979 8061 3126 59149 488 58420 2788 729 57428 992
internal_count=82803 82315 23166 20040 11979 8061 3126 59149 488 58420 2788 729 57428 992
is_linear=0
shrinkage=0.005


Tree=8
num_leaves=15
num_cat=0
split_feature=5 8 3 8 6 7 6 5 5 0 6 7 5 5
split_gain=0.673867 0.485845 0.383892 0.338826 0.278315 0.322411 0.139071 0.131522 0.143313 0.147106 0.112018 0.084594 0.152582 0.0750923
threshold=2.1920803104026487 -0.019078178784966943 -0.78608812787665883 0.079452765578015713 0.32047244224534316 325202.78600627551 0.2586718312753003 3.7538048709159173 2.4901345504882442 0.036736179778659096 0.34157536781821218 952371.27617292001 1.9983343782813803 1.2799065304589672
decision_type=2 2 2 2 2 2 2 2 2 2 2 2 2 2
left_child=6 7 3 10 -4 -6 -1 8 9 -2 -3 12 13 -8
right_child=1 2 4 -5 5 -7 11 -9 -10 -11 -12 -13 -14 -15
leaf_value=6.2267033381624496e-05 -6.7043886567268277e-05 -0.00011669498178292147 -9.6189024691163915e-06 0.00020922161997742006 6.7099192102163565e-05 0.0001613249521976515 -1.178568457022901e-05 -5.4918357455209338e-05 3.6830249501060543e-05 5.8514673311456234e-05 3.9946378501647756e-06 7.9868420326368995e-05 -5.0327018137036362e-05 -1.0601759413292399e-06
leaf_weight=729 904 205 707 198 3499 1324 29915 1203 1708 294 2671 275 2007 37164
leaf_count=729 904 205 707 198 3499 1324 29915 1203 1708 294 2671 275 2007 37164
internal_value=0 3.3494e-05 5.4902e-05 9.17917e-06 7.98631e-05 9.34982e-05 -6.07186e-06 -1.0726e-05 6.71456e-06 -3.41332e-05 -3.75774e-06 -6.8266e-06 -7.20846e-06 -5.88072e-06
internal_weight=82803 12713 8604 3074 5530 4823 70090 4109 2906 1198 2876 69361 69086 67079
internal_count=82803 12713 8604 3074 5530 4823 70090 4109 2906 1198 2876 69361 69086 67079
is_linear=0
shrinkage=0.005


Tree=9
num_leaves=15
num_cat=0
split_feature=5 8 3 8 1 7 6 1 5 1 1 6 7 7
split_gain=0.667181 0.481011 0.380008 0.335451 0.310271 0.19846 0.137691 0.130871 0.130221 0.152123 0.113423 0.110907 0.105692 0.0851376
threshold=2.1920803104026487 -0.019078178784966943 -0.78608812787665883 0.079452765578015713 9.1180754775924964 1040154.8986812589 0.2586718312753003 2.3021304486958871 3.7538048709159173 15.711378721587115 20.093939506989731 0.34157536781821218 418498.27437700826 952371.27617292001
decision_type=2 2 2 2 2 2 2 2 2 2 2 2 2 2
left_child=6 8 3 11 7 -6 -1 -4 9 12 13 -3 -2 -8
right_child=1 2 4 -5 5 -7 10 -9 -10 -11 -12 -13 -14 -15
leaf_value=6.1955909019171458e-05 4.9196314156689325e-05 -0.00011611292336969988 0.00029810090824378344 0.00020817813801282128 6.8233099253737277e-05 -3.5744315448755152e-05 -7.8284874434467802e-06 0.00012206589622157074 -5.4643879183336869e-05 -6.4145001943194253e-05 5.900140798092211e-05 3.9746682883913127e-06 -2.1375722963524067e-05 7.9469803277869617e-05
leaf_weight=729 1581 205 140 198 3430 496 68446 1464 1203 585 640 2671 740 275
leaf_count=729 1581 205 140 198 3430 496 68446 1464 1203 585 640 2671 740 275
internal_value=0 3.33276e-05 5.46291e-05 9.13335e-06 7.94639e-05 5.44573e-05 -6.04149e-06 0.000139077 -1.06693e-05 6.68101e-06 -6.79265e-06 -3.73471e-06 2.56193e-05 -7.44219e-06
internal_weight=82803 12713 8604 3074 5530 3926 70090 1604 4109 2906 69361 2876 2321 68721
internal_count=82803 12713 8604 3074 5530 3926 70090 1604 4109 2906 69361 2876 2321 68721
is_linear=0
shrinkage=0.005


Tree=10
num_leaves=15
num_cat=0
split_feature=5 8 6 7 7 6 10 5 7 5 5 0 5 7
split_gain=0.66051 0.476335 0.347682 0.520119 0.30412 0.136323 0.138092 0.147816 0.137213 0.128899 0.140777 0.14459 0.112872 0.109317
threshold=2.1920803104026487 -0.019078178784966943 0.32047244224534316 325202.78600627551 74889.625468536469 0.2586718312753003 -578.66970962996766 1.5790412508681813 952371.27617292001 3.7538048709159173 2.4901345504882442 0.036736179778659096 2.817819996474173 1334384.8920437524
decision_type=2 2 2 2 2 2 2 2 2 2 2 2 2 2
left_child=5 9 12 4 -4 -1 -7 -8 -9 10 11 -2 -3 -5
right_child=1 2 3 13 -6 6 7 8 -10 -11 -12 -13 -14 -15
leaf_value=6.1646343147281192e-05 -6.647581926087926e-05 -9.6655918158441124e-05 0.00015094543088759694 0.00013162009732747631 3.1826449399894668e-05 2.181428568625546e-05 -5.5678256106483383e-06 -3.2022838771073552e-05 7.907317562566262e-05 -5.4370773875155618e-05 3.6493594677725612e-05 5.7977031636113499e-05 1.1066612833335323e-05 0.00030043465912007214
leaf_weight=729 904 423 612 1423 5524 3939 56973 8174 275 1203 1708 294 489 133
leaf_count=729 904 423 612 1423 5524 3939 56973 8174 275 1203 1708 294 489 133
internal_value=0 3.3161e-05 5.4359e-05 6.54207e-05 4.4126e-05 -6.01075e-06 -6.75832e-06 -8.51702e-06 -2.81065e-05 -1.06191e-05 6.63897e-06 -3.38366e-05 -3.61827e-05 0.000147748
internal_weight=82803 12713 8604 7692 6136 70090 69361 65422 8449 4109 2906 1198 912 1556
internal_count=82803 12713 8604 7692 6136 70090 69361 65422 8449 4109 2906 1198 912 1556
is_linear=0
shrinkage=0.005


Tree=11
num_leaves=15
num_cat=0
split_feature=5 2 2 8 1 5 1 2 6 10 5 2 1 3
split_gain=0.654012 0.525169 0.660931 0.658521 0.426074 0.183493 0.511732 0.140861 0.134969 0.136722 0.146313 0.138842 0.134047 0.118204
threshold=2.1920803104026487 -1.3361511896903264e-11 -1.1693918056110418e-11 0.034709377485134939 9.1180754775924964 2.7690153936392066 11.514193285779518 -1.3214485061752155e-11 0.2586718312753003 -578.66970962996766 1.5790412508681813 -1.7936990781564073e-11 2.3021304486958871 -1.0624921727917207
decision_type=2 2 2 2 2 2 2 2 2 2 2 2 2 2
left_child=8 3 7 5 -4 -2 -7 -3 -1 -10 -11 -12 -5 -6
right_child=1 2 4 12 13 6 -8 -9 9 10 11 -13 -14 -15
leaf_value=6.1338323393288129e-05 -7.4325810804893336e-05 5.2824892648156185e-05 0.00013979643903656817 0.00029516092624210378 -1.4526751905199566e-05 -2.9752132057291503e-05 0.00015596877940759013 0.00019097316900203016 2.1705228160564579e-05 -5.5399867424716524e-06 7.7531031859309787e-05 -3.1984828076681068e-05 0.00010004089915332105 3.5922875561076941e-05
leaf_weight=729 1378 292 883 140 1608 2804 426 1022 3939 56973 287 8162 461 3699
leaf_count=729 1378 292 883 140 1608 2804 426 1022 3939 56973 287 8162 461 3699
internal_value=0 3.29983e-05 5.9799e-05 -5.13261e-06 3.76449e-05 -2.59037e-05 -4.46345e-06 0.000162207 -5.98033e-06 -6.72435e-06 -8.47443e-06 -2.79645e-05 0.000149857 2.01659e-05
internal_weight=82803 12713 7504 5209 6190 4608 3230 1314 70090 69361 65422 8449 601 5307
internal_count=82803 12713 7504 5209 6190 4608 3230 1314 70090 69361 65422 8449 601 5307
is_linear=0
shrinkage=0.005


Tree=12
num_leaves=15
num_cat=0
split_feature=5 2 2 8 2 5 5 2 7 10 2 7 5 5
split_gain=0.64758 0.519939 0.654385 0.652124 0.376516 0.18166 0.351935 0.139294 0.129985 0.128218 0.157584 0.108698 0.109195 0.101924
threshold=2.1920803104026487 -1.3361511896903264e-11 -1.1693918056110418e-11 0.034709377485134939 0.066070218503936864 2.7690153936392066 3.4531489661231283 -1.3214485061752155e-11 1334384.8920437524 -578.66970962996766 0.043316895034455911 23899.325918171362 1.2816729187972631 1.7222073992543727
decision_type=2 2 2 2 2 2 2 2 2 2 2 2 2 2
left_child=9 3 7 5 -4 -2 -7 -3 -5 13 11 12 -11 -1
right_child=1 2 4 8 -6 6 -8 -9 -10 10 -12 -13 -14 -15
leaf_value=4.6875179500139735e-05 -7.3954315953798556e-05 5.2561220005637189e-05 2.2804040713540257e-05 0.00010136568199055718 0.00014589676942184973 7.7351356888336021e-05 -3.810265333660954e-05 0.00019001876952858026 0.00029746784211209652 -1.9386110781131e-05 -2.781465981306424e-05 2.403617100429347e-06 0 -2.8854898328228871e-06
leaf_weight=1988 1378 292 5474 468 716 920 2310 1022 133 17337 8478 27885 12451 1951
leaf_count=1988 1378 292 5474 468 716 920 2310 1022 133 17337 8478 27885 12451 1951
internal_value=0 3.28364e-05 5.95035e-05 -5.10193e-06 3.74567e-05 -2.57742e-05 -4.43716e-06 0.000161406 0.00014913 -5.95007e-06 -7.6283e-06 -4.61732e-06 -1.12736e-05 2.15967e-05
internal_weight=82803 12713 7504 5209 6190 4608 3230 1314 601 70090 66151 57673 29788 3939
internal_count=82803 12713 7504 5209 6190 4608 3230 1314 601 70090 66151 57673 29788 3939
is_linear=0
shrinkage=0.005


Tree=13
num_leaves=15
num_cat=0
split_feature=5 8 3 8 1 7 6 5 1 1 1 6 7 7
split_gain=0.641256 0.462814 0.369898 0.326704 0.297984 0.192163 0.133458 0.126172 0.145955 0.124964 0.110472 0.107036 0.101714 0.082569
threshold=2.1920803104026487 -0.019078178784966943 -0.78608812787665883 0.079452765578015713 9.1180754775924964 1040154.8986812589 0.2586718312753003 3.7538048709159173 15.711378721587115 2.3021304486958871 20.093939506989731 0.34157536781821218 418498.27437700826 952371.27617292001
decision_type=2 2 2 2 2 2 2 2 2 2 2 2 2 2
left_child=6 7 3 11 9 -6 -1 8 12 -4 13 -3 -2 -8
right_child=1 2 4 -5 5 -7 10 -9 -10 -11 -12 -13 -14 -15
leaf_value=6.1019832720813128e-05 4.8299076529622489e-05 -0.00011438355915964448 0.0002922571732851534 0.00020513292781771712 6.7103701081540137e-05 -3.5164223168712823e-05 -7.6827578761675698e-06 -5.3760856778312441e-05 -6.2751690778574325e-05 0.00011982225660536679 5.826899643301648e-05 3.5428358392541508e-06 -2.089434229418142e-05 7.8279576619272336e-05
leaf_weight=729 1581 205 140 198 3430 496 68446 1203 585 1464 640 2671 740 275
leaf_count=729 1581 205 140 198 3430 496 68446 1203 585 1464 640 2671 740 275
internal_value=0 3.26763e-05 5.35719e-05 8.6771e-06 7.80729e-05 5.35439e-05 -5.9203e-06 -1.04708e-05 6.59612e-06 0.000136517 -6.66033e-06 -4.01221e-06 2.51616e-05 -7.30182e-06
internal_weight=82803 12713 8604 3074 5530 3926 70090 4109 2906 1604 69361 2876 2321 68721
internal_count=82803 12713 8604 3074 5530 3926 70090 4109 2906 1604 69361 2876 2321 68721
is_linear=0
shrinkage=0.005


Tree=14
num_leaves=15
num_cat=0
split_feature=4 7 2 1 2 10 4 1 2 1 7 7 10 7
split_gain=0.456223 0.283225 0.37551 0.443367 0.646246 0.172797 0.131747 0.123589 0.1073 0.1028 0.0997105 0.10741 0.0574301 0.0462621
threshold=50000000.605290145 55123.370049640384 -1.9335538725684382e-11 15.112827140453616 -1.1693918056110418e-11 -32.1702831300315 0.14643818726861638 11.623838860288041 0.07867072093583613 5.76431856950067 23899.325918171362 18848.639990258187 536.06763760751539 24291.156728057802
decision_type=2 2 2 2 2 2 2 2 2 2 2 2 2 2
left_child=6 8 7 4 -4 -5 -1 9 10 -3 11 -2 -10 -12
right_child=1 2 3 5 -6 -7 -8 -9 12 -11 13 -13 -14 -15
leaf_value=8.7832014743088554e-05 -1.1899956029186235e-06 -6.5734299707978275e-05 0.00011185747504830969 8.6612333255470739e-06 2.1743130934619922e-05 -4.1195493950972573e-05 0.00028697933335996575 -0.00010674127294862028 -2.1812425855808042e-05 0 4.3857504063345206e-05 -2.0384572299989879e-05 -7.3691836362510738e-05 1.0132142573558608e-06
leaf_weight=343 14417 863 2563 5562 9416 2499 145 540 2944 1723 652 15371 744 25021
leaf_count=343 14417 863 2563 5562 9416 2499 145 540 2944 1723 652 15371 744 25021
internal_value=0 -8.97953e-07 1.38866e-05 2.19157e-05 4.12363e-05 -6.48639e-06 0.000152356 -3.67814e-05 -6.73073e-06 -2.11882e-05 -4.94089e-06 -1.11788e-05 -3.29647e-05 2.19951e-06
internal_weight=82803 82315 23166 20040 11979 8061 488 3126 59149 2586 55461 29788 3688 25673
internal_count=82803 82315 23166 20040 11979 8061 488 3126 59149 2586 55461 29788 3688 25673
is_linear=0
shrinkage=0.005


Tree=15
num_leaves=15
num_cat=0
split_feature=5 2 2 8 1 5 1 2 6 1 3 1 7 5
split_gain=0.629845 0.507551 0.642122 0.6347 0.41641 0.177454 0.499139 0.137169 0.132015 0.128134 0.11616 0.109512 0.0805001 0.144238
threshold=2.1920803104026487 -1.3361511896903264e-11 -1.1693918056110418e-11 0.034709377485134939 9.1180754775924964 2.7690153936392066 11.514193285779518 -1.3214485061752155e-11 0.2586718312753003 2.3021304486958871 -1.0624921727917207 20.273236450899052 952371.27617292001 1.9983343782813803
decision_type=2 2 2 2 2 2 2 2 2 2 2 2 2 2
left_child=8 3 7 5 -4 -2 -7 -3 -1 -5 -6 12 13 -10
right_child=1 2 4 9 10 6 -8 -9 11 -11 -12 -13 -14 -15
leaf_value=6.0709879028148316e-05 -7.3115166730399581e-05 5.1608544305334079e-05 0.00013787357296044114 0.00028937130622910432 -1.4788636280808057e-05 -2.938068165620485e-05 0.00015403897306092459 0.00018807012817826949 -6.1394596231235694e-06 9.815031742248386e-05 3.5232017714216871e-05 8.5301384449683516e-05 7.7445669084476369e-05 -4.9374877862036948e-05
leaf_weight=729 1378 292 883 140 1608 2804 426 1022 66761 461 3699 318 275 2007
leaf_count=729 1378 292 883 140 1608 2804 426 1022 66761 461 3699 318 275 2007
internal_value=0 3.23849e-05 5.8733e-05 -5.09391e-06 3.68895e-05 -2.54941e-05 -4.39576e-06 0.000159678 -5.8668e-06 0.000147054 1.9605e-05 -6.60301e-06 -7.06313e-06 -7.43799e-06
internal_weight=82803 12713 7504 5209 6190 4608 3230 1314 70090 601 5307 69361 69043 68768
internal_count=82803 12713 7504 5209 6190 4608 3230 1314 70090 601 5307 69361 69043 68768
is_linear=0
shrinkage=0.005


Tree=16
num_leaves=15
num_cat=0
split_feature=4 7 10 3 8 1 1 6 4 10 10 7 3 1
split_gain=0.44728 0.277925 0.359324 0.302192 0.234909 0.514854 0.20087 0.134418 0.128963 0.100612 0.0505749 0.0488396 0.0441558 0.0301917
threshold=50000000.605290145 55123.370049640384 146.03320058146667 -0.37189117087571427 0.035804294440227778 9.0229346440645397 6.1827636104370951 0.2586718312753003 0.14643818726861638 536.06763760751539 365.48313038701446 23899.325918171362 -1.2353244535033108 2.5054413119107166
decision_type=2 2 2 2 2 2 2 2 2 2 2 2 2 2
left_child=8 7 4 12 6 -6 -3 10 -1 11 -2 -9 -4 -11
right_child=1 2 3 -5 5 -7 -8 9 -10 13 -12 -13 -14 -15
leaf_value=8.6901719130280295e-05 8.7612860627610777e-05 -6.2922130056238448e-05 -1.7317904265633862e-05 0.00012628471356168828 0.00016127345276498073 3.7165255921092931e-06 5.2513975292123749e-06 -1.1092581655189579e-05 0.00028414034543885401 0 0 -1.7400243562993233e-06 4.8699805492605568e-05 -7.0595869826425525e-05
leaf_weight=343 511 1151 600 1241 760 1738 17266 29788 145 176 218 27640 410 816
leaf_count=343 511 1151 600 1241 760 1738 17266 29788 145 176 218 27640 410 816
internal_value=0 -8.882e-07 1.3757e-05 7.38949e-05 7.16349e-06 5.26755e-05 8.5345e-07 -6.66641e-06 0.000150856 -7.54669e-06 6.04065e-05 -6.6348e-06 7.01818e-06 -5.77885e-05
internal_weight=82803 82315 23166 2251 20915 2498 18417 59149 488 58420 729 57428 1010 992
internal_count=82803 82315 23166 2251 20915 2498 18417 59149 488 58420 729 57428 1010 992
is_linear=0
shrinkage=0.005


Tree=17
num_leaves=15
num_cat=0
split_feature=5 2 2 8 1 5 1 2 1 3 1 2 7 5
split_gain=0.618661 0.499942 0.634443 0.62274 0.408644 0.176334 0.493396 0.13512 0.125419 0.114257 0.106445 0.0863488 0.121177 0.108026
threshold=2.1920803104026487 -1.3361511896903264e-11 -1.1693918056110418e-11 0.034709377485134939 9.1180754775924964 2.7690153936392066 11.514193285779518 -1.3214485061752155e-11 2.3021304486958871 -1.0624921727917207 20.273236450899052 0.043316895034455911 23899.325918171362 1.2816729187972631
decision_type=2 2 2 2 2 2 2 2 2 2 2 2 2 2
left_child=10 3 7 5 -4 -2 -7 -3 -5 -6 11 12 13 -1
right_child=1 2 4 8 9 6 -8 -9 -10 -11 -12 -13 -14 -15
leaf_value=-1.9106838928513145e-05 -7.2775970376700062e-05 5.123405206939066e-05 0.0001365743788294497 0.00028651394281417028 -1.4698275105102063e-05 -2.9120282012879753e-05 0.00015324345753819693 0.00018677669414062927 9.7130359345209554e-05 3.4905372429067788e-05 8.4849332753141976e-05 -1.9681189614258041e-05 3.1920859958456718e-06 0
leaf_weight=17337 1378 292 883 140 1608 2804 426 1022 461 3699 318 10310 29674 12451
leaf_count=17337 1378 292 883 140 1608 2804 426 1022 461 3699 318 10310 29674 12451
internal_value=0 3.20973e-05 5.82476e-05 -5.09652e-06 3.65324e-05 -2.53078e-05 -4.27472e-06 0.000158589 0.000145604 1.94047e-05 -5.81326e-06 -6.26291e-06 -3.89415e-06 -1.10371e-05
internal_weight=82803 12713 7504 5209 6190 4608 3230 1314 601 5307 70090 69772 59462 29788
internal_count=82803 12713 7504 5209 6190 4608 3230 1314 601 5307 70090 69772 59462 29788
is_linear=0
shrinkage=0.005


Tree=18
num_leaves=15
num_cat=0
split_feature=5 8 6 7 7 6 5 1 5 1 7 7 7 5
split_gain=0.612579 0.443497 0.32646 0.486044 0.286828 0.129228 0.122242 0.140561 0.108026 0.107362 0.0993123 0.097341 0.0798718 0.140773
threshold=2.1920803104026487 -0.019078178784966943 0.32001611722788054 325202.78600627551 74889.625468536469 0.2586718312753003 3.7538048709159173 15.711378721587115 2.817819996474173 20.093939506989731 1334384.8920437524 418498.27437700826 952371.27617292001 1.9983343782813803
decision_type=2 2 2 2 2 2 2 2 2 2 2 2 2 2
left_child=5 6 8 4 -4 -1 7 11 -3 12 -5 -2 13 -7
right_child=1 2 3 10 -6 9 -8 -9 -10 -11 -12 -13 -14 -15
leaf_value=6.0083732574743205e-05 4.7375731189273692e-05 -9.596250209712672e-05 0.00014615543795635505 0.00012692625479525127 3.0446698657819989e-05 -6.2310607693081868e-06 -5.2901651418686395e-05 -6.1529799138915239e-05 1.0081342922156868e-05 5.7493391183118016e-05 0.00028881671346640321 -2.0264441784699665e-05 7.7017004569542822e-05 -4.8954906775764548e-05
leaf_weight=729 1581 414 612 1432 5528 66439 1203 585 485 640 133 740 275 2007
leaf_count=729 1581 414 612 1432 5528 66439 1203 585 485 640 133 740 275 2007
internal_value=0 3.19399e-05 5.2396e-05 6.3036e-05 4.2398e-05 -5.78383e-06 -1.02869e-05 6.50033e-06 -3.6e-05 -6.51259e-06 0.000142369 2.47335e-05 -7.14547e-06 -7.5207e-06
internal_weight=82803 12713 8604 7705 6140 70090 4109 2906 899 69361 1565 2321 68721 68446
internal_count=82803 12713 8604 7705 6140 70090 4109 2906 899 69361 1565 2321 68721 68446
is_linear=0
shrinkage=0.005


Tree=19
num_leaves=15
num_cat=0
split_feature=5 6 3 3 1 1 1 1 6 7 10 5 5 1
split_gain=0.606491 0.404877 0.439097 0.49563 0.179493 0.174166 0.172789 0.341643 0.128196 0.128479 0.125125 0.157142 0.0978611 0.0876832
threshold=2.1920803104026487 0.33997996367784972 -0.78608812787665883 35001581.200265877 11.623838860288041 2.3021304486958871 6.3882734346431524 8.0713769269779796 0.3091009038436684 27021.941283618231 -578.66970962996766 1.5790412508681813 1.2816729187972631 5.9715134643518937
decision_type=2 2 2 2 2 2 2 2 2 2 2 2 2 2
left_child=8 4 6 5 13 -4 -3 -8 9 -1 -10 12 -12 -2
right_child=1 2 3 -5 -6 -7 7 -9 10 -11 11 -13 -14 -15
leaf_value=-5.2107277292208554e-06 -8.4982400020791929e-05 -5.2398372385123241e-05 0.00028368786520911282 -2.7735691324310562e-06 -8.0578835774892436e-05 9.4579176648415151e-05 0.00012768965743658694 -1.233742390469738e-06 1.9137493069944984e-05 3.1353157234273483e-05 -1.3671863361764195e-05 -3.1017384029382043e-05 4.0117712416772623e-07 1.8434057466119784e-05
leaf_weight=5177 229 943 140 1488 867 4251 638 2446 3787 4337 25559 7970 23260 1711
leaf_count=5177 229 943 140 1488 867 4251 638 2446 3787 4337 25559 7970 23260 1711
internal_value=0 3.17813e-05 4.6879e-05 7.44677e-05 -2.06076e-05 0.000101209 5.97731e-06 2.46431e-05 -5.75455e-06 1.11951e-05 -8.45799e-06 -1.03424e-05 -6.91556e-06 4.91957e-06
internal_weight=82803 12713 9906 5879 2807 4391 4027 3084 70090 9514 60576 56789 48819 1940
internal_count=82803 12713 9906 5879 2807 4391 4027 3084 70090 9514 60576 56789 48819 1940
is_linear=0
shrinkage=0.005


Tree=20
num_leaves=15
num_cat=0
split_feature=5 2 2 8 1 5 1 2 6 10 5 2 1 3
split_gain=0.600375 0.488626 0.624191 0.605002 0.39996 0.171544 0.483861 0.133097 0.127451 0.130423 0.141553 0.130833 0.121609 0.11231
threshold=2.1920803104026487 -1.3361511896903264e-11 -1.1693918056110418e-11 0.034709377485134939 9.1180754775924964 2.7690153936392066 11.514193285779518 -1.3214485061752155e-11 0.2586718312753003 -578.66970962996766 1.5715791563047412 -1.7936990781564073e-11 2.3021304486958871 -1.0624921727917207
decision_type=2 2 2 2 2 2 2 2 2 2 2 2 2 2
left_child=8 3 7 5 -4 -2 -7 -3 -1 -10 -11 -12 -5 -6
right_child=1 2 4 12 13 6 -8 -9 9 10 11 -13 -14 -15
leaf_value=5.9686254651226495e-05 -7.1896862808297347e-05 5.0390506712978499e-05 0.00013490499254214896 0.00028227447137713855 -1.4827862231392684e-05 -2.892664909753194e-05 0.00015166159653719538 0.00018497679518162294 2.13158583945641e-05 -5.21002453425296e-06 7.5515847677445935e-05 -3.0676931420052484e-05 9.5523841973319245e-05 3.4355363051529993e-05
leaf_weight=729 1378 292 883 140 1608 2804 426 1022 3939 56647 287 8488 461 3699
leaf_count=729 1378 292 883 140 1608 2804 426 1022 3939 56647 287 8488 461 3699
internal_value=0 3.16204e-05 5.7474e-05 -5.14582e-06 3.59318e-05 -2.50734e-05 -4.31547e-06 0.000157001 -5.7256e-06 -6.44956e-06 -8.15966e-06 -2.69147e-05 0.000143381 1.8982e-05
internal_weight=82803 12713 7504 5209 6190 4608 3230 1314 70090 69361 65422 8775 601 5307
internal_count=82803 12713 7504 5209 6190 4608 3230 1314 70090 69361 65422 8775 601 5307
is_linear=0
shrinkage=0.005


Tree=21
num_leaves=15
num_cat=0
split_feature=5 2 2 8 2 5 5 2 6 10 5 2 5 6
split_gain=0.594474 0.48376 0.61801 0.599131 0.354825 0.169829 0.33411 0.131613 0.126403 0.122631 0.154016 0.111223 0.0969108 0.0872397
threshold=2.1920803104026487 -1.3361511896903264e-11 -1.1693918056110418e-11 0.034709377485134939 0.066070218503936864 2.7690153936392066 3.4531489661231283 -1.3214485061752155e-11 0.3091009038436684 -578.66970962996766 1.5790412508681813 -2.2202977234542228e-10 1.2816729187972631 0.35184925042912901
decision_type=2 2 2 2 2 2 2 2 2 2 2 2 2 2
left_child=8 3 7 5 -4 -2 -7 -3 -1 -10 12 -5 -11 -12
right_child=1 2 4 11 -6 6 -8 -9 9 10 13 -13 -14 -15
leaf_value=1.1133529950941666e-05 -7.1537509786163549e-05 5.0138983860417026e-05 2.1514401578700731e-05 0.0002616123692901643 0.00014102334934575983 7.537824427531926e-05 -3.7110701487203071e-05 0.00018405235956268145 1.8935252991412159e-05 -1.3577455650349749e-05 -1.5836041824187203e-05 9.1314767868436885e-05 4.2700545546924555e-07 -5.0507064645989797e-05
leaf_weight=9514 1378 292 5474 166 716 920 2310 1022 3787 25559 4622 435 23260 3348
leaf_count=9514 1378 292 5474 166 716 920 2310 1022 3787 25559 4622 435 23260 3348
internal_value=0 3.14654e-05 5.71901e-05 -5.11508e-06 3.57522e-05 -2.4948e-05 -4.28992e-06 0.000156226 -5.69661e-06 -8.38128e-06 -1.02471e-05 0.000142687 -6.85383e-06 -3.07164e-05
internal_weight=82803 12713 7504 5209 6190 4608 3230 1314 70090 60576 56789 601 48819 7970
internal_count=82803 12713 7504 5209 6190 4608 3230 1314 70090 60576 56789 601 48819 7970
is_linear=0
shrinkage=0.005


Tree=22
num_leaves=15
num_cat=0
split_feature=5 8 3 8 1 7 6 10 5 7 5 1 1 6
split_gain=0.588668 0.42769 0.349272 0.307559 0.273502 0.17937 0.125857 0.127991 0.13864 0.126401 0.11922 0.135644 0.111992 0.101787
threshold=2.1920803104026487 -0.019078178784966943 -0.78608812787665883 0.079452765578015713 9.1180754775924964 1040154.8986812589 0.2586718312753003 -578.66970962996766 1.5715791563047412 952371.27617292001 3.7538048709159173 15.711378721587115 2.3021304486958871 0.34584593015767284
decision_type=2 2 2 2 2 2 2 2 2 2 2 2 2 2
left_child=6 10 3 -3 12 -6 -1 13 -9 -10 11 -2 -4 -8
right_child=1 2 4 -5 5 -7 7 8 9 -11 -12 -13 -14 -15
leaf_value=5.9332398929746666e-05 2.4347039212751565e-05 -4.5306969425432901e-06 0.00027956471006216954 0.00019841953886415759 6.4769441827442934e-05 -3.3936338222436422e-05 5.1330035206780055e-05 -5.1622217615427185e-06 -3.0270304749012114e-05 7.6225272569122528e-05 -5.2234653997311284e-05 -6.0383853085325547e-05 0.00011526825404143643 0
leaf_weight=729 2321 2876 140 198 3430 496 1632 56647 8500 275 1203 585 1464 2307
leaf_count=729 2321 2876 140 198 3430 496 1632 56647 8500 275 1203 585 1464 2307
internal_value=0 3.13122e-05 5.14016e-05 7.75857e-06 7.52068e-05 5.16598e-05 -5.66795e-06 -6.38759e-06 -8.08192e-06 -2.66438e-05 -1.01466e-05 6.42247e-06 0.000131249 2.11161e-05
internal_weight=82803 12713 8604 3074 5530 3926 70090 69361 65422 8775 4109 2906 1604 3939
internal_count=82803 12713 8604 3074 5530 3926 70090 69361 65422 8775 4109 2906 1604 3939
is_linear=0
shrinkage=0.005


Tree=23
num_leaves=15
num_cat=0
split_feature=5 2 2 8 1 5 1 2 10 2 1 3 5 1
split_gain=0.582789 0.475413 0.610939 0.587672 0.390721 0.167707 0.475288 0.129377 0.120022 0.150457 0.117888 0.11017 0.0990004 0.0718265
threshold=2.1920803104026487 -1.3361511896903264e-11 -1.1693918056110418e-11 0.034709377485134939 9.1180754775924964 2.7690153936392066 11.514193285779518 -1.3214485061752155e-11 -578.66970962996766 0.043316895034455911 2.3021304486958871 -1.0624921727917207 1.7222073992543727 1.9120114986201566
decision_type=2 2 2 2 2 2 2 2 2 2 2 2 2 2
left_child=8 3 7 5 -4 -2 -7 -3 12 13 -5 -6 -1 -10
right_child=1 2 4 10 11 6 -8 -9 9 -11 -12 -13 -14 -15
leaf_value=4.5931241761446181e-05 -7.1048046405170262e-05 4.9827911400009332e-05 0.00013316514518180194 0.0002781718686965437 -1.4900499649535357e-05 -2.8616771350009183e-05 0.00015036491212049656 0.00018272670827496317 -9.8810286941037988e-06 -2.6987531086792464e-05 9.4021483457011959e-05 3.3813377606463502e-05 -3.108438324990751e-06 1.2111718838323165e-06
leaf_weight=1988 1378 292 883 140 1608 2804 426 1022 28990 8478 461 3699 1951 28683
leaf_count=1988 1378 292 883 140 1608 2804 426 1022 28990 8478 461 3699 1951 28683
internal_value=0 3.11557e-05 5.66579e-05 -5.10428e-06 3.53407e-05 -2.4751e-05 -4.21764e-06 0.000155126 -5.63929e-06 -7.26407e-06 0.00014127 1.85822e-05 2.10098e-05 -4.32114e-06
internal_weight=82803 12713 7504 5209 6190 4608 3230 1314 70090 66151 601 5307 3939 57673
internal_count=82803 12713 7504 5209 6190 4608 3230 1314 70090 66151 601 5307 3939 57673
is_linear=0
shrinkage=0.005


Tree=24
num_leaves=15
num_cat=0
split_feature=5 6 3 3 5 1 1 1 6 10 5 7 6 5
split_gain=0.577074 0.386496 0.421254 0.47705 0.172957 0.166168 0.329583 0.164734 0.124471 0.12546 0.136798 0.124986 0.100485 0.0934386
threshold=2.1920803104026487 0.33997996367784972 -0.78608812787665883 35001581.200265877 2.817819996474173 6.3882734346431524 8.0713769269779796 2.3021304486958871 0.2586718312753003 -578.66970962996766 1.5715791563047412 952371.27617292001 0.34621419161885042 1.2799065304589672
decision_type=2 2 2 2 2 2 2 2 2 2 2 2 2 2
left_child=8 4 5 7 -2 -3 -7 -4 -1 12 13 -12 -10 -11
right_child=1 2 3 -5 -6 6 -8 -9 9 10 11 -13 -14 -15
leaf_value=5.9029889216455277e-05 -7.5646399617321697e-05 -5.1554556417169258e-05 0.00027678595544286473 -2.9750585790872375e-06 6.4806994425299283e-06 0.0001252173762491371 -1.4006478469069437e-06 9.2541323577047406e-05 5.0567347017505435e-05 -1.1185209985248045e-05 -3.0050478142463372e-05 7.5838794296238904e-05 0 1.6075115711037476e-06
leaf_weight=729 941 943 140 1488 1866 638 2446 4251 1655 29915 8500 275 2284 26732
leaf_count=729 941 943 140 1488 1866 638 2446 4251 1655 29915 8500 275 2284 26732
internal_value=0 3.10031e-05 4.57561e-05 7.27782e-05 -2.01691e-05 5.68166e-06 2.39989e-05 9.90158e-05 -5.6111e-06 -6.32695e-06 -8.00472e-06 -2.6443e-05 2.09016e-05 -5.10417e-06
internal_weight=82803 12713 9906 5879 2807 4027 3084 4391 70090 69361 65422 8775 3939 56647
internal_count=82803 12713 9906 5879 2807 4027 3084 4391 70090 69361 65422 8775 3939 56647
is_linear=0
shrinkage=0.005


Tree=25
num_leaves=15
num_cat=0
split_feature=4 7 2 10 3 10 6 6 4 10 3 10 7 2
split_gain=0.407653 0.255774 0.349091 0.254668 0.285552 0.179532 0.13286 0.126742 0.118043 0.0965534 0.0566655 0.0498078 0.0480081 0.0291135
threshold=50000000.605290145 55123.370049640384 -1.9335538725684382e-11 146.03320058146667 -0.37189117087571427 1.0000000180025095e-35 0.38253101637816755 0.2586718312753003 0.14643818726861638 536.06763760751539 34.018387411376985 365.48313038701446 23899.325918171362 -0.077448498759103632
decision_type=2 2 2 2 2 2 2 2 2 2 2 2 2 2
left_child=8 7 6 5 -5 -4 10 11 -1 12 -3 -2 -9 -11
right_child=1 2 3 4 -6 -7 -8 9 -10 13 -12 -13 -14 -15
leaf_value=8.2394968364299647e-05 8.5758303573404249e-05 -5.9325851541566473e-05 1.8028659883029293e-05 6.2627361450195244e-06 0.0001222560143899405 -5.7216791823059211e-05 5.4544714275861722e-05 -1.0767747027992437e-05 0.00027183708494778761 0 -9.9578848674659386e-08 0 -1.4983882715976243e-06 -6.8913068091911635e-05
leaf_weight=343 511 2188 16972 1010 1241 817 338 29788 145 173 600 218 27640 819
leaf_count=343 511 2188 16972 1010 1241 817 338 29788 145 173 600 218 27640 819
internal_value=0 -8.43912e-07 1.32042e-05 2.09489e-05 7.13344e-05 1.44308e-05 -3.56408e-05 -6.38825e-06 0.000144022 -7.24419e-06 -4.74787e-05 5.87349e-05 -6.35e-06 -5.64614e-05
internal_weight=82803 82315 23166 20040 2251 17789 3126 59149 488 58420 2788 729 57428 992
internal_count=82803 82315 23166 20040 2251 17789 3126 59149 488 58420 2788 729 57428 992
is_linear=0
shrinkage=0.005


Tree=26
num_leaves=15
num_cat=0
split_feature=4 7 2 1 2 10 6 6 4 10 1 10 7 2
split_gain=0.40374 0.253231 0.34563 0.401178 0.606348 0.1613 0.131583 0.125461 0.116728 0.0955743 0.0775925 0.0493352 0.0475229 0.0288331
threshold=50000000.605290145 55123.370049640384 -1.9335538725684382e-11 15.112827140453616 -1.1693918056110418e-11 -32.1702831300315 0.38253101637816755 0.2586718312753003 0.14643818726861638 536.06763760751539 11.623838860288041 365.48313038701446 23899.325918171362 -0.077448498759103632
decision_type=2 2 2 2 2 2 2 2 2 2 2 2 2 2
left_child=8 7 6 4 -4 -5 10 11 -1 12 -3 -2 -9 -11
right_child=1 2 3 5 -6 -7 -8 9 -10 13 -12 -13 -14 -15
leaf_value=8.1983595722852481e-05 8.5329925869013452e-05 -3.2649733012668879e-05 0.00010763029826792694 8.4643040586969409e-06 2.0334647468659293e-05 -3.9701754024099972e-05 5.4272393834178077e-05 -1.0713909213154981e-05 0.00027048256843514049 0 -0.00010329727017754006 0 -1.4908963851454477e-06 -6.8568713776085395e-05
leaf_weight=343 511 2248 2563 5562 9416 2499 338 29788 145 173 540 218 27640 819
leaf_count=343 511 2248 2563 5562 9416 2499 338 29788 145 173 540 218 27640 819
internal_value=0 -8.39725e-07 1.31382e-05 2.08448e-05 3.92246e-05 -6.15913e-06 -3.54626e-05 -6.35657e-06 0.00014333 -7.20836e-06 -4.72459e-05 5.84346e-05 -6.31847e-06 -5.6177e-05
internal_weight=82803 82315 23166 20040 11979 8061 3126 59149 488 58420 2788 729 57428 992
internal_count=82803 82315 23166 20040 11979 8061 3126 59149 488 58420 2788 729 57428 992
is_linear=0
shrinkage=0.005


Tree=27
num_leaves=15
num_cat=0
split_feature=7 8 10 3 2 2 6 7 6 10 7 7 7 7
split_gain=0.33242 0.393841 0.360736 0.282654 0.266137 0.182079 0.228678 0.212041 0.12255 0.09463 0.048937 0.0471245 0.0469182 0.106799
threshold=55123.370049640384 0.083090973827923562 146.03320058146667 -0.37189117087571427 -1.1693918056110418e-11 -2.0906215647542579e-11 0.38253101637816755 325202.78600627551 0.2586718312753003 536.06763760751539 27097.04873740637 1334384.8920437524 23899.325918171362 18848.639990258187
decision_type=2 2 2 2 2 2 2 2 2 2 2 2 2 2
left_child=8 2 5 -4 11 6 -2 -7 10 12 -1 -3 13 -10
right_child=1 4 3 -5 -6 7 -8 -9 9 -11 -12 -13 -14 -15
leaf_value=0 -5.1921756152386602e-05 0.00013881757119005888 6.129814841073603e-06 0.00012154334699798808 2.1398423064779641e-05 -2.4708339566525365e-06 6.9178747002236347e-05 3.4136831261857599e-05 -6.9295407623636691e-07 -5.5894127608887863e-05 8.6113295286213077e-05 0.00027639724077022033 -1.4834421851152563e-06 -1.9824003995418151e-05
leaf_weight=238 2461 546 1010 1241 625 11150 447 6038 14419 992 492 133 27640 15371
leaf_count=238 2461 546 1010 1241 625 11150 447 6038 14419 992 492 133 27640 15371
internal_value=0 1.58541e-05 1.07988e-05 7.08817e-05 0.000100535 3.94279e-06 -3.24387e-05 1.02443e-05 -6.32389e-06 -7.16667e-06 5.76604e-05 0.000169629 -6.28098e-06 -1.06483e-05
internal_weight=82803 23651 22347 2251 1304 20096 2908 17188 59152 58422 730 679 57430 29790
internal_count=82803 23651 22347 2251 1304 20096 2908 17188 59152 58422 730 679 57430 29790
is_linear=0
shrinkage=0.005


Tree=28
num_leaves=15
num_cat=0
split_feature=4 7 2 1 2 10 6 6 4 10 1 10 7 2
split_gain=0.395398 0.248314 0.339137 0.396892 0.598944 0.159715 0.128919 0.122963 0.114458 0.0936529 0.0769553 0.0484147 0.046572 0.0285452
threshold=50000000.605290145 55123.370049640384 -1.9335538725684382e-11 15.112827140453616 -1.1693918056110418e-11 -32.1702831300315 0.38253101637816755 0.2586718312753003 0.14643818726861638 536.06763760751539 11.623838860288041 365.48313038701446 23899.325918171362 -0.077448498759103632
decision_type=2 2 2 2 2 2 2 2 2 2 2 2 2 2
left_child=8 7 6 4 -4 -5 10 11 -1 12 -3 -2 -9 -11
right_child=1 2 3 5 -6 -7 -8 9 -10 13 -12 -13 -14 -15
leaf_value=8.0996752344266728e-05 8.4489546779940102e-05 -3.2258076875904915e-05 0.00010691471383666484 8.3356224469920803e-06 2.0151080194933662e-05 -3.9589720846997202e-05 5.3656048799542081e-05 -1.0607517299397952e-05 0.00026781669289795395 0 -0.00010260946424587507 0 -1.4760251609789288e-06 -6.794677787620059e-05
leaf_weight=343 511 2248 2563 5562 9416 2499 338 29788 145 173 540 218 27640 819
leaf_count=343 511 2248 2563 5562 9416 2499 338 29788 145 173 540 218 27640 819
internal_value=0 -8.30571e-07 1.30106e-05 2.06452e-05 3.89272e-05 -6.21319e-06 -3.51288e-05 -6.29388e-06 0.000141842 -7.13753e-06 -4.67967e-05 5.78453e-05 -6.25613e-06 -5.56148e-05
internal_weight=82803 82315 23166 20040 11979 8061 3126 59149 488 58420 2788 729 57428 992
internal_count=82803 82315 23166 20040 11979 8061 3126 59149 488 58420 2788 729 57428 992
is_linear=0
shrinkage=0.005


Tree=29
num_leaves=15
num_cat=0
split_feature=4 7 10 3 8 1 1 6 4 10 10 7 3 1
split_gain=0.391606 0.245844 0.328322 0.279785 0.208619 0.480785 0.187949 0.121719 0.113189 0.092702 0.0479556 0.0461013 0.0413814 0.0281677
threshold=50000000.605290145 55123.370049640384 146.03320058146667 -0.37189117087571427 0.035804294440227778 9.0229346440645397 6.1827636104370951 0.2586718312753003 0.14581129730443651 536.06763760751539 365.48313038701446 23899.325918171362 -1.2353244535033108 2.5054413119107166
decision_type=2 2 2 2 2 2 2 2 2 2 2 2 2 2
left_child=8 7 4 12 6 -6 -3 10 -1 11 -2 -9 -4 -11
right_child=1 2 3 -5 5 -7 -8 9 -10 13 -12 -13 -14 -15
leaf_value=8.004907520606706e-05 8.4067511801058938e-05 -6.1006165485436618e-05 -1.7513863366352338e-05 0.00012083516233577045 0.00015444200781077871 2.1782900970875073e-06 4.942167901180226e-06 -1.0554480548727561e-05 0.00026521951155894892 0 0 -1.4686452899306151e-06 4.6476331750304189e-05 -6.7707913724131846e-05
leaf_weight=341 511 1151 600 1241 760 1738 17266 29788 147 176 218 27640 410 816
leaf_count=341 511 1151 600 1241 760 1738 17266 29788 147 176 218 27640 410 816
internal_value=0 -8.2645e-07 1.29456e-05 7.04323e-05 6.63744e-06 4.95258e-05 6.83336e-07 -6.26266e-06 0.00014116 -7.10223e-06 5.75494e-05 -6.22507e-06 5.99848e-06 -5.53345e-05
internal_weight=82803 82315 23166 2251 20915 2498 18417 59149 488 58420 729 57428 1010 992
internal_count=82803 82315 23166 2251 20915 2498 18417 59149 488 58420 729 57428 1010 992
is_linear=0
shrinkage=0.005


Tree=30
num_leaves=15
num_cat=0
split_feature=4 7 2 1 2 10 6 6 4 10 1 10 7 2
split_gain=0.387848 0.243428 0.334278 0.391311 0.59279 0.158136 0.126833 0.120488 0.111931 0.091763 0.0764791 0.047501 0.0456352 0.0280531
threshold=50000000.605290145 55123.370049640384 -1.9335538725684382e-11 15.112827140453616 -1.1693918056110418e-11 -32.1702831300315 0.38253101637816755 0.2586718312753003 0.14643818726861638 536.06763760751539 11.623838860288041 365.48313038701446 23899.325918171362 -0.079193147241093539
decision_type=2 2 2 2 2 2 2 2 2 2 2 2 2 2
left_child=8 7 6 4 -4 -5 10 11 -1 12 -3 -2 -9 -11
right_child=1 2 3 5 -6 -7 -8 9 -10 13 -12 -13 -14 -15
leaf_value=8.018730464544713e-05 8.3647581092277697e-05 -3.1990276204280107e-05 0.00010625294551861902 8.2696841442480094e-06 1.9934922922021785e-05 -3.9416517492509134e-05 5.3121295603103907e-05 -1.0501709035349147e-05 0.00026516066774521087 0 -0.00010212158028068773 0 -1.4613020022504792e-06 -6.6083317161814536e-05
leaf_weight=343 511 2248 2563 5562 9416 2499 338 29788 145 143 540 218 27640 849
leaf_count=343 511 2248 2563 5562 9416 2499 338 29788 145 143 540 218 27640 849
internal_value=0 -8.22046e-07 1.2882e-05 2.04623e-05 3.86157e-05 -6.20498e-06 -3.49097e-05 -6.23162e-06 0.000140482 -7.06712e-06 -4.64862e-05 5.7255e-05 -6.19416e-06 -5.50561e-05
internal_weight=82803 82315 23166 20040 11979 8061 3126 59149 488 58420 2788 729 57428 992
internal_count=82803 82315 23166 20040 11979 8061 3126 59149 488 58420 2788 729 57428 992
is_linear=0
shrinkage=0.005


Tree=31
num_leaves=15
num_cat=0
split_feature=5 8 3 8 10 5 10 5 7 5 5 0 7 7
split_gain=0.547476 0.398283 0.332927 0.292361 0.24607 0.135001 0.115332 0.147226 0.119964 0.113413 0.121976 0.116943 0.0997201 0.105478
threshold=2.1920803104026487 -0.019078178784966943 -0.78608812787665883 0.079452765578015713 -1.0000000180025095e-35 14.375806467840237 -578.66970962996766 1.5715791563047412 952371.27617292001 3.7538048709159173 2.5250268952262167 0.036736179778659096 23899.325918171362 18848.639990258187
decision_type=2 2 2 2 2 2 2 2 2 2 2 2 2 2
left_child=6 9 3 -3 -4 -6 -1 12 -9 10 11 -2 13 -8
right_child=1 2 4 -5 5 -7 7 8 -10 -11 -12 -13 -14 -15
leaf_value=2.0657639883097415e-05 -5.7046583009719876e-05 -4.9995386632443338e-06 2.3995644423451044e-05 0.00019289929539763418 9.0254291917764369e-05 0.00027761931083932325 -5.5477320656731638e-07 -2.9721244616791428e-05 7.394586532577845e-05 -5.0851204634985238e-05 3.5549352084866695e-05 5.366860805959868e-05 2.6892834083544644e-06 -1.9566573944835084e-05
leaf_weight=3939 974 2876 1852 198 3565 113 14417 8500 275 1203 1638 294 27588 15371
leaf_count=3939 974 2876 1852 198 3565 113 14417 8500 275 1203 1638 294 27588 15371
internal_value=0 3.0199e-05 4.95872e-05 6.96352e-06 7.28259e-05 9.67273e-05 -5.46387e-06 -7.05723e-06 -2.61835e-05 -9.79153e-06 6.35167e-06 -2.93942e-05 -4.08831e-06 -1.04492e-05
internal_weight=82803 12713 8604 3074 5530 3678 70090 66151 8775 4109 2906 1268 57376 29788
internal_count=82803 12713 8604 3074 5530 3678 70090 66151 8775 4109 2906 1268 57376 29788
is_linear=0
shrinkage=0.005


Tree=32
num_leaves=15
num_cat=0
split_feature=5 8 3 8 10 5 10 5 7 5 5 0 7 7
split_gain=0.542073 0.394341 0.329646 0.289459 0.243568 0.133568 0.114187 0.145731 0.118795 0.112292 0.120792 0.123406 0.0987358 0.104415
threshold=2.1920803104026487 -0.019078178784966943 -0.78608812787665883 0.079452765578015713 -1.0000000180025095e-35 14.375806467840237 -578.66970962996766 1.5715791563047412 952371.27617292001 3.7538048709159173 2.4901345504882442 0.036736179778659096 23899.325918171362 18848.639990258187
decision_type=2 2 2 2 2 2 2 2 2 2 2 2 2 2
left_child=6 9 3 -3 -4 -6 -1 12 -9 10 11 -2 13 -8
right_child=1 2 4 -5 5 -7 7 8 -10 -11 -12 -13 -14 -15
leaf_value=2.0554365052086606e-05 -6.1343115277690428e-05 -4.9745450841828465e-06 2.3875698340179586e-05 0.00019193722847121901 8.9803083169111864e-05 0.00027623734531292309 -5.5199979537424686e-07 -2.9572646954399711e-05 7.3576805354205865e-05 -5.0597053844726973e-05 3.4022378870521829e-05 5.3400721874889322e-05 2.6758373323557561e-06 -1.9468744141012967e-05
leaf_weight=3939 904 2876 1852 198 3565 113 14417 8500 275 1203 1708 294 27588 15371
leaf_count=3939 904 2876 1852 198 3565 113 14417 8500 275 1203 1708 294 27588 15371
internal_value=0 3.005e-05 4.93423e-05 6.92479e-06 7.24664e-05 9.62473e-05 -5.43637e-06 -7.02194e-06 -2.60512e-05 -9.73954e-06 6.31994e-06 -3.10875e-05 -4.06787e-06 -1.03974e-05
internal_weight=82803 12713 8604 3074 5530 3678 70090 66151 8775 4109 2906 1198 57376 29788
internal_count=82803 12713 8604 3074 5530 3678 70090 66151 8775 4109 2906 1198 57376 29788
is_linear=0
shrinkage=0.005


Tree=33
num_leaves=15
num_cat=0
split_feature=5 8 3 8 1 7 10 5 7 5 1 7 5 5
split_gain=0.536723 0.390439 0.326397 0.286585 0.250342 0.17001 0.113054 0.144251 0.117637 0.111182 0.126895 0.0977613 0.104213 0.0971716
threshold=2.1920803104026487 -0.019078178784966943 -0.78608812787665883 0.079452765578015713 9.1180754775924964 1040154.8986812589 -578.66970962996766 1.5715791563047412 952371.27617292001 3.7538048709159173 15.711378721587115 23899.325918171362 1.2816729187972631 1.7222073992543727
decision_type=2 2 2 2 2 2 2 2 2 2 2 2 2 2
left_child=6 9 3 -3 -4 -6 13 11 -9 10 -2 12 -8 -1
right_child=1 2 4 -5 5 -7 7 8 -10 -11 -12 -13 -14 -15
leaf_value=4.5151929239517238e-05 2.3649342294681592e-05 -4.9496772566299967e-06 0.00012577269629043353 0.00019097995537600623 6.2309465254026253e-05 -3.3750754175155229e-05 -1.8275634795572421e-05 -2.9424792636421462e-05 7.3209588235064997e-05 -5.0344173318304408e-05 -5.8283226557884369e-05 2.6624584949058242e-06 4.9533154716784268e-07 -3.4412032968073006e-06
leaf_weight=1988 2321 2876 1604 198 3430 496 17337 8500 275 1203 585 27588 12451 1951
leaf_count=1988 2321 2876 1604 198 3430 496 17337 8500 275 1203 585 27588 12451 1951
internal_value=0 2.99019e-05 4.90987e-05 6.88625e-06 7.21088e-05 4.9534e-05 -5.40901e-06 -6.98683e-06 -2.59195e-05 -9.68782e-06 6.28836e-06 -4.04753e-06 -1.03458e-05 2.04516e-05
internal_weight=82803 12713 8604 3074 5530 3926 70090 66151 8775 4109 2906 57376 29788 3939
internal_count=82803 12713 8604 3074 5530 3926 70090 66151 8775 4109 2906 57376 29788 3939
is_linear=0
shrinkage=0.005


Tree=34
num_leaves=15
num_cat=0
split_feature=5 2 2 8 1 5 1 2 6 7 5 1 6 5
split_gain=0.53133 0.445011 0.583364 0.534985 0.37124 0.159644 0.452966 0.124514 0.120892 0.120758 0.109886 0.105487 0.103201 0.0726705
threshold=2.1920803104026487 -1.3361511896903264e-11 -1.1693918056110418e-11 0.034709377485134939 9.1180754775924964 2.7690153936392066 11.514193285779518 -1.3214485061752155e-11 0.3091009038436684 27021.941283618231 1.9983343782813803 2.3021304486958871 0.36431179662055091 1.2816729187972631
decision_type=2 2 2 2 2 2 2 2 2 2 2 2 2 2
left_child=8 3 7 5 -4 -2 -7 -3 9 -1 13 -5 -6 -10
right_child=1 2 4 11 12 6 -8 -9 10 -11 -12 -13 -14 -15
leaf_value=-4.8118751708185591e-06 -6.9255157488753985e-05 4.7226940071236375e-05 0.00012893284537924857 0.00026435854145428464 4.3716645430494213e-05 -2.7868423498925041e-05 0.00014685859340314011 0.00017771074922714376 -1.307188999653413e-05 3.0619487357957416e-05 -4.5026832491934491e-05 8.9141987847257735e-05 -3.4717311335193162e-07 -1.7418709175105443e-06
leaf_weight=5177 1378 292 883 140 2175 2804 426 1022 25559 4337 1963 461 3132 33054
leaf_count=5177 1378 292 883 140 2175 2804 426 1022 25559 4337 1963 461 3132 33054
internal_value=0 2.97514e-05 5.44278e-05 -5.31887e-06 3.35886e-05 -2.40838e-05 -4.03089e-06 0.000150645 -5.3816e-06 1.10777e-05 -8.00802e-06 0.0001343 1.72432e-05 -6.7252e-06
internal_weight=82803 12713 7504 5209 6190 4608 3230 1314 70090 9514 60576 601 5307 58613
internal_count=82803 12713 7504 5209 6190 4608 3230 1314 70090 9514 60576 601 5307 58613
is_linear=0
shrinkage=0.005


Tree=35
num_leaves=15
num_cat=1
split_feature=4 1 3 10 3 3 10 1 4 9 6 6 10 1
split_gain=0.369653 0.191147 0.204838 0.283145 0.217525 0.214536 0.129892 0.155337 0.107845 0.0831804 0.115012 0.0803532 0.0468666 0.042916
threshold=50000000.605290145 6.4800337020311511 -0.85526879909025333 149.19323435480382 -0.047192586153606782 0.56771638543859504 -578.66970962996766 8.0713769269779796 0.14581129730443651 0 0.2586718312753003 0.38253101637816755 365.48313038701446 1.1396961370154515
decision_type=2 2 2 2 2 2 2 2 2 1 2 2 2 2
left_child=8 9 6 5 -5 -4 -3 -8 -1 10 12 -11 -2 -12
right_child=1 2 3 4 -6 -7 7 -9 -10 11 13 -13 -14 -15
leaf_value=7.7274144560849977e-05 8.3043288889241817e-05 3.323290040389721e-05 4.0565793730586718e-05 0 0.0001199380980834818 -4.1837230872782107e-07 2.9881399366977813e-05 -2.141742717833621e-05 0.00025835759805168139 -5.6447165554946309e-05 2.2067800130761859e-05 9.0999124438634948e-05 0 -6.8485648336631817e-06
leaf_weight=341 511 1818 4916 556 1200 8773 1750 8511 147 1270 1277 87 218 51428
leaf_count=341 511 1818 4916 556 1200 8773 1750 8511 147 1270 1277 87 218 51428
internal_value=0 -8.01092e-07 9.91394e-06 2.20083e-05 8.20713e-05 1.41182e-05 -5.34401e-06 -1.24238e-05 0.000137148 -6.22941e-06 -5.19449e-06 -4.51224e-05 5.68265e-05 -6.10031e-06
internal_weight=82803 82315 27524 15445 1756 13689 12079 10261 488 54791 53434 1357 729 52705
internal_count=82803 82315 27524 15445 1756 13689 12079 10261 488 54791 53434 1357 729 52705
cat_boundaries=0 1
cat_threshold=4
is_linear=0
shrinkage=0.005


Tree=36
num_leaves=15
num_cat=0
split_feature=5 2 2 6 1 1 5 1 2 6 10 5 3 5
split_gain=0.522689 0.439173 0.577454 0.485121 0.365161 0.148351 0.142434 0.468096 0.1229 0.119535 0.111757 0.152579 0.103299 0.089621
threshold=2.1920803104026487 -1.3361511896903264e-11 -1.1693918056110418e-11 0.3830594110095647 9.1180754775924964 2.3366367863085502 2.7690153936392066 11.514193285779518 -1.3214485061752155e-11 0.3091009038436684 -524.18486108720674 1.5790412508681813 -1.0624921727917207 1.2816729187972631
decision_type=2 2 2 2 2 2 2 2 2 2 2 2 2 2
left_child=9 3 8 6 -4 -5 -2 -8 -3 -1 -11 13 -6 -12
right_child=1 2 4 5 12 -7 7 -9 -10 10 11 -13 -14 -15
leaf_value=1.1029433837695459e-05 -6.8926173983299458e-05 4.6925686095576554e-05 0.00012785166075933319 0.0002554494405466348 -1.5344803044188978e-05 6.8831171291335586e-05 -3.2536443993641828e-05 0.00014598288364787036 0.00017665024777085346 1.6649448622405086e-05 -1.2977363620947041e-05 -3.0731191230685151e-05 3.1841129994635718e-05 4.9979018368018284e-07
leaf_weight=9514 1378 292 883 148 1608 671 2586 426 1022 4220 25559 7619 3699 23178
leaf_count=9514 1378 292 883 148 1608 671 2586 426 1022 4220 25559 7619 3699 23178
internal_value=0 2.95094e-05 5.40238e-05 -5.32761e-06 3.32883e-05 0.000105741 -2.66276e-05 -6.43778e-06 0.000149753 -5.33679e-06 -7.94859e-06 -9.83501e-06 1.70728e-05 -6.51676e-06
internal_weight=82803 12713 7504 5209 6190 819 4390 3012 1314 70090 60576 56356 5307 48737
internal_count=82803 12713 7504 5209 6190 819 4390 3012 1314 70090 60576 56356 5307 48737
is_linear=0
shrinkage=0.005


Tree=37
num_leaves=15
num_cat=0
split_feature=5 8 3 8 10 5 10 5 7 5 5 0 5 7
split_gain=0.517557 0.377307 0.315726 0.278415 0.234786 0.12754 0.109987 0.141106 0.11595 0.108401 0.116039 0.112079 0.0959746 0.0959028
threshold=2.1920803104026487 -0.019078178784966943 -0.78608812787665883 0.079452765578015713 -1.0000000180025095e-35 14.375806467840237 -578.66970962996766 1.5715791563047412 952371.27617292001 3.7538048709159173 2.5250268952262167 0.036736179778659096 1.7222073992543727 23899.325918171362
decision_type=2 2 2 2 2 2 2 2 2 2 2 2 2 2
left_child=6 9 3 -3 -4 -6 12 13 -9 10 11 -2 -1 -8
right_child=1 2 4 -5 5 -7 7 8 -10 -11 -12 -13 -14 -15
leaf_value=4.4747688016760091e-05 -5.5718083835195192e-05 -4.9478588809085153e-06 2.3134562561923138e-05 0.00018816668463704324 8.7896459270850517e-05 0.0002703624551845017 -1.0197499408014474e-05 -2.9073576732845767e-05 7.2817641907048746e-05 -4.9693265192702738e-05 3.4715334006876616e-05 5.2620673853558024e-05 -3.5451737187663968e-06 2.6866798621752592e-06
leaf_weight=1988 974 2876 1852 198 3565 113 29788 8500 275 1203 1638 294 1951 27588
leaf_count=1988 974 2876 1852 198 3565 113 29788 8500 275 1203 1638 294 1951 27588
internal_value=0 2.93649e-05 4.82371e-05 6.70632e-06 7.08684e-05 9.4218e-05 -5.30975e-06 -6.86644e-06 -2.55916e-05 -9.54502e-06 6.22074e-06 -2.86169e-05 2.01961e-05 -3.95888e-06
internal_weight=82803 12713 8604 3074 5530 3678 70090 66151 8775 4109 2906 1268 3939 57376
internal_count=82803 12713 8604 3074 5530 3678 70090 66151 8775 4109 2906 1268 3939 57376
is_linear=0
shrinkage=0.005


Tree=38
num_leaves=15
num_cat=0
split_feature=4 7 2 1 2 10 6 6 4 10 1 10 7 0
split_gain=0.359283 0.22657 0.320395 0.363708 0.570636 0.149808 0.120732 0.116676 0.104513 0.0886328 0.0759445 0.046417 0.0428587 0.0271967
threshold=50000000.605290145 55123.370049640384 -1.9335538725684382e-11 15.112827140453616 -1.1693918056110418e-11 -32.1702831300315 0.38253101637816755 0.2586718312753003 0.14581129730443651 536.06763760751539 11.623838860288041 365.48313038701446 23899.325918171362 0.097400267985955663
decision_type=2 2 2 2 2 2 2 2 2 2 2 2 2 2
left_child=8 7 6 4 -4 -5 10 11 -1 12 -3 -2 -9 -11
right_child=1 2 3 5 -6 -7 -8 9 -10 13 -12 -13 -14 -15
leaf_value=7.6099602108593565e-05 8.2559960913404694e-05 -3.1216636917316963e-05 0.00010371652910259746 8.2365870530461358e-06 1.9024278572745092e-05 -3.8177773707850863e-05 5.1428095407633436e-05 -1.0146512554364217e-05 0.00025466666957837041 -8.5231114554312797e-05 -0.00010106022755104036 0 -1.3823843773184091e-06 -2.3281017919706036e-05
leaf_weight=341 511 2248 2563 5562 9416 2499 338 29788 147 451 540 218 27640 541
leaf_count=341 511 2248 2563 5562 9416 2499 338 29788 147 451 540 218 27640 541
internal_value=0 -7.87824e-07 1.2432e-05 1.98553e-05 3.73571e-05 -5.84374e-06 -3.43532e-05 -6.00774e-06 0.000135213 -6.83061e-06 -4.56567e-05 5.64671e-05 -5.97193e-06 -5.39935e-05
internal_weight=82803 82315 23166 20040 11979 8061 3126 59149 488 58420 2788 729 57428 992
internal_count=82803 82315 23166 20040 11979 8061 3126 59149 488 58420 2788 729 57428 992
is_linear=0
shrinkage=0.005


Tree=39
num_leaves=15
num_cat=0
split_feature=5 2 2 6 2 2 5 5 2 6 3 10 5 5
split_gain=0.508451 0.430371 0.565964 0.472966 0.324741 0.14196 0.139418 0.33827 0.120736 0.117619 0.116502 0.109296 0.149206 0.0883238
threshold=2.1920803104026487 -1.3361511896903264e-11 -1.1693918056110418e-11 0.3830594110095647 0.066070218503936864 -2.2202977234542228e-10 2.7690153936392066 3.4531489661231283 -1.3214485061752155e-11 0.3091009038436684 -1.0624921727917207 -524.18486108720674 1.5790412508681813 1.2816729187972631
decision_type=2 2 2 2 2 2 2 2 2 2 2 2 2 2
left_child=9 3 8 6 10 -5 -2 -8 -3 -1 -4 -11 13 -13
right_child=1 2 4 5 -6 -7 7 -9 -10 11 -12 12 -14 -15
leaf_value=1.0971608884143101e-05 -6.8265751238458971e-05 4.6148060918258284e-05 -1.5486284269171344e-05 0.00024070694276296699 0.00013353634112243544 6.5616461275879164e-05 7.2459151689312551e-05 -4.2323758002193247e-05 0.00017481179298801133 1.6469901006249879e-05 3.4290602518883065e-05 -1.2851183536586045e-05 -3.0384125890042747e-05 5.2784551561826564e-07
leaf_weight=9514 1378 292 1609 166 716 653 920 2092 1022 4220 3865 25559 7619 23178
leaf_count=9514 1378 292 1609 166 716 653 920 2092 1022 4220 3865 25559 7619 23178
internal_value=0 2.91058e-05 5.33743e-05 -5.37673e-06 3.28413e-05 0.000104281 -2.64134e-05 -6.42782e-06 0.00014815 -5.26243e-06 1.92027e-05 -7.85347e-06 -9.71932e-06 -6.43724e-06
internal_weight=82803 12713 7504 5209 6190 819 4390 3012 1314 70090 5474 60576 56356 48737
internal_count=82803 12713 7504 5209 6190 819 4390 3012 1314 70090 5474 60576 56356 48737
is_linear=0
shrinkage=0.005


Tree=40
num_leaves=15
num_cat=0
split_feature=5 2 2 8 2 5 5 2 3 10 2 5 2 0
split_gain=0.503459 0.426087 0.560363 0.508503 0.321485 0.153363 0.320938 0.119385 0.115359 0.107612 0.145794 0.0949589 0.0915285 0.0771135
threshold=2.1920803104026487 -1.3361511896903264e-11 -1.1693918056110418e-11 0.034709377485134939 0.066070218503936864 2.817819996474173 3.4531489661231283 -1.3214485061752155e-11 -1.0624921727917207 -578.66970962996766 0.043316895034455911 1.7222073992543727 -2.2202977234542228e-10 0.36989354441652328
decision_type=2 2 2 2 2 2 2 2 2 2 2 2 2 2
left_child=9 3 7 5 8 -2 -7 -3 -4 11 13 -1 -5 -11
right_child=1 2 4 12 -6 6 -8 -9 -10 10 -12 -13 -14 -15
leaf_value=4.4416246795190671e-05 -6.7106580046910776e-05 4.5917714689214616e-05 -1.5408876848641753e-05 0.00023950702586286778 0.00013286912382891647 7.6487968474821133e-05 -3.5370883915406569e-05 0.00017393815974220476 3.4119171723113746e-05 1.714667215782008e-06 -2.6187273266594694e-05 -3.6197033608621442e-06 8.3285392088730108e-05 -9.7922082170635881e-06
leaf_weight=1988 1414 292 1609 166 716 884 2310 1022 3865 29421 8478 1951 435 28252
leaf_count=1988 1414 292 1609 166 716 884 2310 1022 3865 29421 8478 1951 435 28252
internal_value=0 2.89634e-05 5.31109e-05 -5.34492e-06 3.26771e-05 -2.36504e-05 -3.62211e-06 0.000147419 1.91044e-05 -5.23576e-06 -6.77589e-06 1.99918e-05 0.000130754 -3.87884e-06
internal_weight=82803 12713 7504 5209 6190 4608 3194 1314 5474 70090 66151 3939 601 57673
internal_count=82803 12713 7504 5209 6190 4608 3194 1314 5474 70090 66151 3939 601 57673
is_linear=0
shrinkage=0.005


Tree=41
num_leaves=15
num_cat=0
split_feature=5 8 3 8 1 7 6 7 5 5 1 6 1 7
split_gain=0.498528 0.363408 0.307561 0.269951 0.233905 0.162358 0.11621 0.117828 0.105709 0.105423 0.118334 0.0910884 0.0889282 0.0812134
threshold=2.1920803104026487 -0.019078178784966943 -0.78608812787665883 0.079452765578015713 9.1180754775924964 1040154.8986812589 0.3091009038436684 27021.941283618231 1.9983343782813803 3.7538048709159173 15.711378721587115 0.34157536781821218 2.2625354672378855 418498.27437700826
decision_type=2 2 2 2 2 2 2 2 2 2 2 2 2 2
left_child=6 9 3 11 12 -6 7 -1 -8 10 13 -3 -4 -2
right_child=1 2 4 -5 5 -7 8 -9 -10 -11 -12 -13 -14 -15
leaf_value=-4.7641670664136483e-06 4.3685213759409573e-05 -0.00010680527901027687 0.00025782660236616276 0.00018504809533065227 6.0318384893635959e-05 -3.352214194561853e-05 -6.5261665320402413e-06 3.0231055300830398e-05 -4.4095535375620488e-05 -4.8953777924067283e-05 -5.6124701525155166e-05 1.7687437141161941e-06 0.00010717716504959702 -1.7903223739638481e-05
leaf_weight=5177 1581 205 136 198 3430 496 58613 4337 1963 1203 585 2671 1468 740
leaf_count=5177 1581 205 136 198 3430 496 58613 4337 1963 1203 585 2671 1468 740
internal_value=0 2.88217e-05 4.73439e-05 6.34534e-06 6.96793e-05 4.78234e-05 -5.20958e-06 1.09266e-05 -7.78525e-06 -9.35541e-06 6.18263e-06 -5.11847e-06 0.000121585 2.29726e-05
internal_weight=82803 12713 8604 3074 5530 3926 70090 9514 60576 4109 2906 2876 1604 2321
internal_count=82803 12713 8604 3074 5530 3926 70090 9514 60576 4109 2906 2876 1604 2321
is_linear=0
shrinkage=0.005


Tree=42
num_leaves=15
num_cat=0
split_feature=5 2 2 8 2 5 5 2 6 10 5 2 5 6
split_gain=0.493562 0.417801 0.553986 0.498479 0.316976 0.151013 0.301158 0.117468 0.115042 0.107156 0.146691 0.0896328 0.0875682 0.0806683
threshold=2.1920803104026487 -1.3361511896903264e-11 -1.1693918056110418e-11 0.034709377485134939 0.066070218503936864 2.7690153936392066 3.4531489661231283 -1.3214485061752155e-11 0.3091009038436684 -524.18486108720674 1.5790412508681813 -2.2202977234542228e-10 1.2816729187972631 0.34621419161885042
decision_type=2 2 2 2 2 2 2 2 2 2 2 2 2 2
left_child=8 3 7 5 -4 -2 -7 -3 -1 13 12 -5 -11 -10
right_child=1 2 4 11 -6 6 -8 -9 9 10 -12 -13 -14 -15
leaf_value=1.0870617519804012e-05 -6.7356240274879959e-05 4.5572974332307608e-05 1.8789940406599021e-05 0.00023716354619588581 0.00013175576257169123 7.1702412999855939e-05 -3.5093066883903226e-05 0.00017267387599483917 4.2843766890197853e-05 -1.2726565343066918e-05 -3.0084439306885718e-05 8.2385000901018197e-05 5.9576968700352855e-07 -7.4946401854743094e-07
leaf_weight=9514 1378 292 5474 166 716 920 2310 1022 1711 25559 7619 435 23178 2509
leaf_count=9514 1378 292 5474 166 716 920 2310 1022 1711 25559 7619 435 23178 2509
internal_value=0 2.86776e-05 5.25895e-05 -5.29123e-06 3.22702e-05 -2.342e-05 -3.89428e-06 0.000146359 -5.18371e-06 -7.74653e-06 -9.59435e-06 0.000129454 -6.33959e-06 1.63361e-05
internal_weight=82803 12713 7504 5209 6190 4608 3230 1314 70090 60576 56356 601 48737 4220
internal_count=82803 12713 7504 5209 6190 4608 3230 1314 70090 60576 56356 601 48737 4220
is_linear=0
shrinkage=0.005


Tree=43
num_leaves=15
num_cat=0
split_feature=5 2 2 6 1 1 5 1 2 6 7 10 5 6
split_gain=0.488752 0.413666 0.548484 0.456053 0.349641 0.137915 0.134393 0.45055 0.116151 0.1139 0.116653 0.106071 0.145222 0.100385
threshold=2.1920803104026487 -1.3361511896903264e-11 -1.1693918056110418e-11 0.3830594110095647 9.1180754775924964 2.3366367863085502 2.7690153936392066 11.514193285779518 -1.3214485061752155e-11 0.3091009038436684 27021.941283618231 -524.18486108720674 1.5790412508681813 0.36431179662055091
decision_type=2 2 2 2 2 2 2 2 2 2 2 2 2 2
left_child=9 3 8 6 -4 -5 -2 -8 -3 10 -1 -11 -13 -6
right_child=1 2 4 5 13 -7 7 -9 -10 11 -12 12 -14 -15
leaf_value=-4.7946964168896325e-06 -6.7019581027456443e-05 4.5345498080903663e-05 0.0001246401605699446 0.00024702033059364217 4.2364613185300614e-05 6.6628902088284916e-05 -3.1906586417657003e-05 0.0001432308521021293 0.00017181093211588621 1.6251439486478847e-05 3.0025571043936436e-05 -6.3076328582134971e-06 -2.9934026851273123e-05 -1.1177105926723779e-06
leaf_weight=5177 1378 292 883 148 2175 671 2586 426 1022 4220 4337 48737 7619 3132
leaf_count=5177 1378 292 883 148 2175 671 2586 426 1022 4220 4337 48737 7619 3132
internal_value=0 2.85383e-05 5.23316e-05 -5.25983e-06 3.21109e-05 0.000102409 -2.59253e-05 -6.28661e-06 0.000145637 -5.15762e-06 1.08163e-05 -7.7078e-06 -9.54638e-06 1.62342e-05
internal_weight=82803 12713 7504 5209 6190 819 4390 3012 1314 70090 9514 60576 56356 5307
internal_count=82803 12713 7504 5209 6190 819 4390 3012 1314 70090 9514 60576 56356 5307
is_linear=0
shrinkage=0.005


Tree=44
num_leaves=15
num_cat=0
split_feature=4 1 3 8 10 3 3 10 4 0 8 0 0 2
split_gain=0.338454 0.17754 0.191971 0.283094 0.266556 0.205846 0.202026 0.146527 0.0984731 0.0798701 0.0727799 0.0523169 0.093462 0.0728617
threshold=50000000.605290145 6.4800337020311511 -0.85526879909025333 0.081180640451248454 149.19323435480382 -0.047192586153606782 0.56771638543859504 -578.66970962996766 0.14643818726861638 0.047173393246236352 0.032997142961885211 0.36989354441652328 0.42886117554684128 0.043316895034455911
decision_type=2 2 2 2 2 2 2 2 2 2 2 2 2 2
left_child=8 9 3 7 6 -6 -4 -3 -1 10 -2 13 -13 -11
right_child=1 2 4 -5 5 -7 -8 -9 -10 11 -12 12 -14 -15
leaf_value=7.4060821123254276e-05 -5.5672374157831066e-05 3.2405124261582475e-05 3.9276951175852493e-05 0.00018647925201951667 0 0.00011639274056222769 -4.8787550495977546e-07 -1.6074665351156588e-05 0.00024858697109513266 3.0805600501560437e-06 7.4666189110099236e-05 -2.107790301905334e-05 -2.2334765484185435e-06 -2.539071091212841e-05
leaf_weight=343 1256 1818 4916 188 556 1200 8773 10073 145 22690 101 10990 17262 2492
leaf_count=343 1256 1818 4916 188 556 1200 8773 10073 145 22690 101 10990 17262 2492
internal_value=0 -7.62369e-07 9.56304e-06 -5.20287e-06 2.12726e-05 7.95566e-05 1.36108e-05 -8.45137e-06 0.000131237 -5.99496e-06 -4.41059e-05 -4.97991e-06 -9.65267e-06 1.63332e-07
internal_weight=82803 82315 27524 12079 15445 1756 13689 11891 488 54791 1357 53434 28252 25182
internal_count=82803 82315 27524 12079 15445 1756 13689 11891 488 54791 1357 53434 28252 25182
is_linear=0
shrinkage=0.005


Tree=45
num_leaves=15
num_cat=0
split_feature=5 2 2 8 1 5 1 2 3 1 1 2 7 7
split_gain=0.480465 0.407953 0.542338 0.485566 0.343954 0.148394 0.432579 0.114158 0.0978727 0.0962562 0.0933311 0.079615 0.104191 0.103177
threshold=2.1920803104026487 -1.3361511896903264e-11 -1.1693918056110418e-11 0.034709377485134939 9.1180754775924964 2.817819996474173 11.400043616726853 -1.3214485061752155e-11 -1.0624921727917207 20.273236450899052 2.3021304486958871 0.043316895034455911 23899.325918171362 18848.639990258187
decision_type=2 2 2 2 2 2 2 2 2 2 2 2 2 2
left_child=9 3 7 5 -4 -2 -7 -3 -6 11 -5 12 13 -1
right_child=1 2 4 10 8 6 -8 -9 -10 -11 -12 -13 -14 -15
leaf_value=-1.1024587924657965e-07 -6.5908487944007146e-05 4.5157011606180374e-05 0.00012359170680755621 0.00025073462984527984 -1.5481361598621302e-05 -2.8447740055725689e-05 0.00013529697814512821 0.0001706696339894616 3.045332388677977e-05 8.1112435068555027e-05 8.4705118042478485e-05 -1.8421628953915122e-05 3.301210238451017e-06 -1.8907629555771054e-05
leaf_weight=14417 1414 292 883 140 1608 2722 472 1022 3699 318 461 10310 29674 15371
leaf_count=14417 1414 292 883 140 1608 2722 472 1022 3699 318 461 10310 29674 15371
internal_value=0 2.82961e-05 5.19251e-05 -5.2652e-06 3.18155e-05 -2.31634e-05 -3.45004e-06 0.000144708 1.60641e-05 -5.11294e-06 0.000127713 -5.54233e-06 -3.26704e-06 -9.89402e-06
internal_weight=82803 12713 7504 5209 6190 4608 3194 1314 5307 70090 601 69772 59462 29788
internal_count=82803 12713 7504 5209 6190 4608 3194 1314 5307 70090 601 69772 59462 29788
is_linear=0
shrinkage=0.005


Tree=46
num_leaves=15
num_cat=0
split_feature=5 8 3 8 1 7 6 7 5 5 1 6 1 7
split_gain=0.475761 0.348056 0.296336 0.257998 0.22257 0.156524 0.11254 0.114721 0.103151 0.101937 0.113127 0.0882803 0.0838449 0.0774172
threshold=2.1920803104026487 -0.019078178784966943 -0.78608812787665883 0.079452765578015713 9.1180754775924964 1040154.8986812589 0.3091009038436684 27021.941283618231 1.9983343782813803 3.7538048709159173 15.711378721587115 0.34157536781821218 2.2625354672378855 418498.27437700826
decision_type=2 2 2 2 2 2 2 2 2 2 2 2 2 2
left_child=6 9 3 11 12 -6 7 -1 -8 10 13 -3 -4 -2
right_child=1 2 4 -5 5 -7 8 -9 -10 -11 -12 -13 -14 -15
leaf_value=-4.6860393285448921e-06 4.2736976355024145e-05 -0.00010525695883290538 0.00025164266850376303 0.00018074943613957719 5.9135559824209974e-05 -3.2955581438937421e-05 -6.3782309006802776e-06 2.9840000067543646e-05 -4.3491143663171482e-05 -4.8136200519546952e-05 -5.4819352774125692e-05 1.6042447031053934e-06 0.00010478730692273141 -1.7342772463359266e-05
leaf_weight=5177 1581 205 136 198 3430 496 58613 4337 1963 1203 585 2671 1468 740
leaf_count=5177 1581 205 136 198 3430 496 58613 4337 1963 1203 585 2671 1468 740
internal_value=0 2.81577e-05 4.62857e-05 6.02836e-06 6.82093e-05 4.68616e-05 -5.08737e-06 1.07908e-05 -7.62252e-06 -9.19393e-06 6.07241e-06 -5.16063e-06 0.000118872 2.25054e-05
internal_weight=82803 12713 8604 3074 5530 3926 70090 9514 60576 4109 2906 2876 1604 2321
internal_count=82803 12713 8604 3074 5530 3926 70090 9514 60576 4109 2906 2876 1604 2321
is_linear=0
shrinkage=0.005


Tree=47
num_leaves=15
num_cat=0
split_feature=5 2 2 8 1 5 1 2 6 7 10 5 6 1
split_gain=0.471023 0.400012 0.536174 0.475996 0.338759 0.146098 0.426654 0.112321 0.11141 0.113588 0.104241 0.14284 0.0982822 0.0913381
threshold=2.1920803104026487 -1.3361511896903264e-11 -1.1693918056110418e-11 0.034709377485134939 9.1180754775924964 2.817819996474173 11.400043616726853 -1.3214485061752155e-11 0.3091009038436684 27021.941283618231 -524.18486108720674 1.5790412508681813 0.36431179662055091 2.3021304486958871
decision_type=2 2 2 2 2 2 2 2 2 2 2 2 2 2
left_child=8 3 7 5 -4 -2 -7 -3 9 -1 -10 -12 -6 -5
right_child=1 2 4 13 12 6 -8 -9 10 -11 11 -13 -14 -15
leaf_value=-4.6626112183807878e-06 -6.5349845736862393e-05 4.4818858367894155e-05 0.00012249757079350914 0.00024825258783704447 4.1645760385231185e-05 -2.8202674018388393e-05 0.00013441776364016785 0.00016943036784752515 1.616647998357533e-05 2.9690817181047347e-05 -6.1951241841408335e-06 -2.9627266528146619e-05 -1.3834946780389798e-06 8.3805634440876396e-05
leaf_weight=5177 1414 292 883 140 2175 2722 472 1022 4220 4337 48737 7619 3132 461
leaf_count=5177 1414 292 883 140 2175 2722 472 1022 4220 4337 48737 7619 3132 461
internal_value=0 2.8017e-05 5.14152e-05 -5.21182e-06 3.1418e-05 -2.29373e-05 -3.37123e-06 0.000143668 -5.06211e-06 1.07355e-05 -7.58461e-06 -9.40761e-06 1.57827e-05 0.000126444
internal_weight=82803 12713 7504 5209 6190 4608 3194 1314 70090 9514 60576 56356 5307 601
internal_count=82803 12713 7504 5209 6190 4608 3194 1314 70090 9514 60576 56356 5307 601
is_linear=0
shrinkage=0.005


Tree=48
num_leaves=15
num_cat=0
split_feature=5 8 3 8 10 6 6 10 5 5 5 0 6 5
split_gain=0.466412 0.341788 0.291616 0.253279 0.218264 0.367155 0.110288 0.103211 0.141406 0.10028 0.105151 0.102434 0.0867684 0.0867169
threshold=2.1920803104026487 -0.019078178784966943 -0.78608812787665883 0.079452765578015713 -1.0000000180025095e-35 0.33367583389815897 0.3091009038436684 -524.18486108720674 1.5790412508681813 3.7538048709159173 2.5250268952262167 0.036736179778659096 0.34157536781821218 1.2816729187972631
decision_type=2 2 2 2 2 2 2 2 2 2 2 2 2 2
left_child=6 9 3 12 -4 -6 -1 -8 13 10 11 -2 -3 -9
right_child=1 2 4 -5 5 -7 7 8 -10 -11 -12 -13 -14 -15
leaf_value=1.0680550392616641e-05 -5.3072339589978306e-05 -0.00010440599931281632 2.1519670444090377e-05 0.00017902681940664498 -3.2274929916645324e-05 0.00011005981471979798 1.6085657654430903e-05 -1.2521092768813577e-05 -2.9479139984644536e-05 -4.7755290989140464e-05 3.3161692369332849e-05 5.038931212926919e-05 1.5224809214220756e-06 7.3808331197761324e-07
leaf_weight=9514 974 205 1852 198 498 3180 4220 25559 7619 1203 1638 294 2671 23178
leaf_count=9514 974 205 1852 198 498 3180 4220 25559 7619 1203 1638 294 2671 23178
internal_value=0 2.788e-05 4.58446e-05 5.90298e-06 6.75927e-05 9.01063e-05 -5.0368e-06 -7.54669e-06 -9.36079e-06 -9.12943e-06 6.00588e-06 -2.71024e-05 -5.17578e-06 -6.16415e-06
internal_weight=82803 12713 8604 3074 5530 3678 70090 60576 56356 4109 2906 1268 2876 48737
internal_count=82803 12713 8604 3074 5530 3678 70090 60576 56356 4109 2906 1268 2876 48737
is_linear=0
shrinkage=0.005


Tree=49
num_leaves=15
num_cat=0
split_feature=4 1 3 10 3 3 10 1 4 0 6 6 10 1
split_gain=0.322022 0.170592 0.184459 0.255467 0.198501 0.194416 0.120235 0.142782 0.0947143 0.0780897 0.10932 0.0731725 0.0452626 0.0428656
threshold=50000000.605290145 6.4800337020311511 -0.85526879909025333 149.19323435480382 -0.047192586153606782 0.56771638543859504 -578.66970962996766 8.0713769269779796 0.14581129730443651 0.047173393246236352 0.2586718312753003 0.38253101637816755 365.48313038701446 1.1396961370154515
decision_type=2 2 2 2 2 2 2 2 2 2 2 2 2 2
left_child=8 9 6 5 -5 -4 -3 -8 -1 11 12 -2 -11 -12
right_child=1 2 3 4 -6 -7 7 -9 -10 10 13 -13 -14 -15
leaf_value=7.1270575407363399e-05 -5.4410792018421133e-05 3.201038594176253e-05 3.8530189640104386e-05 0 0.00011409597754709637 -4.7326232723250373e-07 2.8624349677827586e-05 -2.0540288412227135e-05 0.00024200343940470177 8.1372078834056043e-05 2.2422630095696295e-05 8.5740177466401033e-05 0 -6.5003846137258264e-06
leaf_weight=341 1270 1818 4916 556 1200 8773 1750 8511 147 511 1277 87 218 51428
leaf_count=341 1270 1818 4916 556 1200 8773 1750 8511 147 511 1277 87 218 51428
internal_value=0 -7.42058e-07 9.37864e-06 2.08574e-05 7.7923e-05 1.33519e-05 -5.09217e-06 -1.19107e-05 0.000128013 -5.87181e-06 -4.86762e-06 -4.35555e-05 5.56017e-05 -5.75196e-06
internal_weight=82803 82315 27524 15445 1756 13689 12079 10261 488 54791 53434 1357 729 52705
internal_count=82803 82315 27524 15445 1756 13689 12079 10261 488 54791 53434 1357 729 52705
is_linear=0
shrinkage=0.005


end of trees

feature_importances:
Column_5=128
Column_1=108
Column_2=97
Column_7=83
Column_6=72
Column_10=70
Column_8=51
Column_3=43
Column_4=30
Column_0=17
Column_9=1

parameters:
[boosting: gbdt]
[objective: regression]
[metric: l2]
[tree_learner: serial]
[device_type: cpu]
[data_sample_strategy: bagging]
[data: ]
[valid: ]
[num_iterations: 50]
[learning_rate: 0.005]
[num_leaves: 15]
[num_threads: 14]
[seed: 42]
[deterministic: 0]
[force_col_wise: 1]
[force_row_wise: 0]
[histogram_pool_size: -1]
[max_depth: 5]
[min_data_in_leaf: 50]
[min_sum_hessian_in_leaf: 0.001]
[bagging_fraction: 1]
[pos_bagging_fraction: 1]
[neg_bagging_fraction: 1]
[bagging_freq: 0]
[bagging_seed: 400]
[bagging_by_query: 0]
[feature_fraction: 0.7]
[feature_fraction_bynode: 1]
[feature_fraction_seed: 30056]
[extra_trees: 0]
[extra_seed: 12879]
[early_stopping_round: 0]
[early_stopping_min_delta: 0]
[first_metric_only: 0]
[max_delta_step: 0]
[lambda_l1: 0.5]
[lambda_l2: 0.5]
[linear_lambda: 0]
[min_gain_to_split: 0]
[drop_rate: 0.1]
[max_drop: 50]
[skip_drop: 0.5]
[xgboost_dart_mode: 0]
[uniform_drop: 0]
[drop_seed: 17869]
[top_rate: 0.2]
[other_rate: 0.1]
[min_data_per_group: 100]
[max_cat_threshold: 32]
[cat_l2: 10]
[cat_smooth: 10]
[max_cat_to_onehot: 4]
[top_k: 20]
[monotone_constraints: ]
[monotone_constraints_method: basic]
[monotone_penalty: 0]
[feature_contri: ]
[forcedsplits_filename: ]
[refit_decay_rate: 0.9]
[cegb_tradeoff: 1]
[cegb_penalty_split: 0]
[cegb_penalty_feature_lazy: ]
[cegb_penalty_feature_coupled: ]
[path_smooth: 0]
[interaction_constraints: ]
[verbosity: -1]
[saved_feature_importance_type: 0]
[use_quantized_grad: 0]
[num_grad_quant_bins: 4]
[quant_train_renew_leaf: 0]
[stochastic_rounding: 1]
[linear_tree: 0]
[max_bin: 255]
[max_bin_by_feature: ]
[min_data_in_bin: 3]
[bin_construct_sample_cnt: 200000]
[data_random_seed: 175]
[is_enable_sparse: 1]
[enable_bundle: 1]
[use_missing: 1]
[zero_as_missing: 0]
[feature_pre_filter: 1]
[pre_partition: 0]
[two_round: 0]
[header: 0]
[label_column: ]
[weight_column: ]
[group_column: ]
[ignore_column: ]
[categorical_feature: 9]
[forcedbins_filename: ]
[precise_float_parser: 0]
[parser_config_file: ]
[objective_seed: 16083]
[num_class: 1]
[is_unbalance: 0]
[scale_pos_weight: 1]
[sigmoid: 1]
[boost_from_average: 1]
[reg_sqrt: 0]
[alpha: 0.9]
[fair_c: 1]
[poisson_max_delta_step: 0.7]
[tweedie_variance_power: 1.5]
[lambdarank_truncation_level: 30]
[lambdarank_norm: 1]
[label_gain: ]
[lambdarank_position_bias_regularization: 0]
[eval_at: ]
[multi_error_top_k: 1]
[auc_mu_weights: ]
[num_machines: 1]
[local_listen_port: 12400]
[time_out: 120]
[machine_list_filename: ]
[machines: ]
[gpu_platform_id: -1]
[gpu_device_id: -1]
[gpu_use_dp: 0]
[num_gpu: 1]

end of parameters

pandas_categorical:null
