tree
version=v4
num_class=1
num_tree_per_iteration=1
label_index=0
max_feature_idx=10
objective=binary sigmoid:1
feature_names=Column_0 Column_1 Column_2 Column_3 Column_4 Column_5 Column_6 Column_7 Column_8 Column_9 Column_10
feature_infos=[0:0.7162229260923314] [0.46506071389014014:20.4209205808591] [-0.37954567924312732:0.12944539678761882] [-70000000:70000000] [0:100000000] [1.1167821838269782:52.547015713236391] [0.002486825329792055:0.67170969324328145] [0:13428575.189825613] [-0.24085745773956885:0.48005684740359889] -1:2:1 [-1137.2418836935428:755.28784374309362]
tree_sizes=1738 1782 1786 1774 1779 1777 1765 1767 1787 1783 1763 1772 1781 1768 1772 1775 1780 1779 1781 1790 1768 1785 1779 1780 1767 1789 1779 1788 1781 1782 1777 1801 1774 1784 1776 1792 1789 1796 1782 1791 1798 1785 1796 1779 1805 1800 1793 1774 1788 1786

Tree=0
num_leaves=15
num_cat=0
split_feature=7 0 0 7 1 3 8 0 1 7 1 6 7 7
split_gain=3845.89 1929.69 1182.34 1237.29 1269.95 1137.08 1161.93 1061.71 1061.6 1358.04 1036.96 859.835 793.555 716.479
threshold=23899.325918171362 0.42243372439126181 0.58072001973519727 18848.639990258187 1.5741378500157353 -0.86172992820007699 -0.0056949456063829776 0.36687286031879046 15.112827140453616 50012.966460191681 18.943569628179855 0.32092834805438841 21705.266040297709 1040154.8986812589
decision_type=2 2 2 2 2 2 2 2 2 2 2 2 2 2
left_child=1 7 3 4 -3 6 -2 -1 9 11 -10 -7 -5 -11
right_child=5 2 -4 12 -6 8 -8 -9 10 13 -12 -13 -14 -15
leaf_value=-0.31430319693068681 -0.31334692357964528 -0.31573588597229968 -0.32243595336178588 -0.31978994441598874 -0.30869650367471108 -0.30538910474463044 -0.31818246501046155 -0.32226852094113673 -0.32121102112951888 -0.30712630633398053 -0.31149099874442709 -0.31411270698817528 -0.30410460554276431 -0.31496280880728539
leaf_weight=507.57404263317585 4699.633182823658 1456.6228652596474 550.74588575959206 1160.2737726122141 1142.4684361815453 317.56915113329887 1688.0922388583422 2362.4998447597027 525.62328778207302 2259.5703656673431 572.69767040014267 2532.7481300830841 86.099777534604073 334.154943972826
leaf_count=2081 19268 5972 2258 4757 4684 1302 6921 9686 2155 9264 2348 10384 353 1370
internal_value=-0.31476 -0.31767 -0.315588 -0.314607 -0.312642 -0.313124 -0.314625 -0.320859 -0.311659 -0.310755 -0.316141 -0.313138 -0.318701 -0.308137
internal_weight=20196.4 7266.28 4396.21 3845.46 2599.09 12930.1 6387.73 2870.07 6542.36 5444.04 1098.32 2850.32 1246.37 2593.73
internal_count=82803 29791 18024 15766 10656 53012 26189 11767 26823 22320 4503 11686 5110 10634
is_linear=0
shrinkage=1


Tree=1
num_leaves=15
num_cat=1
split_feature=7 10 5 7 3 7 5 7 5 9 5 5 5 6
split_gain=3808.33 1972.55 1710.95 2332.07 1035.75 1605.78 1066.62 1046.65 903.892 828.03 657.475 1760.25 920.637 643.547
threshold=23899.325918171362 -578.66970962996766 1.2816729187972631 18848.639990258187 -0.86172992820007699 36226.298777936223 2.4565748266012024 29721.721309731682 1.1199657731962522 0 1.3086051152408287 1.2945598170720023 1.4660629474017488 0.32316976730150526
decision_type=2 2 2 2 2 2 2 2 2 1 2 2 2 2
left_child=2 -2 8 10 5 7 9 -3 -1 -6 11 -4 -12 -8
right_child=1 4 3 -5 6 -7 13 -9 -10 -11 12 -13 -14 -15
leaf_value=0.011672385784501495 0.0071705677594261063 0.0010317292503485955 0.0084477213010246618 -0.0045742767712634545 0.0020815379483732832 -0.0028649865134785348 -0.0021697014189851452 0.0097350588001393693 -0.0052760169887585608 -0.0049533568647475981 0.00917102411139392 -0.0066381729183714305 -0.0085271352116230922 0.0080716257350456882
leaf_weight=79.644396603107452 1427.2132917493582 2270.8342483043671 385.88664788007736 1464.5948366969824 3857.9363473951817 3266.3828862905502 178.78620798885822 407.16605591773987 4145.7900692075491 468.49638272821903 719.22125136852264 386.49168403446674 81.297146961092949 1056.5228925943375
leaf_count=326 5848 9309 1582 6009 15811 13393 733 1669 17011 1922 2946 1584 333 4327
internal_value=0 0.00162703 -0.00289724 -3.40668e-05 0.000938916 -0.000511788 0.00248978 0.0023575 -0.00495462 0.00131869 0.00419205 0.00089622 0.00736635 0.0065871
internal_weight=20196.3 12933.3 7262.93 3037.49 11506.1 5944.38 5561.74 2678 4225.43 4326.43 1572.9 772.378 800.518 1235.31
internal_count=82803 53012 29791 12454 47164 24371 22793 10978 17337 17733 6445 3166 3279 5060
cat_boundaries=0 1
cat_threshold=4
is_linear=0
shrinkage=0.005


Tree=2
num_leaves=15
num_cat=1
split_feature=7 0 5 5 3 5 8 5 0 5 9 5 5 1
split_gain=3771.17 1903.24 1663.19 1728.17 1111.96 1251.51 1145.19 1055.64 1053.71 1009.04 903.319 816.743 745.506 699.498
threshold=23899.325918171362 0.42243372439126181 1.2816729187972631 1.4567170705890871 -0.86172992820007699 2.4565748266012024 -0.0056949456063829776 1.3086051152408287 0.36687286031879046 1.1750272285020442 0 2.1920803104026487 1.1199657731962522 1.4529386806145701
decision_type=2 2 2 2 2 2 2 2 2 2 1 2 2 2
left_child=1 8 12 7 6 10 9 -4 -1 -2 11 -6 -3 -11
right_child=4 2 3 -5 5 -7 -8 -9 -10 13 -12 -13 -14 -15
leaf_value=0.00047795232282828333 0.011287803850770455 0.011594411748026319 0.00089159065592717048 -0.0082101347283448298 0.0020224213571053895 0.006836626523215393 -0.0033995136156046743 0.0092261953816756299 -0.0074608004047598585 0.0093873708950126117 -0.0045172298791609725 0.01174661046656586 -0.0038802964838816224 0.00039807613160739347
leaf_weight=507.24093851447105 244.24544960260391 79.782134056091309 772.47866979241371 295.25919985771179 4167.093644335866 1647.2272808551788 1686.7218870967627 748.70490261912346 2357.7897275090218 227.64238932728767 506.91279922425747 227.4183914065361 2498.234234854579 4229.2355716079473
leaf_count=2081 1001 326 3166 1212 17071 6740 6921 3063 9686 933 2081 931 10257 17334
internal_value=0 -0.00288413 -0.000816102 0.00284724 0.0016185 0.00306623 0.000133809 0.00499709 -0.00605457 0.00140229 0.00179803 0.0025275 -0.00339827 0.000858782
internal_weight=20196 7259.49 4394.46 1816.44 12936.5 6548.65 6387.85 1521.18 2865.03 4701.12 4901.42 4394.51 2578.02 4456.88
internal_count=82803 29791 18024 7441 53012 26823 26189 6229 11767 19268 20083 18002 10583 18267
cat_boundaries=0 1
cat_threshold=4
is_linear=0
shrinkage=0.005


Tree=3
num_leaves=15
num_cat=0
split_feature=0 0 10 2 2 2 1 1 1 10 1 6 1 2
split_gain=3492.52 2101.68 2021.21 1605.76 1871.65 1273.46 1114.69 1631.43 1000.12 995.689 952.222 618.891 1052.72 504.056
threshold=0.36989354441652328 0.42243372439126181 -578.66970962996766 -0.31487392158386673 -0.16030334578401811 0.043316895034455911 15.112827140453616 19.066492833172777 1.5741378500157353 487.36156899573001 11.254668085752197 0.34697930201230698 16.639744913565238 -0.084542503819956608
decision_type=2 2 2 2 2 2 2 2 2 2 2 2 2 2
left_child=2 9 11 -3 8 6 10 -8 -5 -2 -4 -1 -13 -6
right_child=1 3 5 4 13 -7 7 -9 -10 -11 -12 12 -14 -15
leaf_value=0.010868481108132671 -0.0071271779740507829 -0.0072253290284423543 0.0017391780302245272 -0.00035756242582899464 -0.0068578518569317745 -0.0024654775286001695 -0.006533932895478242 0.0045007011518767631 0.0057978706443008064 0.011189308546022634 0.0071426078132949605 0.0075149769085135149 -0.005641519922077674 0.0034939438536567996
leaf_weight=620.67070984840393 2411.4451617449522 798.21034274995327 7168.8115033507347 1291.5225431770086 820.24621075391769 2363.4481050670147 899.96167525649071 532.67251282930374 1347.1748601049185 76.014886289834976 920.0999501645565 606.39364995062351 202.24423931539059 136.60307565331459
leaf_count=2540 9917 3280 29372 5300 3370 9688 3694 2183 5515 311 3766 2480 828 559
internal_value=0 -0.00289216 0.00149478 -0.000812152 0.000611683 0.000818816 0.0016344 -0.00242923 0.00278462 -0.0065643 0.00235452 0.00711157 0.00421993 -0.00537633
internal_weight=20195.5 6881.22 13314.3 4393.76 3595.55 11885 9521.55 1432.63 2638.7 2487.46 8088.91 1429.31 808.638 956.849
internal_count=82803 28252 54551 18024 14744 48703 39015 5877 10815 10228 33138 5848 3308 3929
is_linear=0
shrinkage=0.005


Tree=4
num_leaves=15
num_cat=0
split_feature=0 0 10 2 2 2 1 1 1 10 1 8 0 2
split_gain=3458.59 2084.28 1998.29 1591.7 1853.63 1260.77 1103.32 1616.35 988.929 986.274 941.152 706.661 600.359 543.99
threshold=0.36989354441652328 0.42243372439126181 -578.66970962996766 -0.31487392158386673 -0.16030334578401811 0.043316895034455911 15.112827140453616 19.066492833172777 1.5741378500157353 487.36156899573001 11.254668085752197 0.033824360193188317 0.083045491189776957 -9.2465535228569677e-12
decision_type=2 2 2 2 2 2 2 2 2 2 2 2 2 2
left_child=2 9 13 -3 8 6 10 -8 -5 -2 -4 12 -7 -1
right_child=1 3 5 4 -6 11 7 -9 -10 -11 -12 -13 -14 -15
leaf_value=-0.0080855172764359787 -0.0071000189648066127 -0.0071978036632987146 0.0017300195674687189 -0.00035579548711827346 -0.0053542256343440302 0.0014662132879271514 -0.006508145706772662 0.0044751177263787027 0.0057638767300221055 0.011115546033117573 0.0070993472496912458 -0.0079826012582935452 -0.0041779142042345906 0.0076942622586207302
leaf_weight=56.331300899386406 2408.5751420110464 797.26077216863632 7170.7261799275875 1291.4491362124681 955.99741335213184 1035.0999878644943 899.01431882381439 533.04104593396187 1348.3445200324059 76.139724016189575 921.0786991417408 464.04198671877384 863.3971976339817 1374.4657943546772
leaf_count=231 9917 3280 29372 5300 3929 4243 3694 2183 5515 311 3766 1904 3541 5617
internal_value=0 -0.00287916 0.00148698 -0.000808235 0.000608572 0.000814622 0.00162583 -0.00241806 0.00276954 -0.0065387 0.00234191 -0.0024541 -0.00109973 0.00706865
internal_weight=20195 6877.77 13317.2 4393.05 3595.79 11886.4 9523.86 1432.06 2639.79 2484.71 8091.8 2362.54 1898.5 1430.8
internal_count=82803 28252 54551 18024 14744 48703 39015 5877 10815 10228 33138 9688 7784 5848
is_linear=0
shrinkage=0.005


Tree=5
num_leaves=15
num_cat=1
split_feature=7 5 2 3 5 8 5 5 5 9 5 5 1 5
split_gain=3668.15 1655.61 2927.71 1092.37 1213 1126.68 1016.52 1323.82 989.908 885.971 882.904 809.307 774.342 951.653
threshold=23899.325918171362 1.2816729187972631 -0.16030334578401811 -0.86172992820007699 2.4565748266012024 -0.0056949456063829776 1.373026388948916 1.2945598170720023 1.1750272285020442 0 1.1199657731962522 2.1920803104026487 1.1567687509944695 1.2729613728858011
decision_type=2 2 2 2 2 2 2 2 2 1 2 2 2 2
left_child=1 10 6 5 9 8 7 -3 -2 11 -1 -5 13 -12
right_child=3 2 -4 4 -6 -7 -8 -9 -10 -11 12 -13 -14 -15
leaf_value=0.011530072429264253 0.011156687058041955 0.0085538015192073696 -0.0074056168410802847 0.001998068339498229 0.0067350804360725236 -0.0033832242373056714 0.0084158580822445411 -0.002074070078431169 0.00084146917318141882 -0.004480200560862159 0.010599169452096409 0.011669953060225731 -0.0057952934149180834 -0.0074574400955172704
leaf_weight=79.893110007047653 244.96247173845768 406.48804643750191 932.54555489122868 4169.9293572753668 1651.2759127169847 1685.7043247818947 652.59131224453449 1045.2391944229603 4459.1179672926664 506.161505818367 164.35518376529217 227.80376309156418 3837.803265824914 130.32455164194107
leaf_count=326 1001 1664 3841 17071 6740 6921 2664 4285 18267 2081 675 931 15800 536
internal_value=0 -0.00284756 -3.24609e-05 0.00159464 0.0030286 0.000123057 0.00323481 0.000901965 0.00138029 0.00177946 -0.00487623 0.00250091 -0.00519537 0.00260591
internal_weight=20194.2 7249.24 3036.86 12945 6555.17 6389.78 2104.32 1451.73 4704.08 4903.89 4212.38 4397.73 4132.48 294.68
internal_count=82803 29791 12454 53012 26823 26189 8613 5949 19268 20083 17337 18002 17011 1211
cat_boundaries=0 1
cat_threshold=4
is_linear=0
shrinkage=0.005


Tree=6
num_leaves=15
num_cat=0
split_feature=0 0 10 5 5 10 2 5 1 1 5 10 1 5
split_gain=3393.28 2056.31 1970.56 1602.59 1680.16 1262.48 1246.82 1285.52 1086.86 1598.34 1027.28 968.343 926.737 830.544
threshold=0.36989354441652328 0.42243372439126181 -578.66970962996766 1.2816729187972631 1.4567170705890871 298.06427569603062 0.043316895034455911 2.1920803104026487 15.112827140453616 19.066492833172777 1.3086051152408287 487.36156899573001 11.254668085752197 1.1199657731962522
decision_type=2 2 2 2 2 2 2 2 2 2 2 2 2 2
left_child=2 11 -1 5 10 13 8 -8 12 -10 -5 -2 -4 -3
right_child=1 3 6 4 -6 -7 7 -9 9 -11 -12 -13 -14 -15
leaf_value=0.0070105696085440775 -0.0070518784840805327 0.011454661394229295 0.001713156253378124 0.00085497807991621909 -0.0081337017153526089 0.0090834767037934732 -0.0038441424844515818 0.0072898760978858806 -0.00647731609073231 0.0044444622537986728 0.0090672546000835994 0.010971075922631704 0.0070376420070345155 -0.0048770436211188978
leaf_weight=1432.7572326362133 2403.2949347347021 80.019956320524216 7174.15277351439 773.30062152445316 294.22577038407326 188.92664040625095 2066.0795762240887 295.83690394461155 897.83781504631042 533.47438372671604 751.3976584225893 76.374875694513321 922.41727276146412 2303.1910189539194
leaf_count=5848 9917 326 29372 3166 1212 775 8478 1210 3694 2183 3063 311 3766 9482
internal_value=0 -0.00285401 0.00147187 -0.000797598 0.0027932 -0.00333791 0.000803967 -0.00244727 0.00161028 -0.00240471 0.00490541 -0.00649366 0.00232046 -0.00432535
internal_weight=20193.3 6870.73 13322.6 4391.06 1818.92 2572.14 11889.8 2361.92 9527.88 1431.31 1524.7 2479.67 8096.57 2383.21
internal_count=82803 28252 54551 18024 7441 10583 48703 9688 39015 5877 6229 10228 33138 9808
is_linear=0
shrinkage=0.005


Tree=7
num_leaves=15
num_cat=0
split_feature=7 10 7 1 1 2 1 1 6 1 7 2 2 6
split_gain=3600.25 1874.65 1482.26 2784.93 1330.2 1328.25 1176.47 1583.62 1046.55 832.387 757.599 940.405 711.304 609.55
threshold=23899.325918171362 -578.66970962996766 18848.639990258187 1.5741378500157353 1.1567687509944695 0.043316895034455911 15.112827140453616 19.066492833172777 0.42461054175345742 11.254668085752197 65030.241867571596 0.12578483119198183 -0.15568708338865653 0.34697930201230698
decision_type=2 2 2 2 2 2 2 2 2 2 2 2 2 2
left_child=2 13 3 4 -1 6 9 -8 -6 -3 -7 -12 -5 -2
right_child=1 5 -4 12 8 10 7 -9 -10 -11 11 -13 -14 -15
leaf_value=0.0048323020013668764 0.01068899494601766 0.0019354509592936079 -0.0050187534522386328 0.0069567299460532393 -0.006312472530703786 -0.0044644837809839095 -0.0064519856608011459 0.0044193320305769479 0.0074519591504054903 0.0069955472271151543 0.0044621413198070751 -0.0084423908285422376 -0.0084288479917443149 0.0041025505365660268
leaf_weight=389.63971658051014 623.11236967146397 6801.1192034333944 3728.8046556413174 1071.6058557927608 1822.7185311168432 1560.4993394315243 896.86032362282276 533.82740341126919 148.83694377541542 923.32869090139866 618.10308273136616 182.36224088072777 80.223331347107887 811.04720710217953
leaf_count=1600 2540 27833 15371 4369 7511 6410 3694 2183 609 3766 2531 747 331 3308
internal_value=0 0.00157876 -0.00282325 -0.000491798 -0.0036016 0.000907034 0.00176951 -0.00239374 -0.00527047 0.00254104 -0.00243601 0.00151567 0.00587978 0.00696869
internal_weight=20192.1 12950.3 7241.83 3513.02 2361.2 11516.1 9155.14 1430.69 1971.56 7724.45 2360.96 800.465 1151.83 1434.16
internal_count=82803 53012 29791 14420 9720 47164 37476 5877 8120 31599 9688 3278 4700 5848
is_linear=0
shrinkage=0.005


Tree=8
num_leaves=15
num_cat=1
split_feature=7 0 5 5 3 5 8 0 5 5 9 5 5 5
split_gain=3565.32 1823.93 1570.31 1650.86 1072.37 1178.96 1109.48 1014.37 1008.44 973.901 869.512 791.104 721.373 634.268
threshold=23899.325918171362 0.42243372439126181 1.2816729187972631 1.4567170705890871 -0.86172992820007699 2.4565748266012024 -0.0056949456063829776 0.36687286031879046 1.3086051152408287 1.1750272285020442 0 2.1920803104026487 1.1199657731962522 3.4531489661231283
decision_type=2 2 2 2 2 2 2 2 2 2 1 2 2 2
left_child=1 7 12 8 6 10 9 -1 -4 -2 11 -6 -3 -11
right_child=4 2 3 -5 5 -7 -8 -9 -10 13 -12 -13 -14 -15
leaf_value=0.00048012784029668104 0.01104409716022709 0.011412941439872417 0.0008396694014311672 -0.0080831997028569021 0.0019746234013928161 0.0066397523063563817 -0.0033685124541666532 -0.0073138774235970696 0.0089712392014162819 0.0012873910910986004 -0.0044479068229770959 0.011522892221287637 -0.0037819893552425076 -0.006855516389707582
leaf_weight=507.2035955041647 245.55112414062023 80.088572442531586 773.62419575452805 293.50762686133385 4172.5397037267685 1654.8907551318407 1684.7190451771021 2341.8802715390921 752.9427065551281 4208.2275918126106 505.43709136545658 228.51581361889839 2488.7170569300652 252.98346880078316
leaf_count=2081 1001 326 3166 1212 17071 6740 6921 9686 3063 17231 2081 931 10257 1036
internal_value=0 -0.00281065 -0.0007875 0.0027644 0.00157055 0.0029904 0.000112445 -0.00592564 0.00485363 0.00135916 0.00175846 0.00247222 -0.00330515 0.000824352
internal_weight=20190.8 7237.96 4388.88 1820.07 12952.9 6561.38 6391.48 2849.08 1526.57 4706.76 4906.49 4401.06 2568.81 4461.21
internal_count=82803 29791 18024 7441 53012 26823 26189 11767 6229 19268 20083 18002 10583 18267
cat_boundaries=0 1
cat_threshold=4
is_linear=0
shrinkage=0.005


Tree=9
num_leaves=15
num_cat=1
split_feature=7 0 5 5 3 5 8 0 5 5 9 5 5 1
split_gain=3530.78 1808.81 1555.1 1634.79 1061 1165.45 1098.76 1006.61 996.53 962.497 860.914 781.588 713.872 688.964
threshold=23899.325918171362 0.42243372439126181 1.2816729187972631 1.4567170705890871 -0.86172992820007699 2.4565748266012024 -0.0056949456063829776 0.36687286031879046 1.3086051152408287 1.1750272285020442 0 2.1920803104026487 1.1199657731962522 1.4529386806145701
decision_type=2 2 2 2 2 2 2 2 2 2 1 2 2 2
left_child=1 7 12 8 6 10 9 -1 -4 -2 11 -6 -3 -11
right_child=4 2 3 -5 5 -7 -8 -9 -10 13 -12 -13 -14 -15
leaf_value=0.0004776929294902557 0.01097271839233261 0.011339611840128098 0.00083536846389422063 -0.0080544962964167084 0.0019641733943501299 0.0066007710092826693 -0.003353517776523774 -0.0072870888729681107 0.0089162307573486844 0.0092724128138284255 -0.0044290253529421014 0.011447965848682375 -0.0037655421001907231 0.00036276281799689427
leaf_weight=507.24212473630905 245.91506417095661 80.206383287906647 773.72152815759182 293.08365947008133 4173.7645142972469 1656.3398250043392 1683.7953226417303 2338.7465351969004 753.80093836784363 228.25964918732643 505.05699104070663 228.86377251148224 2487.0956135690212 4233.5048444718122
leaf_count=2081 1001 326 3166 1212 17071 6740 6921 9686 3063 933 2081 931 10257 17334
internal_value=0 -0.00279817 -0.000783736 0.00274976 0.00156238 0.00297425 0.000111878 -0.00590245 0.00482636 0.0013521 0.00174924 0.00245899 -0.00329054 0.00082012
internal_weight=20189.4 7233.9 4387.91 1820.61 12955.5 6564.03 6391.47 2845.99 1527.52 4707.68 4907.69 4402.63 2567.3 4461.76
internal_count=82803 29791 18024 7441 53012 26823 26189 11767 6229 19268 20083 18002 10583 18267
cat_boundaries=0 1
cat_threshold=4
is_linear=0
shrinkage=0.005


Tree=10
num_leaves=15
num_cat=0
split_feature=7 10 0 5 5 10 0 5 0 7 5 6 7 10
split_gain=3496.64 1845.21 1793.85 1540.06 1618.92 1247.99 998.938 984.84 937.577 1184.59 971.902 1384.57 1139.66 817.73
threshold=23899.325918171362 -578.66970962996766 0.42243372439126181 1.2816729187972631 1.4567170705890871 298.06427569603062 0.36687286031879046 1.3086051152408287 0.32163644239571931 26759.137299024213 2.4221164630192429 0.31041528899807297 157807.67965988224 -141.95802066200218
decision_type=2 2 2 2 2 2 2 2 2 2 2 2 2 2
left_child=2 -2 6 5 7 -4 -1 -5 10 13 11 -3 -12 -10
right_child=1 8 3 4 -6 -7 -8 -9 9 -11 12 -13 -14 -15
leaf_value=0.00047527094246771083 0.0068971412419253928 0.0039928619930555817 -0.0042604751818932016 0.00083109063712565848 -0.0080261063914608393 0.0090706358898140146 -0.0072605505387789765 0.0088619700920102261 -0.0053768524169651227 0.011370582106972379 0.011174596935966981 -0.0015325528985984497 0.0015713814523715553 0.0040217201691314141
leaf_weight=507.2804079502821 1436.439032331109 1381.8802349716425 2376.8012708574533 773.81807732582092 292.65260401368141 188.9824396520853 2335.5683110654354 754.62526094913483 299.23127372562885 438.23880696296692 376.87349651753902 6301.2906389534473 1710.5594891756773 1013.5095329880714
leaf_count=2081 5848 5654 9808 3166 1212 775 9686 3063 1225 1789 1533 25835 6986 4142
internal_value=0 0.00155427 -0.0027858 -0.00078 0.00273527 -0.00327602 -0.00587944 0.00479934 0.000887662 0.0042565 0.000283494 -0.000538242 0.00330864 0.00187624
internal_weight=20187.8 12958 7229.73 4386.88 1821.1 2565.78 2842.85 1528.44 11521.6 1750.98 9770.6 7683.17 2087.43 1312.74
internal_count=82803 53012 29791 18024 7441 10583 11767 6229 47164 7156 40008 31489 8519 5367
is_linear=0
shrinkage=0.005


Tree=11
num_leaves=15
num_cat=0
split_feature=10 5 1 1 5 6 3 5 2 10 1 6 1 2
split_gain=2912.04 1590.81 2513.74 1605.54 1173.12 1387.9 1042.63 1344.85 1222.93 764.485 1227.04 602.97 1026.14 425.554
threshold=-578.66970962996766 1.2799065304589672 1.9275368684270942 1.4529386806145701 1.2099485615865169 0.38588352749438731 -0.86172992820007699 2.1920803104026487 -0.16127889320616101 83.289241521026824 1.5257673160792853 0.34697930201230698 16.639744913565238 -0.2459953918547968
decision_type=2 2 2 2 2 2 2 2 2 2 2 2 2 2
left_child=11 2 9 13 5 -4 8 -8 -5 -2 -11 -1 -13 -3
right_child=1 3 4 6 -6 -7 7 -9 -10 10 -12 12 -14 -15
leaf_value=0.010550942188342814 -0.0062671070616870861 0.01058111028578025 0.0058645595256208959 0.0034591156895176908 -0.0081732409523178409 -0.0035243383594956925 0.00011289778495654878 0.0055305020801910947 -0.0024769572115750393 -0.0053842969095856804 0.0013494111703025841 0.0072479987327291997 -0.0057186269097845742 -0.0049645725244787248
leaf_weight=624.86673568189144 2447.5304884016514 480.34999462962151 1471.0623833090067 1081.8286293745041 247.41030777990818 536.60643200576305 3653.210940733552 1668.9512168616056 4369.6407051235437 1536.4687892794609 1207.3243726491928 610.08141693472862 202.78114919364452 47.939739003777504
leaf_count=2540 10096 1963 6011 4412 1013 2204 14980 6795 17965 6358 4962 2480 828 196
internal_value=0 -0.000526019 -0.00232034 0.000656018 0.00208633 0.00335361 0.00023827 0.00181261 -0.00129829 -0.00423507 -0.00242071 0.0068565 0.00400867 0.00916233
internal_weight=20186.1 18748.3 7446.4 11301.9 2255.08 2007.67 10773.6 5322.16 5451.47 5191.32 2743.79 1437.73 812.863 528.29
internal_count=82803 76955 30644 46311 9228 8215 44152 21775 22377 21416 11320 5848 3308 2159
is_linear=0
shrinkage=0.005


Tree=12
num_leaves=15
num_cat=0
split_feature=7 10 0 2 2 5 2 5 0 5 2 5 0 10
split_gain=3439.54 1802.67 1776.32 1527.98 1758.97 1398.27 1295.43 1242.72 987.435 960.184 819.043 1022.41 903.848 724.315
threshold=23899.325918171362 -578.66970962996766 0.42243372439126181 -0.31487392158386673 -0.16030334578401811 1.3086051152408287 0.043316895034455911 2.1920803104026487 0.36687286031879046 1.1199657731962522 -7.3723860349872426e-12 1.4912111805389145 0.31215766402439621 -353.28313143145891
decision_type=2 2 2 2 2 2 2 2 2 2 2 2 2 2
left_child=2 -2 8 -4 5 -5 10 13 -1 -6 12 -12 -3 -8
right_child=1 6 3 4 9 -7 7 -9 -10 -11 11 -13 -14 -15
leaf_value=0.00046961118771486892 0.0068165294105549338 -9.86098514244852e-05 -0.0070541631645044817 0.00039011339497873915 0.01126528615991366 0.0084081869893402311 0.00020103414529926958 0.0071320887447147464 -0.0072223667184324394 -0.0067464172372635692 0.001031938319098711 0.0095953398607234713 0.0035278890495240352 -0.0059915811147785497
leaf_weight=507.3669531494379 1438.9278933703899 5204.5145976394415 791.84749703109264 1877.02884991467 80.32184499502182 765.43675558269024 729.91709235310555 296.87492398917675 2330.8542867004871 869.73953285813332 707.42278447747231 688.24780228734016 2563.4335021078587 1332.6939309537411
leaf_count=2081 5848 21304 3280 7710 326 3105 2995 1210 9686 3603 2894 2804 10474 5483
internal_value=0 0.00154063 -0.00276497 -0.000769071 0.000616352 0.00271479 0.000881331 -0.00242171 -0.00584661 -0.00521588 0.00173217 0.00525853 0.00109797 -0.00379941
internal_weight=20184.6 12962 7222.6 4384.37 3592.53 2642.47 11523.1 2359.49 2838.22 950.061 9163.62 1395.67 7767.95 2062.61
internal_count=82803 53012 29791 18024 14744 10815 47164 9688 11767 3929 37476 5698 31778 8478
is_linear=0
shrinkage=0.005


Tree=13
num_leaves=15
num_cat=0
split_feature=7 0 5 5 3 5 8 0 5 5 7 5 5 5
split_gain=3406.36 1761.7 1494.92 1587.62 1028.53 1126.2 1078.54 979.993 965.254 936.47 789.258 1354.25 1243.21 695.893
threshold=23899.325918171362 0.42243372439126181 1.2816729187972631 1.4567170705890871 -0.86172992820007699 2.4565748266012024 -0.0056949456063829776 0.36687286031879046 1.3086051152408287 1.1750272285020442 237485.23868586545 1.5866933847752973 1.688154461239965 1.1199657731962522
decision_type=2 2 2 2 2 2 2 2 2 2 2 2 2 2
left_child=1 7 13 8 6 10 9 -1 -4 -2 12 -12 -6 -3
right_child=4 2 3 -5 5 -7 -8 -9 -10 -11 11 -13 -14 -15
leaf_value=0.00046723071532419578 0.010805377789055449 0.011194541219343568 0.00080514349551596867 -0.0079793897564970715 0.0014322059700009504 0.0064811580045939891 -0.0033313114758436839 -0.0071964239060771486 0.0087500495105345497 0.00080664927908864715 0.0064070365878539119 -0.0055571142690047353 0.0087741367738426255 -0.0036999461525405266
leaf_weight=507.40441603958607 246.72684390842915 80.42818857729435 774.38062800467014 291.89940695464611 3078.2666604667902 1660.5285849422216 1682.2927794009447 2327.57065333426 756.24268090724945 4463.1797474324703 337.55682668089867 786.40241274237633 709.4532919973135 2480.2502819597721
leaf_count=2081 1001 326 3166 1212 12586 6740 6921 9686 3063 18267 1378 3235 2884 10257
internal_value=0 -0.00275285 -0.000765433 0.00269457 0.00153265 0.00292149 0.000104196 -0.00582406 0.00473373 0.00133205 0.001717 -0.00196047 0.00280901 -0.00322906
internal_weight=20182.6 7218.18 4383.2 1822.52 12964.4 6572.21 6392.2 2834.98 1530.62 4709.91 4911.68 1123.96 3787.72 2560.68
internal_count=82803 29791 18024 7441 53012 26823 26189 11767 6229 19268 20083 4613 15470 10583
is_linear=0
shrinkage=0.005


Tree=14
num_leaves=15
num_cat=0
split_feature=7 10 7 1 1 2 1 1 8 1 7 2 2 10
split_gain=3373.55 1774.38 1409.17 2621.79 1311.79 1280.93 1133.27 1553.77 810.061 802.422 729.373 922.029 670.801 541.893
threshold=23899.325918171362 -578.66970962996766 18848.639990258187 1.5741378500157353 1.1567687509944695 0.043316895034455911 15.112827140453616 19.066492833172777 0.14137440970000684 11.254668085752197 65030.241867571596 0.12578483119198183 -0.15568708338865653 -347.59793755532633
decision_type=2 2 2 2 2 2 2 2 2 2 2 2 2 2
left_child=2 -2 3 4 8 6 9 -8 -1 -3 13 -12 -5 -7
right_child=1 5 -4 12 -6 10 7 -9 -10 -11 11 -13 -14 -15
leaf_value=0.0088223996818680723 0.0067555025403494189 0.0018771780949627895 -0.0048902850579217953 0.0067313173083364273 -0.0051639069223883916 0.0015395229317064776 -0.0064018861322322354 0.0043667683063911928 -0.0082782722870092511 0.0068377400075052587 0.0043680040753255002 -0.0084128587834688025 -0.0082676470756689845 -0.005870042075567166
leaf_weight=299.62695088982582 1440.7256124615669 6811.5085878074169 3706.5458933115005 1076.6302794516087 1961.909802660346 306.5357680618763 894.78828363120556 534.52136793732643 89.451981902122498 926.36700342595577 619.44404140114784 182.13410012423992 79.523315876722336 1250.5628525465727
leaf_count=1230 5848 27833 15371 4369 8120 1258 3694 2183 370 3766 2531 747 331 5152
internal_value=0 0.00152473 -0.0027408 -0.000468009 -0.00350013 0.000870409 0.00171606 -0.00237285 0.00487884 0.00247178 -0.00241489 0.00145739 0.00569436 -0.00440974
internal_weight=20180.3 12966.6 7213.69 3507.14 2350.99 11525.9 9167.19 1429.31 389.079 7737.88 2358.68 801.578 1156.15 1557.1
internal_count=82803 53012 29791 14420 9720 47164 37476 5877 1600 31599 9688 3278 4700 6410
is_linear=0
shrinkage=0.005


Tree=15
num_leaves=15
num_cat=0
split_feature=7 5 2 3 5 8 5 5 5 5 7 5 5 1
split_gain=3341.01 1522.53 2722.74 1012.86 1104.53 1064.14 933.375 1293.95 925.045 829.548 778.209 1335.74 1222.01 750.051
threshold=23899.325918171362 1.2816729187972631 -0.16030334578401811 -0.86172992820007699 2.4565748266012024 -0.0056949456063829776 1.373026388948916 1.2945598170720023 1.1750272285020442 1.1199657731962522 237485.23868586545 1.5866933847752973 1.688154461239965 1.1567687509944695
decision_type=2 2 2 2 2 2 2 2 2 2 2 2 2 2
left_child=1 9 6 5 10 8 7 -3 -2 -1 12 -12 -5 -11
right_child=3 2 -4 4 -6 -7 -8 -9 -10 13 11 -13 -14 -15
leaf_value=0.011155295661980485 0.010726382664971293 0.0084089452873511855 -0.0071953235722415718 0.0014195348383540952 0.0064170928530070575 -0.0033148828173316719 0.0080412792429377794 -0.0020861322364689534 0.00079577065316923713 0.0026860903690086846 0.0063497658213677692 -0.0055290887210796627 0.0086936912423122552 -0.0055947905741776313
leaf_weight=80.485559552907944 247.08787278831005 407.8515403419733 922.48273664712906 3079.3065787106752 1662.6588810384274 1681.1543589383364 657.45415064692497 1044.9582408219576 4464.4421062469482 293.92519792914391 338.00850239396095 785.39612931013107 710.58361114561558 3802.2582099735737
leaf_count=326 1001 1664 3841 12586 6740 6921 2664 4285 18267 1211 1378 3235 2884 15800
internal_value=0 -0.00272873 -3.13277e-05 0.00151687 0.00289451 9.92158e-05 0.00310013 0.000860341 0.00131818 -0.00468652 0.00170143 -0.00195154 0.00278503 -0.00499972
internal_weight=20178.1 7209.42 3032.75 12968.6 6575.95 6392.68 2110.26 1452.81 4711.53 4176.67 4913.29 1123.4 3789.89 4096.18
internal_count=82803 29791 12454 53012 26823 26189 8613 5949 19268 17337 20083 4613 15470 17011
is_linear=0
shrinkage=0.005


Tree=16
num_leaves=15
num_cat=0
split_feature=7 10 0 0 7 1 0 3 7 7 7 10 3 7
split_gain=3308.84 1746.7 1727.27 1082.44 1099.38 1077.66 969.604 940.751 1487.81 1049.63 717.505 671.199 656.098 1212.22
threshold=23899.325918171362 -578.66970962996766 0.42243372439126181 0.58072001973519727 18848.639990258187 1.5741378500157353 0.36687286031879046 -0.86172992820007699 36226.298777936223 29721.721309731682 21705.266040297709 -77.396016599557257 4.1432169327548891 418498.27437700826
decision_type=2 2 2 2 2 2 2 2 2 2 2 2 2 2
left_child=2 -2 6 4 5 -4 11 8 9 -3 -6 -1 13 -9
right_child=1 7 3 -5 10 -7 -8 12 -10 -11 -12 -13 -14 -15
leaf_value=0.0095326733291263618 0.0066955533958114183 0.00090423287161820137 -0.00083975649042918499 -0.0073576931331243581 -0.0047539069245680111 0.0056349340284952551 -0.0071328819116578662 0.0084409716112516381 -0.0027960365896733709 0.0096066318651441794 0.010086383426488675 -0.0031569035429494553 0.0011011047908767704 0.00043204113196077551
leaf_weight=145.87020522356033 1442.4154051691294 2278.7584579139948 1449.3641512840986 542.33838137984276 1146.7239418178797 1153.2036252915859 2319.2140181064606 1016.7837286889553 3257.8354379683733 408.36509403586388 87.110932871699333 361.08011327683926 3682.8951868414879 883.58180105686188
leaf_count=598 5848 9309 5972 2258 4757 4684 9686 4119 13393 1669 353 1483 15059 3615
internal_value=0 0.00150905 -0.00271679 -0.000749136 0.000185278 0.00202876 -0.00576383 0.000859636 -0.000524203 0.00222922 -0.00370047 0.000495272 0.00233349 0.0047196
internal_weight=20175.5 12970.6 7204.91 4378.74 3836.4 2602.57 2826.16 11528.2 5944.96 2687.12 1233.83 506.95 5583.26 1900.37
internal_count=82803 53012 29791 18024 15766 10656 11767 47164 24371 10978 5110 2081 22793 7734
is_linear=0
shrinkage=0.005


Tree=17
num_leaves=15
num_cat=0
split_feature=7 0 2 2 5 3 5 8 0 5 5 7 5 5
split_gain=3277.02 1713.21 1486.89 1641.87 1396.92 990.827 1083.55 1048.85 962.382 928.027 914.144 768.562 1323.76 1197.23
threshold=23899.325918171362 0.42243372439126181 -0.31862323479835714 -0.16030334578401811 1.3086051152408287 -0.86172992820007699 2.4565748266012024 -0.0056949456063829776 0.36687286031879046 1.1199657731962522 1.1750272285020442 237485.23868586545 1.5866933847752973 1.688154461239965
decision_type=2 2 2 2 2 2 2 2 2 2 2 2 2 2
left_child=1 8 -3 4 -4 7 11 10 -1 -5 -2 13 -13 -7
right_child=5 2 3 9 -6 6 -8 -9 -10 -11 -12 12 -14 -15
leaf_value=0.00049276153028285461 0.010654785135450128 -0.0073729996895422721 0.00026035152613132625 0.011024852044022138 0.0082184727823133557 0.0014054284813306572 0.0063494847311170314 -0.0032926226501449047 -0.0071077465048531817 -0.0066517341955325063 0.00078882905949797144 0.0063084479844845755 -0.0055142076315071124 0.0085999559078844753
leaf_weight=506.97890029847622 247.40216059982777 708.76288338005543 1954.6858861595392 80.667510151863098 768.0266477316618 3080.5065454989672 1664.8153223097324 1679.6981913596392 2315.7887919098139 865.42328405380249 4465.1867664158344 338.33124053478241 784.87773105502129 711.85826283693314
leaf_count=2081 1001 2952 8038 326 3105 12586 6740 6921 9686 3603 18267 1378 3235 2884
internal_value=0 -0.00270494 -0.000745598 0.000534875 0.0025072 0.00150127 0.00286315 9.88222e-05 -0.00574194 -0.00513689 0.00130838 0.00168135 -0.00194956 0.00275752
internal_weight=20173 7200.33 4377.57 3668.8 2722.71 12972.7 6580.39 6392.29 2822.77 946.091 4712.59 4915.57 1123.21 3792.36
internal_count=82803 29791 18024 15072 11143 53012 26823 26189 11767 3929 19268 20083 4613 15470
is_linear=0
shrinkage=0.005


Tree=18
num_leaves=15
num_cat=0
split_feature=7 0 5 5 0 5 5 7 6 0 1 8 1 8
split_gain=3245.59 1699.24 1424.98 1533.52 955.262 928.148 795.094 1203.14 1112.86 1045.29 1072.7 731.606 802.018 672.328
threshold=23899.325918171362 0.42243372439126181 1.2816729187972631 1.4567170705890871 0.36687286031879046 1.3086051152408287 2.4221164630192429 157807.67965988224 0.31041528899807297 0.31174354098849238 2.6921920834866273 0.083090973827923562 10.983174354657121 0.0099982117987582834
decision_type=2 2 2 2 2 2 2 2 2 2 2 2 2 2
left_child=1 4 13 5 -1 -4 8 -8 -2 10 -10 12 -9 -3
right_child=6 2 3 -5 -6 -7 7 11 9 -11 -12 -13 -14 -15
leaf_value=0.00049026162713047719 0.0047694640016972727 -0.0011558912937135117 0.00077420133933026373 -0.0078921380942546613 -0.0070828344980171107 0.008556936392809987 0.0089493340650597161 -0.0026051535198002257 -0.0061393081407695319 0.0030763020580254728 -5.7914566745190703e-05 0.0095350151583384144 0.0049365496857938056 -0.0064537012968966401
leaf_weight=507.01873698830605 1561.5741560459137 1590.1747081130743 774.98362764716148 290.39230386912823 2312.3247295022011 758.75305978953838 827.15821389853954 916.90493221580982 830.47320732474327 2317.2534652352333 5699.5606947541237 249.61578883230686 571.95011478662491 961.86567029356956
leaf_count=2081 6374 6588 3166 1212 9686 3063 3342 3748 3399 9457 23354 1015 2323 3995
internal_value=0 -0.00269323 -0.00074211 0.00263149 -0.00572019 0.00462755 0.00149356 0.00398666 0.000878647 0.000191392 -0.000832124 0.00162211 0.000291031 -0.00315449
internal_weight=20170 7195.51 4376.17 1824.13 2819.34 1533.74 12974.5 2565.63 10408.9 8847.29 6530.03 1738.47 1488.86 2552.04
internal_count=82803 29791 18024 7441 11767 6229 53012 10428 42584 36210 26753 7086 6071 10583
is_linear=0
shrinkage=0.005


Tree=19
num_leaves=15
num_cat=1
split_feature=7 10 5 1 5 5 3 7 7 5 5 9 1 6
split_gain=3214.43 1714.22 1472.26 2360.52 1199.28 1471.94 920.663 1463.41 1037.6 903.387 804.77 743.007 739.484 1090.32
threshold=23899.325918171362 -578.66970962996766 1.2816729187972631 2.0583562035030902 1.373026388948916 1.2945598170720023 -0.86172992820007699 36226.298777936223 29721.721309731682 2.4565748266012024 1.1199657731962522 0 1.1567687509944695 0.3830594110095647
decision_type=2 2 2 2 2 2 2 2 2 2 2 1 2 2
left_child=2 -2 10 4 5 -4 7 8 -3 11 -1 -8 13 -12
right_child=1 6 3 -5 -6 -7 9 -9 -10 -11 12 -13 -14 -15
leaf_value=0.010965175843947969 0.0066200638275847679 0.00088441864490316851 0.0083472032202753441 -0.0081578180059838894 0.0080228221951118613 -0.0025663080882482028 0.0019363730493608662 -0.0027814480937634655 0.0095302525260811087 0.0060438903025975196 0.011885677647856587 -0.0047517472127674276 -0.0055151904504330499 -0.0073679935436801961
leaf_weight=80.746056869626045 1444.4008171260357 2279.8297716081142 408.41011013090611 689.47444985806942 668.53624621033669 1263.4323951601982 3872.7037149816751 3256.0201640278101 409.06036627292633 1250.2010318487883 153.82667568325996 464.48354202508926 3786.4565328061581 139.85000236332417
leaf_count=326 5848 9309 1664 2890 2701 5199 15811 13393 1669 5060 632 1922 15800 579
internal_value=0 0.00148584 -0.00268156 -2.93732e-05 0.00236543 9.99292e-05 0.000842313 -0.000526938 0.00220216 0.00229954 -0.00461199 0.00121908 -0.00492218 0.00271157
internal_weight=20167.4 12976.7 7190.73 3029.85 2340.38 1671.84 11532.3 5944.91 2688.89 5587.39 4160.88 4337.19 4080.13 293.677
internal_count=82803 53012 29791 12454 9564 6863 47164 24371 10978 22793 17337 17733 17011 1211
cat_boundaries=0 1
cat_threshold=4
is_linear=0
shrinkage=0.005


Tree=20
num_leaves=15
num_cat=0
split_feature=10 5 1 1 5 6 3 2 5 10 1 6 1 2
split_gain=2699.52 1478.55 2363.23 1571.38 1157.48 1337.55 974.76 1173.27 1160.24 762.505 1187.23 597.087 985.365 416.996
threshold=-578.66970962996766 1.2799065304589672 1.9275368684270942 1.4529386806145701 1.2099485615865169 0.38588352749438731 -1.0401350218500143 -0.16127889320616101 2.1629857050214105 83.289241521026824 1.5257673160792853 0.34697930201230698 16.639744913565238 -0.2459953918547968
decision_type=2 2 2 2 2 2 2 2 2 2 2 2 2 2
left_child=11 2 9 13 5 -4 7 -5 -8 -2 -11 -1 -13 -3
right_child=1 3 4 6 -6 -7 8 -9 -10 10 -12 12 -14 -15
leaf_value=0.010248226572771999 -0.0061460989807578517 0.010432972147789972 0.0057358243427948034 0.0032913357662499071 -0.0081715863566041592 -0.0034851983631547807 3.3132477518714953e-05 -0.0025474676209230485 0.0048602007754028238 -0.005224523169592773 0.0014162603357226373 0.0069148151554047337 -0.0057731337555085929 -0.0049559790737189417
leaf_weight=628.2962388843298 2431.9510825425386 481.83430241048336 1475.284964710474 1085.3755326420069 247.32569652795792 535.4038802832365 3660.4555928111076 4138.8105421811342 1886.7276145219803 1523.9373241215944 1203.919940546155 613.9886233061552 203.13518780469894 47.918977499008179
leaf_count=2540 10096 1963 6011 4412 1013 2204 15012 17070 7658 6358 4962 2480 828 196
internal_value=0 -0.000508522 -0.002243 0.00062978 0.00202212 0.00327896 0.00021587 -0.00133372 0.00167567 -0.00410998 -0.00229302 0.00658232 0.00375596 0.00903289
internal_weight=20164.4 18718.9 7417.82 11301.1 2258.01 2010.69 10771.4 5224.19 5547.18 5159.81 2727.86 1445.42 817.124 529.753
internal_count=82803 76955 30644 46311 9228 8215 44152 21482 22670 21416 11320 5848 3308 2159
is_linear=0
shrinkage=0.005


Tree=21
num_leaves=15
num_cat=0
split_feature=0 0 10 2 2 5 2 5 5 10 2 5 2 10
split_gain=2956.86 1866.39 1740.08 1453.4 1600.93 1348.02 1160.01 1192.99 906.178 884.939 856.433 991.709 832.738 704.563
threshold=0.36989354441652328 0.42243372439126181 -578.66970962996766 -0.31862323479835714 -0.16030334578401811 1.3086051152408287 0.043316895034455911 2.1920803104026487 1.1199657731962522 487.36156899573001 -7.3723860349872426e-12 1.4390960126667662 -0.21604475863889608 -353.28313143145891
decision_type=2 2 2 2 2 2 2 2 2 2 2 2 2 2
left_child=2 9 -1 -3 5 -5 10 13 -6 -2 12 -12 -4 -8
right_child=1 3 6 4 8 -7 7 -9 -10 -11 11 -13 -14 -15
leaf_value=0.0065453983346737956 -0.0067308975353731525 -0.0072945813654793183 0.0060296031322495296 0.00027405162624673013 0.010872783865760105 0.008086633148892311 0.00018512037869911521 0.0069377795277021006 -0.0065784758818738919 0.010420485461328229 -0.0012466380382671241 0.0079011759076401539 0.00039453328384438769 -0.0059248285404359061
leaf_weight=1446.306283608079 2361.5126898437738 705.5065776258707 718.74409031867981 1953.3474279642105 80.861001923680305 769.62125225365162 730.23457519710064 297.94579361379147 861.83455939590931 77.137022882699966 424.60625220835209 975.4599642008543 7430.0981401950121 1328.6877355277538
leaf_count=5848 9917 2952 2929 8038 326 3105 2995 1210 3603 311 1736 3965 30385 5483
internal_value=0 -0.00268116 0.00136735 -0.000725147 0.000539369 0.0024842 0.000737869 -0.00240284 -0.00507395 -0.00618533 0.00151341 0.00512563 0.000892204 -0.00375709
internal_weight=20161.9 6809.82 13352.1 4371.17 3665.66 2722.97 11905.8 2356.87 942.696 2438.65 9548.91 1400.07 8148.84 2058.92
internal_count=82803 28252 54551 18024 15072 11143 48703 9688 3929 10228 39015 5701 33314 8478
is_linear=0
shrinkage=0.005


Tree=22
num_leaves=15
num_cat=1
split_feature=7 10 5 1 5 5 3 7 7 5 5 9 1 6
split_gain=3133.45 1657.23 1433.19 2317.33 1175.44 1445.08 899.631 1435.67 1027.33 882.933 785.266 736.914 731.353 1078.83
threshold=23899.325918171362 -578.66970962996766 1.2816729187972631 2.0583562035030902 1.373026388948916 1.2945598170720023 -0.86172992820007699 36226.298777936223 29721.721309731682 2.4565748266012024 1.1199657731962522 0 1.1567687509944695 0.3830594110095647
decision_type=2 2 2 2 2 2 2 2 2 2 2 1 2 2
left_child=2 -2 10 4 5 -4 7 8 -3 11 -1 -8 13 -12
right_child=1 6 3 -5 -6 -7 9 -9 -10 -11 12 -13 -14 -15
leaf_value=0.010808703280613967 0.006508410471838269 0.00086848614858336286 0.0082502936772739423 -0.0081063931048357216 0.0079294848624757233 -0.0025554787339799705 0.0019178511197971394 -0.002756521956021228 0.0094662352682209003 0.0059711901706685812 0.01183792694863614 -0.0047437678842080725 -0.0054586404475781584 -0.007321280893414858
leaf_weight=80.936461910605431 1447.2535799890757 2280.6571972519159 409.26131804287434 687.06720368564129 669.49214473366737 1262.6692864745855 3874.387729242444 3252.8853467702866 409.6159657984972 1251.8446094095707 153.9983486533165 464.30657622218132 3774.7358901202679 139.50585722923279
leaf_count=326 5848 9309 1664 2890 2701 5199 15811 13393 1669 5060 632 1922 15800 579
internal_value=0 0.00146574 -0.00265101 -3.49451e-05 0.0023337 8.97789e-05 0.000832515 -0.0005215 0.00218001 0.0022723 -0.00455964 0.00120392 -0.00486729 0.00272587
internal_weight=20158.6 12981 7177.67 3028.49 2341.42 1671.93 11533.7 5943.16 2690.27 5590.54 4149.18 4338.69 4068.24 293.504
internal_count=82803 53012 29791 12454 9564 6863 47164 24371 10978 22793 17337 17733 17011 1211
cat_boundaries=0 1
cat_threshold=4
is_linear=0
shrinkage=0.005


Tree=23
num_leaves=15
num_cat=0
split_feature=10 5 1 1 5 8 3 2 5 10 1 2 2 8
split_gain=2615.07 1443.46 2313.81 1542.54 1144.58 1240.01 952.775 1140.43 1134.15 756.26 1170.45 509.364 410.357 370.139
threshold=-578.66970962996766 1.2799065304589672 1.9275368684270942 1.4529386806145701 1.2099485615865169 0.025951349825724033 -1.0401350218500143 -0.16127889320616101 2.1629857050214105 83.289241521026824 1.5257673160792853 -9.2465535228569677e-12 -0.2459953918547968 0.14137440970000684
decision_type=2 2 2 2 2 2 2 2 2 2 2 2 2 2
left_child=11 2 9 12 5 -4 7 -5 -8 -2 -11 -1 13 -3
right_child=1 3 4 6 -6 -7 8 -9 -10 10 -12 -13 -14 -15
leaf_value=-0.0081697660560547582 -0.0060985877279709508 0.011368428322634605 0.0066408240039077509 0.0032360711799767567 -0.0081429267508398746 -0.0012904866157446965 3.0473741728261701e-05 -0.0025189197046787694 0.0048013593120544325 -0.0051738307894676049 0.0014249471980175752 0.0070709210311827369 -0.0049417121436599589 -0.0079379177884296125
leaf_weight=56.516673102974892 2425.5320479124784 457.09760847687721 1151.8068771064281 1086.4477270692587 247.01589764654636 860.02055902779102 3660.0397975891829 4133.6799663454294 1888.7523205429316 1519.575893715024 1203.321145310998 1391.6490488946438 47.892019882798195 25.755053758621216
leaf_count=231 10096 1856 4688 4412 1013 3527 15012 17070 7658 6358 4962 5617 196 107
internal_value=0 -0.000501267 -0.0022167 0.000623081 0.00200114 0.00324961 0.000212528 -0.00132048 0.00165517 -0.00406776 -0.00225701 0.00647179 0.00894054 0.0103263
internal_weight=20155.1 18706.9 7407.27 11299.7 2258.84 2011.83 10768.9 5220.13 5548.79 5148.43 2722.9 1448.17 530.745 482.853
internal_count=82803 76955 30644 46311 9228 8215 44152 21482 22670 21416 11320 5848 2159 1963
is_linear=0
shrinkage=0.005


Tree=24
num_leaves=15
num_cat=0
split_feature=7 0 10 5 5 10 0 5 0 7 5 6 7 10
split_gain=3083.37 1649.94 1620.07 1339.27 1473.96 1213.13 926.428 906.84 886.108 1155.66 877.459 1321.84 1058.19 799.964
threshold=23899.325918171362 0.42243372439126181 -578.66970962996766 1.2816729187972631 1.4567170705890871 298.06427569603062 0.36687286031879046 1.3086051152408287 0.32163644239571931 26759.137299024213 2.4221164630192429 0.31041528899807297 157807.67965988224 -141.95802066200218
decision_type=2 2 2 2 2 2 2 2 2 2 2 2 2 2
left_child=1 6 -2 5 7 -3 -1 -5 10 13 11 -4 -12 -10
right_child=2 3 8 4 -6 -7 -8 -9 9 -11 12 -13 -14 -15
leaf_value=0.00048725178325005185 0.006435716959898077 -0.0040372202981788004 0.0038760930122062154 0.00069834337796204971 -0.0077993088985246727 0.009119460829057742 -0.0069753106032807511 0.0083827176164290567 -0.0054237038056242637 0.01110136526050356 0.010649037086223018 -0.0015168593539914934 0.0014307254104043332 0.0038624813516431405
leaf_weight=507.00589743256569 1448.9971627295017 2351.2624729573727 1385.8203125447035 776.40533125400543 288.61486458778381 188.73982092738152 2296.4756395667791 760.69288469851017 299.71897457540035 440.54861629009247 380.17120364308357 6295.1081125289202 1715.4417587965727 1017.3006004244089
leaf_count=2081 5848 9808 5654 3166 1212 775 9686 3063 1225 1789 1533 25835 6986 4142
internal_value=0 -0.00263193 0.00145322 -0.000708921 0.00255639 -0.003057 -0.00562498 0.00450437 0.000826812 0.00409494 0.000238853 -0.000543329 0.00310638 0.00174604
internal_weight=20152.3 7169.2 12983.1 4365.72 1825.71 2540 2803.48 1537.1 11534.1 1757.57 9776.54 7680.93 2095.61 1317.02
internal_count=82803 29791 53012 18024 7441 10583 11767 6229 47164 7156 40008 31489 8519 5367
is_linear=0
shrinkage=0.005


Tree=25
num_leaves=15
num_cat=0
split_feature=7 0 10 2 2 2 0 7 2 3 0 7 2 2
split_gain=3053.93 1636.65 1602.64 1420.99 1617.38 1211.76 919.723 849.045 778.5 1332.66 862.83 702.337 907.332 696.847
threshold=23899.325918171362 0.42243372439126181 -578.66970962996766 -0.31487392158386673 -0.16030334578401811 0.043316895034455911 0.36687286031879046 21705.266040297709 -7.3723860349872426e-12 -1.0624921727917207 0.31215766402439621 65030.241867571596 0.12578483119198183 -0.20805727228364002
decision_type=2 2 2 2 2 2 2 2 2 2 2 2 2 2
left_child=1 6 -2 -3 13 8 -1 -6 10 -10 -4 -7 -13 -5
right_child=2 3 5 4 7 11 -8 -9 9 -11 -12 12 -14 -15
leaf_value=0.00048478029201360853 0.0063998172489210386 -0.0068145429989526175 -0.00014451117171089789 0.0005372682568387904 -0.0065357485719194988 -0.0043396641624098946 -0.0069515517201937192 0.0097700580599763588 0.00017557806235038074 0.0099320579524972089 0.0033945685000147342 0.0043030861526530276 -0.0083811186324271574 0.0057816162500809558
leaf_weight=507.04514782130718 1449.8402833789587 781.04654830694199 5208.4437745809555 1590.6181644499302 851.41931769251823 1552.3090346306562 2292.8137440532446 87.531199276447296 697.82384313642979 702.81424428522587 2571.5302102118731 620.05728320777416 181.87215432524681 1053.5400599986315
leaf_count=2081 5848 3280 21304 6544 3576 6410 9686 353 2855 2843 10474 2531 747 4271
internal_value=0 -0.00262068 0.00144578 -0.00070563 0.000626059 0.000822629 -0.00560412 -0.00500863 0.00164344 0.00507478 0.00102509 -0.00237684 0.00141985 0.00262847
internal_weight=20148.7 7164.01 12984.7 4364.16 3583.11 11534.9 2799.86 938.951 9180.61 1400.64 7779.97 2354.24 801.929 2644.16
internal_count=82803 29791 53012 18024 14744 47164 11767 3929 37476 5698 31778 9688 3278 10815
is_linear=0
shrinkage=0.005


Tree=26
num_leaves=15
num_cat=0
split_feature=7 0 10 2 2 2 1 1 0 1 7 1 7 2
split_gain=3024.77 1623.5 1585.45 1409.28 1543.79 1199.76 1070.23 1516.34 913.094 892.383 841.267 752.858 695.968 898.741
threshold=23899.325918171362 0.42243372439126181 -578.66970962996766 -0.31862323479835714 -0.16030334578401811 0.043316895034455911 15.112827140453616 19.066492833172777 0.36687286031879046 1.5741378500157353 21705.266040297709 11.254668085752197 65030.241867571596 0.12578483119198183
decision_type=2 2 2 2 2 2 2 2 2 2 2 2 2 2
left_child=1 8 -2 -3 9 6 11 -8 -1 -5 -6 -4 -7 -14
right_child=2 3 5 4 10 12 7 -9 -10 -11 -12 -13 13 -15
leaf_value=0.00048232160251426344 0.0063642684189121048 -0.0071945416547480566 0.0017913798429590813 -0.00040952929062072714 -0.006512419160324614 -0.0043213012844114549 -0.0063354158632060046 0.0043049191345381167 -0.0069279951362481223 0.0053121369966191278 0.0097136867314340757 0.0065869255082392133 0.0042790750953979172 -0.0083507590420635047
leaf_weight=507.08413125574589 1450.6497043669224 701.05117657780647 6825.0475914776325 1363.9716599285603 850.20182850956917 1551.1160067170858 891.84877240657806 535.21768368780613 2289.1176696270704 1359.7839462608099 87.601698353886604 930.24635896086693 620.42078897356987 181.62313760817051
leaf_count=2081 5848 2952 27833 5628 3576 6410 3694 2183 9686 5515 353 3766 2531 747
internal_value=0 -0.00260948 0.00143839 -0.000702355 0.000540786 0.000818465 0.00163492 -0.00234292 -0.00558341 0.00244644 -0.00498968 0.00236731 -0.00236606 0.00141251
internal_weight=20145 7158.81 12986.2 4362.61 3661.56 11535.5 9182.36 1427.07 2796.2 2723.76 937.804 7755.29 2353.16 802.044
internal_count=82803 29791 53012 18024 15072 47164 37476 5877 11767 11143 3929 31599 9688 3278
is_linear=0
shrinkage=0.005


Tree=27
num_leaves=15
num_cat=0
split_feature=7 0 10 2 2 2 0 7 2 3 0 7 2 2
split_gain=2995.96 1610.47 1568.48 1397.63 1587.32 1187.89 906.538 833.583 766.504 1313.22 851.986 689.659 890.252 682.836
threshold=23899.325918171362 0.42243372439126181 -578.66970962996766 -0.31487392158386673 -0.16030334578401811 0.043316895034455911 0.36687286031879046 21705.266040297709 -7.3723860349872426e-12 -1.0624921727917207 0.31215766402439621 65030.241867571596 0.12578483119198183 -0.20805727228364002
decision_type=2 2 2 2 2 2 2 2 2 2 2 2 2 2
left_child=1 6 -2 -3 13 8 -1 -6 10 -10 -4 -7 -13 -5
right_child=2 3 5 4 7 11 -8 -9 9 -11 -12 12 -14 -15
leaf_value=0.00047987565148748873 0.0063290645021035138 -0.0067680309116504786 -0.00014958307829460754 0.00053075247904311052 -0.0064892714712346819 -0.0043030411199120842 -0.0069046379974894443 0.0096581364198631472 0.00016574878578581905 0.0098468545398822157 0.0033663425614521313 0.0042552504243029933 -0.0083207503851872831 0.0057202176434457998
leaf_weight=507.12286768853664 1451.425837635994 778.74144198000431 5208.834881156683 1590.8932270854712 848.97324302792549 1549.9148880690336 2285.3881068378687 87.667734488844872 698.02251981198788 703.7724594771862 2573.2816937118769 620.77689011394978 181.36920276284218 1054.7120522111654
leaf_count=2081 5848 3280 21304 6544 3576 6410 9686 353 2855 2843 10474 2531 747 4271
internal_value=0 -0.00259838 0.00143105 -0.000699114 0.000620265 0.000814335 -0.00556286 -0.00497089 0.00162647 0.00502972 0.00101283 -0.00235535 0.00140523 0.00260125
internal_weight=20140.9 7153.5 12987.4 4360.99 3582.25 11536 2792.51 936.641 9183.91 1401.79 7782.12 2352.06 802.146 2645.61
internal_count=82803 29791 53012 18024 14744 47164 11767 3929 37476 5698 31778 9688 3278 10815
is_linear=0
shrinkage=0.005


Tree=28
num_leaves=15
num_cat=0
split_feature=7 10 7 1 1 2 1 1 6 8 1 7 2 2
split_gain=2967.42 1551.75 1285.81 2361.91 1255.67 1176.14 1056.97 1499.03 957.501 768.903 741.65 683.411 881.862 610.689
threshold=23899.325918171362 -578.66970962996766 18848.639990258187 1.5741378500157353 1.1567687509944695 0.043316895034455911 15.112827140453616 19.066492833172777 0.42461054175345742 0.14137440970000684 11.254668085752197 65030.241867571596 0.12578483119198183 -0.15568708338865653
decision_type=2 2 2 2 2 2 2 2 2 2 2 2 2 2
left_child=2 -2 3 4 9 6 10 -8 -6 -1 -3 -7 -13 -5
right_child=1 5 -4 13 8 11 7 -9 -10 -11 -12 12 -14 -15
leaf_value=0.0086868476295564392 0.0062941995976182686 0.0017738033430484868 -0.0046584274778728504 0.0063858557908293223 -0.0059807874299812923 -0.0042848824356232348 -0.0063107821050765569 0.0042682733511219054 0.0071538174879618921 -0.0080533728371194775 0.0065315231171532749 0.0042316093393670855 -0.0082910875638591685 -0.0080282663193794544
leaf_weight=300.49814493954182 1452.1691568344831 6828.0428873747587 3658.2789282053709 1082.5843047052622 1790.4257123917341 1548.7058949023485 890.7788814753294 535.66686671972275 149.82172550261021 88.265613421797752 931.0817641466856 621.1257041990757 181.11043210327625 78.262014254927635
leaf_count=1230 5848 27833 15371 4369 7511 6410 3694 2183 609 370 3766 2531 747 331
internal_value=-1.70342e-09 0.00142376 -0.00258734 -0.000415233 -0.00331976 0.000810222 0.00161805 -0.00233622 -0.00496369 0.00487423 0.00234543 -0.0023447 0.00139801 0.00540889
internal_weight=20136.8 12988.7 7148.14 3489.86 2329.01 11536.5 9185.57 1426.45 1940.25 388.764 7759.12 2350.94 802.236 1160.85
internal_count=82803 53012 29791 14420 9720 47164 37476 5877 8120 1600 31599 9688 3278 4700
is_linear=0
shrinkage=0.005


Tree=29
num_leaves=15
num_cat=0
split_feature=7 10 7 1 1 6 3 7 7 8 3 7 1 6
split_gain=2939.13 1535.23 1274.79 2338.66 1244.19 948.849 868.469 1383.2 1026.22 760.735 607.415 1127.84 602.374 587.087
threshold=23899.325918171362 -578.66970962996766 18848.639990258187 1.5741378500157353 1.1567687509944695 0.42461054175345742 -0.86172992820007699 36226.298777936223 29721.721309731682 0.14137440970000684 4.1432169327548891 418498.27437700826 2.0712731094654351 0.34697930201230698
decision_type=2 2 2 2 2 2 2 2 2 2 2 2 2 2
left_child=2 13 3 4 9 -6 7 8 -3 -1 11 -8 -5 -2
right_child=1 6 -4 12 5 -7 10 -9 -10 -11 -12 -13 -14 -15
leaf_value=0.0086324926693730729 0.0098845033285278935 0.00081357316550126184 -0.0046398128169459815 0.0063470809468509923 -0.005958549049758617 0.0071119023231384446 0.0080864327135567824 -0.0027219808390849154 0.0094012237924872254 -0.0080272097746751161 0.0010341986600686324 0.00037280507172754706 -0.0080013845882877677 0.0034641215825881224
leaf_weight=300.88048334419727 631.66795778274536 2283.646061912179 3654.6021831929684 1083.4211707115173 1788.1299555450678 149.95382592082024 1022.3718210607767 3247.8362506628036 410.12840874493122 88.112543016672134 3688.5034150481224 884.34702141582966 77.870783612132072 821.21216748654842
leaf_count=1230 2540 9309 15371 4370 7511 609 4119 13393 1669 370 15059 3615 330 3308
internal_value=-9.07849e-09 0.00141652 -0.00257628 -0.000413347 -0.00330592 -0.0049444 0.000806143 -0.00052476 0.00212348 0.00484695 0.00221981 0.00451115 0.00537976 0.00625967
internal_weight=20132.7 12989.7 7142.97 3488.37 2327.08 1938.08 11536.8 5941.61 2693.77 388.993 5595.22 1906.72 1161.29 1452.88
internal_count=82803 53012 29791 14420 9720 8120 47164 24371 10978 1600 22793 7734 4700 5848
is_linear=0
shrinkage=0.005


Tree=30
num_leaves=15
num_cat=0
split_feature=7 10 7 1 1 2 1 1 6 8 1 8 2 6
split_gain=2911.14 1518.99 1263.86 2315.69 1232.84 1160.67 1041.62 1485.69 940.292 752.686 729.068 678.606 598.536 580.484
threshold=23899.325918171362 -578.66970962996766 18848.639990258187 1.5741378500157353 1.1567687509944695 0.043316895034455911 15.112827140453616 19.066492833172777 0.42461054175345742 0.14137440970000684 11.254668085752197 0.033824360193188317 -0.15568708338865653 0.34657937854718396
decision_type=2 2 2 2 2 2 2 2 2 2 2 2 2 2
left_child=2 13 3 4 9 6 10 -8 -6 -1 -3 -7 -5 -2
right_child=1 5 -4 12 8 11 7 -9 -10 -11 -12 -13 -14 -15
leaf_value=0.0085788598511133581 0.0098714150767696615 0.0017590354104685165 -0.0046213012125001377 0.0063154163399161412 -0.0059364656571483246 -0.001006088237167095 -0.0062844386798047523 0.0042485549334118 0.0070704450555781452 -0.0080013322657184645 0.0064743989446909731 -0.0077811479084841633 -0.0079789580115005396 0.0034785207188199412
leaf_weight=301.24990196526051 623.64527666568756 6830.4118404239416 3650.9065063148737 1083.7452995926142 1785.8154742866755 1890.0921774506569 889.61179722845554 535.90459638834 150.08151032030582 87.957528486847878 931.86407144367695 459.39620046317577 77.966281771659851 829.88879047334194
leaf_count=1230 2506 27833 15371 4369 7511 7784 3694 2183 609 370 3766 1904 331 3342
internal_value=-9.69608e-09 0.00140933 -0.0025653 -0.000411477 -0.00329219 0.000802085 0.0016042 -0.00232284 -0.00492524 0.00482001 0.00232582 -0.00233326 0.0053509 0.00622559
internal_weight=20128.5 12990.8 7137.72 3486.82 2325.1 11537.3 9187.79 1425.52 1935.9 389.207 7762.28 2349.49 1161.71 1453.53
internal_count=82803 53012 29791 14420 9720 47164 37476 5877 8120 1600 31599 9688 4700 5848
is_linear=0
shrinkage=0.005


Tree=31
num_leaves=15
num_cat=1
split_feature=7 0 10 5 5 10 0 5 3 7 7 5 5 9
split_gain=2883.43 1568.97 1502.98 1254.71 1401.01 1171.31 903.343 867.65 858.072 1363.94 1014.82 828.945 719.078 716.118
threshold=23899.325918171362 0.42243372439126181 -578.66970962996766 1.2816729187972631 1.4567170705890871 298.06427569603062 0.36687286031879046 1.3086051152408287 -0.86172992820007699 36226.298777936223 29721.721309731682 2.4565748266012024 1.1199657731962522 0
decision_type=2 2 2 2 2 2 2 2 2 2 2 2 2 1
left_child=1 6 -2 5 7 12 -1 -5 9 10 -4 13 -3 -10
right_child=2 3 8 4 -6 -7 -8 -9 11 -11 -12 -13 -14 -15
leaf_value=0.00054816216191965307 0.0061918669302120878 0.010643211026041216 0.00080043462876864852 0.00064325122420600832 -0.0076741016352265051 0.008979288235016784 -0.0068333350358123733 0.0081525530552391933 0.0018695479652184892 -0.0027082148727137685 0.0093351592916808817 0.005781026994760098 -0.0044592957246166976 -0.0047039235754530633
leaf_weight=506.02248983085155 1454.1493284553289 81.112740144133568 2284.4339302629232 777.24483348429203 285.98147208988667 189.35786345601082 2273.5823179036379 762.78422458469868 3878.0476361811161 3245.9148623645306 410.67967167496681 1255.374257132411 2256.306156501174 463.2217099070549
leaf_count=2081 5848 326 9309 3166 1212 775 9686 3063 15811 13393 1669 5060 9482 1922
internal_value=-1.57503e-08 -0.0025544 0.00140217 -0.000679565 0.00247713 -0.00296183 -0.00548879 0.00436571 0.000798042 -0.000525054 0.00210337 0.00220292 -0.00393198 0.00116711
internal_weight=20124.2 7132.39 12991.8 4352.79 1826.01 2526.78 2779.6 1540.03 11537.7 5941.03 2695.11 5596.64 2337.42 4341.27
internal_count=82803 29791 53012 18024 7441 10583 11767 6229 47164 24371 10978 22793 9808 17733
cat_boundaries=0 1
cat_threshold=4
is_linear=0
shrinkage=0.005


Tree=32
num_leaves=15
num_cat=0
split_feature=7 0 10 5 5 10 0 5 0 7 5 7 5 10
split_gain=2856.11 1556.43 1487.12 1242.83 1387.94 1159.5 896.94 858.377 851.5 1139.94 828.012 1003.85 980.573 790.586
threshold=23899.325918171362 0.42243372439126181 -578.66970962996766 1.2816729187972631 1.4567170705890871 298.06427569603062 0.36687286031879046 1.3086051152408287 0.32163644239571931 26759.137299024213 2.4221164630192429 157807.67965988224 1.5715791563047412 -141.95802066200218
decision_type=2 2 2 2 2 2 2 2 2 2 2 2 2 2
left_child=1 6 -2 5 7 -3 -1 -5 10 13 12 -12 -4 -10
right_child=2 3 8 4 -6 -7 -8 -9 9 -11 11 -13 -14 -15
leaf_value=0.000545374728947673 0.0061583015125651168 -0.0039159029992771885 0.00076282790229413231 0.00063998325542791818 -0.0076497193924667467 0.0089227035723079308 -0.0068107651386862993 0.0081080392608890248 -0.0054615305795493651 0.010941054741428568 0.010331075510000419 0.0013669740240888173 -0.002986952503836314 0.0037630972621989561
leaf_weight=506.06817126274109 1454.7658686190844 2335.277785718441 5002.3002677857876 777.31019482016563 285.46142598986626 189.60845439136028 2269.722397968173 763.13894695043564 300.10654060542583 441.84782671928406 381.57198612391949 1717.4563963711262 2675.0916839689016 1019.6419698446989
leaf_count=2081 5848 9808 20432 3166 1212 775 9686 3063 1225 1789 1533 6986 11057 4142
internal_value=-1.68218e-08 -0.0025437 0.00139506 -0.00067647 0.00246488 -0.00294921 -0.00546887 0.00434271 0.000794028 0.00399347 0.000217096 0.00299978 -0.00054352 0.00166228
internal_weight=20119.4 7126.59 12992.8 4350.8 1825.91 2524.89 2775.79 1540.45 11538 1761.6 9776.42 2099.03 7677.39 1319.75
internal_count=82803 29791 53012 18024 7441 10583 11767 6229 47164 7156 40008 8519 31489 5367
is_linear=0
shrinkage=0.005


Tree=33
num_leaves=15
num_cat=0
split_feature=7 0 10 5 5 10 0 5 3 7 7 5 5 10
split_gain=2829.03 1544.05 1471.47 1231.02 1375.02 1147.79 890.605 849.253 846.43 1343.7 1004.49 814.905 712.514 658.11
threshold=23899.325918171362 0.42243372439126181 -578.66970962996766 1.2816729187972631 1.4567170705890871 298.06427569603062 0.36687286031879046 1.3086051152408287 -0.86172992820007699 36226.298777936223 29721.721309731682 2.4565748266012024 1.1199657731962522 -77.396016599557257
decision_type=2 2 2 2 2 2 2 2 2 2 2 2 2 2
left_child=1 6 -2 5 7 12 13 -5 9 10 -4 -10 -3 -1
right_child=2 3 8 4 -6 -7 -8 -9 11 -11 -12 -13 -14 -15
leaf_value=0.0094813776707868992 0.0061250479403386409 0.010605008458186493 0.00078673024302837696 0.00063673219780751244 -0.0076255807063743139 0.0088668945547331658 -0.0067883795928029289 0.0080640543210127782 0.0011578934109919968 -0.0026925358882344762 0.0092732754751701316 0.0057313122298789125 -0.0044255946435192497 -0.0030837927514121861
leaf_weight=146.03382986783981 1455.3518145084381 81.14941018819809 2285.142200961709 777.37507562339306 284.93611840903759 189.85038243234158 2265.8324109464884 763.46684648096561 4342.0203319340944 3243.8403468281031 411.18484833836555 1256.2102286815643 2252.1616788804531 360.0797147154808
leaf_count=598 5848 326 9309 3166 1212 775 9686 3063 17733 13393 1669 5060 9482 1483
internal_value=-1.77254e-08 -0.00253302 0.00138798 -0.000673375 0.00245272 -0.00293647 -0.0054491 0.00431992 0.000790034 -0.000524293 0.00208332 0.00218501 -0.00389962 0.000542602
internal_weight=20114.6 7120.89 12993.7 4348.94 1825.78 2523.16 2771.95 1540.84 11538.4 5940.17 2696.33 5598.23 2333.31 506.114
internal_count=82803 29791 53012 18024 7441 10583 11767 6229 47164 24371 10978 22793 9808 2081
is_linear=0
shrinkage=0.005


Tree=34
num_leaves=15
num_cat=0
split_feature=7 5 2 2 5 5 5 1 6 1 1 2 5 1
split_gain=2802.27 1301.79 2383.01 891.739 807.176 1216.26 741.04 704.484 1044.31 684.506 775.27 992.211 776.702 565.719
threshold=23899.325918171362 1.2816729187972631 -0.16030334578401811 0.12578483119198183 1.373026388948916 1.2945598170720023 1.1199657731962522 1.1567687509944695 0.3830594110095647 1.4529386806145701 1.9275368684270942 -0.11885028322426848 1.1750272285020442 1.4529386806145701
decision_type=2 2 2 2 2 2 2 2 2 2 2 2 2 2
left_child=1 6 4 9 5 -3 -1 8 -8 -2 12 -12 -11 -9
right_child=3 2 -4 -5 -6 -7 7 13 -10 10 11 -13 -14 -15
leaf_value=0.010545299587971494 0.0092713374731414663 0.0080660752504109774 -0.0068392235843550012 -0.0083130500814390159 0.007442717711379384 -0.0020871639506782939 0.011726427135233936 -0.0074124794109593582 -0.0071615009926471566 0.0058511585052183936 0.0086818674319346176 0.0015393930948841171 -0.0032647784445181023 -0.0034889637179383974
leaf_weight=81.203532993793488 280.91575802862644 410.68875716626644 900.48863153159618 232.410829231143 662.45342612266541 1042.4998072683811 154.39025953412056 1667.7744231969118 138.12445189058781 279.24069510400295 510.12268024682999 10277.115111127496 1414.9105946868658 2057.2666388899088
leaf_count=326 1138 1664 3841 960 2664 4285 632 7110 579 1133 2064 41946 5771 8690
internal_value=-1.73937e-08 -0.00252249 -2.83825e-05 0.00138094 0.00287029 0.000782333 -0.00435698 -0.00466008 0.00280208 0.00155799 0.00138383 0.00187778 -0.00175947 -0.00524703
internal_weight=20109.6 7114.89 3016.13 12994.7 2115.64 1453.19 4098.76 4017.56 292.515 12762.3 12481.4 10787.2 1694.15 3725.04
internal_count=82803 29791 12454 53012 8613 5949 17337 17011 1211 52052 50914 44010 6904 15800
is_linear=0
shrinkage=0.005


Tree=35
num_leaves=15
num_cat=0
split_feature=0 0 10 2 2 2 1 1 10 1 2 6 1 2
split_gain=2598.81 1702.97 1511.19 1332.6 1445.45 1052.5 930.447 1467.61 835.196 812.196 793.163 573.76 965.888 431.622
threshold=0.36989354441652328 0.42243372439126181 -578.66970962996766 -0.31862323479835714 -0.16030334578401811 0.043316895034455911 15.112827140453616 19.066492833172777 487.36156899573001 1.5741378500157353 -1.9335538725684382e-11 0.34697930201230698 16.639744913565238 -0.084542503819956608
decision_type=2 2 2 2 2 2 2 2 2 2 2 2 2 2
left_child=2 8 11 -3 9 6 10 -8 -2 -5 -4 -1 -13 -6
right_child=1 3 5 4 13 -7 7 -9 -10 -11 -12 12 -14 -15
leaf_value=0.0096625313993252398 -0.0064586952619032113 -0.0070221062271445221 0.0011235400014374293 -0.00035430151344237673 -0.0062554887659839698 -0.0023114067501710796 -0.0062470815306753706 0.004223937531672454 0.010182523662521177 0.0051047257839074954 0.0046340461551277121 0.0064421171557793146 -0.0060711719037602465 0.003367915627120474
leaf_weight=633.20215451717377 2316.5831449627876 692.47805888950825 5930.6572744995356 1359.9507209956646 792.82948470115662 2347.2630453109741 887.85607071220875 536.15987774729729 77.387090757489204 1363.2372188568115 2209.4450604766607 618.03356432914734 204.80730785429478 135.8896109610796
leaf_count=2540 9917 2952 24162 5628 3370 9688 3694 2183 311 5515 8976 2480 828 559
internal_value=-2.12027e-08 -0.00253192 0.00127614 -0.000665147 0.000540378 0.000688005 0.00142448 -0.00230276 -0.0059177 0.00237802 0.00207692 0.00608384 0.00332269 -0.00484365
internal_weight=20105.8 6738.36 13367.4 4344.39 3651.91 11911.4 9564.12 1424.02 2393.97 2723.19 8140.1 1456.04 822.841 928.719
internal_count=82803 28252 54551 18024 15072 48703 39015 5877 10228 11143 33138 5848 3308 3929
is_linear=0
shrinkage=0.005


Tree=36
num_leaves=15
num_cat=0
split_feature=0 0 10 2 2 5 2 5 1 1 5 5 10 10
split_gain=2574.29 1689.84 1495.6 1321.67 1431.98 1188.07 1042.11 1136.09 921.091 1454.3 841.873 839.344 827.783 684.9
threshold=0.36989354441652328 0.42243372439126181 -578.66970962996766 -0.31862323479835714 -0.16030334578401811 1.3086051152408287 0.043316895034455911 2.1920803104026487 15.112827140453616 19.066492833172777 1.2764153000131087 1.1199657731962522 487.36156899573001 -353.28313143145891
decision_type=2 2 2 2 2 2 2 2 2 2 2 2 2 2
left_child=2 12 -1 -3 5 -5 8 13 10 -10 -4 -6 -2 -8
right_child=1 3 6 4 11 -7 7 -9 9 -11 -12 -13 -14 -15
leaf_value=0.0060518360895565546 -0.0064370831244233697 -0.0069993070107278003 8.6633044409329047e-05 0.00028370994078085035 0.010467911301637727 0.0076061810445307585 0.00025821160117444101 0.0067999130260434819 -0.0062235392581183246 0.0042005399148987536 0.003372405739785925 -0.0063022043354336622 0.01012518466247851 -0.0057783539988395536
leaf_weight=1456.4267919808626 2312.7504144012928 691.26469148695469 3238.2007355540991 1950.0086821317673 81.267691627144814 773.70227478444576 728.37415270507336 298.60144348442554 886.76319089531898 536.45264133810997 4903.9441373199224 846.30874752998352 77.438912257552147 1319.3535410016775
leaf_count=5848 9917 2952 13194 8038 326 3105 2995 1210 3694 2183 19944 3603 311 5483
internal_value=-2.68512e-08 -0.00252138 0.00126969 -0.000662114 0.000537758 0.00236568 0.000684544 -0.00230077 0.00141717 -0.00229254 0.00206602 -0.00482538 -0.00589744 -0.0036304
internal_weight=20100.9 6732.74 13368.1 4342.55 3651.29 2723.71 11911.7 2346.33 9565.36 1423.22 8142.14 927.576 2390.19 2047.73
internal_count=82803 28252 54551 18024 15072 11143 48703 9688 39015 5877 33138 3929 10228 8478
is_linear=0
shrinkage=0.005


Tree=37
num_leaves=15
num_cat=1
split_feature=7 0 10 5 5 10 0 3 7 7 5 5 9 5
split_gain=2728.77 1502.07 1424.52 1184.97 1337.61 1127.17 865.728 837.092 1320.73 989.936 826.518 794.142 697.884 689.608
threshold=23899.325918171362 0.42243372439126181 -578.66970962996766 1.2816729187972631 1.4567170705890871 298.06427569603062 0.36687286031879046 -0.86172992820007699 36226.298777936223 29721.721309731682 1.3086051152408287 2.4565748266012024 0 1.1199657731962522
decision_type=2 2 2 2 2 2 2 2 2 2 2 2 1 2
left_child=1 6 -2 5 10 13 -1 8 9 -4 -5 12 -9 -3
right_child=2 3 7 4 -6 -7 -8 11 -10 -11 -12 -13 -14 -15
leaf_value=0.00052330267556633043 0.0060195607492343085 0.010410386462735286 0.00076194786826740439 0.00060956671585523834 -0.0075653663447494083 0.0088009665783112794 -0.0067073191456808994 0.0018379133854437742 -0.0026850479606777104 0.0091804108885634641 0.0079340459709086718 0.0056586841969187996 -0.0046581618340903064 -0.0043634110325883081
leaf_weight=506.36772178113461 1456.9160549789667 81.310823306441307 2286.3290765434504 777.81304633617401 283.41177316009998 190.12840400636196 2251.1710719764233 3880.5105102062225 3242.2834494411945 411.88371987640858 764.19022165238857 1257.4192549437284 462.09419241547585 2243.5586639642715
leaf_count=2081 5848 326 9309 3166 1212 775 9686 15811 13393 1669 3063 5060 1922 9482
internal_value=-2.9771e-08 -0.00249331 0.00136141 -0.000659131 0.00240626 -0.00288506 -0.0053788 0.0007729 -0.000534209 0.00204942 0.00424247 0.00215985 0.00114564 -0.0038435
internal_weight=20095.4 7097.95 12997.4 4340.41 1825.42 2515 2757.54 11540.5 5940.5 2698.21 1542 5600.02 4342.6 2324.87
internal_count=82803 29791 53012 18024 7441 10583 11767 47164 24371 10978 6229 22793 17733 9808
cat_boundaries=0 1
cat_threshold=4
is_linear=0
shrinkage=0.005


Tree=38
num_leaves=15
num_cat=0
split_feature=7 0 10 2 2 2 1 1 0 7 1 1 7 2
split_gain=2703.05 1490.17 1409.69 1304.7 1410.33 1100.15 985.143 1438.7 859.72 790.904 786.009 707.227 667.17 868.295
threshold=23899.325918171362 0.42243372439126181 -578.66970962996766 -0.31862323479835714 -0.16030334578401811 0.043316895034455911 15.112827140453616 19.066492833172777 0.36687286031879046 21705.266040297709 1.5741378500157353 11.254668085752197 65030.241867571596 0.12578483119198183
decision_type=2 2 2 2 2 2 2 2 2 2 2 2 2 2
left_child=1 8 -2 -3 10 6 11 -8 -1 -6 -5 -4 -7 -14
right_child=2 3 5 4 9 12 7 -9 -10 -11 -12 -13 13 -15
leaf_value=0.0005206444714804453 0.0059875767570304493 -0.0069627445515603546 0.0016909176412144291 -0.00034185920860725335 -0.006295378332401908 -0.0042096940962069538 -0.0061922844480055764 0.0041775576737249345 -0.0066857638909597504 0.009428715479905151 0.0050279847826396329 0.0063313379317313789 0.0042185260677187336 -0.0082242089664782813
leaf_weight=506.41070863604546 1457.376487031579 689.27366682887077 6840.6293480694294 1359.2333887666464 837.41669483482838 1543.1382831633091 885.23448297381401 536.71234694123268 2247.1485077887774 87.847026631236076 1364.3942496031523 933.39067831635475 621.06148591637611 180.48391230404377
leaf_count=2081 5848 2952 27833 5628 3576 6410 3694 2183 9686 353 5515 3766 2531 747
internal_value=-3.04931e-08 -0.00248303 0.00135455 -0.000656168 0.000535247 0.000769027 0.0015487 -0.00227635 -0.00535966 -0.0047955 0.00234766 0.00224876 -0.00228751 0.0014103
internal_weight=20089.8 7091.72 12998 4338.17 3648.89 11540.7 9195.97 1421.95 2753.56 925.264 2723.63 7774.02 2344.68 801.545
internal_count=82803 29791 53012 18024 15072 47164 37476 5877 11767 3929 11143 31599 9688 3278
is_linear=0
shrinkage=0.005


Tree=39
num_leaves=15
num_cat=0
split_feature=0 0 10 2 2 5 2 5 5 10 2 3 2 10
split_gain=2500.87 1649.87 1449.66 1294.06 1397.32 1155.72 1016.84 1115.97 817.774 815.008 782.786 1261.99 794.03 675.783
threshold=0.36989354441652328 0.42243372439126181 -578.66970962996766 -0.31862323479835714 -0.16030334578401811 1.3086051152408287 0.043316895034455911 2.1920803104026487 1.1199657731962522 487.36156899573001 -7.3723860349872426e-12 -1.0624921727917207 -0.21604475863889608 -353.28313143145891
decision_type=2 2 2 2 2 2 2 2 2 2 2 2 2 2
left_child=2 9 -1 -3 5 -5 10 13 -6 -2 12 -12 -4 -8
right_child=1 3 6 4 8 -7 7 -9 -10 -11 11 -13 -14 -15
leaf_value=0.0059558795061344086 -0.0063741526809315144 -0.0069404503617911742 0.0058068283673449383 0.0002814013983903367 0.010302989110799242 0.0075017484647772869 0.0002642224272305664 0.0067361151310406089 -0.006242927279490309 0.010055121567203481 7.7321188580131397e-05 0.0095519865493964903 0.0003164208002060538 -0.0057349298753163703
leaf_weight=1457.8085585534573 2301.0038670748472 688.03502890467644 722.13685658574104 1949.8401769250631 81.38042040169239 774.25501576066017 728.17511484026909 298.92417195439339 842.60141363739967 77.497451022267342 699.70662996172905 706.74387596547604 7439.5208290964365 1316.3999291211367
leaf_count=5848 9917 2952 2929 8038 326 3105 2995 1210 3603 311 2856 2845 30385 5483
internal_value=-3.82762e-08 -0.00248969 0.00125022 -0.000653207 0.000532684 0.00233552 0.000673877 -0.00227724 -0.00477814 -0.00583579 0.00139703 0.00484184 0.00080284 -0.00359757
internal_weight=20084 6714.61 13369.4 4336.11 3648.08 2724.1 11911.6 2343.5 923.982 2378.5 9568.11 1406.45 8161.66 2044.58
internal_count=82803 28252 54551 18024 15072 11143 48703 9688 3929 10228 39015 5701 33314 8478
is_linear=0
shrinkage=0.005


Tree=40
num_leaves=15
num_cat=0
split_feature=0 0 10 2 2 5 2 5 5 10 2 3 2 10
split_gain=2477.43 1637.2 1434.66 1283.64 1436.86 1086.57 1006.87 1104.99 810.412 807.831 774.636 1248.21 785.489 670.259
threshold=0.36989354441652328 0.42243372439126181 -578.66970962996766 -0.31487392158386673 -0.16030334578401811 1.3086051152408287 0.043316895034455911 2.1920803104026487 1.1199657731962522 487.36156899573001 -7.3723860349872426e-12 -1.0624921727917207 -0.21604475863889608 -353.28313143145891
decision_type=2 2 2 2 2 2 2 2 2 2 2 2 2 2
left_child=2 9 -1 -3 5 -5 10 13 -6 -2 12 -12 -4 -8
right_child=1 3 6 4 8 -7 7 -9 -10 -11 11 -13 -14 -15
leaf_value=0.0059244646046165902 -0.0063531658082906107 -0.006525530196968797 0.0057739591035723247 0.0004202745642564739 0.010248042045497292 0.0074623433339789423 0.00026289083568713337 0.0066980368126788861 -0.0062216041494097454 0.0099997139580025492 7.6934015312266299e-05 0.0094982233476885568 0.00031482505124341443 -0.0057128123710996253
leaf_weight=1458.2126361876726 2297.0734286159277 765.05123163759708 722.61815994977951 1871.6666200608015 81.410275876522064 774.45392498373985 728.20675645768642 299.12276120483875 841.26683534681797 77.53988479077816 699.71417787671089 707.19226655364037 7439.8452740460634 1314.8946899026632
leaf_count=5848 9917 3280 2929 7710 326 3105 2995 1210 3603 311 2856 2845 30385 5483
internal_value=-3.71398e-08 -0.00247953 0.00124394 -0.000650283 0.000609245 0.00248328 0.000670512 -0.00226708 -0.00476097 -0.00581614 0.00138987 0.00481609 0.000798749 -0.00358217
internal_weight=20078.3 6708.46 13369.8 4333.85 3568.8 2646.12 11911.6 2342.22 922.677 2374.61 9569.37 1406.91 8162.46 2043.1
internal_count=82803 28252 54551 18024 14744 10815 48703 9688 3929 10228 39015 5701 33314 8478
is_linear=0
shrinkage=0.005


Tree=41
num_leaves=15
num_cat=0
split_feature=7 0 5 5 3 8 5 5 0 5 7 5 5 8
split_gain=2630.27 1456.97 1143.47 1300.67 845.627 960.533 902.227 853.635 842.673 798.851 718.187 1254.63 1068.5 646.87
threshold=23899.325918171362 0.42243372439126181 1.2816729187972631 1.4567170705890871 -0.86172992820007699 -0.0056949456063829776 2.4565748266012024 1.1750272285020442 0.36687286031879046 1.3086051152408287 237485.23868586545 1.5866933847752973 1.688154461239965 0.0099982117987582834
decision_type=2 2 2 2 2 2 2 2 2 2 2 2 2 2
left_child=1 8 13 9 5 7 10 -2 -1 -4 12 -12 -6 -3
right_child=4 2 3 -5 6 -7 -8 -9 -10 -11 11 -13 -14 -15
leaf_value=0.0005124684077915016 0.010193014825662561 -0.00086759143013994473 0.00059673274786750674 -0.0075038977901070916 0.0012692017026526624 -0.0032175360059682849 0.005755884960148938 0.00068903691538243236 -0.0066248353262010496 0.007795798694909508 0.0060013410003176672 -0.0054906568028153914 0.0080445865679195285 -0.0061143765578975644
leaf_weight=506.53217045962811 249.02990205585957 1565.8206405937672 778.04301409423351 281.7463351637125 3089.6371259987354 1672.0462824851274 1678.0915606319904 4470.6570738404989 2235.4276949167252 764.74334643781185 340.35592538118362 782.0959300994873 716.92290183901787 941.19169583916664
leaf_count=2081 1001 6588 3166 1212 12586 6921 6740 18267 9686 3063 1378 3235 2884 3995
internal_value=-3.58717e-08 -0.00245367 -0.000647377 0.00236287 0.001335 3.79799e-05 0.00258926 0.00119206 -0.00530557 0.00416823 0.00151019 -0.00200264 0.00254682 -0.00283918
internal_weight=20072.3 7073.5 4331.55 1824.53 12998.8 6391.73 6607.1 4719.69 2741.96 1542.79 4929.01 1122.45 3806.56 2507.01
internal_count=82803 29791 18024 7441 53012 26189 26823 19268 11767 6229 20083 4613 15470 10583
is_linear=0
shrinkage=0.005


Tree=42
num_leaves=15
num_cat=0
split_feature=0 0 10 2 2 5 2 5 5 10 2 5 2 10
split_gain=2431.44 1612.57 1413.51 1267.92 1365.5 1118.16 996.271 1089.41 802.577 793.648 764.019 927.841 776.975 663.151
threshold=0.36989354441652328 0.42243372439126181 -578.66970962996766 -0.31862323479835714 -0.16030334578401811 1.3086051152408287 0.043316895034455911 2.1920803104026487 1.1199657731962522 487.36156899573001 -7.3723860349872426e-12 1.4390960126667662 -0.21604475863889608 -353.28313143145891
decision_type=2 2 2 2 2 2 2 2 2 2 2 2 2 2
left_child=2 9 -1 -3 5 -5 10 13 -6 -2 12 -12 -4 -8
right_child=1 3 6 4 8 -7 7 -9 -10 -11 11 -13 -14 -15
leaf_value=0.0058766412556525462 -0.0063121134610225598 -0.0068842974238188109 0.005736701299162387 0.00028657251580422233 0.010198501075435582 0.0073874646333476459 0.00025515705974179479 0.0066362083435781496 -0.0061909223700064636 0.0098900387704810265 -0.0013762164551831409 0.0074535349479950353 0.00030906215323513907 -0.0056896508043340708
leaf_weight=1458.6687146872282 2289.0823235660791 684.82306468486786 723.14943687617779 1949.3588237464428 81.433715537190437 774.69684970378876 728.3802610039711 299.3770813792944 839.22022822499275 77.613343045115471 426.02692379057407 981.42784823477268 7440.2289080321789 1313.2213856726885
leaf_count=5848 9917 2952 2929 8038 326 3105 2995 1210 3603 311 1736 3965 30385 5483
internal_value=-3.90804e-08 -0.00245942 0.00123153 -0.000644451 0.000528083 0.0023079 0.000662278 -0.00226079 -0.00473378 -0.00577775 0.00137759 0.00477951 0.000790495 -0.00356796
internal_weight=20066.7 6696.23 13370.5 4329.53 3644.71 2724.06 11911.8 2340.98 920.654 2366.7 9570.83 1407.45 8163.38 2041.6
internal_count=82803 28252 54551 18024 15072 11143 48703 9688 3929 10228 39015 5701 33314 8478
is_linear=0
shrinkage=0.005


Tree=43
num_leaves=15
num_cat=0
split_feature=7 10 5 2 2 5 1 1 5 1 5 5 1 6
split_gain=2582.42 1345.75 1209.69 2223.03 1057.24 1078.74 967.981 1409.22 746.745 1210.18 730.628 690.413 691.194 1021.54
threshold=23899.325918171362 -578.66970962996766 1.2816729187972631 -0.16030334578401811 0.043316895034455911 2.1920803104026487 15.112827140453616 19.066492833172777 1.373026388948916 1.3710928527307551 1.2764153000131087 1.1199657731962522 1.1567687509944695 0.3830594110095647
decision_type=2 2 2 2 2 2 2 2 2 2 2 2 2 2
left_child=2 -2 11 8 6 -6 10 -8 9 -4 -3 -1 13 -13
right_child=1 4 3 -5 5 -7 7 -9 -10 -11 -12 12 -14 -15
leaf_value=0.010145159743240409 0.0058459252650706625 0.00041386632461638053 0.011074958233624477 -0.0066681928018878945 -0.0035527433946278449 0.0065991504428250282 -0.0061626196487469496 0.0040989879466169074 0.0071496580171270807 -0.0012669524896768947 0.0035168593208723155 0.011693280498450552 -0.0050972390657799405 -0.0070299895724982584
leaf_weight=81.455140575766563 1459.0030061751604 3286.914988771081 236.85124178230762 887.64501638710499 2040.1002316921949 299.55534063279629 883.74372971057892 537.49718436598778 663.56461979448795 1215.8442937582731 4492.6559281200171 154.50368449091911 3684.4713210016489 136.84611260890961
leaf_count=326 5848 13370 957 3841 8478 1210 3694 2183 2664 4992 18229 632 15800 579
internal_value=-3.9573e-08 0.00132199 -0.00243414 -2.80863e-05 0.000749609 -0.00225076 0.00151292 -0.00227996 0.00275678 0.000746702 0.00220626 -0.00421469 -0.00451076 0.00289347
internal_weight=20060.7 12999.5 7061.18 3003.91 11540.5 2339.66 9200.81 1421.24 2116.26 1452.7 7779.57 4057.28 3975.82 291.35
internal_count=82803 53012 29791 12454 47164 9688 37476 5877 8613 5949 31599 17337 17011 1211
is_linear=0
shrinkage=0.005


Tree=44
num_leaves=15
num_cat=0
split_feature=0 0 10 2 2 2 1 1 10 2 1 8 2 2
split_gain=2385.96 1592.17 1384.64 1251.37 1344.58 976.805 881.416 1396.53 784.952 758.986 749.523 666.844 562.65 492.448
threshold=0.36989354441652328 0.42243372439126181 -578.66970962996766 -0.31862323479835714 -0.16030334578401811 0.043316895034455911 15.112827140453616 19.066492833172777 487.36156899573001 -1.9335538725684382e-11 1.5741378500157353 0.033824360193188317 0.12578483119198183 -9.2465535228569677e-12
decision_type=2 2 2 2 2 2 2 2 2 2 2 2 2 2
left_child=2 8 13 -3 10 6 9 -8 -2 -4 -5 12 -7 -1
right_child=1 3 5 4 -6 11 7 -9 -10 -11 -12 -13 -14 -15
leaf_value=-0.0085043210882511152 -0.0062759031165051495 -0.006846285619324253 0.0010646567239947244 -0.00033517665049264902 -0.0047021741898230721 9.8463221046040652e-05 -0.0061397027388795022 0.0040765380456941405 0.0098348819634590367 0.0044954612666273401 0.0049084867161483508 -0.0076622953906963958 -0.0082196490973429088 0.0064033598460328609
leaf_weight=57.114594116806984 2281.8480482399464 682.57241535186768 5938.5466171503067 1358.4004170745611 918.09754061698914 1651.0997034311295 882.6118578761816 537.75703951716423 77.644766345620155 2214.0714441090822 1365.2660779803991 456.08234742283821 231.2533824890852 1402.1960829943419
leaf_count=231 9917 2952 24162 5628 3929 6824 3694 2183 311 8976 5515 1904 960 5617
internal_value=-4.13286e-08 -0.00243933 0.00121918 -0.000635872 0.000528234 0.000655643 0.00136348 -0.00226996 -0.00574271 0.00199691 0.00229276 -0.00224067 -0.000924028 0.00581548
internal_weight=20054.6 6683.83 13370.7 4324.34 3641.76 11911.4 9572.99 1420.37 2359.49 8152.62 2723.67 2338.44 1882.35 1459.31
internal_count=82803 28252 54551 18024 15072 48703 39015 5877 10228 33138 11143 9688 7784 5848
is_linear=0
shrinkage=0.005


Tree=45
num_leaves=15
num_cat=0
split_feature=7 0 2 2 5 2 3 8 1 2 7 2 0 5
split_gain=2535.83 1417.81 1241.27 1332.02 1091.24 850.855 888.725 1019.53 965.652 1477.75 1352.92 863.425 822.049 789.166
threshold=23899.325918171362 0.42243372439126181 -0.31862323479835714 -0.16030334578401811 1.3086051152408287 0.12578483119198183 -0.86172992820007699 -0.0056949456063829776 15.112827140453616 -8.4974527414516371e-12 50012.966460191681 0.092604782003031141 0.36687286031879046 1.1199657731962522
decision_type=2 2 2 2 2 2 2 2 2 2 2 2 2 2
left_child=1 12 -3 4 -4 6 7 11 10 -10 -8 -2 -1 -5
right_child=5 2 3 13 -6 -7 8 -9 9 -11 -12 -13 -14 -15
leaf_value=0.00050424034319502045 0.00088810249587093144 -0.0068249569370385371 0.00028365047402946773 0.0101169110139331 0.0072978889919900116 -0.0081916016543118302 0.0013132145436173844 -0.0032030870188669851 -0.0064481388993476232 0.0053014407259260529 0.0063451857158162229 0.011395505036652511 -0.0065491101112900175 -0.0061352634442133989
leaf_weight=506.61870169639587 4426.3604892343283 681.28678154945374 1949.0971478670835 81.464845061302185 774.94788852334023 230.88757939636707 2871.3105624467134 1670.3280054628849 633.91554607450962 462.20297248661518 2500.3780333995819 204.12205237150192 2220.1754458099604 835.57883682847023
leaf_count=2081 18050 2952 8038 326 3105 960 11686 6921 2632 1871 10052 840 9686 3603
internal_value=-5.15208e-08 -0.00241488 -0.000632996 0.000525678 0.00228098 0.00130927 0.00148158 0.000144648 0.0027835 -0.00149123 0.0036563 0.00135301 -0.00523788 -0.00468406
internal_weight=20048.7 7049.17 4322.38 3641.09 2724.05 12999.5 12768.6 6300.81 6467.81 1096.12 5371.69 4630.48 2726.79 917.044
internal_count=82803 29791 18024 15072 11143 53012 52052 25811 26241 4503 21738 18890 11767 3929
is_linear=0
shrinkage=0.005


Tree=46
num_leaves=15
num_cat=1
split_feature=7 5 1 5 5 3 8 5 5 9 6 5 1 6
split_gain=2512.06 1180.76 1986.43 974.034 1356.43 821.441 933.681 865.1 841.682 725.91 707.183 678.547 682.816 1006.96
threshold=23899.325918171362 1.2816729187972631 2.0583562035030902 1.373026388948916 1.2945598170720023 -0.86172992820007699 -0.0056949456063829776 2.4565748266012024 1.1750272285020442 0 0.3115826787839639 1.1199657731962522 1.1567687509944695 0.3830594110095647
decision_type=2 2 2 2 2 2 2 2 2 1 2 2 2 2
left_child=1 11 3 4 -3 6 8 9 -2 10 -7 -1 13 -13
right_child=5 2 -4 -5 -6 7 -8 -9 -10 -11 -12 12 -14 -15
leaf_value=0.01006480879960699 0.010094264562425632 0.0079551560155479394 -0.0076734054259681422 0.0072102659983391748 -0.0025021492543958303 0.0093209092158828815 -0.0031889275531514216 0.0056377165021166478 0.00066141871296783201 -0.0042294539846625973 0.001570534292467489 0.011615529620399356 -0.0050477993247273287 -0.0069837187202095473
leaf_weight=81.479680761694908 249.2658476382494 411.48365145921707 661.62203788757324 673.03848339617252 1253.3304333984852 316.75567279756069 1669.3605206757784 1679.588839918375 4472.6609838157892 499.25624568760395 4112.9959250986576 154.76631087064743 3670.4401445388794 136.36073067784309
leaf_count=326 1001 1664 2890 2701 5199 1286 6921 6740 18267 2081 16716 632 15800 579
internal_value=-5.66129e-08 -0.00240509 -2.72389e-05 0.00213677 8.26411e-05 0.00130269 2.4214e-05 0.00253865 0.00116091 0.00148165 0.00212629 -0.00416833 -0.00446294 0.00289823
internal_weight=20042.4 7042.52 2999.47 2337.85 1664.81 12999.9 6391.29 6608.6 4721.93 4929.01 4429.75 4043.05 3961.57 291.127
internal_count=82803 29791 12454 9564 6863 53012 26189 26823 19268 20083 18002 17337 17011 1211
cat_boundaries=0 1
cat_threshold=4
is_linear=0
shrinkage=0.005


Tree=47
num_leaves=15
num_cat=0
split_feature=7 10 5 2 2 5 1 1 1 5 5 5 1 6
split_gain=2488.45 1312.33 1170.84 2155.18 1031.08 1062.89 938.524 1374.71 729.269 1180.45 714.636 672.265 677.091 996.054
threshold=23899.325918171362 -578.66970962996766 1.2816729187972631 -0.16030334578401811 0.043316895034455911 2.1920803104026487 15.112827140453616 19.066492833172777 1.3710928527307551 1.373026388948916 1.2764153000131087 1.1199657731962522 1.1567687509944695 0.3830594110095647
decision_type=2 2 2 2 2 2 2 2 2 2 2 2 2 2
left_child=2 -2 11 8 6 -6 10 -8 -4 -10 -3 -1 13 -13
right_child=1 4 3 -5 5 -7 7 -9 9 -11 -12 12 -14 -15
leaf_value=0.010013489958152813 0.0057626505684593224 0.00039336886255013131 0.010960503678762411 -0.0065940193152457215 -0.0035283482285480639 0.0065472813340773364 -0.0061019970943538291 0.0040362041089057107 -0.0012653321886881232 0.0070221741715747292 0.0034612594219026057 0.01153884707116116 -0.0050292446519431509 -0.0069605096017736155
leaf_weight=81.490309357643127 1459.5183326005936 3288.271162956953 237.27754244208336 881.61528803408146 2037.5193094909191 299.70669420063496 880.5959582477808 538.15126407146454 1215.1771005243063 663.81521253287792 4496.7557170242071 155.01853683590889 3665.5758817493916 136.13357223570347
leaf_count=326 5848 13370 957 3841 8478 1210 3694 2183 4992 2664 18229 632 15800 579
internal_value=-5.68054e-08 0.00129611 -0.00239525 -2.71219e-05 0.000730817 -0.00223414 0.0014841 -0.0022546 0.00270831 0.00166226 0.00216586 -0.00415246 -0.00444607 0.00288345
internal_weight=20036.6 13000.5 7036.1 2997.89 11541 2337.23 9203.77 1418.75 2116.27 1878.99 7785.03 4038.22 3956.73 291.152
internal_count=82803 53012 29791 12454 47164 9688 37476 5877 8613 7656 31599 17337 17011 1211
is_linear=0
shrinkage=0.005


Tree=48
num_leaves=15
num_cat=0
split_feature=0 0 10 5 5 10 10 5 3 5 5 5 6 8
split_gain=2297.93 1552.44 1350.19 1067.97 1239.82 1098.21 767.593 765.512 682.041 1031.59 989.957 839.903 998.5 917.975
threshold=0.36989354441652328 0.42243372439126181 -578.66970962996766 1.2816729187972631 1.4567170705890871 298.06427569603062 487.36156899573001 1.3086051152408287 -0.86172992820007699 1.5643521556888182 1.5310807764914709 2.1629857050214105 0.3115826787839639 -0.060891772318292785
decision_type=2 2 2 2 2 2 2 2 2 2 2 2 2 2
left_child=2 6 -1 5 7 -3 -2 -5 9 10 -4 12 -10 -13
right_child=1 3 8 4 -6 -7 -8 -9 11 -11 -12 13 -14 -15
leaf_value=0.0057329210679855844 -0.0062051042718506925 -0.0037025035264989137 0.00043739618463343853 0.00054832828666681068 -0.0074046607006739377 0.0087808551664530152 0.0097230305699965418 0.0075938185982120723 0.008892567860281279 -0.0030544088410034819 0.010706826863467982 -0.0067548127317534172 -9.2495300119999221e-05 0.0059455949299757936
leaf_weight=1459.7535917013884 2267.0879768282175 2301.4500168412924 3350.0413294285536 778.68011710047722 278.73400251567364 190.20898772776127 77.696522429585457 764.8900448679924 335.89987830817699 2435.9894585162401 251.91865698993206 155.92602072656155 3818.677500680089 1563.0968312621117
leaf_count=5848 9917 9808 13664 3166 1212 775 311 3063 1364 10104 1029 649 15612 6281
internal_value=-5.83072e-08 -0.00239995 0.00119492 -0.000619206 0.0022887 -0.00274697 -0.00567429 0.00404255 0.000638359 -0.000541351 0.00115771 0.00185145 0.000634333 0.00479051
internal_weight=20030.1 6658.75 13371.3 4313.96 1822.3 2491.66 2344.78 1543.57 11911.5 6037.95 3601.96 5873.6 4154.58 1719.02
internal_count=82803 28252 54551 18024 7441 10583 10228 6229 48703 24797 14693 23906 16976 6930
is_linear=0
shrinkage=0.005


Tree=49
num_leaves=15
num_cat=0
split_feature=0 0 10 2 2 2 1 1 10 10 1 6 1 2
split_gain=2276.49 1540.75 1336.46 1214.49 1343.04 950.145 849.496 1362.41 760.958 749.66 657.684 568.282 935.062 395.889
threshold=0.36989354441652328 0.42243372439126181 -578.66970962996766 -0.31487392158386673 -0.16030334578401811 0.043316895034455911 15.112827140453616 19.066492833172777 487.36156899573001 454.86084769564974 1.5741378500157353 0.34697930201230698 16.639744913565238 -0.084542503819956608
decision_type=2 2 2 2 2 2 2 2 2 2 2 2 2 2
left_child=2 8 11 -3 10 6 9 -8 -2 -4 -5 -1 -13 -6
right_child=1 3 5 4 13 -7 7 -9 -10 -11 -12 12 -14 -15
leaf_value=0.0092610992032578342 -0.0061853164093786705 -0.0063734655911713992 0.0022451086109947379 -0.00016337745908029996 -0.0059970515626224389 -0.0022234619229836057 -0.0060743006504091722 0.0040207271882933176 0.0096725059954283175 -0.005930049338748326 0.004823982749390868 0.006027102132292992 -0.0062634618468275652 0.0032584175106148395
leaf_weight=634.66242501139641 2262.9809652268887 755.13924422860146 7868.0968106240034 1279.1251254379749 777.07770389318466 2335.6302115470171 879.1362090408802 538.30451849102974 77.714422404766083 290.15841853618622 1365.2978243529797 619.72185242176056 205.57942405343056 134.9983453899622
leaf_count=2540 9917 3280 31953 5300 3370 9688 3694 2183 311 1185 5515 2480 828 559
internal_value=-5.86793e-08 -0.00239026 0.00118894 -0.000616441 0.000605949 0.00063518 0.00133278 -0.00223866 -0.00565579 0.0019537 0.00241104 0.00570344 0.0029606 -0.00462336
internal_weight=20023.6 6652.33 13371.3 4311.64 3556.5 11911.3 9575.7 1417.44 2340.7 8158.26 2644.42 1459.96 825.301 912.076
internal_count=82803 28252 54551 18024 14744 48703 39015 5877 10228 33138 10815 5848 3308 3929
is_linear=0
shrinkage=0.005


end of trees

feature_importances:
Column_5=172
Column_2=105
Column_1=96
Column_7=88
Column_0=76
Column_10=73
Column_3=29
Column_6=27
Column_8=24
Column_9=10

parameters:
[boosting: gbdt]
[objective: binary]
[metric: auc]
[tree_learner: serial]
[device_type: cpu]
[data_sample_strategy: bagging]
[data: ]
[valid: ]
[num_iterations: 50]
[learning_rate: 0.005]
[num_leaves: 15]
[num_threads: 14]
[seed: 42]
[deterministic: 0]
[force_col_wise: 1]
[force_row_wise: 0]
[histogram_pool_size: -1]
[max_depth: 5]
[min_data_in_leaf: 50]
[min_sum_hessian_in_leaf: 0.001]
[bagging_fraction: 1]
[pos_bagging_fraction: 1]
[neg_bagging_fraction: 1]
[bagging_freq: 0]
[bagging_seed: 400]
[bagging_by_query: 0]
[feature_fraction: 0.7]
[feature_fraction_bynode: 1]
[feature_fraction_seed: 30056]
[extra_trees: 0]
[extra_seed: 12879]
[early_stopping_round: 0]
[early_stopping_min_delta: 0]
[first_metric_only: 0]
[max_delta_step: 0]
[lambda_l1: 0.5]
[lambda_l2: 0.5]
[linear_lambda: 0]
[min_gain_to_split: 0]
[drop_rate: 0.1]
[max_drop: 50]
[skip_drop: 0.5]
[xgboost_dart_mode: 0]
[uniform_drop: 0]
[drop_seed: 17869]
[top_rate: 0.2]
[other_rate: 0.1]
[min_data_per_group: 100]
[max_cat_threshold: 32]
[cat_l2: 10]
[cat_smooth: 10]
[max_cat_to_onehot: 4]
[top_k: 20]
[monotone_constraints: ]
[monotone_constraints_method: basic]
[monotone_penalty: 0]
[feature_contri: ]
[forcedsplits_filename: ]
[refit_decay_rate: 0.9]
[cegb_tradeoff: 1]
[cegb_penalty_split: 0]
[cegb_penalty_feature_lazy: ]
[cegb_penalty_feature_coupled: ]
[path_smooth: 0]
[interaction_constraints: ]
[verbosity: -1]
[saved_feature_importance_type: 0]
[use_quantized_grad: 0]
[num_grad_quant_bins: 4]
[quant_train_renew_leaf: 0]
[stochastic_rounding: 1]
[linear_tree: 0]
[max_bin: 255]
[max_bin_by_feature: ]
[min_data_in_bin: 3]
[bin_construct_sample_cnt: 200000]
[data_random_seed: 175]
[is_enable_sparse: 1]
[enable_bundle: 1]
[use_missing: 1]
[zero_as_missing: 0]
[feature_pre_filter: 1]
[pre_partition: 0]
[two_round: 0]
[header: 0]
[label_column: ]
[weight_column: ]
[group_column: ]
[ignore_column: ]
[categorical_feature: 9]
[forcedbins_filename: ]
[precise_float_parser: 0]
[parser_config_file: ]
[objective_seed: 16083]
[num_class: 1]
[is_unbalance: 0]
[scale_pos_weight: 1]
[sigmoid: 1]
[boost_from_average: 1]
[reg_sqrt: 0]
[alpha: 0.9]
[fair_c: 1]
[poisson_max_delta_step: 0.7]
[tweedie_variance_power: 1.5]
[lambdarank_truncation_level: 30]
[lambdarank_norm: 1]
[label_gain: ]
[lambdarank_position_bias_regularization: 0]
[eval_at: ]
[multi_error_top_k: 1]
[auc_mu_weights: ]
[num_machines: 1]
[local_listen_port: 12400]
[time_out: 120]
[machine_list_filename: ]
[machines: ]
[gpu_platform_id: -1]
[gpu_device_id: -1]
[gpu_use_dp: 0]
[num_gpu: 1]

end of parameters

pandas_categorical:null
