tree
version=v4
num_class=1
num_tree_per_iteration=1
label_index=0
max_feature_idx=8
objective=binary sigmoid:1
feature_names=Column_0 Column_1 Column_2 Column_3 Column_4 Column_5 Column_6 Column_7 Column_8
feature_infos=[0:0.7162229260923314] [0.46506071389014014:20.4209205808591] [-0.37954567924312732:0.12944539678761882] [-70000000:70000000] [0:100000000] [1.1167821838269782:52.547015713236391] [0.002486825329792055:0.67170969324328145] [0:13428575.189825613] [-0.24085745773956885:0.48005684740359889]
tree_sizes=1728 1768 1769 1773 1786 1768 1780 1768 1783 1762 1765 1789 1794 1773 1780 1776 1776 1774 1778 1779 1758 1778 1773 1785 1782 1785 1772 1776 1773 1774 1796 1788 1792 1782 1775 1801 1776 1795 1780 1793 1774 1799 1777 1801 1793 1800 1794 1798 1783 1773

Tree=0
num_leaves=15
num_cat=0
split_feature=5 1 2 5 2 6 5 6 1 2 5 2 1 1
split_gain=2771.78 2663.91 1517.95 1395.53 1758.84 1425.3 1180.42 1440.78 762.185 722.592 689.146 680.978 611.895 589.896
threshold=1.2816729187972631 1.9275368684270942 -0.25178081981552985 2.4221164630192429 -1.3361511896903264e-11 0.3830594110095647 1.2099485615865169 0.38588352749438731 2.7165254027248698 0.12578483119198183 2.817819996474173 -0.11646513026629113 1.5592557875530413 1.1567687509944695
decision_type=2 2 2 2 2 2 2 2 2 2 2 2 2 2
left_child=1 13 -2 9 5 -5 7 8 -3 12 -6 -9 -4 -1
right_child=2 6 3 4 10 -7 -8 11 -10 -11 -12 -13 -14 -15
leaf_value=-0.31223330885810674 -0.3050412813803946 -0.30595281415879672 -0.3221544163755824 -0.31814278160943027 -0.30311084010043587 -0.30332690041254023 -0.32289753339629651 -0.30304162969216059 -0.31339618786313489 -0.32323155065578418 -0.30996599708201167 -0.32039170513112991 -0.3141379584227646 -0.31949583865824882
leaf_weight=295.37345777451992 529.03800983726978 912.70642361044884 243.90871822834015 856.11960098147392 664.89516589045525 199.76124022901058 247.07953156530857 63.660175457596779 553.4288816601038 234.15236949920654 823.43583273887634 473.91463951766491 9091.2096545249224 5007.6898939460516
leaf_count=1211 2169 3742 1000 3510 2726 819 1013 261 2269 960 3376 1943 37273 20531
internal_value=-0.31476 -0.317156 -0.313328 -0.313691 -0.3104 -0.315333 -0.3126 -0.311327 -0.308759 -0.314566 -0.306899 -0.318323 -0.314348 -0.319091
internal_weight=20196.4 7553.85 12642.5 12113.5 2544.21 1055.88 2250.79 2003.71 1466.14 9569.27 1488.33 537.575 9335.12 5303.06
internal_count=82803 30970 51833 49664 10431 4329 9228 8215 6011 39233 6102 2204 38273 21742
is_linear=0
shrinkage=1


Tree=1
num_leaves=15
num_cat=0
split_feature=7 0 2 2 0 1 7 2 1 1 2 8 8 6
split_gain=3820.89 1927.64 1625.52 1894.37 1057.98 1028.42 978.91 968.465 726.115 784.191 1078.05 748.89 450.791 597.095
threshold=23899.325918171362 0.42243372439126181 -0.31487392158386673 -0.16030334578401811 0.36687286031879046 1.5741378500157353 21705.266040297709 0.12578483119198183 1.4529386806145701 1.9275368684270942 -0.11885028322426848 0.027332776835371341 0.11798043861503268 0.3882832195454804
decision_type=2 2 2 2 2 2 2 2 2 2 2 2 2 2
left_child=1 4 -3 5 12 -4 -5 8 -2 11 -11 -10 13 -1
right_child=7 2 3 6 -6 -7 -8 -9 9 10 -12 -13 -14 -15
leaf_value=0.0037681986236258202 0.0098052932777922958 -0.0072658207743107519 -0.00038159554748205522 -0.0069974014053762381 -0.0074969326404551199 0.0058615657949188408 0.010616168093574463 -0.008440616656758387 -0.0028718668409721537 0.0092703104225071564 0.0017819112974335211 0.0067860661609050231 0.010778572321019865 -0.008174619250680755
leaf_weight=228.31459538638592 277.80445155501366 799.56687366962433 1292.5210210829973 871.80310244858265 2361.3689520210028 1345.0094015300274 86.178289979696274 233.83884429931641 1450.7121602743864 504.05900096893311 10233.450007975101 232.34352050721645 87.08417521417141 192.21060575544834
leaf_count=936 1138 3280 5300 3576 9686 5515 353 960 5951 2064 41946 953 357 788
internal_value=0 -0.00290166 -0.000819784 0.000613796 -0.00608938 0.00280167 -0.0054056 0.00162991 0.00181588 0.0016366 0.00213409 -0.0015355 0.00045446 -0.00168783
internal_weight=20196.3 7264.06 4395.08 3595.51 2868.98 2637.53 957.981 12932.2 12698.4 12420.6 10737.5 1683.06 507.609 420.525
internal_count=82803 29791 18024 14744 11767 10815 3929 53012 52052 50914 44010 6904 2081 1724
is_linear=0
shrinkage=0.005


Tree=2
num_leaves=15
num_cat=0
split_feature=0 0 5 5 5 3 5 5 1 6 5 6 1 1
split_gain=3533.84 2124.92 1673.82 1736.72 1069.74 1007.84 1403.63 951.541 914.013 934.561 748.859 602.464 552.722 478.626
threshold=0.36989354441652328 0.42243372439126181 1.2816729187972631 1.4567170705890871 1.3086051152408287 -0.86172992820007699 2.4565748266012024 1.1299483374408508 1.4529386806145701 0.30987963421346676 1.1199657731962522 0.30233327627478046 1.1567687509944695 1.9026699615405496
decision_type=2 2 2 2 2 2 2 2 2 2 2 2 2 2
left_child=5 7 10 4 -4 8 11 -2 -1 -10 -3 -7 -12 -11
right_child=1 2 3 -5 -6 6 -8 -9 9 13 12 -13 -14 -15
leaf_value=0.0094862765512930096 0.011696016902370916 0.01162648266328354 0.00088596139785022553 -0.0082209127286517712 0.0092782790051749494 0.011406262218200193 0.00686799636063469 -0.0071182883003906676 0.0037136172562452063 -0.0049822575002229945 0.0025254613778386919 0.0012691828997622933 -0.0047494856187218363 -0.00058801014005093963
leaf_weight=248.62094143033028 68.587087392807007 79.72556047141552 772.6104229837656 295.39578369259834 747.78638811409473 150.57122568786144 1646.0807736068964 2422.2732606828213 1185.8896019160748 722.95995159447193 295.38310816884041 5020.0645244717598 2203.5626876205206 4336.5505141615868
leaf_count=1017 281 326 3166 1212 3063 617 6741 9947 4858 2967 1211 20578 9046 17773
internal_value=0 -0.00290792 -0.000815811 0.00286034 0.00501695 0.00150423 0.00284704 -0.00659698 9.42077e-05 -0.000280007 -0.00340543 0.00156594 -0.00388823 -0.00121683
internal_weight=20196.1 6885.32 4394.46 1815.79 1520.4 13310.7 6816.72 2490.86 6494.02 6245.4 2578.67 5170.64 2498.95 5059.51
internal_count=82803 28252 18024 7441 6229 54551 27936 10228 26615 25598 10583 21195 10257 20740
is_linear=0
shrinkage=0.005


Tree=3
num_leaves=15
num_cat=0
split_feature=0 0 5 5 5 5 2 6 6 1 2 5 5 5
split_gain=3499.46 2107.25 1657.51 1719.57 1056.65 991.03 1735.87 1405.02 1201.86 1110.67 954.004 942.445 912.388 676.247
threshold=0.36989354441652328 0.42243372439126181 1.2816729187972631 1.4567170705890871 1.3086051152408287 2.4221164630192429 -1.3361511896903264e-11 0.3830594110095647 0.31041528899807297 1.4529386806145701 -0.31266800721517352 1.1299483374408508 1.2695352979966048 2.817819996474173
decision_type=2 2 2 2 2 2 2 2 2 2 2 2 2 2
left_child=5 11 10 4 -4 8 7 -7 -1 -10 -3 -2 -12 -8
right_child=1 2 3 -5 -6 6 13 -9 9 -11 12 -13 -14 -15
leaf_value=0.0048931948366087137 0.011617529839152494 -0.0077857635672157893 0.00088141389599647206 -0.0081906800746706521 0.0092189794994572902 -0.0033923677939866133 0.011518767312179299 0.011299289116522105 0.011375347957398052 -0.00012349353652485589 0.00064289564841720262 -0.0070909328607177066 -0.0080706787806900486 0.0047358722918176711
leaf_weight=1557.8135054856539 68.708275243639946 834.38995838165283 772.7159901112318 295.00650537014008 748.83402402698994 856.40032775700092 666.84158602356911 200.36478364467621 214.51456996798515 8993.0843454003334 1357.7288132607937 2419.4687460809946 385.11635154485703 824.71741656959057
leaf_count=6378 281 3429 3166 1212 3063 3510 2726 819 876 36866 5573 9947 1581 3376
internal_value=0 -0.00289479 -0.000811854 0.00284483 0.00498809 0.00149638 0.00430013 -0.000600409 0.000832289 0.000144733 -0.00339028 -0.00657108 -0.00128287 0.00777287
internal_weight=20195.7 6881.97 4393.79 1816.56 1521.55 13313.7 2548.32 1056.77 10765.4 9207.6 2577.24 2488.18 1742.85 1491.56
internal_count=82803 28252 18024 7441 6229 54551 10431 4329 44120 37742 10583 10228 7154 6102
is_linear=0
shrinkage=0.005


Tree=4
num_leaves=15
num_cat=0
split_feature=0 0 0 3 1 0 6 1 8 1 1 1 1 1
split_gain=3465.48 2089.78 1152.6 995.993 934.752 1306.8 1149.38 1036.21 930.081 903.639 1026.18 698.62 871.687 615.894
threshold=0.36989354441652328 0.42243372439126181 0.58072001973519727 -0.86172992820007699 15.112827140453616 0.071880151466729977 0.32092834805438841 18.943569628179855 -0.0056949456063829776 2.0583562035030902 1.9765409305500172 1.4529386806145701 1.9120114986201566 2.5425365382320986
decision_type=2 2 2 2 2 2 2 2 2 2 2 2 2 2
left_child=3 -2 9 8 5 -5 -7 -6 11 10 -3 -1 -13 -10
right_child=1 2 -4 4 7 6 -8 -9 13 -11 -12 12 -14 -15
leaf_value=0.0093852278182087173 -0.0065454307931020637 -0.00023047091037082729 -0.0075844960649183611 0.0061251202282990615 -0.0064651724857770201 0.0096383706765927318 0.00017799757784594714 0.0032486252262350817 0.0067688960634458796 -0.0085462375885666624 0.0075786804764978889 -0.0039815005726509482 0.0018014891106520802 -0.003923134143114764
leaf_weight=248.78773456811905 2485.4433493763208 3081.8033166378736 548.57880857586861 2741.9675511270761 525.91140450537205 365.60178372263908 2614.7389565110207 573.02642574906349 146.41121830046177 276.10160845518112 486.59017823636532 789.99195677042007 3705.2339184433222 1604.9466318190098
leaf_count=1015 10228 12642 2258 11220 2155 1497 10716 2348 600 1136 1988 3244 15179 6577
internal_value=0 -0.00288178 -0.000807946 0.00148858 0.00282287 0.00363407 0.00134077 -0.00139859 8.68493e-05 0.000159224 0.000834606 0.00123682 0.000784299 -0.00302619
internal_weight=20195.1 6878.52 4393.07 13316.6 6821.25 5722.31 2980.34 1098.94 6495.37 3844.5 3568.39 4744.01 4495.23 1751.36
internal_count=82803 28252 18024 54551 27936 23433 12213 4503 26615 15766 14630 19438 18423 7177
is_linear=0
shrinkage=0.005


Tree=5
num_leaves=15
num_cat=0
split_feature=5 1 5 5 2 5 8 8 5 2 5 1 5 1
split_gain=2658.62 2560.64 1479.94 1343.92 1713.55 1166.97 1300.39 1015.94 788.424 710.064 663.872 577.082 947.205 824.795
threshold=1.2816729187972631 1.9275368684270942 1.2945598170720023 2.4221164630192429 -1.3361511896903264e-11 1.2099485615865169 0.025951349825724033 0.034709377485134939 1.1639654810956153 0.12578483119198183 2.817819996474173 1.1567687509944695 1.2729613728858011 1.460835640541853
decision_type=2 2 2 2 2 2 2 2 2 2 2 2 2 2
left_child=1 11 -2 9 7 6 -3 -5 -8 -4 -6 12 -1 -13
right_child=2 5 3 4 10 -7 8 -9 -10 -11 -12 13 -14 -15
leaf_value=0.010493389009559642 0.0093560661081496261 0.0068603000517189084 0.00038715121969086128 -0.0025903265261389614 0.011408103353545411 -0.0081302711149835987 -0.0066706508341301939 0.011537463309700955 0.0029665141657024491 -0.0084275443119128188 0.0046935426908471444 -0.0072947439603993705 -0.0075014947108644784 -0.0030872243863659271
leaf_weight=164.76802602410316 558.34461924433708 1146.6451794952154 9310.1923486292362 909.73441600799561 668.42789694666862 246.99751710891724 378.20072147250175 147.41107006371021 481.97533875703812 233.70264548063278 825.62426142394543 1857.8330998569727 130.57413536310196 3134.1225351840258
leaf_count=675 2282 4688 38160 3728 2726 1013 1553 601 1974 960 3376 7651 536 12880
internal_value=0 -0.00234993 0.0014005 0.00103267 0.00425594 0.00211156 0.00337507 -0.000613425 -0.00126925 0.000170612 0.00770207 -0.00425222 0.00252996 -0.00465419
internal_weight=20194.6 7541.12 12653.4 12095.1 2551.2 2253.82 2006.82 1057.15 860.176 9543.89 1494.05 5287.3 295.342 4991.96
internal_count=82803 30970 51833 49551 10431 9228 8215 4329 3527 39120 6102 21742 1211 20531
is_linear=0
shrinkage=0.005


Tree=6
num_leaves=15
num_cat=0
split_feature=7 0 5 5 5 0 2 2 5 5 2 6 6 0
split_gain=3660.64 1864.46 1622.12 1687.89 1043.88 1021.16 951.121 934.648 899.646 771.046 1695.35 1375.23 999.603 945.811
threshold=23899.325918171362 0.42243372439126181 1.2816729187972631 1.4567170705890871 1.3086051152408287 0.36687286031879046 0.12578483119198183 -0.31266800721517352 1.2695352979966048 2.4221164630192429 -1.3361511896903264e-11 0.3830594110095647 0.31041528899807297 0.31174354098849238
decision_type=2 2 2 2 2 2 2 2 2 2 2 2 2 2
left_child=1 5 7 4 -4 -1 9 -3 -9 12 11 -11 -2 -14
right_child=6 2 3 -5 -6 -7 -8 8 -10 10 -12 -13 13 -15
leaf_value=0.00043528564876476092 0.0048425636771672323 -0.0077127334697714477 0.00085309235528385177 -0.0081349695027257418 0.0091343514400525957 -0.0073782986532594935 -0.0083971006038398785 0.00064222519690327869 -0.0080181622081362137 -0.0033777666765362137 0.0076601116853668343 0.011137816010391564 -0.00051265254548121071 0.0032288463375747312
leaf_weight=507.88780428469181 1558.9430051594973 831.61285796761513 773.35716433823109 294.25311601161957 750.28901007771492 2349.09762583673 233.37980827689171 1357.7089920192957 384.21839165687561 855.95391455292702 1494.9190656840801 201.05528688430786 6293.2899439334869 2307.8716591447592
leaf_count=2081 6374 3429 3166 1212 3063 9686 960 5573 1581 3510 6099 819 25793 9457
internal_value=0 -0.00284487 -0.000798619 0.00281585 0.00493433 -0.00598857 0.00159291 -0.00335283 -0.00126832 0.00177684 0.00423403 -0.000610412 0.00115924 0.000491109
internal_weight=20193.8 7248.42 4391.44 1817.9 1523.65 2856.99 12945.4 2573.54 1741.93 12712 2551.93 1057.01 10160.1 8601.16
internal_count=82803 29791 18024 7441 6229 11767 53012 10583 7154 52052 10428 4329 41624 35250
is_linear=0
shrinkage=0.005


Tree=7
num_leaves=15
num_cat=0
split_feature=7 0 5 5 3 5 5 0 2 7 7 5 7 5
split_gain=3625.11 1848.9 1606.39 1671.35 1105.26 1190.73 1031.31 1013.27 927.331 899.676 1039.14 891.99 838.01 1402.07
threshold=23899.325918171362 0.42243372439126181 1.2816729187972631 1.4567170705890871 -0.86172992820007699 2.4565748266012024 1.3086051152408287 0.36687286031879046 -0.31266800721517352 36226.298777936223 29721.721309731682 1.2695352979966048 237485.23868586545 1.5866933847752973
decision_type=2 2 2 2 2 2 2 2 2 2 2 2 2 2
left_child=1 7 8 6 9 12 -4 -1 -3 10 -2 -10 -6 -14
right_child=4 2 3 -5 5 -7 -8 -9 11 -11 -12 -13 13 -15
leaf_value=0.0004330822111319535 0.00099132222048826978 -0.0076845635224422094 0.00084872016832569612 -0.0081056952145629364 0.0029176251878360237 0.0066975367879078263 0.0090770870452261017 -0.0073509043284202807 0.0006389495859495276 -0.0014887092643099409 0.009656013582777281 -0.0079889544746318698 0.0065410830166219049 -0.0056399132761857304
leaf_weight=507.92182390391827 2273.2428039908409 830.49270379543304 773.45685692131519 293.84207803010941 3776.9225500822067 1652.5879278182983 751.24798235297203 2346.0721119195223 1357.8479234725237 3711.904716193676 407.90036287903786 383.6981006860733 336.45243591070175 789.23517249524593
leaf_count=2081 9309 3429 3166 1212 15470 6740 3063 9686 5573 15211 1669 1581 1378 3235
internal_value=0 -0.00283217 -0.0007948 0.00280076 0.0015846 0.00302717 0.00490626 -0.00596489 -0.00333804 0.000104925 0.00231203 -0.00126227 0.00178888 -0.00199567
internal_weight=20192.8 7244.58 4390.59 1818.55 12948.2 6555.2 1524.7 2853.99 2572.04 6393.05 2681.14 1741.55 4902.61 1125.69
internal_count=82803 29791 18024 7441 53012 26823 6229 11767 10583 26189 10978 7154 20083 4613
is_linear=0
shrinkage=0.005


Tree=8
num_leaves=15
num_cat=0
split_feature=0 0 2 2 1 2 1 1 8 1 2 0 0 2
split_gain=3342.37 2031.21 1539.77 1837.46 966.922 919.508 766.355 773.671 729.622 639.805 501.751 309.736 269.753 510.19
threshold=0.36989354441652328 0.42243372439126181 -0.31487392158386673 -0.16030334578401811 1.5741378500157353 0.12578483119198183 1.4529386806145701 1.9275368684270942 0.0085088623906020688 15.112827140453616 -0.084542503819956608 0.31318684238055439 0.37525364782948117 -0.10145707827368772
decision_type=2 2 2 2 2 2 2 2 2 2 2 2 2 2
left_child=5 12 -3 4 -4 6 11 8 -8 -9 -5 -1 13 -2
right_child=1 2 3 10 -6 -7 7 9 -10 -11 -12 -13 -14 -15
leaf_value=-0.0047282614213121042 -0.0051010391495018683 -0.0070935696221805511 -0.00034285850823586618 -0.0068199930382864659 0.0057071747492206098 -0.0083712763392728567 -0.0031695304233538371 0.0024915241574236945 0.0054297800829640041 -0.00065217545161016935 0.0035128952242075608 0.011272967750351262 -0.0070813817551184837 0.011485049831643503
leaf_weight=33.545269414782524 254.54115280508995 793.40558956563473 1290.7397727668285 818.86042845249176 1350.1616326719522 233.09646320343018 1418.1090386509895 9107.9370473325253 297.94640372693539 1966.5360328108072 136.49253496527672 269.53171989321709 2164.7290230244398 56.120891362428665
leaf_count=137 1052 3280 5300 3370 5515 960 5821 37255 1220 8061 559 1097 8947 229
internal_value=0 -0.00283425 -0.000791012 0.000599556 0.00274977 0.00146001 0.00163553 0.00144888 -0.00167389 0.00193306 -0.00534004 0.00948881 -0.00645565 -0.0020831
internal_weight=20191.8 6865.05 4389.66 3596.25 2640.9 13326.7 13093.6 12790.5 1716.06 11074.5 955.353 303.077 2475.39 310.662
internal_count=82803 28252 18024 14744 10815 54551 53591 52357 7041 45316 3929 1234 10228 1281
is_linear=0
shrinkage=0.005


Tree=9
num_leaves=15
num_cat=0
split_feature=7 0 5 5 5 0 5 7 1 5 5 1 5 8
split_gain=3559.56 1821.06 1577.81 1646.3 1013.27 995.783 865.368 1280.1 1014.39 726.954 920.161 866.702 722.546 721.591
threshold=23899.325918171362 0.42243372439126181 1.2816729187972631 1.4567170705890871 1.3086051152408287 0.36687286031879046 2.4221164630192429 157807.67965988224 1.4529386806145701 1.1750272285020442 1.1675991483337904 1.9693585768136559 1.1199657731962522 0.083090973827923562
decision_type=2 2 2 2 2 2 2 2 2 2 2 2 2 2
left_child=1 5 12 4 -4 -1 8 -8 -2 10 -10 -11 -3 -9
right_child=6 2 3 -5 -6 -7 7 13 9 11 -12 -13 -14 -15
leaf_value=0.00041758712236074949 0.010712954144932311 0.0114209066242508 0.00083673859542087597 -0.0080645198882569411 0.008988187209959933 -0.0072992032320208624 0.0093155047662914475 0.00041215572996109422 0.0016053151813936193 -0.0033434977432388359 0.011652754689359593 0.00088358651980824279 -0.0037875738777226144 0.0095989609849471934
leaf_weight=508.15495333075523 257.82685950398445 80.075155898928642 773.72626991569996 293.23591607809067 752.69008311629295 2340.1457925587893 821.61649906635284 1484.5356454849243 797.12132702767849 1442.9313907623291 319.1422503888607 7581.054474323988 2489.0639267116785 249.35113441944122
leaf_count=2081 1048 326 3166 1212 3063 9686 3342 6071 3263 5923 1304 31046 10257 1015
internal_value=0 -0.00280864 -0.000787227 0.00277383 0.00485956 -0.00592177 0.00156914 0.00417598 0.000928054 0.0006785 0.00448407 0.000207253 -0.00331045 0.00173714
internal_weight=20190.7 7237.09 4388.79 1819.65 1526.42 2848.3 12953.6 2555.5 10398.1 10140.2 1116.26 9023.99 2569.14 1733.89
internal_count=82803 29791 18024 7441 6229 11767 53012 10428 42584 41536 4567 36969 10583 7086
is_linear=0
shrinkage=0.005


Tree=10
num_leaves=15
num_cat=0
split_feature=0 0 5 5 5 3 5 8 5 5 5 5 6 8
split_gain=3277.02 1997.39 1562.53 1630.28 1001.28 966.585 1298 918.667 913.624 715.031 690.645 711.998 581.482 495.395
threshold=0.36989354441652328 0.42243372439126181 1.2816729187972631 1.4567170705890871 1.3086051152408287 -0.86172992820007699 2.4565748266012024 -0.0056949456063829776 1.1299483374408508 1.1199657731962522 3.4531489661231283 1.63805222357522 0.30233327627478046 0.0099982117987582834
decision_type=2 2 2 2 2 2 2 2 2 2 2 2 2 2
left_child=5 8 9 4 -4 7 12 10 -2 -3 11 -1 -7 -11
right_child=1 2 3 -5 -6 6 -8 -9 -10 13 -12 -13 -14 -15
leaf_value=0.00071029809467753387 0.01147246735121493 0.011347437628429775 0.00083245317905847359 -0.0080360202450018865 0.0089329456739388139 0.011165677901086675 0.0066105147193587623 -0.0030302278835499224 -0.0069221532418350697 -0.0019876747874830692 -0.006827319727696915 0.0058374939246168493 0.0012321202831491239 -0.006568622235813084
leaf_weight=3664.5089702606201 68.920193687081337 80.193575114011765 773.82307843863964 292.8073371052742 753.55893506109715 151.36495460569859 1655.9842309206724 1751.5142822414637 2400.483250439167 1520.1186878830194 252.68488101661205 830.60783167183399 5025.3600527793169 967.32700487971306
leaf_count=15001 281 326 3166 1212 3063 617 6741 7177 9947 6262 1036 3401 20578 3995
internal_value=0 -0.00280875 -0.000783462 0.00275914 0.00483222 0.00144463 0.00275761 6.38109e-05 -0.00640554 -0.00329582 0.00120596 0.0016588 0.00152411 -0.0037711
internal_weight=20189.3 6857.23 4387.83 1820.19 1527.38 13332 6832.71 6499.32 2469.4 2567.64 4747.8 4495.12 5176.73 2487.45
internal_count=82803 28252 18024 7441 6229 54551 27936 26615 10228 10583 19438 18402 21195 10257
is_linear=0
shrinkage=0.005


Tree=11
num_leaves=15
num_cat=0
split_feature=7 0 2 2 3 8 1 1 2 7 2 0 7 0
split_gain=3492.98 1792.3 1512.82 1738.22 1079.28 1134.69 1021.62 1010.01 1675.92 1270.31 1283.42 981.063 927.489 761.478
threshold=23899.325918171362 0.42243372439126181 -0.31862323479835714 -0.16030334578401811 -0.86172992820007699 -0.0056949456063829776 1.5741378500157353 15.112827140453616 -8.4974527414516371e-12 50012.966460191681 0.12578483119198183 0.36687286031879046 21705.266040297709 0.29977094859707604
decision_type=2 2 2 2 2 2 2 2 2 2 2 2 2 2
left_child=1 11 -3 6 5 -2 -4 9 -9 13 -11 -1 -5 -6
right_child=4 2 3 12 7 -7 -8 8 -10 10 -12 -13 -14 -15
leaf_value=0.00041295956234043357 0.0013527062905956796 -0.0074493179274715505 -0.00049517537511123736 -0.0068597800066999941 -0.0014716047149543655 -0.003424774832022194 0.0056293818302762385 -0.0066071756176879302 0.0059136821222719772 0.0072194960691075128 -0.0082479951576262447 -0.0072479080987088995 0.010224391906896694 0.0037550809756509542
leaf_weight=508.22598637640476 4707.2522441893816 711.74134615063667 1369.1506885439157 866.47924536466599 1203.607842952013 1688.1204394996166 1352.5107486248016 641.54355522990227 457.21747303009033 2467.4492719769478 141.26543819904327 2333.9936985522509 86.906256645917892 1652.3510770499706
leaf_count=2081 19268 2952 5628 3576 4926 6921 5515 2632 1871 10052 582 9686 353 6760
internal_value=0 -0.00278457 -0.000779736 0.00051211 0.00155332 9.10839e-05 0.00254794 0.00297762 -0.00139439 0.00385719 0.00637953 -0.00587733 -0.0052953 0.00155161
internal_weight=20187.8 7229.01 4386.79 3675.05 12958.8 6395.37 2721.66 6563.43 1098.76 5464.67 2608.71 2842.22 953.386 2855.96
internal_count=82803 29791 18024 15072 53012 26189 11143 26823 4503 22320 10634 11767 3929 11686
is_linear=0
shrinkage=0.005


Tree=12
num_leaves=15
num_cat=0
split_feature=7 0 2 2 3 8 0 7 8 7 2 2 0 2
split_gain=3459.21 1777.54 1499.94 1721.69 1067.87 1123.73 973.649 918.742 877.502 1309.51 852.445 738.258 615.286 1283.19
threshold=23899.325918171362 0.42243372439126181 -0.31862323479835714 -0.16030334578401811 -0.86172992820007699 -0.0056949456063829776 0.36687286031879046 21705.266040297709 -0.0084619700183081528 50012.966460191681 -0.20805727228364002 -0.11381093950973814 0.03831539077558388 -0.060023818332993299
decision_type=2 2 2 2 2 2 2 2 2 2 2 2 2 2
left_child=1 6 -3 10 5 -2 -1 -5 12 11 -4 -10 -6 -14
right_child=4 2 3 7 8 -7 -8 -9 9 -11 -12 -13 13 -15
leaf_value=0.00041087079635897153 0.0013456697741513872 -0.0074226354975199882 0.00031694457130751821 -0.0068337948879935717 -0.0012999946889602158 -0.0034094892354536981 -0.0072217315205790724 0.01016106512750619 0.0072186757958060156 0.00741044708426878 0.0060665596219429564 -0.00051531089059318465 -0.00079810300548651888 0.0087018252626095832
leaf_weight=508.25782717764378 4708.2077721953392 710.73267352581024 1673.3628477305174 865.42964212596416 1503.9869530200958 1687.2148016840219 2330.7513801157475 87.013493329286575 407.44828048348427 1939.286460056901 1049.2188111394644 1264.3681588768959 830.69497874379158 620.18053777515888
leaf_count=2081 19268 2952 6872 3576 6157 6921 9686 353 1665 7894 4271 5170 3402 2535
internal_value=0 -0.00277229 -0.000776031 0.000509546 0.00154524 9.06234e-05 -0.00585458 -0.00527403 0.00296158 0.00461505 0.00253434 0.00136968 0.000939597 0.00326254
internal_weight=20186.2 7224.77 4385.76 3675.02 12961.4 6395.42 2839.01 952.443 6565.97 3611.1 2722.58 1671.82 2954.86 1450.88
internal_count=82803 29791 18024 15072 53012 26189 11767 3929 26823 14729 11143 6835 12094 5937
is_linear=0
shrinkage=0.005


Tree=13
num_leaves=15
num_cat=0
split_feature=7 0 5 5 3 5 8 5 5 0 7 5 5 5
split_gain=3425.79 1762.95 1525.37 1593.93 1056.57 1126.22 1112.87 977.046 976.034 966.324 817.998 1372.68 1304.54 694.775
threshold=23899.325918171362 0.42243372439126181 1.2816729187972631 1.4567170705890871 -0.86172992820007699 2.4565748266012024 -0.0056949456063829776 1.3086051152408287 1.1750272285020442 0.36687286031879046 237485.23868586545 1.5866933847752973 1.688154461239965 1.1199657731962522
decision_type=2 2 2 2 2 2 2 2 2 2 2 2 2 2
left_child=1 9 13 7 6 10 8 -4 -2 -1 12 -12 -6 -3
right_child=4 2 3 -5 5 -7 -8 -9 -10 -11 11 -13 -14 -15
leaf_value=0.00040879313141870737 0.011033817865958639 0.011147621184031285 0.00081720374896610069 -0.0079719806574114864 0.001445958674003727 0.0065064515911105293 -0.0033942828618049982 0.0088134267797742999 0.00080353285230416141 -0.0071957948675546333 0.0064315100262090554 -0.005611601316596198 0.0089803618263888281 -0.0037285496088815544
leaf_weight=508.28947293758392 245.57521393895149 80.496376693248749 774.15957497060299 291.77540388703346 3076.9153461009264 1659.5048510432243 1686.3041339069605 755.35078595578671 4463.579101011157 2327.4667199403048 337.37112759053707 788.35676370561123 706.37525330483913 2482.8969490528107
leaf_count=2081 1001 326 3166 1212 12586 6740 6921 3063 18267 9686 1378 3235 2884 10257
internal_value=0 -0.00276009 -0.000772346 0.00272517 0.0015372 0.00294562 9.01652e-05 0.00476937 0.00133867 -0.00583201 0.00174082 -0.00199891 0.00285436 -0.00325835
internal_weight=20184.4 7220.44 4384.68 1821.29 12964 6568.52 6395.46 1529.51 4709.15 2835.76 4909.02 1125.73 3783.29 2563.39
internal_count=82803 29791 18024 7441 53012 26823 26189 6229 19268 11767 20083 4613 15470 10583
is_linear=0
shrinkage=0.005


Tree=14
num_leaves=15
num_cat=0
split_feature=7 0 5 5 5 0 2 2 5 5 2 8 1 5
split_gain=3392.75 1748.5 1510.65 1578.55 965.724 959.087 925.621 898.922 885.576 716.792 1642.55 969.022 958.595 638.462
threshold=23899.325918171362 0.42243372439126181 1.2816729187972631 1.4567170705890871 1.3086051152408287 0.36687286031879046 0.12578483119198183 -0.31266800721517352 1.2695352979966048 2.4221164630192429 -1.3361511896903264e-11 0.034709377485134939 1.4529386806145701 1.1750272285020442
decision_type=2 2 2 2 2 2 2 2 2 2 2 2 2 2
left_child=1 5 7 4 -4 -1 9 -3 -9 12 11 -11 -2 -14
right_child=6 2 3 -5 -6 -7 -8 8 -10 10 -12 -13 13 -15
leaf_value=0.00040672603182043251 0.010614685429895489 -0.0075427872345812117 0.00081302216980514233 -0.0079444835367467135 0.0087605459303665353 -0.0071700936221728963 -0.0083397788566854109 0.00069375497951828071 -0.0079168112409064902 -0.0026268126154482176 0.0074363367699329073 0.011123220527584446 0.0044247582736132709 0.00041336328716018022
leaf_weight=508.32092694938183 258.31996081769466 824.36749583482742 774.25300647318363 291.3242210149765 756.11181923747063 2324.1405184268951 232.74378718435764 1355.1245157569647 382.34856599569321 910.6673751026392 1501.9497906714678 148.57927505671978 1117.8758414536715 8796.2775629460812
leaf_count=2081 1048 3429 3166 1212 3063 9686 960 5573 1581 3728 6099 601 4567 36009
internal_value=0 -0.00274799 -0.000768685 0.00271093 0.00474289 -0.00580962 0.00152923 -0.00324401 -0.00120138 0.00171013 0.00407445 -0.000691415 0.00111443 0.000866123
internal_weight=20182.4 7215.99 4383.53 1821.69 1530.36 2832.46 12966.4 2561.84 1737.47 12733.7 2561.2 1059.25 10172.5 9914.15
internal_count=82803 29791 18024 7441 6229 11767 53012 10583 7154 52052 10428 4329 41624 40576
is_linear=0
shrinkage=0.005


Tree=15
num_leaves=15
num_cat=0
split_feature=7 7 1 1 3 8 6 1 7 1 6 8 7 1
split_gain=3360.11 1434.96 2623.84 1300.1 1042.89 1103.84 1020.53 982.296 1230.19 999.769 839.791 796.515 685.539 665.103
threshold=23899.325918171362 18848.639990258187 1.5741378500157353 1.1567687509944695 -0.86172992820007699 -0.0056949456063829776 0.42461054175345742 15.112827140453616 50012.966460191681 18.943569628179855 0.32092834805438841 0.14137440970000684 1040154.8986812589 2.0712731094654351
decision_type=2 2 2 2 2 2 2 2 2 2 2 2 2 2
left_child=1 2 3 11 5 -2 -5 8 10 -9 -6 -1 -10 -4
right_child=4 -3 13 6 7 -7 -8 9 12 -11 -12 -13 -14 -15
leaf_value=0.0087627037976828609 0.0013266113057186601 -0.0049038984297781101 0.0067562620081644698 -0.0061712455255760502 0.0091560744653146169 -0.0033873697010455444 0.0074196269787375783 -0.0063841068506877872 0.0072471083238861943 0.0031600515989936625 0.00055486517196192179 -0.0082140305455556759 -0.00039596547285573799 -0.0082198170977686013
leaf_weight=300.07813526690006 4710.6098956614733 3707.9168395102024 1076.2127125412226 1810.035524174571 319.13043539226055 1685.8517895936966 148.95380908250809 524.19578950107098 2279.1125568598509 574.38220843672752 2539.5472813695669 89.140354737639427 335.9553736448288 79.05583530664444
leaf_count=1230 19268 15371 4370 7511 1302 6921 609 2155 9264 2348 10384 370 1370 330
internal_value=0 -0.00273602 -0.000440551 -0.00347608 0.00152131 8.36358e-05 -0.00513494 0.00292002 0.00378606 -0.00139258 0.00151737 0.00486266 0.00626437 0.00572616
internal_weight=20180.2 7211.39 3503.48 2348.21 12968.8 6396.46 1958.99 6572.32 5473.75 1098.58 2858.68 389.218 2615.07 1155.27
internal_count=82803 29791 14420 9720 53012 26189 8120 26823 22320 4503 11686 1600 10634 4700
is_linear=0
shrinkage=0.005


Tree=16
num_leaves=15
num_cat=0
split_feature=7 0 5 5 0 5 2 2 5 5 2 6 6 0
split_gain=3327.69 1723.53 1479.5 1551.06 952.899 949.353 919.83 889.168 876.89 702.269 1617.86 1319.04 972.893 910.141
threshold=23899.325918171362 0.42243372439126181 1.2816729187972631 1.4567170705890871 0.36687286031879046 1.3086051152408287 0.12578483119198183 -0.31266800721517352 1.2695352979966048 2.4221164630192429 -1.3361511896903264e-11 0.3830594110095647 0.31041528899807297 0.31174354098849238
decision_type=2 2 2 2 2 2 2 2 2 2 2 2 2 2
left_child=1 4 7 5 -1 -4 9 -3 -9 12 11 -11 -2 -14
right_child=6 2 3 -5 -6 -7 -8 8 -10 10 -12 -13 13 -15
leaf_value=0.00042946345746949549 0.0047324384690268584 -0.0074944916040077811 0.00079561935202620301 -0.0078975625625822363 -0.0071266691868193833 0.0086713622665039024 -0.0083276995271568 0.00070378358680117648 -0.0078725017345483411 -0.0034135593440742075 0.0073657854576842877 0.010760752048159348 -0.00054013180540980722 0.0031261987783803287
leaf_weight=507.97294001281261 1563.1465892195702 822.10711821913719 774.61395607888699 290.52552399039268 2318.3545757234097 757.3419553488493 232.60395163297653 1354.6470557153225 381.46659699082375 856.84218233823776 1503.9942630380392 202.47015555202961 6298.0267377048731 2314.0313610285521
leaf_count=2081 6374 3429 3166 1212 9686 3063 960 5573 1581 3510 6099 819 25793 9457
internal_value=0 -0.002724 -0.000759152 0.00268232 -0.00576789 0.00469228 0.00151343 -0.00321189 -0.00118092 0.00169364 0.00403279 -0.000698215 0.00110395 0.000444833
internal_weight=20178.1 7207.03 4380.7 1822.48 2826.33 1531.96 12971.1 2558.22 1736.11 12738.5 2563.31 1059.31 10175.2 8612.06
internal_count=82803 29791 18024 7441 11767 6229 53012 10583 7154 52052 10428 4329 41624 35250
is_linear=0
shrinkage=0.005


Tree=17
num_leaves=15
num_cat=0
split_feature=7 0 5 5 0 5 2 2 5 5 2 1 4 5
split_gain=3295.73 1709.45 1465.32 1536.2 945.841 938.539 911.534 882.449 869.526 694.818 1599.68 944.001 738.035 630.354
threshold=23899.325918171362 0.42243372439126181 1.2816729187972631 1.4567170705890871 0.36687286031879046 1.3086051152408287 0.12578483119198183 -0.31266800721517352 1.2695352979966048 2.4221164630192429 -1.3361511896903264e-11 1.4529386806145701 50000000.605290145 2.817819996474173
decision_type=2 2 2 2 2 2 2 2 2 2 2 2 2 2
left_child=1 4 7 5 -1 -4 9 -3 -9 11 12 -2 -11 -12
right_child=6 2 3 -5 -6 -7 -8 8 -10 10 13 -13 -14 -15
leaf_value=0.00042729012616547372 0.010517287363641818 -0.0074684826291555387 0.00079155216658524652 -0.0078708561906683065 -0.0071015893187128479 0.0086203524749304192 -0.0082984150087168258 0.00070018449791729503 -0.0078448435086054379 0.010938765744178467 0.010914891512967881 0.00085173167871921277 -0.0021924632429347174 0.0043977287175323999
leaf_weight=508.00639513134956 258.78563916683197 820.85012875497341 774.70369628071785 290.05661779642105 2314.9196839481592 758.01553043723106 232.26028628647327 1354.8044359982014 380.90062843263149 120.23828077316284 674.60802684724331 9917.9524431973696 938.84701113402843 830.64209024608135
leaf_count=2081 1048 3429 3166 1212 9686 3063 960 5573 1581 485 2726 40576 3844 3373
internal_value=0 -0.0027122 -0.000755611 0.00266847 -0.00574599 0.00466651 0.0015056 -0.00319794 -0.0011753 0.00168484 0.00401102 0.00109827 -0.000694853 0.00732284
internal_weight=20175.6 7202.26 4379.33 1822.78 2822.93 1532.72 12973.3 2556.56 1735.71 12741.1 2564.34 10176.7 1059.09 1505.25
internal_count=82803 29791 18024 7441 11767 6229 53012 10583 7154 52052 10428 41624 4329 6099
is_linear=0
shrinkage=0.005


Tree=18
num_leaves=15
num_cat=0
split_feature=7 7 1 1 3 6 1 2 7 2 7 7 1 6
split_gain=3264.12 1407.92 2544.53 1283.12 1027.57 1003.84 964.031 1633.54 1206.47 1230.93 865.151 1028.82 877.709 931.258
threshold=23899.325918171362 18848.639990258187 1.5741378500157353 1.1567687509944695 -0.86172992820007699 0.42461054175345742 15.112827140453616 -8.4974527414516371e-12 50012.966460191681 0.12578483119198183 36226.298777936223 29721.721309731682 6.6272425868287153 0.3504835431180538
decision_type=2 2 2 2 2 2 2 2 2 2 2 2 2 2
left_child=1 2 3 -1 10 -5 8 -8 -6 -10 11 -2 -12 -14
right_child=4 -3 -4 5 6 -7 7 -9 9 -11 12 -13 13 -15
leaf_value=0.0048593283178015433 0.00091867526223252712 -0.004851483355677793 0.0056377884862421433 -0.0061076900941383705 0.0014962792295158615 0.0073651320140338721 -0.0065478943504091881 0.0058108245971488486 0.0070128103141770684 -0.0081633446409465245 -0.0060276964547810886 0.0095285140278255648 0.0028422194448766902 -0.0028515121215417633
leaf_weight=389.15679988265038 2277.4850814789534 3698.1115649193525 1157.0570380985737 1803.9084322452545 2860.2959740161896 149.14825859665871 639.96244388818741 458.37891158461571 2477.6877943873405 140.67023545503616 828.31369300186634 409.06772756576538 1348.2487045526505 1535.3815535008907
leaf_count=1600 9309 15371 4700 7511 11686 609 2632 1871 10052 582 3395 1669 5519 6297
internal_value=0 -0.00270049 -0.000426187 -0.00342343 0.00149783 -0.00507592 0.00288559 -0.00138757 0.00374277 0.00619512 7.0842e-05 0.00223211 -0.00149281 -0.000188495
internal_weight=20172.9 7197.38 3499.27 2342.21 12975.5 1953.06 6577 1098.34 5478.65 2618.36 6398.5 2686.55 3711.94 2883.63
internal_count=82803 29791 14420 9720 53012 8120 26823 4503 22320 10634 26189 10978 15211 11816
is_linear=0
shrinkage=0.005


Tree=19
num_leaves=15
num_cat=0
split_feature=7 7 1 1 3 6 1 2 7 2 7 7 1 6
split_gain=3232.66 1395.84 2518.98 1271.31 1016.81 994.672 953.795 1617.93 1192.99 1218.07 856.444 1016.79 870.007 922.01
threshold=23899.325918171362 18848.639990258187 1.5741378500157353 1.1567687509944695 -0.86172992820007699 0.42461054175345742 15.112827140453616 -8.4974527414516371e-12 50012.966460191681 0.12578483119198183 36226.298777936223 29721.721309731682 6.6272425868287153 0.3504835431180538
decision_type=2 2 2 2 2 2 2 2 2 2 2 2 2 2
left_child=1 2 3 -1 10 -5 8 -8 -6 -10 11 -2 -12 -14
right_child=4 -3 -4 5 6 -7 7 -9 9 -11 12 -13 13 -15
leaf_value=0.0048312690041190246 0.00091396125609496254 -0.0048317578792631327 0.0056059096457734018 -0.0060845402516360768 0.001488477625905418 0.0073208380342793013 -0.0065223234817696823 0.0057770944771931851 0.0069721341783621164 -0.0081348803381379418 -0.0060032389623891139 0.0094685217684810814 0.0028268063082868469 -0.0028385343332480535
leaf_weight=389.46202027797699 2277.7876610457897 3694.6535998135805 1157.8196110278368 1801.7252829372883 2860.9122547507286 149.30304615199566 639.26279053092003 458.75190731883049 2479.6800638884306 140.45891542732716 827.53385303914547 409.6030710041523 1348.8232622742653 1534.6932759732008
leaf_count=1600 9309 15371 4700 7511 11686 609 2632 1871 10052 582 3395 1669 5519 6297
internal_value=0 -0.00268864 -0.000424168 -0.00340882 0.0014901 -0.0050558 0.00287025 -0.00138104 0.00372242 0.00615993 7.04848e-05 0.00222027 -0.00148572 -0.000187559
internal_weight=20170.5 7192.96 3498.31 2340.49 12977.5 1951.03 6579.07 1098.01 5481.05 2620.14 6398.44 2687.39 3711.05 2883.52
internal_count=82803 29791 14420 9720 53012 8120 26823 4503 22320 10634 26189 10978 15211 11816
is_linear=0
shrinkage=0.005


Tree=20
num_leaves=15
num_cat=0
split_feature=5 1 5 5 2 6 5 6 1 2 2 5 1 6
split_gain=2350.72 2315.4 1432.34 1171.72 1570.31 1288.47 1150.07 1342.04 722.664 666.361 647.992 617.777 556.99 1058.66
threshold=1.2816729187972631 1.9275368684270942 1.2945598170720023 2.4221164630192429 -1.3361511896903264e-11 0.3830594110095647 1.2099485615865169 0.38588352749438731 2.7165254027248698 0.12578483119198183 -0.11646513026629113 2.817819996474173 1.1567687509944695 0.3830594110095647
decision_type=2 2 2 2 2 2 2 2 2 2 2 2 2 2
left_child=1 12 -2 9 5 -5 7 8 -3 -4 -9 -6 13 -1
right_child=2 6 3 4 11 -7 -8 10 -10 -11 -12 -13 -14 -15
leaf_value=0.011623401981166622 0.0091193592360150986 0.0084413600559520227 0.00035217224408140037 -0.003403020937176717 0.010776819868578671 0.010592138116722808 -0.0081545998111338721 0.011322599305652223 0.0012143168626851891 -0.0082282722346239106 -0.0055438101470982664 0.004331656030995174 -0.0044429725189769811 -0.0073320936844772332
leaf_weight=154.74064740538597 561.11065521836281 920.17749063670635 9312.0205694586039 856.36311137676239 676.02975754439831 202.99560175836086 247.16638557612896 64.203793913125992 555.7835653424263 231.39610330760479 471.69900822639465 832.3251616358757 4942.26645180583 139.56788709759712
leaf_count=632 2282 3742 38160 3510 2726 819 1013 261 2269 960 1943 3376 20531 579
internal_value=0 -0.00221957 0.00131273 0.000950482 0.00394842 -0.000715161 0.00201037 0.00326214 0.00572299 0.000143443 -0.0035098 0.00722459 -0.00404484 0.0026286
internal_weight=20167.8 7495.61 12672.2 12111.1 2567.71 1059.36 2259.03 2011.86 1475.96 9543.42 535.903 1508.35 5236.57 294.309
internal_count=82803 30970 51833 49551 10431 4329 9228 8215 6011 39120 2204 6102 21742 1211
is_linear=0
shrinkage=0.005


Tree=21
num_leaves=15
num_cat=0
split_feature=7 0 2 2 5 3 5 5 0 7 7 1 1 7
split_gain=3183.95 1671.47 1415.25 1646.99 1374.59 1003.8 1030.68 940.229 937.959 847.068 1002.58 860.453 818.574 790.516
threshold=23899.325918171362 0.42243372439126181 -0.31862323479835714 -0.16030334578401811 1.3086051152408287 -0.86172992820007699 2.4565748266012024 1.1199657731962522 0.36687286031879046 36226.298777936223 29721.721309731682 6.6272425868287153 1.4529386806145701 237485.23868586545
decision_type=2 2 2 2 2 2 2 2 2 2 2 2 2 2
left_child=1 8 -3 4 -4 9 13 -5 -1 10 12 -11 -2 -7
right_child=5 2 3 7 -6 6 -8 -9 -10 11 -12 -13 -14 -15
leaf_value=0.00047296079886323546 0.010238510974651234 -0.0072332862935385661 0.00025468740903085419 0.011115300370565488 0.0081460131651107104 0.0027882990909730353 0.0062460696129658377 -0.006688579725968603 -0.0070317313360113379 -0.0059762185851981254 0.0093961951822031237 -0.00019013333573161879 -5.4212056876365104e-05 -0.0019833586292353211
leaf_weight=507.28706556558609 212.54565422236919 702.83597630262375 1954.4360523670912 80.541416451334953 768.86499217152596 3789.3225276768208 1667.2615022808313 866.8419708609581 2304.9477944821119 826.63508866727352 410.21541675925255 2883.6237930059433 2065.4852932989597 1124.8158505260944
leaf_count=2081 859 2952 8038 326 3105 15470 6740 3603 9686 3395 1669 11816 8450 4613
internal_value=0 -0.00267022 -0.000735653 0.000508601 0.00248464 0.00147812 0.00284906 -0.00516729 -0.00567726 6.74985e-05 0.00220491 -0.00148056 0.000907062 0.0016955
internal_weight=20165.7 7185.76 4373.52 3670.68 2723.3 12979.9 6581.4 947.383 2812.23 6398.51 2688.25 3710.26 2278.03 4914.14
internal_count=82803 29791 18024 15072 11143 53012 26823 3929 11767 26189 10978 15211 9309 20083
is_linear=0
shrinkage=0.005


Tree=22
num_leaves=15
num_cat=0
split_feature=7 7 1 1 3 8 6 1 2 7 2 6 8 2
split_gain=3153.46 1369.19 2468.5 1249.71 993.267 1084.07 975.604 931.457 1602.02 1165.11 1193.58 826.954 771.185 641.819
threshold=23899.325918171362 18848.639990258187 1.5741378500157353 1.1567687509944695 -0.86172992820007699 -0.0056949456063829776 0.42461054175345742 15.112827140453616 -8.4974527414516371e-12 50012.966460191681 0.12578483119198183 0.32092834805438841 0.14137440970000684 -0.15568708338865653
decision_type=2 2 2 2 2 2 2 2 2 2 2 2 2 2
left_child=1 2 3 12 5 -2 -5 9 -9 11 -11 -6 -1 -4
right_child=4 -3 13 6 7 -7 -8 8 -10 10 -12 -13 -14 -15
leaf_value=0.0086053476608485262 0.001298053388950752 -0.004784757265902345 0.0065557843360175595 -0.0060357675450182858 0.0090375560100032625 -0.0033741593747735684 0.00722925186578776 -0.0064913697251003386 0.005748501634187473 0.006883777631703978 -0.0080880277889368961 0.0005124695251306539 -0.0081255695386914049 -0.0081596791894088059
leaf_weight=301.15734721720219 4713.4374756366014 3685.5883506238461 1080.0109976679087 1796.6937651783228 319.93523605167866 1684.8677542209625 149.61156725883484 638.39156849682331 459.06382313370705 2483.5126233398914 140.09824946522713 2542.5511032640934 88.678028836846352 78.987382292747498
leaf_count=1230 19268 15371 4369 7511 1302 6921 609 2632 1871 10052 582 10384 370 331
internal_value=0 -0.00265874 -0.000415804 -0.003376 0.00147051 6.71599e-05 -0.00501321 0.00283388 -0.00136889 0.00367512 0.00608196 0.00146759 0.00478753 0.00554766
internal_weight=20162.6 7180.73 3495.14 2336.14 12981.9 6398.31 1946.31 6583.55 1097.46 5486.1 2623.61 2862.49 389.835 1159
internal_count=82803 29791 14420 9720 53012 26189 8120 26823 4503 22320 10634 11686 1600 4700
is_linear=0
shrinkage=0.005


Tree=23
num_leaves=15
num_cat=0
split_feature=7 0 2 2 5 3 8 5 5 0 5 7 5 5
split_gain=3123.24 1647.83 1394.85 1619.57 1348.41 982.95 1073.62 1006.62 952.039 932.158 932.105 777.587 1322.14 1257.71
threshold=23899.325918171362 0.42243372439126181 -0.31862323479835714 -0.16030334578401811 1.3086051152408287 -0.86172992820007699 -0.0056949456063829776 2.4565748266012024 1.1750272285020442 0.36687286031879046 1.1199657731962522 237485.23868586545 1.5866933847752973 1.688154461239965
decision_type=2 2 2 2 2 2 2 2 2 2 2 2 2 2
left_child=1 9 -3 4 -4 6 8 11 -2 -1 -5 13 -13 -7
right_child=5 2 3 10 -6 7 -8 -9 -10 -11 -12 12 -14 -15
leaf_value=0.0004948539646603727 0.010848340098592889 -0.0071880477836755875 0.00025538148573072165 0.011076389833012719 0.0080680500292444907 0.0013784169045497725 -0.003359135758476909 0.0061736736085049003 0.00076237407579463849 -0.0069904755626536584 -0.0066466444312790309 0.0062789315505723331 -0.0055317329736668973 0.0087613486873643082
leaf_weight=506.93977242708206 246.47761234641075 700.76629966497421 1954.1042284816504 80.595873042941093 769.78022985160351 3082.1208217442036 1683.9458755254745 1669.314989387989 4467.8459887802601 2298.8122934401035 864.87701265513897 338.57971075177193 785.64115712046623 709.636250436306
leaf_count=2081 1001 2952 8038 326 3105 12586 6921 6740 18267 9686 3603 1378 3235 2884
internal_value=-3.07315e-10 -0.00264725 -0.000726558 0.000507574 0.00246526 0.00146296 6.682e-05 0.00281896 0.00129132 -0.0056373 -0.00512816 0.00167879 -0.0019713 0.00276178
internal_weight=20159.4 7175.88 4370.12 3669.36 2723.88 12983.6 6398.27 6585.29 4714.32 2805.75 945.473 4915.98 1124.22 3791.76
internal_count=82803 29791 18024 15072 11143 53012 26189 26823 19268 11767 3929 20083 4613 15470
is_linear=0
shrinkage=0.005


Tree=24
num_leaves=15
num_cat=0
split_feature=7 0 2 2 0 1 7 2 1 1 2 8 8 0
split_gain=3093.4 1634.53 1383.27 1604.37 925.393 905.741 882.933 878.082 650.799 723.793 1011.73 710.017 446.573 298.986
threshold=23899.325918171362 0.42243372439126181 -0.31862323479835714 -0.16030334578401811 0.36687286031879046 1.5741378500157353 21705.266040297709 0.12578483119198183 1.4529386806145701 1.9275368684270942 -0.11885028322426848 0.027332776835371341 0.11798043861503268 0.31318684238055439
decision_type=2 2 2 2 2 2 2 2 2 2 2 2 2 2
left_child=1 4 -3 5 12 -4 -5 8 13 11 -11 -10 -1 -2
right_child=7 2 3 6 -6 -7 -8 -9 9 10 -12 -13 -14 -15
leaf_value=-0.0016432308403417006 -0.0048675190437891059 -0.0071637909460910013 -0.00042367978080902203 -0.0066534696144479608 -0.0069665865917593163 0.0053398792730127058 0.0099921791917421416 -0.0081945775601449007 -0.0028899165590300247 0.0088154586176713151 0.0015954770391934472 0.0064858219526165248 0.010764608352563841 0.011024874842596436
leaf_weight=419.86727268993855 33.067512318491936 699.62795874476433 1364.7281408011913 857.14812763035297 2295.1724482029676 1359.7722413390875 87.267590522766113 230.95777067542076 1451.443203151226 508.99406884610653 10278.447464495897 233.94593194127083 87.112539172172546 248.43724113702774
leaf_count=1724 135 2952 5628 3576 9686 5515 353 960 5951 2064 41946 953 357 1003
internal_value=-2.58582e-09 -0.00263593 -0.000723189 0.0005051 -0.00561634 0.00245239 -0.00510823 0.00145546 0.00163071 0.00146058 0.00193677 -0.00158547 0.000492343 0.00914386
internal_weight=20156 7170.7 4368.54 3668.92 2802.15 2724.5 944.416 12985.3 12754.3 12472.8 10787.4 1685.39 506.98 281.505
internal_count=82803 29791 18024 15072 11767 11143 3929 53012 52052 50914 44010 6904 2081 1138
is_linear=0
shrinkage=0.005


Tree=25
num_leaves=15
num_cat=0
split_feature=0 0 2 2 5 5 3 5 5 8 5 5 6 2
split_gain=2853.5 1799.78 1371.8 1589.3 1326.13 915.238 860.275 1114.54 854.451 846.665 665.005 695.916 554.967 552.795
threshold=0.36989354441652328 0.42243372439126181 -0.31862323479835714 -0.16030334578401811 1.3086051152408287 1.1199657731962522 -0.86172992820007699 2.4565748266012024 1.1299483374408508 -0.0056949456063829776 3.4531489661231283 1.63805222357522 0.30233327627478046 -8.4974527414516371e-12
decision_type=2 2 2 2 2 2 2 2 2 2 2 2 2 2
left_child=6 8 -3 4 -4 -5 9 12 -2 10 11 -1 -8 -14
right_child=1 2 3 5 -6 -7 7 -9 -10 -11 -12 -13 13 -15
leaf_value=0.00063665103982210082 0.011134670445811859 -0.0071397512740946365 0.0002474734017265302 0.010948635439308723 0.0079919367553269241 -0.0065984261951655271 0.010819046733357807 0.0061281876237154302 -0.0066026668308636618 -0.0029394576783565896 -0.0067637300317439017 0.0056976255434080404 -0.00012597463603344661 0.0033020197774646064
leaf_weight=3670.987498536706 69.371256440877914 698.47826607525349 1954.5426446944475 80.765851363539696 770.65523567795753 862.57897156476974 152.37860152125359 1670.7396323531866 2355.9110018312931 1745.6874797046185 251.96445317566395 833.47552527487278 3166.2209090739489 1869.231064081192
leaf_count=15001 281 2952 8038 326 3105 3603 617 6741 9947 7177 1036 3401 12961 7617
internal_value=-8.82764e-09 -0.00263875 -0.000719836 0.000502619 0.0024395 -0.00508846 0.00134133 0.00257661 -0.0060921 3.78603e-05 0.0011313 0.00157418 0.00143186 0.00114625
internal_weight=20153 6792.3 4367.02 3668.54 2725.2 943.345 13360.7 6858.57 2425.28 6502.11 4756.43 4504.46 5187.83 5035.45
internal_count=82803 28252 18024 15072 11143 3929 54551 27936 10228 26615 19438 18402 21195 20578
is_linear=0
shrinkage=0.005


Tree=26
num_leaves=15
num_cat=0
split_feature=7 5 1 5 5 5 5 5 7 6 1 6 1 1
split_gain=3035.53 1398.1 2282.04 1165.53 1461.62 786.354 741.026 1164.92 1469.3 1212.46 1116.11 1046.64 915.775 705.105
threshold=23899.325918171362 1.2816729187972631 2.0583562035030902 1.373026388948916 1.2945598170720023 1.1199657731962522 2.4221164630192429 3.4531489661231283 1160310.2408759205 0.37705789422119634 9.3606056284422809 0.31041528899807297 1.4529386806145701 1.1567687509944695
decision_type=2 2 2 2 2 2 2 2 2 2 2 2 2 2
left_child=1 5 3 4 -3 -1 11 8 -8 -9 -11 -2 -13 -7
right_child=6 2 -4 -5 -6 13 7 9 -10 10 -12 12 -14 -15
leaf_value=0.010883292983788422 0.0046125943214830331 0.0082937114501904791 -0.0080570206716643073 0.0078876850957385353 -0.0025779402921039273 0.0026346837094710775 0.0085841119630391469 -0.0048457589323793451 -0.0073415625730174497 0.010082381902399649 -0.0063012179834789185 0.010901211510269881 -6.1180813181584739e-05 -0.0053959159806301104
leaf_weight=80.847304299473763 1567.2464171051979 408.86559964716434 684.6800802052021 669.78032971918583 1262.4431712925434 294.03870472311974 1289.8060258775949 597.99868187308311 162.58599337935448 377.97896879911423 142.72542615234852 194.28917652368546 8656.5286109000444 3759.6907041966915
leaf_count=326 6374 1664 2890 2701 5199 1211 5204 2454 664 1526 580 783 35427 15800
internal_value=-1.09169e-08 -0.00261387 -3.02953e-05 0.00231737 8.18683e-05 -0.00450374 0.00144075 0.00384474 0.0067977 7.41111e-06 0.00558509 0.000847062 0.00017978 -0.00481254
internal_weight=20149.5 7160.35 3025.77 2341.09 1671.31 4134.58 12989.2 2571.1 1452.39 1118.7 520.704 10418.1 8850.82 4053.73
internal_count=82803 29791 12454 9564 6863 17337 53012 10428 5868 4560 2106 42584 36210 17011
is_linear=0
shrinkage=0.005


Tree=27
num_leaves=15
num_cat=0
split_feature=7 5 2 2 5 5 5 5 2 6 6 5 8 7
split_gain=3006.53 1386.15 2530.78 869.327 865.348 1260.36 778.742 633.191 1527.34 1248.38 928.96 594.411 542.86 533.163
threshold=23899.325918171362 1.2816729187972631 -0.16030334578401811 0.12578483119198183 1.373026388948916 1.2945598170720023 1.1199657731962522 2.4221164630192429 -1.3361511896903264e-11 0.38441587067236321 0.31041528899807297 2.817819996474173 0.025242202446541327 18130.456999495469
decision_type=2 2 2 2 2 2 2 2 2 2 2 2 2 2
left_child=1 6 4 7 5 -3 -1 10 9 -9 -2 -10 13 -8
right_child=3 2 -4 -5 -6 -7 12 8 11 -11 -12 -13 -14 -15
leaf_value=0.01081904036835738 0.0045868708462032132 0.0082435005107166955 -0.0069961424942663894 -0.0081741883857159078 0.007713671973597 -0.0021026493731304604 -0.00056272662468692691 -0.0033910578605590496 0.010528523473868505 0.010469097862055918 0.00040316960919177828 0.0042135068072697533 -0.0073847592205867982 -0.0051809024333087286
leaf_weight=80.923585221171379 1568.1559933871031 409.30114184319973 910.85710586607456 230.68736809492111 660.69486252963543 1043.9897532463074 985.55873745679855 860.46888987720013 678.18155387043953 199.71878646314144 8620.228154733777 833.26889924705029 1349.422184124589 1714.4375051707029
leaf_count=326 6374 1664 3841 960 2664 4285 4109 3526 2726 803 35250 3373 5699 7203
internal_value=-1.41485e-08 -0.00260268 -3.01598e-05 0.00143337 0.00297105 0.000811327 -0.00448582 0.00160757 0.00382469 -0.000774012 0.00104755 0.00705123 -0.00479359 -0.00349651
internal_weight=20145.9 7155.18 3024.84 12990.7 2113.99 1453.29 4130.34 12760 2571.64 1060.19 10188.4 1511.45 4049.42 2700
internal_count=82803 29791 12454 53012 8613 5949 17337 52052 10428 4329 41624 6099 17011 11312
is_linear=0
shrinkage=0.005


Tree=28
num_leaves=15
num_cat=0
split_feature=7 0 5 5 0 5 5 5 7 6 1 6 0 1
split_gain=2977.85 1589.19 1315.71 1431.93 905.56 880.841 725.891 1145.71 1444.16 1190.81 1101.19 1024.42 1031.6 1033.49
threshold=23899.325918171362 0.42243372439126181 1.2816729187972631 1.4567170705890871 0.36687286031879046 1.3086051152408287 2.4221164630192429 3.4531489661231283 1160310.2408759205 0.37705789422119634 9.3606056284422809 0.31041528899807297 0.31174354098849238 2.6921920834866273
decision_type=2 2 2 2 2 2 2 2 2 2 2 2 2 2
left_child=1 4 -3 5 -1 -4 11 8 -8 -9 -11 -2 13 -13
right_child=6 2 3 -5 -6 -7 7 9 -10 10 -12 12 -14 -15
leaf_value=0.00050157244152569062 0.004561353015425278 -0.0030359820761074081 0.0006912912745976477 -0.0077133446357141623 -0.0068820374311793211 0.008261189001435151 0.0084992095728188624 -0.0048167685710529184 -0.0072993551445408693 0.0099818108452837794 -0.0062905371133743617 -0.006057604575915497 0.0030431850501013657 -8.0410762908464088e-05
leaf_weight=506.78506484627724 1569.0447470843792 2536.0265931785107 776.56558628380299 286.88481876254082 2281.7339090555906 761.96637830138206 1291.2866251319647 597.33851429820061 162.3346381187439 378.51216533780098 142.68003766238689 827.83351092040539 2318.4107853919268 5704.8038981407881
leaf_count=2081 6374 10583 3166 1212 9686 3063 5204 2454 664 1526 580 3399 9457 23354
internal_value=-1.76371e-08 -0.00259158 -0.000705876 0.00252988 -0.0055394 0.00444341 0.00142604 0.00380482 0.00673127 0 0.00552059 0.000838449 0.000177979 -0.000838645
internal_weight=20142.2 7149.96 4361.44 1825.42 2788.52 1538.53 12992.2 2572.15 1453.62 1118.53 521.192 10420.1 8851.05 6532.64
internal_count=82803 29791 18024 7441 11767 6229 53012 10428 5868 4560 2106 42584 36210 26753
is_linear=0
shrinkage=0.005


Tree=29
num_leaves=15
num_cat=0
split_feature=7 5 7 3 8 5 5 5 7 5 5 7 5 5
split_gain=2949.46 1362.65 1848.56 955.352 1044.88 949.063 931.43 771.049 768.106 1306.55 1238.38 614.688 1381.86 589.37
threshold=23899.325918171362 1.2816729187972631 18848.639990258187 -0.86172992820007699 -0.0056949456063829776 2.4565748266012024 1.1750272285020442 1.1199657731962522 237485.23868586545 1.5866933847752973 1.688154461239965 16509.280144030075 1.3086051152408287 3.4531489661231283
decision_type=2 2 2 2 2 2 2 2 2 2 2 2 2 2
left_child=1 7 11 4 6 8 -2 -1 10 -10 -5 -3 -13 -8
right_child=3 2 -4 5 -6 -7 13 -9 9 -11 -12 12 -14 -15
leaf_value=0.010773513243741316 0.010688172819739951 0.011277479006626009 -0.0041447397081502369 0.001350048255555099 -0.0033395242213811638 0.0060078772362716802 0.0011693786981351185 -0.0047572628231798914 0.0062126763473081574 -0.0055228465072747861 0.0086703510353501531 -0.003710811814526504 0.0065535792370352477 -0.0067045986978854812
leaf_weight=80.975262016057968 247.18179503083229 227.93739841878414 1434.2632540911436 3084.0578124523163 1682.5450982749462 1672.9817075133324 4220.275969684124 4040.9513343423605 339.07679492235184 785.3273688852787 710.88611769676208 549.43789717555046 811.08578133583069 251.2695627361536
leaf_count=326 1001 925 6009 12586 6921 6740 17231 17011 1378 3235 2884 2244 3276 1036
internal_value=-2.64008e-08 -0.00258055 -2.97519e-05 0.00141875 4.24675e-05 0.00275466 0.00124913 -0.00445028 0.0016473 -0.00198046 0.00272294 0.00368434 0.0024067 0.000725657
internal_weight=20138.3 7144.65 3022.72 12993.6 6401.27 6592.33 4718.73 4121.93 4919.35 1124.4 3794.94 1588.46 1360.52 4471.55
internal_count=82803 29791 12454 53012 26189 26823 19268 17337 20083 4613 15470 6445 5520 18267
is_linear=0
shrinkage=0.005


Tree=30
num_leaves=15
num_cat=0
split_feature=7 0 2 2 3 0 1 2 7 2 7 7 7 1
split_gain=2921.26 1568.59 1341.18 1600.17 945.46 899.911 893.686 1558.92 1099.67 1147.59 845.582 812.79 988.244 849.364
threshold=23899.325918171362 0.42243372439126181 -0.31487392158386673 -0.16030334578401811 -0.86172992820007699 0.36687286031879046 15.112827140453616 -8.4974527414516371e-12 50012.966460191681 0.12578483119198183 21705.266040297709 36226.298777936223 29721.721309731682 6.6272425868287153
decision_type=2 2 2 2 2 2 2 2 2 2 2 2 2 2
left_child=1 5 -3 -4 11 -1 8 -8 -6 -10 -5 12 -2 -13
right_child=4 2 3 10 6 -7 7 -9 9 -11 -12 13 -14 -15
leaf_value=0.00052019904160920019 0.0008452221454428551 -0.0066661543825171166 0.0025826438912731138 -0.0065382374911760579 0.0014185720600740721 -0.0068439704786166754 -0.0064434779678644288 0.0056266309797063877 0.0066796572810277665 -0.0080249027700114509 0.0097280459081529359 -0.0059459209996848214 0.009263448898060132 -0.00019384015031817699
leaf_weight=506.48464864492416 2281.0312987416983 773.285714879632 2645.5931868255138 851.27369345724583 2865.9711704850197 2275.4072179198265 636.96709014475346 460.32227645814419 2491.0573588162661 139.58637234568596 87.607041031122208 825.40587815642357 411.26328109204769 2883.3200529962778
leaf_count=2081 9309 3280 10815 3576 11686 9686 2632 1871 10052 582 353 3395 1669 11816
internal_value=-2.69083e-08 -0.00256945 -0.000696092 0.000591895 0.00141151 -0.00550246 0.00274024 -0.00137743 0.00356275 0.00589708 -0.0050134 4.22521e-05 0.00213356 -0.00147531
internal_weight=20134.6 7139.65 4357.76 3584.47 12994.9 2781.89 6593.9 1097.29 5496.61 2630.64 938.881 6401.02 2692.29 3708.73
internal_count=82803 29791 18024 14744 53012 11767 26823 4503 22320 10634 3929 26189 10978 15211
is_linear=0
shrinkage=0.005


Tree=31
num_leaves=15
num_cat=0
split_feature=0 0 2 2 5 5 2 5 1 5 2 1 0 5
split_gain=2696.21 1729.62 1330.31 1528.43 1258.06 875.999 835.993 829.822 712.212 821.048 1435.52 491.306 288.821 149.812
threshold=0.36989354441652328 0.42243372439126181 -0.31862323479835714 -0.16030334578401811 1.3086051152408287 1.1199657731962522 0.12578483119198183 1.1299483374408508 1.4529386806145701 2.4221164630192429 -1.3361511896903264e-11 1.9275368684270942 0.31318684238055439 1.1431195248064234
decision_type=2 2 2 2 2 2 2 2 2 2 2 2 2 2
left_child=6 7 -3 4 -4 -5 8 -2 12 11 -11 -10 -1 -9
right_child=1 2 3 5 -6 -7 -8 13 9 10 -12 -13 -14 -15
leaf_value=-0.0047430913617492586 0.010975435745262866 -0.0070405451212885153 0.00026578881768405229 0.010655260543215453 0.0078038087814469729 -0.0064843122334495773 -0.0081341972584303233 -0.0030391750546186818 -0.0018107015691647902 -0.00070145441745135962 0.0069302125357262193 0.0011407431355470897 0.010712124233291256 -0.0069531568188551107
leaf_weight=33.474637359380722 69.560462921857834 693.47472484409809 1952.6799324601889 81.099856063723564 772.41143997013569 856.63184897601604 230.13667988777161 281.49258600175381 1685.6824253797531 1037.8808340877295 1513.7691444009542 8595.2860091477633 272.12360495328903 2054.7448686957359
leaf_count=137 281 2952 8038 326 3105 3603 960 1195 6910 4239 6100 35108 1097 8752
internal_value=-3.51463e-08 -0.00257292 -0.000692852 0.000509058 0.00240435 -0.00499444 0.00130127 -0.00597537 0.00146704 0.00128696 0.00382553 0.000656512 0.00900604 -0.00648338
internal_weight=20130.4 6762.1 4356.3 3662.82 2725.09 937.732 13368.4 2405.8 13138.2 12832.6 2551.65 10281 305.598 2336.24
internal_count=82803 28252 18024 15072 11143 3929 54551 10228 53591 52357 10339 42018 1234 9947
is_linear=0
shrinkage=0.005


Tree=32
num_leaves=15
num_cat=0
split_feature=7 0 0 7 1 3 0 1 7 1 6 7 7 1
split_gain=2867.84 1544.96 955.392 1015.16 955.207 935.412 886.806 883.719 1082.23 940.876 808.975 805.121 977.282 840.387
threshold=23899.325918171362 0.42243372439126181 0.58072001973519727 18848.639990258187 1.5741378500157353 -0.86172992820007699 0.36687286031879046 15.112827140453616 50012.966460191681 18.943569628179855 0.32092834805438841 36226.298777936223 29721.721309731682 6.6272425868287153
decision_type=2 2 2 2 2 2 2 2 2 2 2 2 2 2
left_child=1 6 3 4 -3 11 -1 8 10 -9 -7 12 -2 -13
right_child=5 2 -4 -5 -6 7 -8 9 -10 -11 -12 13 -14 -15
leaf_value=0.00051159989616318192 0.00083499159881398222 -0.00076353694127908613 -0.0069842430096409861 -0.0035713845106381636 0.0053313448952428079 0.0088850743493752403 -0.0068001603547783607 -0.0062446881458167207 0.0058515663187989576 0.0030225361664466756 0.00046475105528828373 -0.0059244151316718147 0.0092021540240020266 -0.00020089191023004688
leaf_weight=506.61359219253063 2281.4606737792492 1443.2149937301874 529.04430314898491 1224.4612648040056 1157.6632683873177 320.87500880658627 2267.9059327989817 520.89673821628094 2632.0483925491571 576.16001236438751 2545.7222012281418 824.65504893660545 411.74340528249741 2883.8417982906103
leaf_count=2081 9309 5972 2258 5110 4684 1302 9686 2155 10634 2348 10384 3395 1669 11816
internal_value=-4.12229e-08 -0.00254855 -0.000689694 0.000180988 0.00194887 0.00139763 -0.00546432 0.00271904 0.00353661 -0.00137622 0.00140954 3.5682e-05 0.00211658 -0.00147493
internal_weight=20126.3 7128.9 4354.38 3825.34 2600.88 12997.4 2774.52 6595.7 5498.65 1097.06 2866.6 6401.7 2693.2 3708.5
internal_count=82803 29791 18024 15766 10656 53012 11767 26823 22320 4503 11686 26189 10978 15211
is_linear=0
shrinkage=0.005


Tree=33
num_leaves=15
num_cat=0
split_feature=7 5 2 2 5 5 5 1 5 1 5 2 5 1
split_gain=2840.53 1322.26 2430.2 848.706 826.535 1236.04 750.131 692.282 872.614 631.386 736.411 1416.61 618.051 548.121
threshold=23899.325918171362 1.2816729187972631 -0.16030334578401811 0.12578483119198183 1.373026388948916 1.2945598170720023 1.1199657731962522 1.1567687509944695 1.2729613728858011 1.4529386806145701 2.4221164630192429 -1.3361511896903264e-11 1.1750272285020442 1.4529386806145701
decision_type=2 2 2 2 2 2 2 2 2 2 2 2 2 2
left_child=1 6 4 9 5 -3 -1 8 -8 -2 12 -12 -11 -9
right_child=3 2 -4 -5 -6 -7 7 13 -10 10 11 -13 -14 -15
leaf_value=0.010614956289489601 0.0089527457895017433 0.0081439866361748131 -0.0068866379104166346 -0.0081185535028207578 0.0075359028939136321 -0.0020961378660443774 0.010263311377373933 -0.0074051765201528352 -0.007093949589614513 0.0042739249629553076 -0.00070757339673541619 0.0068729032734727693 0.00033340282728637634 -0.0035449718532835936
leaf_weight=81.139007747173309 282.23614928126335 410.11625644564629 903.66689695417881 229.91962812840939 661.98344238102436 1042.8483415693045 165.61630888283253 1666.6062798202038 127.76143369078636 1121.5750869810581 1037.8268238157034 1514.598388761282 8812.4902665764093 2063.8625411242247
leaf_count=326 1138 1664 3841 960 2664 4285 675 7110 536 4567 4239 6099 36009 8690
internal_value=-4.72004e-08 -0.00253771 -2.47449e-05 0.00139051 0.00290693 0.000794344 -0.00438479 -0.00468916 0.00269678 0.00156224 0.00139464 0.00379014 0.00077874 -0.00527097
internal_weight=20122.2 7123.6 3018.61 12998.6 2114.95 1452.96 4104.99 4023.85 293.378 12768.7 12486.5 2552.43 9934.07 3730.47
internal_count=82803 29791 12454 53012 8613 5949 17337 17011 1211 52052 50914 10338 40576 15800
is_linear=0
shrinkage=0.005


Tree=34
num_leaves=15
num_cat=0
split_feature=7 5 1 5 5 3 8 5 5 7 5 5 5 1
split_gain=2813.57 1311.13 2169.84 1090.19 1397.99 924.39 1035.82 913.387 902.822 750.803 1278.21 1210.06 742.995 686.479
threshold=23899.325918171362 1.2816729187972631 2.0583562035030902 1.373026388948916 1.2945598170720023 -0.86172992820007699 -0.0056949456063829776 1.1750272285020442 2.4565748266012024 237485.23868586545 1.5866933847752973 1.688154461239965 1.1199657731962522 1.1567687509944695
decision_type=2 2 2 2 2 2 2 2 2 2 2 2 2 2
left_child=1 12 3 4 -3 6 7 -2 9 11 -11 -7 -1 -14
right_child=5 2 -4 -5 -6 8 -8 -9 -10 10 -12 -13 13 -15
leaf_value=0.010555090298852187 0.010567896288789427 0.008095647311065695 -0.0079080740616383292 0.0076304036414908188 -0.0025247392420102346 0.0013212726379139104 -0.0033382447416285535 0.00071177171443186245 0.0058666230779665434 0.0061189411332745035 -0.0054838197944859302 0.0085506105865787788 0.0026829577108090125 -0.0052512742142018188
leaf_weight=81.19391205906868 247.67968852818012 410.5042440444231 676.66849720478058 671.7656946182251 1258.5418867021799 3086.0012685060501 1682.2911106348038 4472.3495500534773 1675.7657822519541 339.74979282915592 783.8637221455574 712.4303892403841 293.40946918725967 3725.7585976272821
leaf_count=326 1001 1664 2890 2701 5199 12586 6921 18267 6740 1378 3235 2884 1211 15800
internal_value=-5.09269e-08 -0.00252708 -2.46347e-05 0.0022544 8.75046e-05 0.0013834 2.94896e-05 0.00123056 0.00269672 0.00161649 -0.00197208 0.00267881 -0.00436781 -0.00467117
internal_weight=20118 7117.84 3017.48 2340.81 1669.05 13000.1 6402.32 4720.03 6597.81 4922.05 1123.61 3798.43 4100.36 4019.17
internal_count=82803 29791 12454 9564 6863 53012 26189 19268 26823 20083 4613 15470 17337 17011
is_linear=0
shrinkage=0.005


Tree=35
num_leaves=15
num_cat=0
split_feature=7 7 2 3 8 2 7 8 7 2 2 7 2 3
split_gain=2786.87 1243.38 1758.16 914.876 1025.86 775.586 1344.79 753.554 1127.04 726.451 660.372 544.15 817.054 710.944
threshold=23899.325918171362 18848.639990258187 -0.20805727228364002 -0.86172992820007699 -0.0056949456063829776 -0.31862323479835714 17323.340016597602 -0.0084619700183081528 50012.966460191681 -0.11381093950973814 -0.16030334578401811 237485.23868586545 -0.060023818332993299 -0.42157429183979939
decision_type=2 2 2 2 2 2 2 2 2 2 2 2 2 2
left_child=1 2 5 4 -2 -1 -7 11 9 -9 -4 12 -5 -13
right_child=3 -3 10 7 -6 6 -8 8 -10 -11 -12 13 -14 -15
leaf_value=-0.0069628805053569085 0.0012242308445295455 -0.0045606427707656199 0.0074884089880440791 -0.0009080118187109633 -0.0033234051423498556 0.0020098100469940722 -0.0070115955542941798 0.0069859278770180331 0.0067845684280853011 -0.00066701406884656935 -0.0058164916308128941 0.0031723661361672019 0.0059966239532203858 -0.0046191819966498633
leaf_weight=689.26619942486286 4720.7289477139711 3635.6462432444096 750.64781153202057 833.06308053433895 1681.3583482205868 1332.7871443927288 597.9401026815176 409.58292052149773 1958.1192634552717 1269.723485916853 105.89347825944424 467.3503133058548 880.2567332983017 781.0185122936964
leaf_count=2952 19268 15371 3013 3402 6921 5486 2524 1665 7894 5170 445 1897 3584 3211
internal_value=-5.02075e-08 -0.00251645 -0.000377638 0.00137637 2.9344e-05 -0.00241143 -0.000783888 0.00268271 0.00420733 0.00119957 0.00583818 0.000808996 0.00263866 -0.00170017
internal_weight=20113.4 7112.18 3476.53 13001.2 6402.09 2619.99 1930.73 6599.11 3637.43 1679.31 856.541 2961.69 1713.32 1248.37
internal_count=82803 29791 14420 53012 26189 10962 8010 26823 14729 6835 3458 12094 6986 5108
is_linear=0
shrinkage=0.005


Tree=36
num_leaves=15
num_cat=0
split_feature=7 0 5 5 0 5 5 5 7 8 1 1 5 5
split_gain=2760.35 1505.85 1220.12 1361.04 874.492 838.347 676.483 1094.6 1404.55 1144.09 992.979 917.584 679.383 872.085
threshold=23899.325918171362 0.42243372439126181 1.2816729187972631 1.4567170705890871 0.36687286031879046 1.3086051152408287 2.4221164630192429 3.4531489661231283 1160310.2408759205 0.035804294440227778 9.3606056284422809 1.4529386806145701 1.1750272285020442 1.1675991483337904
decision_type=2 2 2 2 2 2 2 2 2 2 2 2 2 2
left_child=1 4 -3 5 -1 -4 11 8 -8 -9 -11 -2 13 -13
right_child=6 2 3 -5 -6 -7 7 9 -10 10 -12 12 -14 -15
leaf_value=0.00054155362258391905 0.010057929737493108 -0.0029252925188191698 0.00063709939187061139 -0.0075992146214604751 -0.0067262893753305001 0.0080157940015688264 0.0082591866488590394 -0.0040794728282043018 -0.0073176542491654641 0.010495086976222338 -0.0072866009908293151 0.0014305589415383162 0.00010841824474939381 0.011174332148610971
leaf_weight=506.07164126634598 260.59815920889378 2520.5966296494007 777.3959283977747 284.27313044667244 2254.6998659968376 763.78124403953552 1294.5311364233494 684.84191361069679 162.36303159594536 331.49482546746731 102.26589471101761 800.45402218401432 9043.8133268356323 322.06426680088043
leaf_count=2081 1048 10583 3166 1212 9686 3063 5204 2812 664 1334 414 3263 36969 1304
internal_value=-5.70565e-08 -0.00250578 -0.00067055 0.00244139 -0.00539327 0.00429689 0.00136936 0.00366413 0.0065196 -5.39121e-05 0.00629346 0.000802156 0.00056417 0.00423212
internal_weight=20109.2 7106.82 4346.05 1825.45 2760.77 1541.18 13002.4 2575.5 1456.89 1118.6 433.761 10426.9 10166.3 1122.52
internal_count=82803 29791 18024 7441 11767 6229 53012 10428 5868 4560 1748 42584 41536 4567
is_linear=0
shrinkage=0.005


Tree=37
num_leaves=15
num_cat=0
split_feature=0 0 2 2 2 3 2 1 1 8 2 1 1 2
split_gain=2549.1 1662.79 1284.17 1524.21 823.564 844.769 1057.32 1696.29 1584.46 874.21 837.808 762.991 615.366 441.92
threshold=0.36989354441652328 0.42243372439126181 -0.31487392158386673 -0.16030334578401811 0.12578483119198183 -0.86172992820007699 -8.4974527414516371e-12 15.112827140453616 6.4800337020311511 -0.0056949456063829776 0.092604782003031141 1.5741378500157353 2.5425365382320986 -0.084542503819956608
decision_type=2 2 2 2 2 2 2 2 2 2 2 2 2 2
left_child=4 -2 -3 11 5 9 7 -7 -8 10 -1 -4 -11 -5
right_child=1 2 3 13 -6 6 8 -9 -10 12 -12 -13 -14 -15
leaf_value=0.00080034138925882546 -0.0058637197747947404 -0.0065411444840918452 -0.00023636006575796748 -0.0063267434365150413 -0.0081095213302478271 0.0024732383011192571 -0.0049879723847208813 -0.0063839125520987481 0.0068100500580165228 0.0069193145669215897 0.011115986005216195 0.0051335341287933201 -0.0037929592064777245 0.0034122213343592851
leaf_weight=4465.6793566346169 2385.4157730787992 765.96996365487576 1283.8484105467796 796.58125892281532 229.79240438342094 3611.744429692626 327.18668136000633 635.11268071830273 2157.5510302484035 145.74196924269199 205.47724288702011 1362.1466663181782 1596.526120364666 135.73656620085239
leaf_count=18220 10228 3280 5300 3370 960 14684 1334 2632 8704 600 840 5515 6577 559
internal_value=-5.92747e-08 -0.00251001 -0.000667473 0.000589879 0.00126271 0.00142704 0.00266421 0.00114748 0.00525481 0.00012801 0.00125579 0.00252754 -0.00289371 -0.00490509
internal_weight=20104.5 6729.7 4344.28 3578.31 13374.8 13145 6731.59 4246.86 2484.74 6413.42 4671.16 2646 1742.27 932.318
internal_count=82803 28252 18024 14744 54551 53591 27354 17316 10038 26237 19060 10815 7177 3929
is_linear=0
shrinkage=0.005


Tree=38
num_leaves=15
num_cat=0
split_feature=0 0 5 5 5 5 1 5 6 5 6 6 8 1
split_gain=2524.99 1649.8 1198.43 1341.76 825.641 805.454 721.601 877.748 1051.99 1033.58 1096.78 720.403 640.291 597.874
threshold=0.36989354441652328 0.42243372439126181 1.2816729187972631 1.4567170705890871 1.3086051152408287 1.1299483374408508 1.4529386806145701 2.4221164630192429 0.31041528899807297 3.4531489661231283 0.37705789422119634 0.30619837811208755 0.0099982117987582834 1.1567687509944695
decision_type=2 2 2 2 2 2 2 2 2 2 2 2 2 2
left_child=6 5 12 4 -4 -2 -1 8 -8 11 -11 -9 13 -3
right_child=1 2 3 -5 -6 -7 7 9 -10 10 -12 -13 -14 -15
leaf_value=0.0088376177058891447 0.010835623756018861 0.011386834513865043 0.00062683305391157923 -0.007566417313597429 0.0079480146812454678 -0.0063494257207543378 0.0043055861096405728 -0.0064792965670365469 -0.0002073981725907273 -0.0046783572084757984 0.0053344718659397803 0.007418306497234798 -0.0061572374388971784 -0.0017167556692051725
leaf_weight=306.27304887771606 69.711137712001801 91.95342168211937 777.58758437633514 283.48370897769928 764.17810879647732 2312.108929887414 1506.6919642090797 99.551677793264389 9008.6227929741144 579.88532701134682 516.71184350550175 1357.9123977273703 943.58805644512177 1481.6719424724579
leaf_count=1234 281 374 3166 1212 3063 9947 6112 406 36866 2387 2084 5462 3995 6214
internal_value=-6.83003e-08 -0.00249949 -0.000664428 0.0024191 0.00425861 -0.00584324 0.00125632 0.00107813 0.000439183 0.00370716 3.76468e-05 0.00646542 -0.00290134 -0.000946097
internal_weight=20099.9 6724.28 4342.46 1825.25 1541.77 2381.82 13375.6 13069.4 10515.3 2554.06 1096.6 1457.46 2517.21 1573.63
internal_count=82803 28252 18024 7441 6229 10228 54551 53317 42978 10339 4471 5868 10583 6588
is_linear=0
shrinkage=0.005


Tree=39
num_leaves=15
num_cat=0
split_feature=7 0 0 7 3 8 0 8 7 0 8 7 0 7
split_gain=2688.96 1474.53 914.956 959.645 891.659 1002.21 855.641 730.804 1096.01 676.694 649.775 647.823 575.778 671.023
threshold=23899.325918171362 0.42243372439126181 0.58072001973519727 18848.639990258187 -0.86172992820007699 -0.0056949456063829776 0.36687286031879046 -0.0084619700183081528 50012.966460191681 0.29656993178922203 -0.017018537190195863 21705.266040297709 0.03831539077558388 29877.689921728346
decision_type=2 2 2 2 2 2 2 2 2 2 2 2 2 2
left_child=1 6 3 10 5 -2 -1 12 9 -9 -3 -5 -6 -14
right_child=4 2 -4 11 7 -7 -8 8 -10 -11 -12 -13 13 -15
leaf_value=0.00052428085571364037 0.0012004260319816652 0.0066190525611405076 -0.0068565314750891103 -0.0044914894179747004 -0.0013759526140218099 -0.003296086811111619 -0.0066664557677563472 -0.0026419206291763003 0.0066801035943209542 0.0038106022598994511 0.00057792589302500536 0.0095682519117167939 0.00079988138809093667 0.0081905776630159955
leaf_weight=506.34560661017895 4723.0151181071997 570.16805335879326 523.5634360909462 1129.9986853152514 1503.3882643580437 1679.4406014233828 2243.5007040351629 686.04933895170689 1960.0051217675209 994.24518093466759 2028.9708961099386 87.764731422066689 1018.7336743474007 439.81361736357212
leaf_count=2081 19268 2318 2258 4757 6157 6921 9686 2794 7894 4041 8338 353 4158 1779
internal_value=-7.06844e-08 -0.00247715 -0.000661414 0.0001885 0.00135031 2.03813e-05 -0.00534162 0.00263952 0.00414006 0.0011746 0.00190514 -0.00347263 0.00079408 0.00303225
internal_weight=20095 7090.31 4340.47 3816.9 13004.7 6402.46 2749.85 6602.24 3640.3 1680.29 2599.14 1217.76 2961.94 1458.55
internal_count=82803 29791 18024 15766 53012 26189 11767 26823 14729 6835 10656 5110 12094 5937
is_linear=0
shrinkage=0.005


Tree=40
num_leaves=15
num_cat=0
split_feature=7 5 1 5 5 5 1 6 5 5 7 6 1 6
split_gain=2663.42 1254.23 2089.81 1039.84 1373.27 726.566 671.095 1006.17 656.007 1062.44 1375.78 1124.54 1070.83 987.976
threshold=23899.325918171362 1.2816729187972631 2.0583562035030902 1.373026388948916 1.2945598170720023 1.1199657731962522 1.1567687509944695 0.3830594110095647 2.4221164630192429 3.4531489661231283 1160310.2408759205 0.37705789422119634 9.3606056284422809 0.31041528899807297
decision_type=2 2 2 2 2 2 2 2 2 2 2 2 2 2
left_child=1 5 3 4 -3 -1 7 -7 13 10 -10 -11 -13 -2
right_child=8 2 -4 -5 -6 6 -8 -9 9 11 -12 12 -14 -15
leaf_value=0.010475248236711941 0.0044362152893365073 0.0080200895236132753 -0.0077996666335740164 0.0074568142554822517 -0.002503088974988789 0.011404330252157995 -0.0051536484787444185 -0.0071207445360598736 0.0081333185940079405 -0.0047590290528716052 -0.0072898874110258098 0.0096768584816483046 -0.0063594922903940998 0.00013612030557715407
leaf_weight=81.260872825980186 1572.7982437461615 411.08167725801468 670.2127336114645 672.57170790433884 1255.9524358063936 155.44004613161087 3700.5697121173143 137.70515038073063 1295.8289316743612 595.55882029235363 162.1808073669672 379.61613716185093 142.76906315982342 8857.0089991986752
leaf_count=326 6374 1664 2890 2701 5199 632 15800 579 5204 2454 664 1526 580 36210
internal_value=-7.34502e-08 -0.00246669 -1.79235e-05 0.00221139 9.19979e-05 -0.00427454 -0.00457655 0.00269634 0.00134345 0.00360305 0.0064141 -6.20949e-05 0.00528742 0.000784989
internal_weight=20090.6 7084.79 3009.82 2339.61 1667.03 4074.98 3993.71 293.145 13005.8 2575.95 1458.01 1117.94 522.385 10429.8
internal_count=82803 29791 12454 9564 6863 17337 17011 1211 53012 10428 5868 4560 2106 42584
is_linear=0
shrinkage=0.005


Tree=41
num_leaves=15
num_cat=0
split_feature=0 0 0 3 8 1 0 6 1 1 1 1 1 1
split_gain=2452.89 1615.25 903.184 773.218 782.097 749.028 997.738 1060.4 911.742 739.019 718.911 609.91 604.361 828.272
threshold=0.36989354441652328 0.42243372439126181 0.58072001973519727 -0.86172992820007699 -0.0056949456063829776 15.112827140453616 0.071880151466729977 0.32092834805438841 18.943569628179855 2.0583562035030902 1.9827473825386692 2.5425365382320986 1.4529386806145701 1.9120114986201566
decision_type=2 2 2 2 2 2 2 2 2 2 2 2 2 2
left_child=3 -2 9 4 12 6 -5 -8 -7 10 -3 -6 -1 -14
right_child=1 2 -4 5 11 8 7 -9 -10 -11 -12 -13 13 -15
leaf_value=0.0085753862424485551 -0.0057859791980441255 -9.2487083458622091e-05 -0.006818842278821278 0.0052824384342563873 0.0068994243127403054 -0.0061853968132549895 0.0090411126781522067 4.5751739380865489e-06 0.0029410497360771301 -0.0078753108852961887 0.0065093330287029115 -0.0037634176713944385 -0.0040173969771161626 0.0016152284300717502
leaf_weight=252.14821717143059 2370.7912019342184 3075.0519694238901 521.85670882463455 2780.5817720741034 145.81350773572922 519.33208884298801 370.01184567809105 2626.7488835155964 577.0501673668623 263.72983133792877 475.61137346923351 1594.5111294835806 790.82507589459419 3721.2491248548031
leaf_count=1015 10228 12722 2258 11220 600 2155 1497 10716 2348 1136 1908 6577 3244 15179
internal_value=-7.68843e-08 -0.00246786 -0.000652687 0.00123698 8.83925e-07 0.00240623 0.00312535 0.00112248 -0.00138052 0.000191048 0.000791915 -0.00286687 0.00104916 0.000627116
internal_weight=20085.3 6707.04 4336.25 13378.3 6504.55 6873.72 5777.34 2996.76 1096.38 3814.39 3550.66 1740.32 4764.22 4512.07
internal_count=82803 28252 18024 54551 26615 27936 23433 12213 4503 15766 14630 7177 19438 18423
is_linear=0
shrinkage=0.005


Tree=42
num_leaves=15
num_cat=0
split_feature=7 0 5 5 3 0 5 5 7 7 7 5 5 5
split_gain=2617.28 1446.57 1165.49 1304.73 870.34 840.22 839.883 809.379 772.18 966.775 725.932 1237.42 1172.97 692.883
threshold=23899.325918171362 0.42243372439126181 1.2816729187972631 1.4567170705890871 -0.86172992820007699 0.36687286031879046 2.4565748266012024 1.3086051152408287 36226.298777936223 29721.721309731682 237485.23868586545 1.5866933847752973 1.688154461239965 1.447757510878946
decision_type=2 2 2 2 2 2 2 2 2 2 2 2 2 2
left_child=1 5 -3 7 8 -1 10 -4 9 -2 12 -12 -6 -10
right_child=4 2 3 -5 6 -7 -8 -9 13 -11 11 -13 -14 -15
leaf_value=0.00051768525663333084 0.00077829756970917183 -0.0028598761369605314 0.00060379697651753727 -0.0074930986688642853 0.0012689238926713703 -0.0066107311291341833 0.0056594099748807913 0.0078506807782593047 -0.0083373646018261548 0.0090929529126023301 0.0059749337287943877 -0.005434240164895009 0.008377825602637598 -0.00078286606671197742
leaf_weight=506.4106251001358 2283.7681535929441 2510.5630965083838 777.94548740983009 281.65899297595024 3089.6276635974646 2232.6602271199226 1678.124657407403 764.60559417307377 333.21049620211124 412.52903608977795 340.70544190704823 781.93972219526768 714.40044029057026 3372.6149799525738
leaf_count=2081 9309 10583 3166 1212 12586 9686 6740 3063 1365 1669 1378 3235 2884 13846
internal_value=-8.14273e-08 -0.00244784 -0.00064966 0.00239072 0.00133099 -0.00529203 0.0026043 0.0041989 1.68729e-05 0.0020528 0.00156269 -0.00196839 0.00260557 -0.00146384
internal_weight=20080.8 7073.84 4334.77 1824.21 13006.9 2739.07 6604.8 1542.55 6402.12 2696.3 4926.67 1122.65 3804.03 3705.83
internal_count=82803 29791 18024 7441 53012 11767 26823 6229 26189 10978 20083 4613 15470 15211
is_linear=0
shrinkage=0.005


Tree=43
num_leaves=15
num_cat=0
split_feature=0 0 2 2 2 3 2 1 1 8 1 2 2 1
split_gain=2405.86 1589.9 1243.44 1472.79 814.435 807.258 1014.36 1650.88 1541.86 843.186 736.281 733.266 432.173 410.749
threshold=0.36989354441652328 0.42243372439126181 -0.31487392158386673 -0.16030334578401811 0.12578483119198183 -0.86172992820007699 -8.4974527414516371e-12 15.112827140453616 6.4800337020311511 -0.03092773279046784 1.5741378500157353 0.092604782003031141 -0.084542503819956608 2.5425365382320986
decision_type=2 2 2 2 2 2 2 2 2 2 2 2 2 2
left_child=4 -2 -3 10 5 9 7 -7 -8 11 -4 -1 -5 -11
right_child=1 2 3 12 -6 6 8 -9 -10 13 -12 -13 -14 -15
leaf_value=0.0010286989869356454 -0.0057456258474002262 -0.0064509787570933797 -0.00022702961920630002 -0.0062441333041554029 -0.0080990373338269278 0.0024158326954340551 -0.0049761896919199231 -0.0063315407045414131 0.0066631575415597557 0.0038264216272436854 0.0050486844861477491 0.010991444560984187 0.0033997589280065554 -0.0029571727162129319
leaf_weight=3844.5382246077061 2363.0751356333494 760.29478269815445 1282.863179653883 791.7393491268158 229.64026722311974 3614.8934786319733 327.03783568739891 633.38246181607246 2161.0555720627308 248.56525553762913 1362.5295415520668 193.60547858476639 135.44713851809502 2126.7766679078341
leaf_count=15664 10228 3280 5300 3370 960 14684 1334 2632 8704 1022 5515 790 559 8761
internal_value=-8.47375e-08 -0.00244683 -0.000646699 0.000588564 0.00122428 0.00138759 0.00259633 0.00111049 0.00513157 0.000117507 0.00248976 0.00150828 -0.00483155 -0.0022456
internal_weight=20075.4 6695.95 4332.87 3572.58 13379.5 13149.9 6736.37 4248.28 2488.09 6413.49 2645.39 4038.14 927.186 2375.34
internal_count=82803 28252 18024 14744 54551 53591 27354 17316 10038 26237 10815 16454 3929 9783
is_linear=0
shrinkage=0.005


Tree=44
num_leaves=15
num_cat=0
split_feature=0 0 2 2 2 3 2 1 1 1 1 6 2 0
split_gain=2383.2 1577.59 1233.69 1407.05 807.309 799.005 1003.71 1635.45 1525.79 797.262 741.99 720.658 428.655 322.285
threshold=0.36989354441652328 0.42243372439126181 -0.31862323479835714 -0.16030334578401811 0.12578483119198183 -0.86172992820007699 -8.4974527414516371e-12 15.112827140453616 6.4800337020311511 1.5741378500157353 1.4529386806145701 0.30987963421346676 -0.084542503819956608 0.31318684238055439
decision_type=2 2 2 2 2 2 2 2 2 2 2 2 2 2
left_child=4 -2 -3 9 5 10 7 -7 -8 -4 13 -12 -5 -1
right_child=1 2 3 12 -6 6 8 -9 -10 -11 11 -13 -14 -15
leaf_value=-0.0068650262956011935 -0.005725902626232098 -0.0068199451708892671 -0.00038644649434232915 -0.0062224396293125775 -0.0080723308738169484 0.0024030907593955522 -0.0049547982790832451 -0.0063076765489274017 0.006626861441170479 0.0050213829398290354 0.0032505900612020493 -0.0010684427670172845 0.0033812976981825644 0.010561650163311094
leaf_weight=29.572949856519699 2359.3697955310345 680.90929600596428 1360.8789189755917 790.5319000929594 229.25062930583954 3615.8905372917652 326.81024938821793 632.60371688008308 2162.0278112590313 1363.0893033593893 1198.6270440965891 4961.93940718472 135.50829313695431 223.24459761381149
leaf_count=121 10228 2952 5628 3370 960 14684 1334 2632 8704 5515 4858 20362 559 896
internal_value=-9.34643e-08 -0.00243668 -0.000643769 0.000508488 0.00121811 0.00138056 0.00258297 0.00110487 0.00510438 0.00231917 0.000116926 -0.000227511 -0.00481335 0.0085038
internal_weight=20070.3 6690.29 4330.92 3650.01 13380 13150.7 6737.33 4248.49 2488.84 2723.97 6413.38 6160.57 926.04 252.818
internal_count=82803 28252 18024 15072 54551 53591 27354 17316 10038 11143 26237 25220 3929 1017
is_linear=0
shrinkage=0.005


Tree=45
num_leaves=15
num_cat=0
split_feature=7 0 0 7 3 8 0 8 7 0 8 7 0 7
split_gain=2552.57 1418.54 880.051 922.811 844.949 969.139 821.347 699.486 1052.97 672.324 631.858 627.519 559.605 652.317
threshold=23899.325918171362 0.42243372439126181 0.58072001973519727 18848.639990258187 -0.86172992820007699 -0.0056949456063829776 0.36687286031879046 -0.0084619700183081528 50012.966460191681 0.29656993178922203 -0.017018537190195863 21705.266040297709 0.03831539077558388 29877.689921728346
decision_type=2 2 2 2 2 2 2 2 2 2 2 2 2 2
left_child=1 6 3 10 5 -2 -1 12 9 -9 -3 -5 -6 -14
right_child=4 2 -4 11 7 -7 -8 8 -10 -11 -12 -13 13 -15
leaf_value=0.00049403446927420854 0.0011774435206330946 0.0065184754981225789 -0.0067488224136475544 -0.0044176789268455712 -0.0013796403468576777 -0.0032472799454654551 -0.0065550403091714036 -0.0026740342946655529 0.0065226139557199459 0.0037546661467134507 0.00056206882217569914 0.0094121335073326842 0.00076463421299242419 0.008044925474296279
leaf_weight=506.7773929387331 4724.8226362019777 570.51267071068287 518.55285440385342 1124.6439177840948 1501.9783125072718 1676.1076306700706 2221.4132572263479 686.53747683763504 1962.2672584801912 995.48296375572681 2027.3016525506973 87.904066264629364 1019.6080543547869 440.80626937747002
leaf_count=2081 19268 2318 2258 4757 6157 6921 9686 2794 7894 4041 8338 353 4158 1779
internal_value=-1.03891e-07 -0.00242131 -0.000640861 0.000190493 0.00131334 1.82594e-05 -0.00524487 0.00256762 0.00403447 0.00112921 0.00187214 -0.00340955 0.000761893 0.0029658
internal_weight=20064.7 7057.11 4328.92 3810.36 13007.6 6400.93 2728.19 6606.68 3644.29 1682.02 2597.81 1212.55 2962.39 1460.41
internal_count=82803 29791 18024 15766 53012 26189 11767 26823 14729 6835 10656 5110 12094 5937
is_linear=0
shrinkage=0.005


Tree=46
num_leaves=15
num_cat=0
split_feature=7 0 2 2 3 0 7 7 7 0 7 2 0 2
split_gain=2528.41 1407.64 1217.59 1439.13 836.326 815.791 783.464 755.289 954.319 664.974 656.951 678.652 633.163 626.24
threshold=23899.325918171362 0.42243372439126181 -0.31487392158386673 -0.16030334578401811 -0.86172992820007699 0.36687286031879046 21705.266040297709 36226.298777936223 29721.721309731682 0.50698827219177545 51086.680698812859 -1.9335538725684382e-11 0.3139443919127593 0.12578483119198183
decision_type=2 2 2 2 2 2 2 2 2 2 2 2 2 2
left_child=1 5 -3 9 7 -1 -5 8 12 -4 -9 -12 -2 -6
right_child=4 2 3 6 13 -7 -8 10 -10 -11 11 -13 -14 -15
leaf_value=0.00049152778203532524 -0.001800568243997392 -0.0063970207586809755 0.0015317341909949092 -0.0062822217165854856 0.0027803618697291011 -0.0065346596176354844 0.0093608788199852598 -0.0051069375299106949 0.0090208404420706479 0.0092452288034344729 -0.0071328671386162584 0.00064820522208254279 0.0034641920301072995 -0.007932305266888106
leaf_weight=506.817297488451 1171.0667482763529 756.75087201595306 2329.1240213364363 836.17208941280842 6468.8637161701918 2217.2119642496109 87.946086049079895 920.78242208063602 413.02372598648071 317.32161928713322 315.60314609110355 2467.0223433077335 1113.21449264884 138.77463223040104
leaf_count=2081 4783 3280 9522 3576 26241 9686 353 3783 1669 1293 1312 10116 4526 582
internal_value=-1.06318e-07 -0.00241119 -0.000637892 0.000582732 0.0013067 -0.00522664 -0.00478654 1.81644e-05 0.0020309 0.00245914 -0.00144717 -0.000234542 0.000764246 0.00255441
internal_weight=20059.7 7051.34 4327.31 3570.56 13008.4 2724.03 924.118 6400.71 2697.3 2646.45 3703.41 2782.63 2284.28 6607.64
internal_count=82803 29791 18024 14744 53012 11767 3929 26189 10978 10815 15211 11428 9309 26823
is_linear=0
shrinkage=0.005


Tree=47
num_leaves=15
num_cat=0
split_feature=0 0 2 2 2 1 3 2 1 1 8 2 1 2
split_gain=2315.07 1540.89 1208.33 1375.07 795.234 788.458 773.657 986.929 1615.76 1503.61 821.764 820.92 598.505 418.222
threshold=0.36989354441652328 0.42243372439126181 -0.31862323479835714 -0.16030334578401811 0.12578483119198183 1.5741378500157353 -0.86172992820007699 -8.4974527414516371e-12 15.112827140453616 6.4800337020311511 -0.0056949456063829776 0.092604782003031141 2.5425365382320986 -0.084542503819956608
decision_type=2 2 2 2 2 2 2 2 2 2 2 2 2 2
left_child=4 -2 -3 5 6 -4 10 8 -8 -9 11 -1 -12 -5
right_child=1 2 3 13 -6 -7 7 9 -10 -11 12 -13 -14 -15
leaf_value=0.00075676876707864767 -0.00566702273927911 -0.0067650404891296872 -0.00039978217424099051 -0.0061663791453919403 -0.0080334007324443478 0.0049768843491606526 0.0023667733684323215 -0.0049458146647664127 -0.0062936819417927885 0.0065524968849539613 0.0068478942506463979 0.010950771531636334 -0.0037095831904946858 0.0033224789143589447
leaf_weight=4469.1257032603025 2347.4428303688765 677.46023473143578 1361.3740569204092 787.31788147985935 228.66134063899517 1363.8268375247717 3618.3958157151937 326.69594202935696 632.13581718504429 2163.684813067317 145.99962294101715 206.19377848505974 1591.0021684765816 135.5081854313612
leaf_count=18220 10228 2952 5628 3370 960 5515 14684 1334 2632 8704 600 840 6577 559
internal_value=-1.13643e-07 -0.00240584 -0.000634973 0.000503503 0.00119937 0.00229047 0.00136037 0.00254302 0.00107762 0.00504242 0.000116615 0.00120801 -0.00281905 -0.00476928
internal_weight=20054.8 6672.93 4325.49 3648.03 13381.9 2725.2 13153.2 6740.91 4250.53 2490.38 6412.32 4675.32 1737 922.826
internal_count=82803 28252 18024 15072 54551 11143 53591 27354 17316 10038 26237 19060 7177 3929
is_linear=0
shrinkage=0.005


Tree=48
num_leaves=15
num_cat=0
split_feature=5 1 1 5 8 5 2 8 5 2 1 5 1 2
split_gain=1895.59 1974.85 1199.46 1128.64 1161.11 963.711 1322.61 790.588 684.676 619.174 579.219 804.332 742.466 606.172
threshold=1.2799065304589672 1.9275368684270942 1.4529386806145701 1.2099485615865169 0.025951349825724033 2.4221164630192429 -1.3361511896903264e-11 0.034709377485134939 1.1639654810956153 0.12578483119198183 1.1567687509944695 1.2729613728858011 1.460835640541853 -0.19836505708308247
decision_type=2 2 2 2 2 2 2 2 2 2 2 2 2 2
left_child=1 10 -2 4 -3 9 7 -7 -6 -4 11 -1 -12 -14
right_child=2 3 5 -5 8 6 -8 -9 -10 -11 12 -13 13 -15
leaf_value=0.010104244560573343 0.0084978489076490502 0.0063569359823439147 0.00031766428628270978 -0.0082144563077298539 -0.0064248971297669504 -0.0025468903049380284 0.006548650660053874 0.0099777332977732253 0.0025831657276227066 -0.0080074149284164297 -0.006774072589555054 -0.0080808849051068835 0.0010800634014942088 -0.0039979699798842281
leaf_weight=166.15149126946926 533.8045816719532 1157.3558883368969 9420.9657728075981 247.38083389401436 371.42335902154446 890.98355957865715 1516.9205877333879 146.20508834719658 486.47252994775772 228.25900723040104 1737.6485230624676 95.15154854953289 793.31071075797081 2257.1071971654892
leaf_count=675 2159 4688 38701 1013 1553 3654 6100 585 1974 960 7553 402 3297 9489
internal_value=-1.22183e-07 -0.00202931 0.00116461 0.00185145 0.00309005 0.000843294 0.00357406 -0.000775017 -0.00131541 0.000120065 -0.00376879 0.00346993 -0.00416468 -0.00267656
internal_weight=20049.1 7312 12737.1 2262.63 2015.25 12203.3 2554.11 1037.19 857.896 9649.22 5049.37 261.303 4788.07 3050.42
internal_count=82803 30644 52159 9228 8215 50000 10339 4239 3527 39661 21416 1077 20339 12786
is_linear=0
shrinkage=0.005


Tree=49
num_leaves=15
num_cat=0
split_feature=5 1 1 5 6 5 5 6 6 1 1 6 1 5
split_gain=1877.48 1957.15 1186.41 1118.06 1218.53 954.083 975.405 1048.37 694.725 675.194 574.067 946.904 738.092 547.041
threshold=1.2799065304589672 1.9275368684270942 1.4529386806145701 1.2099485615865169 0.38588352749438731 2.4221164630192429 3.4531489661231283 0.37705789422119634 0.30619837811208755 2.7165254027248698 1.1567687509944695 0.3830594110095647 1.460835640541853 1.1675991483337904
decision_type=2 2 2 2 2 2 2 2 2 2 2 2 2 2
left_child=1 10 -2 4 9 -4 8 -8 -7 -3 11 -1 -12 -6
right_child=2 3 5 -5 13 6 7 -9 -10 -11 12 -13 -14 -15
leaf_value=0.011275909169958598 0.0084492076659017576 0.0080159775386153334 0.00011946029987513384 -0.0081834816606147862 -0.0051800809985785472 -0.0064806952314981148 -0.0046322148459318627 0.0051612587712735018 0.0071679954421818457 0.0010481565832805464 -0.0067530133351486237 -0.0080778025266406255 -0.0026647044193578422 0.011178305902842559
leaf_weight=155.82307440042496 534.19512960314751 926.45649461448193 9649.2509679943323 247.07823918759823 474.46608157455921 99.52446822822094 578.43055528402328 517.05779518187046 1359.1429394632578 558.04125045239925 1734.3617891669273 105.50715558230877 3048.6802300810814 56.716257303953171
leaf_count=632 2159 3742 39661 1013 1974 406 2387 2084 5462 2269 7553 445 12786 230
internal_value=-1.26917e-07 -0.00202053 0.00115875 0.00184206 0.00307394 0.000839073 0.00355614 -7.28201e-06 0.00623313 0.0053996 -0.00375368 0.00345216 -0.00414823 -0.00341987
internal_weight=20044.7 7307.13 12737.6 2262.76 2015.68 12203.4 2554.16 1095.49 1458.67 1484.5 5044.37 261.33 4783.04 531.182
internal_count=82803 30644 52159 9228 8215 50000 10339 4471 5868 6011 21416 1077 20339 2204
is_linear=0
shrinkage=0.005


end of trees

feature_importances:
Column_5=176
Column_1=113
Column_2=109
Column_7=96
Column_0=91
Column_6=44
Column_8=41
Column_3=29
Column_4=1

parameters:
[boosting: gbdt]
[objective: binary]
[metric: auc]
[tree_learner: serial]
[device_type: cpu]
[data_sample_strategy: bagging]
[data: ]
[valid: ]
[num_iterations: 50]
[learning_rate: 0.005]
[num_leaves: 15]
[num_threads: 14]
[seed: 42]
[deterministic: 0]
[force_col_wise: 1]
[force_row_wise: 0]
[histogram_pool_size: -1]
[max_depth: 5]
[min_data_in_leaf: 50]
[min_sum_hessian_in_leaf: 0.001]
[bagging_fraction: 1]
[pos_bagging_fraction: 1]
[neg_bagging_fraction: 1]
[bagging_freq: 0]
[bagging_seed: 400]
[bagging_by_query: 0]
[feature_fraction: 0.7]
[feature_fraction_bynode: 1]
[feature_fraction_seed: 30056]
[extra_trees: 0]
[extra_seed: 12879]
[early_stopping_round: 0]
[early_stopping_min_delta: 0]
[first_metric_only: 0]
[max_delta_step: 0]
[lambda_l1: 0.5]
[lambda_l2: 0.5]
[linear_lambda: 0]
[min_gain_to_split: 0]
[drop_rate: 0.1]
[max_drop: 50]
[skip_drop: 0.5]
[xgboost_dart_mode: 0]
[uniform_drop: 0]
[drop_seed: 17869]
[top_rate: 0.2]
[other_rate: 0.1]
[min_data_per_group: 100]
[max_cat_threshold: 32]
[cat_l2: 10]
[cat_smooth: 10]
[max_cat_to_onehot: 4]
[top_k: 20]
[monotone_constraints: ]
[monotone_constraints_method: basic]
[monotone_penalty: 0]
[feature_contri: ]
[forcedsplits_filename: ]
[refit_decay_rate: 0.9]
[cegb_tradeoff: 1]
[cegb_penalty_split: 0]
[cegb_penalty_feature_lazy: ]
[cegb_penalty_feature_coupled: ]
[path_smooth: 0]
[interaction_constraints: ]
[verbosity: -1]
[saved_feature_importance_type: 0]
[use_quantized_grad: 0]
[num_grad_quant_bins: 4]
[quant_train_renew_leaf: 0]
[stochastic_rounding: 1]
[linear_tree: 0]
[max_bin: 255]
[max_bin_by_feature: ]
[min_data_in_bin: 3]
[bin_construct_sample_cnt: 200000]
[data_random_seed: 175]
[is_enable_sparse: 1]
[enable_bundle: 1]
[use_missing: 1]
[zero_as_missing: 0]
[feature_pre_filter: 1]
[pre_partition: 0]
[two_round: 0]
[header: 0]
[label_column: ]
[weight_column: ]
[group_column: ]
[ignore_column: ]
[categorical_feature: ]
[forcedbins_filename: ]
[precise_float_parser: 0]
[parser_config_file: ]
[objective_seed: 16083]
[num_class: 1]
[is_unbalance: 0]
[scale_pos_weight: 1]
[sigmoid: 1]
[boost_from_average: 1]
[reg_sqrt: 0]
[alpha: 0.9]
[fair_c: 1]
[poisson_max_delta_step: 0.7]
[tweedie_variance_power: 1.5]
[lambdarank_truncation_level: 30]
[lambdarank_norm: 1]
[label_gain: ]
[lambdarank_position_bias_regularization: 0]
[eval_at: ]
[multi_error_top_k: 1]
[auc_mu_weights: ]
[num_machines: 1]
[local_listen_port: 12400]
[time_out: 120]
[machine_list_filename: ]
[machines: ]
[gpu_platform_id: -1]
[gpu_device_id: -1]
[gpu_use_dp: 0]
[num_gpu: 1]

end of parameters

pandas_categorical:null
