tree
version=v4
num_class=1
num_tree_per_iteration=1
label_index=0
max_feature_idx=8
objective=binary sigmoid:1
feature_names=Column_0 Column_1 Column_2 Column_3 Column_4 Column_5 Column_6 Column_7 Column_8
feature_infos=[0:0.62669506033078981] [0.40692812465387262:17.868305508251709] [-0.33489324639099471:0.11421652657731074] [-100000000:100000000] [0:100000000] [1.2408690931410868:58.385573014707099] [0.00284208609119092:0.76766822084946451] [0:13428575.189825613] [-0.27526566598807872:0.54863639703268452]
tree_sizes=1730 1763 1756 1772 1781 1764 1779 1767 1783 1765 1757 1790 1794 1769 1771 1768 1775 1771 1773 1777 1769 1773 1777 1785 1782 1790 1768 1781 1775 1774 1792 1786 1785 1781 1775 1797 1774 1792 1775 1797 1775 1796 1780 1800 1797 1799 1791 1796 1785 1769

Tree=0
num_leaves=15
num_cat=0
split_feature=5 1 2 5 2 6 5 6 1 2 5 2 1 1
split_gain=2771.78 2663.91 1517.95 1395.53 1758.84 1425.3 1180.42 1440.78 762.185 722.592 689.146 680.978 611.895 589.896
threshold=1.4240810208858479 1.6865947598737072 -0.22215954689605577 2.6912405144658251 -1.1789569320796998e-11 0.43778218401093111 1.3443872906516852 0.44100974570787127 2.3769597273842602 0.11098661575763104 3.1309111071935258 -0.10276335023496276 1.3643488141089108 1.0121726571201608
decision_type=2 2 2 2 2 2 2 2 2 2 2 2 2 2
left_child=1 13 -2 9 5 -5 7 8 -3 12 -6 -9 -4 -1
right_child=2 6 3 4 10 -7 -8 11 -10 -11 -12 -13 -14 -15
leaf_value=-0.31223330885810674 -0.3050412813803946 -0.30595281415879672 -0.3221544163755824 -0.31814278160943027 -0.30311084010043587 -0.30332690041254023 -0.32289753339629651 -0.30304162969216059 -0.31339618786313489 -0.32323155065578418 -0.30996599708201167 -0.32039170513112991 -0.3141379584227646 -0.31949583865824882
leaf_weight=295.37345777451992 529.03800983726978 912.70642361044884 243.90871822834015 856.11960098147392 664.89516589045525 199.76124022901058 247.07953156530857 63.660175457596779 553.4288816601038 234.15236949920654 823.43583273887634 473.91463951766491 9091.2096545249224 5007.6898939460516
leaf_count=1211 2169 3742 1000 3510 2726 819 1013 261 2269 960 3376 1943 37273 20531
internal_value=-0.31476 -0.317156 -0.313328 -0.313691 -0.3104 -0.315333 -0.3126 -0.311327 -0.308759 -0.314566 -0.306899 -0.318323 -0.314348 -0.319091
internal_weight=20196.4 7553.85 12642.5 12113.5 2544.21 1055.88 2250.79 2003.71 1466.14 9569.27 1488.33 537.575 9335.12 5303.06
internal_count=82803 30970 51833 49664 10431 4329 9228 8215 6011 39233 6102 2204 38273 21742
is_linear=0
shrinkage=1


Tree=1
num_leaves=15
num_cat=0
split_feature=7 0 2 2 0 1 7 2 1 1 2 8 8 6
split_gain=3820.89 1925.03 1625.09 1893.95 1057 1026.91 978.91 968.465 726.115 784.191 1078.05 748.89 450.791 597.095
threshold=23899.325918171362 0.36965170627242366 -0.27782993080929419 -0.14144412863295716 0.32101375277894162 1.377370618763768 21705.266040297709 0.11098661575763104 1.2713213455377488 1.6865947598737072 -0.10486789696258984 0.031237459240424387 0.13483478698860882 0.44375225090912052
decision_type=2 2 2 2 2 2 2 2 2 2 2 2 2 2
left_child=1 4 -3 5 12 -4 -5 8 -2 11 -11 -10 13 -1
right_child=7 2 3 6 -6 -7 -8 -9 9 10 -12 -13 -14 -15
leaf_value=0.0037681986236258202 0.0098052932777922958 -0.0072658207743107519 -0.00038003999111304362 -0.0069974014053762381 -0.007493055704083808 0.0058593953475525509 0.010616168093574463 -0.008440616656758387 -0.0028718668409721537 0.0092703104225071564 0.0017819112974335211 0.0067860661609050231 0.010778572321019865 -0.008174619250680755
leaf_weight=228.31459538638592 277.80445155501366 799.56687366962433 1292.2772939354181 871.80310244858265 2362.1005439311266 1344.5215367674828 86.178289979696274 233.83884429931641 1450.7121602743864 504.05900096893311 10233.450007975101 232.34352050721645 87.08417521417141 192.21060575544834
leaf_count=936 1138 3280 5299 3576 9689 5513 353 960 5951 2064 41946 953 357 788
internal_value=0 -0.00290166 -0.000820757 0.000612899 -0.00608655 0.00280105 -0.0054056 0.00162991 0.00181588 0.0016366 0.00213409 -0.0015355 0.00045446 -0.00168783
internal_weight=20196.3 7264.06 4394.35 3594.78 2869.71 2636.8 957.981 12932.2 12698.4 12420.6 10737.5 1683.06 507.609 420.525
internal_count=82803 29791 18021 14741 11770 10812 3929 53012 52052 50914 44010 6904 2081 1724
is_linear=0
shrinkage=0.005


Tree=2
num_leaves=15
num_cat=0
split_feature=0 0 5 5 5 3 5 5 1 6 5 6 1 1
split_gain=3533.84 2121.97 1671.95 1736.06 1068.97 1007.84 1403.63 951.179 914.013 934.561 748.812 602.464 552.649 478.626
threshold=0.32365685136445788 0.36965170627242366 1.4240810208858479 1.6185745228767636 1.4540056836009208 -1.4772513054858463 2.729527585112447 1.2554981527120563 1.2713213455377488 0.35414815338681921 1.2444064146625022 0.34552374431403482 1.0121726571201608 1.6648362163479808
decision_type=2 2 2 2 2 2 2 2 2 2 2 2 2 2
left_child=5 7 10 4 -4 8 11 -2 -1 -10 -3 -7 -12 -11
right_child=1 2 3 -5 -6 6 -8 -9 9 13 12 -13 -14 -15
leaf_value=0.0094862765512930096 0.011696016902370916 0.01162648266328354 0.0008859600747979418 -0.0082209117811944659 0.0092766426099849617 0.011406262218200193 0.00686799636063469 -0.0071146285471981319 0.0037136172472738808 -0.0049822578073277588 0.0025254548993721608 0.0012691827849364223 -0.0047490567301253254 -0.0005880101422094348
leaf_weight=248.62094143033028 68.587087392807007 79.72556047141552 772.6104489415884 295.3957699239254 747.2978180795908 150.57122568786144 1646.0807736068964 2423.0054009258747 1185.889602214098 722.95996008813381 295.3831602036953 5020.06454205513 2203.3190177679062 4336.55051445961
leaf_count=1017 281 326 3166 1212 3061 617 6741 9950 4858 2967 1211 20578 9045 17773
internal_value=0 -0.00290792 -0.000816779 0.00285794 0.00501477 0.00150423 0.00284704 -0.00659357 9.42076e-05 -0.000280007 -0.00340493 0.00156594 -0.00388777 -0.00121683
internal_weight=20196.1 6885.32 4393.73 1815.3 1519.91 13310.7 6816.72 2491.59 6494.02 6245.4 2578.43 5170.64 2498.7 5059.51
internal_count=82803 28252 18021 7439 6227 54551 27936 10231 26615 25598 10582 21195 10256 20740
is_linear=0
shrinkage=0.005


Tree=3
num_leaves=15
num_cat=0
split_feature=0 0 5 5 5 5 2 6 6 1 2 5 5 5
split_gain=3499.46 2104.33 1655.65 1718.92 1055.88 991.03 1735.87 1405.02 1201.86 1110.67 954.262 942.085 912.701 676.247
threshold=0.32365685136445788 0.36965170627242366 1.4240810208858479 1.6185745228767636 1.4540056836009208 2.6912405144658251 -1.1789569320796998e-11 0.43778218401093111 0.354760330283512 1.2713213455377488 -0.27588353577809427 1.2554981527120563 1.4105947755517829 3.1309111071935258
decision_type=2 2 2 2 2 2 2 2 2 2 2 2 2 2
left_child=5 11 10 4 -4 8 7 -7 -1 -10 -3 -2 -12 -8
right_child=1 2 3 -5 -6 6 13 -9 9 -11 12 -13 -14 -15
leaf_value=0.0048931948295529897 0.011617529839152494 -0.0077857652211772901 0.00088141263417595593 -0.0081906790180892759 0.0092173545359808852 -0.0033923677939866133 0.011518767312179299 0.011299289116522105 0.011375347634356655 -0.00012349362233055159 0.00064455460597541338 -0.0070872826200956045 -0.0080706859395059932 0.0047358722918176711
leaf_weight=1557.8135057836771 68.708275243639946 834.39001826941967 772.7160160690546 295.00649389624596 748.34463241696358 856.40032775700092 666.84158602356911 200.36478364467621 214.51457160711288 8993.0843709856272 1357.4853736013174 2420.2016163021326 385.11646668612957 824.71741656959057
leaf_count=6378 281 3429 3166 1212 3061 3510 2726 819 876 36866 5572 9950 1581 3376
internal_value=0 -0.00289479 -0.000812817 0.00284244 0.00498593 0.00149638 0.00430013 -0.000600409 0.000832289 0.000144733 -0.00338979 -0.00656769 -0.00128185 0.00777287
internal_weight=20195.7 6881.97 4393.06 1816.07 1521.06 13313.7 2548.32 1056.77 10765.4 9207.6 2576.99 2488.91 1742.6 1491.56
internal_count=82803 28252 18021 7439 6227 54551 10431 4329 44120 37742 10582 10231 7153 6102
is_linear=0
shrinkage=0.005


Tree=4
num_leaves=15
num_cat=0
split_feature=0 0 0 3 1 0 6 1 8 1 1 1 1 1
split_gain=3465.48 2086.88 1156 995.993 934.752 1306.8 1149.38 1036.21 930.081 904.063 1025.55 698.62 871.687 615.894
threshold=0.32365685136445788 0.36965170627242366 0.50812750212998947 -1.4772513054858463 13.223723747896914 0.062895132533388728 0.36677525491930107 16.575623424657369 -0.0065085092644376905 1.8010616780652036 1.7294733142312648 1.2713213455377488 1.6730100612926369 2.2247194709530858
decision_type=2 2 2 2 2 2 2 2 2 2 2 2 2 2
left_child=3 -2 9 8 5 -5 -7 -6 11 10 -3 -1 -13 -10
right_child=1 2 -4 4 7 6 -8 -9 13 -11 -12 12 -14 -15
leaf_value=0.0093852278182087173 -0.0065420438668760588 -0.00022838842709125385 -0.0075867805316546131 0.0061251202282990615 -0.0064651724857770201 0.0096383706765927318 0.00017799736412050355 0.0032486252262350817 0.0067688943395464033 -0.0085462370896898354 0.0075787052235464286 -0.0039815006352764233 0.0018014891052008132 -0.003923134143114764
leaf_weight=248.78773456811905 2486.176891207695 3079.8526841253042 549.79664373397827 2741.9675511270761 525.91140450537205 365.60178372263908 2614.7389740943909 573.02642574906349 146.41122500598431 276.10160148143768 486.58989694714546 789.99195855855942 3705.233919069171 1604.9466318190098
leaf_count=1015 10231 12634 2263 11220 2155 1497 10716 2348 600 1136 1988 3244 15179 6577
internal_value=0 -0.00288178 -0.000808905 0.00148858 0.00282287 0.00363407 0.00134077 -0.00139859 8.68492e-05 0.000161094 0.00083699 0.00123682 0.000784299 -0.00302619
internal_weight=20195.1 6878.52 4392.34 13316.6 6821.25 5722.31 2980.34 1098.94 6495.37 3842.54 3566.44 4744.01 4495.23 1751.36
internal_count=82803 28252 18021 54551 27936 23433 12213 4503 26615 15758 14622 19438 18423 7177
is_linear=0
shrinkage=0.005


Tree=5
num_leaves=15
num_cat=0
split_feature=5 1 5 5 2 5 8 8 5 2 5 1 5 1
split_gain=2658.64 2560.64 1479.93 1343.91 1713.55 1166.97 1300.4 1015.94 788.427 710.066 663.872 577.081 947.203 824.798
threshold=1.4240810208858479 1.6865947598737072 1.4383997967466688 2.6912405144658251 -1.1789569320796998e-11 1.3443872906516852 0.029658685515113189 0.039667859983011373 1.293294978995128 0.11098661575763104 3.1309111071935258 1.0121726571201608 1.4144015254286681 1.2782311854741211
decision_type=2 2 2 2 2 2 2 2 2 2 2 2 2 2
left_child=1 11 -2 9 7 6 -3 -5 -8 -4 -6 12 -1 -13
right_child=2 5 3 4 10 -7 8 -9 -10 -11 -12 13 -14 -15
leaf_value=0.010493353966646347 0.0093560535429153078 0.0068602975939302544 0.00038716028608015051 -0.0025903265261389614 0.011408103353545411 -0.0081302735937693639 -0.0066706670964266192 0.011537463309700955 0.0029665141657024491 -0.0084275443119128188 0.0046935426908471444 -0.0072947576431181549 -0.0075015047150598863 -0.003087231703086054
leaf_weight=164.76815678179264 558.344781473279 1146.6452497392893 9310.1899053156376 909.73441600799561 668.42789694666862 246.99754652380943 378.2009964287281 147.41107006371021 481.97533875703812 233.70264548063278 825.62426142394543 1857.8342851251364 130.57419213652611 3134.1234703958035
leaf_count=675 2282 4688 38160 3728 2726 1013 1553 601 1974 960 3376 7651 536 12880
internal_value=0 -0.00234994 0.00140051 0.00103268 0.00425594 0.00211155 0.00337506 -0.000613425 -0.00126926 0.000170621 0.00770207 -0.00425223 0.00252994 -0.0046542
internal_weight=20194.6 7541.12 12653.4 12095.1 2551.2 2253.82 2006.82 1057.15 860.176 9543.89 1494.05 5287.3 295.342 4991.96
internal_count=82803 30970 51833 49551 10431 9228 8215 4329 3527 39120 6102 21742 1211 20531
is_linear=0
shrinkage=0.005


Tree=6
num_leaves=15
num_cat=0
split_feature=7 0 5 5 5 0 2 2 5 5 2 6 6 0
split_gain=3660.64 1861.92 1620.28 1687.25 1043.12 1020.21 951.121 934.904 899.961 771.046 1695.35 1375.23 999.603 945.81
threshold=23899.325918171362 0.36965170627242366 1.4240810208858479 1.6185745228767636 1.4540056836009208 0.32101375277894162 0.11098661575763104 -0.27588353577809427 1.4105947755517829 2.6912405144658251 -1.1789569320796998e-11 0.43778218401093111 0.354760330283512 0.27277559836493076
decision_type=2 2 2 2 2 2 2 2 2 2 2 2 2 2
left_child=1 5 7 4 -4 -1 9 -3 -9 12 11 -11 -2 -14
right_child=6 2 3 -5 -6 -7 -8 8 -10 10 -12 -13 13 -15
leaf_value=0.00043528563750049731 0.0048425636735361655 -0.0077127325031729442 0.0008530804747407325 -0.0081349685081481236 0.0091327181815388549 -0.0073744559239328133 -0.0083971006038398785 0.00064389292981643486 -0.0080181768794086849 -0.0033777666765362137 0.0076601116853668343 0.011137816010391564 -0.00051265254548121071 0.0032288430567422063
leaf_weight=507.88780306279659 1558.9430051594973 831.61282430589199 773.35742597281933 294.25310224294662 749.79887697100639 2349.8314195424318 233.37980827689171 1357.4650881737471 384.21864815056324 855.95391455292702 1494.9190656840801 201.05528688430786 6293.2899439334869 2307.8718776702881
leaf_count=2081 6374 3429 3166 1212 3061 9689 960 5572 1581 3510 6099 819 25793 9457
internal_value=0 -0.00284487 -0.000799575 0.00281346 0.00493217 -0.00598576 0.00159291 -0.00335233 -0.00126729 0.00177684 0.00423403 -0.000610412 0.00115924 0.000491108
internal_weight=20193.8 7248.43 4390.71 1817.41 1523.16 2857.72 12945.4 2573.3 1741.68 12712 2551.93 1057.01 10160.1 8601.16
internal_count=82803 29791 18021 7439 6227 11770 53012 10582 7153 52052 10428 4329 41624 35250
is_linear=0
shrinkage=0.005


Tree=7
num_leaves=15
num_cat=0
split_feature=7 0 5 5 3 5 5 0 2 7 7 5 7 5
split_gain=3625.1 1846.39 1604.57 1670.71 1105.26 1190.73 1030.57 1012.33 927.585 899.675 1039.14 892.301 838.01 1402.07
threshold=23899.325918171362 0.36965170627242366 1.4240810208858479 1.6185745228767636 -1.4772513054858463 2.729527585112447 1.4540056836009208 0.32101375277894162 -0.27588353577809427 36226.298777936223 29721.721309731682 1.4105947755517829 237485.23868586545 1.7629926497503303
decision_type=2 2 2 2 2 2 2 2 2 2 2 2 2 2
left_child=1 7 8 6 9 12 -4 -1 -3 10 -2 -10 -6 -14
right_child=4 2 3 -5 5 -7 -8 -9 11 -11 -12 -13 13 -15
leaf_value=0.0004330822111319535 0.00099132074853851347 -0.0076845625379031307 0.00084870836938379937 -0.0081056942567147901 0.0029176241757204509 0.0066975367879078263 0.0090754650609316187 -0.0073470706016465727 0.00064060864210386289 -0.0014887094013037955 0.0096560135685474866 -0.007988968773898486 0.0065410826182991768 -0.005639913192593533
leaf_weight=507.92182390391827 2273.2429081946611 830.49267390370369 773.45711816847324 293.84206426143646 3776.9227158129215 1652.5879278182983 750.7570788115263 2346.8066525161266 1357.6043588221073 3711.904716193676 407.90036287903786 383.6983754336834 336.45245642960072 789.23518647253513
leaf_count=2081 9309 3429 3166 1212 15470 6740 3061 9689 5572 15211 1669 1581 1378 3235
internal_value=0 -0.00283217 -0.000795751 0.00279839 0.0015846 0.00302717 0.00490411 -0.00596209 -0.00333754 0.000104924 0.00231203 -0.00126124 0.00178888 -0.00199567
internal_weight=20192.8 7244.58 4389.85 1818.06 12948.2 6555.2 1524.21 2854.73 2571.8 6393.05 2681.14 1741.3 4902.61 1125.69
internal_count=82803 29791 18021 7439 53012 26823 6227 11770 10582 26189 10978 7153 20083 4613
is_linear=0
shrinkage=0.005


Tree=8
num_leaves=15
num_cat=0
split_feature=0 0 2 2 1 2 1 1 8 1 2 0 0 2
split_gain=3342.36 2028.38 1539.37 1837.07 965.483 919.508 766.355 773.672 729.622 639.805 501.751 309.736 269.316 510.195
threshold=0.32365685136445788 0.36965170627242366 -0.27782993080929419 -0.14144412863295716 1.377370618763768 0.11098661575763104 1.2713213455377488 1.6865947598737072 0.0097244141606880816 13.223723747896914 -0.074596326899961721 0.27403848708298501 0.32834694185079599 -0.089520951417959752
decision_type=2 2 2 2 2 2 2 2 2 2 2 2 2 2
left_child=5 12 -3 4 -4 6 11 8 -8 -9 -5 -1 13 -2
right_child=1 2 3 10 -6 -7 7 9 -10 -11 -12 -13 -14 -15
leaf_value=-0.0047282614213121042 -0.0051011286763445888 -0.0070935673076154291 -0.00034129455390144025 -0.0068200128672308005 0.0057050633957762362 -0.0083712763392728567 -0.0031695310937676904 0.0024915240979196248 0.0054297755244392641 -0.00065217553236434755 0.0035128772589211035 0.011272966996246541 -0.007077315894749637 0.011485024878461881
leaf_weight=33.545269414782524 254.54214760661125 793.40552739799023 1290.4960406720638 818.86111761629581 1349.670251339674 233.09646320343018 1418.1090729981661 9107.9370521306992 297.94644203782082 1966.5360328108072 136.4925949126482 269.53172428905964 2165.4634579718113 56.120920524001122
leaf_count=137 1052 3280 5299 3370 5513 960 5821 37255 1220 8061 559 1097 8950 229
internal_value=0 -0.00283425 -0.000791958 0.000598685 0.00274919 0.00146001 0.00163553 0.00144888 -0.00167389 0.00193306 -0.00534006 0.00948881 -0.00645229 -0.00208318
internal_weight=20191.8 6865.05 4388.93 3595.52 2640.17 13326.7 13093.6 12790.5 1716.06 11074.5 955.354 303.077 2476.13 310.663
internal_count=82803 28252 18021 14741 10812 54551 53591 52357 7041 45316 3929 1234 10231 1281
is_linear=0
shrinkage=0.005


Tree=9
num_leaves=15
num_cat=0
split_feature=7 0 5 5 5 0 5 7 1 5 5 1 5 8
split_gain=3559.56 1818.58 1576.03 1645.68 1012.54 994.854 865.369 1280.1 1014.39 726.953 920.162 866.702 722.497 721.591
threshold=23899.325918171362 0.36965170627242366 1.4240810208858479 1.6185745228767636 1.4540056836009208 0.32101375277894162 2.6912405144658251 157807.67965988224 1.2713213455377488 1.3055858094467159 1.2973323870375448 1.7231887547119487 1.2444064146625022 0.09496111294619837
decision_type=2 2 2 2 2 2 2 2 2 2 2 2 2 2
left_child=1 5 12 4 -4 -1 8 -8 -2 10 -10 -11 -3 -9
right_child=6 2 3 -5 -6 -7 7 13 9 11 -12 -13 -14 -15
leaf_value=0.00041758692373912546 0.010712954165698323 0.01142087446188943 0.00083672538900824551 -0.0080645179647471383 0.008986593245401955 -0.0072953855892995793 0.0093155047662914475 0.00041215572996109422 0.0016053093177702193 -0.0033434977277536928 0.011652754713601081 0.00088358579996808688 -0.0037871081000788965 0.0095989609849471934
leaf_weight=508.15495333075523 257.82685950398445 80.075210556387901 773.72657287120819 293.23588854074478 752.19785837829113 2340.881893441081 821.61649906635284 1484.5356454849243 797.12147317826748 1442.9313907623291 319.1422503888607 7581.0546279102564 2488.8209748864174 249.35113441944122
leaf_count=2081 1048 326 3166 1212 3061 9689 3342 6071 3263 5923 1304 31046 10256 1015
internal_value=0 -0.00280864 -0.000788169 0.00277149 0.00485743 -0.00591899 0.00156914 0.00417598 0.000928053 0.000678499 0.00448407 0.000207252 -0.00330996 0.00173714
internal_weight=20190.7 7237.09 4388.06 1819.16 1525.92 2849.04 12953.6 2555.5 10398.1 10140.2 1116.26 9023.99 2568.9 1733.89
internal_count=82803 29791 18021 7439 6227 11770 53012 10428 42584 41536 4567 36969 10582 7086
is_linear=0
shrinkage=0.005


Tree=10
num_leaves=15
num_cat=0
split_feature=0 0 5 5 5 3 5 8 5 5 5 5 6 8
split_gain=3277.02 1994.61 1560.76 1629.66 1000.56 966.585 1298 918.667 913.273 714.982 690.645 711.998 581.482 495.212
threshold=0.32365685136445788 0.36965170627242366 1.4240810208858479 1.6185745228767636 1.4540056836009208 -1.4772513054858463 2.729527585112447 -0.0065085092644376905 1.2554981527120563 1.2444064146625022 3.8368321845812541 1.8200580261946888 0.34552374431403482 0.01142652777000947
decision_type=2 2 2 2 2 2 2 2 2 2 2 2 2 2
left_child=5 8 9 4 -4 7 12 10 -2 -3 11 -1 -7 -11
right_child=1 2 3 -5 -6 6 -8 -9 -10 13 -12 -13 -14 -15
leaf_value=0.00071029804492359874 0.011472441884438826 0.011347405322803948 0.00083243982031803857 -0.008036018281421628 0.0089313623670706204 0.011165677901086675 0.0066105147193587623 -0.0030302283109843861 -0.0069185535234495875 -0.0019876747000998163 -0.006827319727696915 0.0058374939246168493 0.0012321198465026137 -0.0065681300670048437
leaf_weight=3664.508980691433 68.920231357216835 80.19362436234951 773.82339282333851 292.80731070041656 753.06602139770985 151.36495460569859 1655.9842309206724 1751.5143108814955 2401.2203975766897 1520.1187154501677 252.68488101661205 830.60783167183399 5025.36012609303 967.08441163599491
leaf_count=15001 281 326 3166 1212 3061 617 6741 7177 9950 6262 1036 3401 20578 3994
internal_value=0 -0.00280875 -0.0007844 0.0027568 0.0048301 0.00144463 0.00275761 6.38107e-05 -0.00640219 -0.00329532 0.00120596 0.0016588 0.00152411 -0.00377063
internal_weight=20189.3 6857.23 4387.09 1819.7 1526.89 13332 6832.71 6499.32 2470.14 2567.4 4747.8 4495.12 5176.73 2487.2
internal_count=82803 28252 18021 7439 6227 54551 27936 26615 10231 10582 19438 18402 21195 10256
is_linear=0
shrinkage=0.005


Tree=11
num_leaves=15
num_cat=0
split_feature=7 0 2 2 3 8 1 1 2 7 2 0 7 0
split_gain=3492.97 1789.86 1512.44 1737.84 1079.28 1134.69 1020.18 1010.01 1675.92 1270.31 1283.42 980.145 927.488 761.477
threshold=23899.325918171362 0.36965170627242366 -0.28113814835149159 -0.14144412863295716 -1.4772513054858463 -0.0065085092644376905 1.377370618763768 13.223723747896914 -7.4977524189279149e-12 50012.966460191681 0.11098661575763104 0.32101375277894162 21705.266040297709 0.26229958002244153
decision_type=2 2 2 2 2 2 2 2 2 2 2 2 2 2
left_child=1 11 -3 6 5 -2 -4 9 -9 13 -11 -1 -5 -6
right_child=4 2 3 12 7 -7 -8 8 -10 10 -12 -13 -14 -15
leaf_value=0.0004129593745842626 0.0013527055908334436 -0.0074493177092716687 -0.00049374743367616518 -0.0068597992248823295 -0.0014716046556768158 -0.0034247758636706295 0.0056273159855688331 -0.0066071756176879302 0.0059136821222719772 0.0072194960691075128 -0.0082479951576262447 -0.0072441055177191625 0.010224360664202421 0.0037550769570442472
leaf_weight=508.22598637640476 4707.2523979395628 711.74135807156563 1368.9078346937895 866.48003475368023 1203.607842952013 1688.1205039471388 1352.0173017084599 641.54355522990227 457.21747303009033 2467.4492719769478 141.26543819904327 2334.7315558642149 86.906312525272369 1652.3512757718563
leaf_count=2081 19268 2952 5627 3576 4926 6921 5513 2632 1871 10052 582 9689 353 6760
internal_value=0 -0.00278456 -0.000780669 0.000511255 0.00155332 9.10831e-05 0.00254734 0.00297762 -0.00139439 0.00385718 0.00637953 -0.00587457 -0.00529532 0.00155161
internal_weight=20187.8 7229.01 4386.05 3674.31 12958.8 6395.37 2720.93 6563.43 1098.76 5464.67 2608.71 2842.96 953.386 2855.96
internal_count=82803 29791 18021 15069 53012 26189 11140 26823 4503 22320 10634 11770 3929 11686
is_linear=0
shrinkage=0.005


Tree=12
num_leaves=15
num_cat=0
split_feature=7 0 2 2 3 8 0 7 8 7 2 2 0 2
split_gain=3459.2 1775.12 1499.57 1721.32 1067.87 1123.73 972.736 918.742 877.503 1309.51 851.049 738.258 615.285 1283.19
threshold=23899.325918171362 0.36965170627242366 -0.28113814835149159 -0.14144412863295716 -1.4772513054858463 -0.0065085092644376905 0.32101375277894162 21705.266040297709 -0.0096708228780664606 50012.966460191681 -0.18357994613262354 -0.10042141721447483 0.033525966928635888 -0.052962192646758798
decision_type=2 2 2 2 2 2 2 2 2 2 2 2 2 2
left_child=1 6 -3 10 5 -2 -1 -5 12 11 -4 -10 -6 -14
right_child=4 2 3 7 8 -7 -8 -9 9 -11 -12 -13 13 -15
leaf_value=0.00041087080032302424 0.0013456690704467108 -0.0074226354367843477 0.00031822746068045562 -0.0068338143656584624 -0.0012999947112452962 -0.0034094902566804714 -0.0072179363058643212 0.010161033635988493 0.0072186755981131527 0.0074104470685977921 0.0060641271660192711 -0.00051531098187539224 -0.0007981048901366507 0.0087018167224762362
leaf_weight=508.25782698392868 4708.2078727185726 710.73269203305244 1673.1201923489571 865.43040458858013 1503.9869530200958 1687.2148692309856 2331.4902430921793 87.013543993234634 407.44828513264656 1939.286460056901 1048.7247985899448 1264.3681623935699 830.69503238797188 620.18067467212677
leaf_count=2081 19268 2952 6871 3576 6157 6921 9689 353 1665 7894 4269 5170 3402 2535
internal_value=0 -0.00277228 -0.00077696 0.000508695 0.00154524 9.06226e-05 -0.00585182 -0.00527406 0.00296157 0.00461505 0.00253374 0.00136968 0.000939595 0.00326254
internal_weight=20186.2 7224.77 4385.02 3674.29 12961.4 6395.42 2839.75 952.444 6565.97 3611.1 2721.84 1671.82 2954.86 1450.88
internal_count=82803 29791 18021 15069 53012 26189 11770 3929 26823 14729 11140 6835 12094 5937
is_linear=0
shrinkage=0.005


Tree=13
num_leaves=15
num_cat=0
split_feature=7 0 5 5 3 5 8 5 5 0 7 5 5 5
split_gain=3425.79 1760.55 1523.64 1593.33 1056.57 1126.22 1112.87 976.351 976.031 965.417 817.998 1372.68 1304.54 694.727
threshold=23899.325918171362 0.36965170627242366 1.4240810208858479 1.6185745228767636 -1.4772513054858463 2.729527585112447 -0.0065085092644376905 1.4540056836009208 1.3055858094467159 0.32101375277894162 237485.23868586545 1.7629926497503303 1.8757271791555168 1.2444064146625022
decision_type=2 2 2 2 2 2 2 2 2 2 2 2 2 2
left_child=1 9 13 7 6 10 8 -4 -2 -1 12 -12 -6 -3
right_child=4 2 3 -5 5 -7 -8 -9 -10 -11 11 -13 -14 -15
leaf_value=0.00040879292552772743 0.011033800514950022 0.011147590358606392 0.00081718391299158053 -0.0079719760719932694 0.0014459566537277763 0.0065064515911105293 -0.0033942838806342241 0.0088118863680684278 0.00080353287076489945 -0.0071920068482679922 0.0064315100262090554 -0.0056116011896342691 0.0089803617340569984 -0.0037280860944791938
leaf_weight=508.28947293758392 245.57531514763832 80.496416866779327 774.16003783047199 291.77534878253937 3076.9155356287956 1659.5048510432243 1686.3042021244764 754.85620255768299 4463.579104155302 2328.2065374702215 337.37112759053707 788.35678383708 706.37525330483913 2482.6549763679504
leaf_count=2081 1001 326 3166 1212 12586 6740 6921 3061 18267 9689 1378 3235 2884 10256
internal_value=0 -0.00276009 -0.00077327 0.00272287 0.0015372 0.00294562 9.01644e-05 0.00476729 0.00133867 -0.00582926 0.00174082 -0.00199891 0.00285436 -0.00325785
internal_weight=20184.4 7220.44 4383.94 1820.79 12964 6568.52 6395.46 1529.02 4709.15 2836.5 4909.02 1125.73 3783.29 2563.15
internal_count=82803 29791 18021 7439 53012 26823 26189 6227 19268 11770 20083 4613 15470 10582
is_linear=0
shrinkage=0.005


Tree=14
num_leaves=15
num_cat=0
split_feature=7 0 5 5 5 0 2 2 5 5 2 8 1 5
split_gain=3392.75 1746.12 1508.94 1577.95 965.038 958.185 925.621 899.17 885.887 716.792 1642.55 969.022 958.595 638.46
threshold=23899.325918171362 0.36965170627242366 1.4240810208858479 1.6185745228767636 1.4540056836009208 0.32101375277894162 0.11098661575763104 -0.27588353577809427 1.4105947755517829 2.6912405144658251 -1.1789569320796998e-11 0.039667859983011373 1.2713213455377488 1.3055858094467159
decision_type=2 2 2 2 2 2 2 2 2 2 2 2 2 2
left_child=1 5 7 4 -4 -1 9 -3 -9 12 11 -11 -2 -14
right_child=6 2 3 -5 -6 -7 -8 8 -10 10 -12 -13 13 -15
leaf_value=0.0004067259099920499 0.010614685429895489 -0.0075427923856332801 0.00081300207293851011 -0.0079444789290274761 0.0087590152719846711 -0.0071663131163419496 -0.0083397788566854109 0.00069540260267307 -0.0079168447168189056 -0.0026268125215766986 0.0074363367699329073 0.011123220527584446 0.0044247529374138572 0.00041336263135742068
leaf_weight=508.32092694938183 258.31996081769466 824.36772610247135 774.25347205996513 291.32416477799416 755.61666376888752 2324.8813326209784 232.74378718435764 1354.8820590227842 382.34921772778034 910.6673751026392 1501.9497906714678 148.57927505671978 1117.8760065287352 8796.2777196764946
leaf_count=2081 1048 3429 3166 1212 3061 9689 960 5572 1581 3728 6099 601 4567 36009
internal_value=0 -0.00274799 -0.000769605 0.00270864 0.00474082 -0.00580688 0.00152923 -0.00324352 -0.00120037 0.00171013 0.00407445 -0.000691415 0.00111443 0.000866122
internal_weight=20182.4 7216 4382.79 1821.19 1529.87 2833.2 12966.4 2561.6 1737.23 12733.7 2561.2 1059.25 10172.5 9914.15
internal_count=82803 29791 18021 7439 6227 11770 53012 10582 7153 52052 10428 4329 41624 40576
is_linear=0
shrinkage=0.005


Tree=15
num_leaves=15
num_cat=0
split_feature=7 7 1 1 3 8 6 1 7 1 6 8 7 1
split_gain=3360.1 1435.13 2624.13 1300.08 1042.88 1103.84 1020.53 982.295 1230.19 999.769 839.791 796.51 685.539 665.155
threshold=23899.325918171362 18848.639990258187 1.377370618763768 1.0121726571201608 -1.4772513054858463 -0.0065085092644376905 0.48526919057537993 13.223723747896914 50012.966460191681 16.575623424657369 0.36677525491930107 0.16157075394286499 1040154.8986812589 1.8123639707822552
decision_type=2 2 2 2 2 2 2 2 2 2 2 2 2 2
left_child=1 2 3 11 5 -2 -5 8 10 -9 -6 -1 -10 -4
right_child=4 -3 13 6 7 -7 -8 9 12 -11 -12 -13 -14 -15
leaf_value=0.0087626279637729541 0.0013266106500320416 -0.0049040071733016093 0.0067568564557722553 -0.006171241107000556 0.0091560744653146169 -0.003387370696066963 0.0074195794302851815 -0.0063841068506877872 0.0072471083227095869 0.0031600515989936625 0.00055486287439581556 -0.0082140460103921568 -0.00039596547285573799 -0.0082198170977686013
leaf_weight=300.07869632542133 4710.6099841743708 3707.9371390789747 1076.1969040930271 1810.0355934500694 319.13043539226055 1685.8518551141024 148.95398408174515 524.19578950107098 2279.1125568598509 574.38220843672752 2539.5474568009377 89.140431508421898 335.9553736448288 79.05583530664444
leaf_count=1230 19268 15371 4370 7511 1302 6921 609 2155 9264 2348 10384 370 1370 330
internal_value=0 -0.00273602 -0.000440406 -0.00347609 0.00152131 8.3635e-05 -0.00513494 0.00292002 0.00378606 -0.00139258 0.00151737 0.0048626 0.00626437 0.0057267
internal_weight=20180.2 7211.4 3503.46 2348.21 12968.8 6396.46 1958.99 6572.32 5473.75 1098.58 2858.68 389.219 2615.07 1155.25
internal_count=82803 29791 14420 9720 53012 26189 8120 26823 22320 4503 11686 1600 10634 4700
is_linear=0
shrinkage=0.005


Tree=16
num_leaves=15
num_cat=0
split_feature=7 0 5 5 0 5 2 2 5 5 2 6 6 0
split_gain=3327.69 1721.18 1477.82 1550.47 952.004 948.677 919.83 889.414 877.198 702.27 1617.86 1319.04 972.894 910.138
threshold=23899.325918171362 0.36965170627242366 1.4240810208858479 1.6185745228767636 0.32101375277894162 1.4540056836009208 0.11098661575763104 -0.27588353577809427 1.4105947755517829 2.6912405144658251 -1.1789569320796998e-11 0.43778218401093111 0.354760330283512 0.27277559836493076
decision_type=2 2 2 2 2 2 2 2 2 2 2 2 2 2
left_child=1 4 7 5 -1 -4 9 -3 -9 12 11 -11 -2 -14
right_child=6 2 3 -5 -6 -7 -8 8 -10 10 -12 -13 13 -15
leaf_value=0.00042946411708537585 0.0047324385427780381 -0.0074944969501371528 0.00079559886005003229 -0.0078975579415137172 -0.0071228985648331749 0.0086698402523358118 -0.0083276995271568 0.00070542034276208922 -0.007872534338765563 -0.0034135593440742075 0.0073657855275395421 0.010760752048159348 -0.00054013183731105047 0.0031261936187793279
leaf_weight=507.97293834388256 1563.1465877741575 822.10735908150673 774.61442509293556 290.52546125650406 2319.0970670729876 756.84597572684288 232.60395163297653 1354.405175447464 381.46726557612419 856.84218233823776 1503.9942528158426 202.47015555202961 6298.0267444849014 2314.0317179858685
leaf_count=2081 6374 3429 3166 1212 9689 3061 960 5572 1581 3510 6099 819 25793 9457
internal_value=0 -0.002724 -0.000760066 0.00268005 -0.00576516 0.00469023 0.00151343 -0.0032114 -0.00117992 0.00169364 0.00403279 -0.000698215 0.00110395 0.000444832
internal_weight=20178.2 7207.04 4379.97 1821.99 2827.07 1531.46 12971.1 2557.98 1735.87 12738.5 2563.31 1059.31 10175.2 8612.06
internal_count=82803 29791 18021 7439 11770 6227 53012 10582 7153 52052 10428 4329 41624 35250
is_linear=0
shrinkage=0.005


Tree=17
num_leaves=15
num_cat=0
split_feature=7 0 5 5 0 5 2 2 5 5 2 1 4 5
split_gain=3295.72 1707.12 1463.66 1535.62 944.951 937.871 911.533 882.692 869.831 694.818 1599.68 944.002 738.035 630.354
threshold=23899.325918171362 0.36965170627242366 1.4240810208858479 1.6185745228767636 0.32101375277894162 1.4540056836009208 0.11098661575763104 -0.27588353577809427 1.4105947755517829 2.6912405144658251 -1.1789569320796998e-11 1.2713213455377488 50000000.726348177 3.1309111071935258
decision_type=2 2 2 2 2 2 2 2 2 2 2 2 2 2
left_child=1 4 7 5 -1 -4 9 -3 -9 11 12 -2 -11 -12
right_child=6 2 3 -5 -6 -7 -8 8 -10 10 13 -13 -14 -15
leaf_value=0.00042729066457794984 0.010517287900334555 -0.007468488019645547 0.00079153151121460325 -0.0078708515606972316 -0.0070978250817826166 0.008618840817479833 -0.0082984150087168258 0.00070181266203468414 -0.0078448759468472441 0.010938765744178467 0.010914891512967881 0.00085173052523615522 -0.0021924632400793197 0.0043977287175323999
leaf_weight=508.00638908147812 258.78562998771667 820.85037258267403 774.70417003333569 290.05655509233475 2315.6632876843214 757.51904079318047 232.26028628647327 1354.562882617116 380.9013078212738 120.23828077316284 674.60802684724331 9917.9527916461229 938.84701113402843 830.64209024608135
leaf_count=2081 1048 3429 3166 1212 9689 3061 960 5572 1581 485 2726 40576 3844 3373
internal_value=0 -0.0027122 -0.00075652 0.00266621 -0.00574326 0.00466447 0.0015056 -0.00319745 -0.0011743 0.00168483 0.00401102 0.00109827 -0.000694853 0.00732284
internal_weight=20175.6 7202.26 4378.59 1822.28 2823.67 1532.22 12973.3 2556.31 1735.46 12741.1 2564.34 10176.7 1059.09 1505.25
internal_count=82803 29791 18021 7439 11770 6227 53012 10582 7153 52052 10428 41624 4329 6099
is_linear=0
shrinkage=0.005


Tree=18
num_leaves=15
num_cat=0
split_feature=7 7 1 1 3 6 1 2 7 2 7 7 1 6
split_gain=3264.12 1408.1 2544.85 1283.1 1027.57 1003.83 964.03 1633.54 1206.47 1230.93 865.15 1028.82 877.709 931.258
threshold=23899.325918171362 18848.639990258187 1.377370618763768 1.0121726571201608 -1.4772513054858463 0.48526919057537993 13.223723747896914 -7.4977524189279149e-12 50012.966460191681 0.11098661575763104 36226.298777936223 29721.721309731682 5.7988372634751251 0.40055262070634717
decision_type=2 2 2 2 2 2 2 2 2 2 2 2 2 2
left_child=1 2 3 -1 10 -5 8 -8 -6 -10 11 -2 -12 -14
right_child=4 -3 -4 5 6 -7 7 -9 9 -11 12 -13 13 -15
leaf_value=0.0048592618421007764 0.00091867299116338763 -0.0048516097300934889 0.0056384081774933179 -0.0061076843470555088 0.0014962771535286343 0.0073650851641758452 -0.0065478943504091881 0.0058108245766908774 0.0070128103367856718 -0.0081633446409465245 -0.0060276964547810886 0.0095285140278255648 0.0028422194448766902 -0.0028515121215417633
leaf_weight=389.15749059617519 2277.4852421432734 3698.1362544447184 1157.039372369647 1803.9085305780172 2860.2961584329605 149.1484245210886 639.96244388818741 458.37891158461571 2477.6877943873405 140.67023545503616 828.31369300186634 409.06772756576538 1348.2487045526505 1535.3815535008907
leaf_count=1600 9309 15371 4700 7511 11686 609 2632 1871 10052 582 3395 1669 5519 6297
internal_value=0 -0.00270049 -0.000426018 -0.00342344 0.00149783 -0.00507591 0.00288559 -0.00138757 0.00374276 0.00619512 7.08412e-05 0.00223211 -0.00149281 -0.000188495
internal_weight=20172.9 7197.39 3499.25 2342.21 12975.5 1953.06 6577 1098.34 5478.65 2618.36 6398.5 2686.55 3711.94 2883.63
internal_count=82803 29791 14420 9720 53012 8120 26823 4503 22320 10634 26189 10978 15211 11816
is_linear=0
shrinkage=0.005


Tree=19
num_leaves=15
num_cat=0
split_feature=7 7 1 1 3 6 1 2 7 2 7 7 1 6
split_gain=3232.66 1396.03 2519.3 1271.3 1016.81 994.666 953.795 1617.93 1192.99 1218.07 856.443 1016.79 870.007 922.01
threshold=23899.325918171362 18848.639990258187 1.377370618763768 1.0121726571201608 -1.4772513054858463 0.48526919057537993 13.223723747896914 -7.4977524189279149e-12 50012.966460191681 0.11098661575763104 36226.298777936223 29721.721309731682 5.7988372634751251 0.40055262070634717
decision_type=2 2 2 2 2 2 2 2 2 2 2 2 2 2
left_child=1 2 3 -1 10 -5 8 -8 -6 -10 11 -2 -12 -14
right_child=4 -3 -4 5 6 -7 7 -9 9 -11 12 -13 13 -15
leaf_value=0.0048312028342622363 0.00091395898907289453 -0.0048318837052268426 0.0056065234887312434 -0.0060845344453408544 0.0014884755577711218 0.0073207916909043668 -0.0065223235423520912 0.0057770944771931851 0.0069721341777012258 -0.0081348803381379418 -0.0060032390138572032 0.0094685217692077848 0.0028268062964865765 -0.0028385343332480535
leaf_weight=389.46269701421261 2277.7878216803074 3694.6783953458071 1157.8023347109556 1801.7253809571266 2860.9124360084534 149.30320557951927 639.26279751956463 458.75190731883049 2479.6800638884306 140.45891542732716 827.53385303914547 409.6030710041523 1348.8232679069042 1534.6932759732008
leaf_count=1600 9309 15371 4700 7511 11686 609 2632 1871 10052 582 3395 1669 5519 6297
internal_value=0 -0.00268864 -0.000423999 -0.00340883 0.0014901 -0.00505579 0.00287025 -0.00138105 0.00372241 0.00615993 7.0484e-05 0.00222027 -0.00148572 -0.000187559
internal_weight=20170.5 7192.97 3498.29 2340.49 12977.5 1951.03 6579.07 1098.01 5481.05 2620.14 6398.44 2687.39 3711.05 2883.52
internal_count=82803 29791 14420 9720 53012 8120 26823 4503 22320 10634 26189 10978 15211 11816
is_linear=0
shrinkage=0.005


Tree=20
num_leaves=15
num_cat=0
split_feature=5 1 5 5 2 6 5 6 1 2 2 5 1 6
split_gain=2350.83 2315.43 1432.32 1171.69 1570.31 1288.47 1150.07 1342.06 722.662 666.367 647.997 617.777 556.989 1058.65
threshold=1.4240810208858479 1.6865947598737072 1.4383997967466688 2.6912405144658251 -1.1789569320796998e-11 0.43778218401093111 1.3443872906516852 0.44100974570787127 2.3769597273842602 0.11098661575763104 -0.10276335023496276 3.1309111071935258 1.0121726571201608 0.43778218401093111
decision_type=2 2 2 2 2 2 2 2 2 2 2 2 2 2
left_child=1 12 -2 9 5 -5 7 8 -3 -4 -9 -6 13 -1
right_child=2 6 3 4 11 -7 -8 10 -10 -11 -12 -13 -14 -15
leaf_value=0.011623277468210189 0.0091193344311713727 0.0084413521560205169 0.00035221613131158262 -0.0034030209382419525 0.010776819868578671 0.010592138116722808 -0.0081546081055860007 0.011322600272904269 0.0012143170186393387 -0.0082282722346239106 -0.0055438605552199632 0.0043316560476589338 -0.0044430268757210184 -0.0073321179165749331
leaf_weight=154.74106562137604 561.11096078157425 920.1776622235775 9312.0125171095133 856.36311110854149 676.02975754439831 202.99560175836086 247.16652235388756 64.203793913125992 555.78355991840363 231.39610330760479 471.70035009086132 832.32516166567802 4942.2812986820936 139.56805212795734
leaf_count=632 2282 3742 38160 3510 2726 819 1013 261 2269 960 1943 3376 20531 579
internal_value=0 -0.00221962 0.00131276 0.000950516 0.00394842 -0.000715161 0.00201035 0.00326212 0.00572299 0.000143486 -0.00350985 0.00722459 -0.0040449 0.00262853
internal_weight=20167.9 7495.62 12672.2 12111.1 2567.71 1059.36 2259.03 2011.87 1475.96 9543.41 535.904 1508.35 5236.59 294.309
internal_count=82803 30970 51833 49551 10431 4329 9228 8215 6011 39120 2204 6102 21742 1211
is_linear=0
shrinkage=0.005


Tree=21
num_leaves=15
num_cat=0
split_feature=7 0 2 2 5 3 5 5 0 7 7 1 1 7
split_gain=3183.94 1669.17 1414.91 1646.65 1372.94 1003.8 1030.68 940.227 937.076 847.067 1002.58 860.453 818.574 790.516
threshold=23899.325918171362 0.36965170627242366 -0.28113814835149159 -0.14144412863295716 1.4540056836009208 -1.4772513054858463 2.729527585112447 1.2444064146625022 0.32101375277894162 36226.298777936223 29721.721309731682 5.7988372634751251 1.2713213455377488 237485.23868586545
decision_type=2 2 2 2 2 2 2 2 2 2 2 2 2 2
left_child=1 8 -3 4 -4 9 13 -5 -1 10 12 -11 -2 -7
right_child=5 2 3 7 -6 6 -8 -9 -10 11 -12 -13 -14 -15
leaf_value=0.00047296236259216268 0.010238512068567756 -0.0072332875531330634 0.00025574749492817658 0.011115242394855226 0.0081442912718552134 0.002788297421120254 0.0062460696129658377 -0.0066886106755719293 -0.0070279759618209012 -0.005976218585312951 0.0093961951128065067 -0.00019013349359952073 -5.421448455314274e-05 -0.0019833587434372742
leaf_weight=507.28703950345516 212.54565422236919 702.83603890240192 1954.1953958719969 80.54149617254734 768.36766122281551 3789.3227028846741 1667.2615022808313 866.84335412085056 2305.6934887468815 826.63511772453785 410.21541693806648 2883.6238113939762 2065.4854506552219 1124.8158723562956
leaf_count=2081 859 2952 8037 326 3103 15470 6740 3603 9689 3395 1669 11816 8450 4613
internal_value=0 -0.00267022 -0.000736556 0.000507776 0.00248407 0.00147812 0.00284906 -0.00516732 -0.00567454 6.74976e-05 0.0022049 -0.00148056 0.00090706 0.0016955
internal_weight=20165.7 7185.76 4372.78 3669.95 2722.56 12979.9 6581.4 947.385 2812.98 6398.51 2688.25 3710.26 2278.03 4914.14
internal_count=82803 29791 18021 15069 11140 53012 26823 3929 11770 26189 10978 15211 9309 20083
is_linear=0
shrinkage=0.005


Tree=22
num_leaves=15
num_cat=0
split_feature=7 7 1 1 3 8 6 1 2 7 2 6 8 2
split_gain=3153.45 1369.39 2468.84 1249.69 993.267 1084.07 975.596 931.457 1602.02 1165.12 1193.58 826.954 771.179 641.88
threshold=23899.325918171362 18848.639990258187 1.377370618763768 1.0121726571201608 -1.4772513054858463 -0.0065085092644376905 0.48526919057537993 13.223723747896914 -7.4977524189279149e-12 50012.966460191681 0.11098661575763104 0.36677525491930107 0.16157075394286499 -0.13737095593116752
decision_type=2 2 2 2 2 2 2 2 2 2 2 2 2 2
left_child=1 2 3 12 5 -2 -5 9 -9 11 -11 -6 -1 -4
right_child=4 -3 13 6 7 -7 -8 8 -10 10 -12 -13 -14 -15
leaf_value=0.0086052579481830545 0.0012980526240263235 -0.004784889575845044 0.0065564972356176379 -0.0060357624648039203 0.0090375561000430819 -0.0033741605930464077 0.0072292003076414226 -0.0064913702431143592 0.0057485013519441913 0.0068837775191801657 -0.0080880277889368961 0.000512467215489818 -0.0081255846347298901 -0.0081596833801565443
leaf_weight=301.15795370936394 4713.4376222491264 3685.615476205945 1079.9931027442217 1796.6939804404974 319.93523398041725 1684.8678221851587 149.61173592507839 638.39156849682331 459.06382700800896 2483.5126256942749 140.09824946522713 2542.551272675395 88.678110435605049 78.987402006983757
leaf_count=1230 19268 15371 4369 7511 1302 6921 609 2632 1871 10052 582 10384 370 331
internal_value=0 -0.00265874 -0.000415626 -0.00337601 0.00147051 6.7159e-05 -0.00501321 0.00283388 -0.00136889 0.00367512 0.00608196 0.00146759 0.00478746 0.00554831
internal_weight=20162.6 7180.74 3495.12 2336.14 12981.9 6398.31 1946.31 6583.55 1097.46 5486.1 2623.61 2862.49 389.836 1158.98
internal_count=82803 29791 14420 9720 53012 26189 8120 26823 4503 22320 10634 11686 1600 4700
is_linear=0
shrinkage=0.005


Tree=23
num_leaves=15
num_cat=0
split_feature=7 0 2 2 5 3 8 5 5 5 0 7 5 5
split_gain=3123.23 1645.57 1394.51 1619.24 1346.78 982.95 1073.62 1006.62 952.036 932.103 931.281 777.586 1322.14 1257.71
threshold=23899.325918171362 0.36965170627242366 -0.28113814835149159 -0.14144412863295716 1.4540056836009208 -1.4772513054858463 -0.0065085092644376905 2.729527585112447 1.3055858094467159 1.2444064146625022 0.32101375277894162 237485.23868586545 1.7629926497503303 1.8757271791555168
decision_type=2 2 2 2 2 2 2 2 2 2 2 2 2 2
left_child=1 10 -3 4 -4 6 8 11 -2 -5 -1 13 -13 -7
right_child=5 2 3 9 -6 7 -8 -9 -10 -11 -12 12 -14 -15
leaf_value=0.00049485620719888002 0.010848323181693417 -0.0071880493004972982 0.00025643231176342455 0.011076333172883732 0.0080663391564534011 0.0013784148430054338 -0.0033591367750510732 0.0061736736085049003 0.00076237403770499951 -0.0066466744454588148 -0.0069867284483588225 0.0062789314609227077 -0.0055317332168381486 0.0087613481732679663
leaf_weight=506.93973548710346 246.4777048677206 700.76635929942131 1953.8641533404589 80.59595263004303 769.28230555355549 3082.1210115104914 1683.9459420442581 1669.314989387989 4467.8459815829992 864.87842200696468 2299.5597317814827 338.57971075177193 785.64117942750454 709.636250436306
leaf_count=2081 1001 2952 8037 326 3103 12586 6921 6740 18267 3603 9689 1378 3235 2884
internal_value=-2.95954e-10 -0.00264725 -0.000727454 0.000506755 0.00246471 0.00146296 6.68192e-05 0.00281896 0.00129132 -0.0051282 -0.00563459 0.00167879 -0.0019713 0.00276178
internal_weight=20159.4 7175.89 4369.39 3668.62 2723.15 12983.6 6398.27 6585.29 4714.32 945.474 2806.5 4915.98 1124.22 3791.76
internal_count=82803 29791 18021 15069 11140 53012 26189 26823 19268 3929 11770 20083 4613 15470
is_linear=0
shrinkage=0.005


Tree=24
num_leaves=15
num_cat=0
split_feature=7 0 2 2 0 1 7 2 1 1 2 8 8 0
split_gain=3093.39 1632.29 1382.93 1604.04 924.52 904.444 882.931 878.082 650.799 723.793 1011.73 710.017 446.573 298.986
threshold=23899.325918171362 0.36965170627242366 -0.28113814835149159 -0.14144412863295716 0.32101375277894162 1.377370618763768 21705.266040297709 0.11098661575763104 1.2713213455377488 1.6865947598737072 -0.10486789696258984 0.031237459240424387 0.13483478698860882 0.27403848708298501
decision_type=2 2 2 2 2 2 2 2 2 2 2 2 2 2
left_child=1 4 -3 5 12 -4 -5 8 13 11 -11 -10 -1 -2
right_child=7 2 3 6 -6 -7 -8 -9 9 10 -12 -13 -14 -15
leaf_value=-0.0016432287862536499 -0.0048675189013090434 -0.0071637922901187749 -0.00042229122158286099 -0.006653499639219327 -0.0069628447787929218 0.0053379203567596924 0.0099921231754743593 -0.0081945775601449007 -0.0028899183191968096 0.0088154588328626556 0.0015954762593119495 0.0064858173278297994 0.010764611395543647 0.0110248760416536
leaf_weight=419.86723883450031 33.067511647939682 699.62801852822304 1364.4879519641399 857.14952281117439 2295.9211643189192 1359.2743714749813 87.267675876617432 230.95777067542076 1451.4433120638132 508.99406139552593 10278.447704046965 233.94595965743065 87.112533882260323 248.43723195791245
leaf_count=1724 135 2952 5627 3576 9689 5513 353 960 5951 2064 41946 953 357 1003
internal_value=-2.52796e-09 -0.00263593 -0.000724082 0.000504285 -0.00561363 0.00245184 -0.00510826 0.00145545 0.00163071 0.00146058 0.00193677 -0.00158547 0.000492345 0.00914386
internal_weight=20156 7170.71 4367.81 3668.18 2802.9 2723.76 944.417 12985.3 12754.3 12472.8 10787.4 1685.39 506.98 281.505
internal_count=82803 29791 18021 15069 11770 11140 3929 53012 52052 50914 44010 6904 2081 1138
is_linear=0
shrinkage=0.005


Tree=25
num_leaves=15
num_cat=0
split_feature=0 0 2 2 5 5 3 5 5 8 5 5 6 2
split_gain=2853.49 1797.24 1371.46 1588.97 1324.53 915.236 860.275 1114.54 854.118 846.665 665.005 695.916 554.967 552.795
threshold=0.32365685136445788 0.36965170627242366 -0.28113814835149159 -0.14144412863295716 1.4540056836009208 1.2444064146625022 -1.4772513054858463 2.729527585112447 1.2554981527120563 -0.0065085092644376905 3.8368321845812541 1.8200580261946888 0.34552374431403482 -7.4977524189279149e-12
decision_type=2 2 2 2 2 2 2 2 2 2 2 2 2 2
left_child=6 8 -3 4 -4 -5 9 12 -2 10 11 -1 -8 -14
right_child=1 2 3 5 -6 -7 7 -9 -10 -11 -12 -13 13 -15
leaf_value=0.00063665081492764359 0.011134646192030665 -0.0071397526281192485 0.0002485157474600184 0.010948580456425565 0.0079902473349564799 -0.0065984559457960192 0.010819046953817621 0.0061281876221594336 -0.0065991406338401825 -0.0029394589085138764 -0.0067637300317439017 0.0056976252407340833 -0.0001259764862055314 0.0033020197244861766
leaf_weight=3670.9875013828278 69.371289476752281 698.47832001745701 1954.3030689656734 80.765921235084534 770.15664005279541 862.58040696382523 152.3786016702652 1670.7396324127913 2356.660925373435 1745.687594294548 251.96445317566395 833.47555100917816 3166.2211776524782 1869.2310795485973
leaf_count=15001 281 2952 8037 326 3103 3603 617 6741 9950 7177 1036 3401 12961 7617
internal_value=-8.77453e-09 -0.00263874 -0.000720724 0.000501808 0.00243895 -0.00508849 0.00134133 0.00257661 -0.00608883 3.78598e-05 0.0011313 0.00157418 0.00143186 0.00114625
internal_weight=20153 6792.32 4366.28 3667.81 2724.46 943.346 13360.7 6858.57 2426.03 6502.12 4756.43 4504.46 5187.83 5035.45
internal_count=82803 28252 18021 15069 11140 3929 54551 27936 10231 26615 19438 18402 21195 20578
is_linear=0
shrinkage=0.005


Tree=26
num_leaves=15
num_cat=0
split_feature=7 5 1 5 5 5 5 5 7 6 1 6 1 1
split_gain=3035.53 1398.26 2282.24 1165.47 1461.49 786.358 741.026 1164.92 1469.3 1212.46 1116.11 1046.64 915.775 705.108
threshold=23899.325918171362 1.4240810208858479 1.8010616780652036 1.5255848766099067 1.4383997967466688 1.2444064146625022 2.6912405144658251 3.8368321845812541 1160310.2408759205 0.43092330768136727 8.1905299248869934 0.354760330283512 1.2713213455377488 1.0121726571201608
decision_type=2 2 2 2 2 2 2 2 2 2 2 2 2 2
left_child=1 5 3 4 -3 -1 11 8 -8 -9 -11 -2 -13 -7
right_child=6 2 -4 -5 -6 13 7 9 -10 10 -12 12 -14 -15
leaf_value=0.010883238800945683 0.0046125943982109141 0.0082936557745147878 -0.0080571540088227814 0.0078878211647996216 -0.0025775085864568835 0.0026345964436060355 0.0085841119650218265 -0.0048457588039078972 -0.0073415625730174497 0.010082381902399649 -0.0063012179834789185 0.01090121149025554 -6.118232931428378e-05 -0.0053960059280034854
leaf_weight=80.847369268536568 1567.2464264333248 408.86609518527985 684.68675476312637 669.77911278605461 1262.42905177176 294.03940035402775 1289.8060255795717 597.99868187308311 162.58599337935448 377.97896879911423 142.72542615234852 194.28917688131332 8656.5290255397558 3759.7127595990896
leaf_count=326 6374 1664 2890 2701 5199 1211 5204 2454 664 1526 580 783 35427 15800
internal_value=-1.08332e-08 -0.00261386 -3.01304e-05 0.00231766 8.22056e-05 -0.00450384 0.00144074 0.00384474 0.0067977 7.41118e-06 0.00558509 0.000847061 0.000179779 -0.00481264
internal_weight=20149.5 7160.36 3025.76 2341.07 1671.3 4134.6 12989.2 2571.1 1452.39 1118.7 520.704 10418.1 8850.82 4053.75
internal_count=82803 29791 12454 9564 6863 17337 53012 10428 5868 4560 2106 42584 36210 17011
is_linear=0
shrinkage=0.005


Tree=27
num_leaves=15
num_cat=0
split_feature=7 5 2 2 5 5 5 5 2 6 6 5 8 7
split_gain=3006.52 1386.31 2531.04 869.326 865.269 1260.2 778.746 633.191 1527.34 1248.38 928.96 594.411 542.848 533.197
threshold=23899.325918171362 1.4240810208858479 -0.14144412863295716 0.11098661575763104 1.5255848766099067 1.4383997967466688 1.2444064146625022 2.6912405144658251 -1.1789569320796998e-11 0.43933242362555802 0.354760330283512 3.1309111071935258 0.028848231367475805 18130.456999495469
decision_type=2 2 2 2 2 2 2 2 2 2 2 2 2 2
left_child=1 6 4 7 5 -3 -1 10 9 -9 -2 -10 13 -8
right_child=3 2 -4 -5 -6 -7 12 8 11 -11 -12 -13 -14 -15
leaf_value=0.010818986221234752 0.0045868708337008599 0.0082434457027494076 -0.0069962910496061993 -0.0081741880969579059 0.0077138076706723922 -0.0021020748798502558 -0.00056274045087026674 -0.0033910578484438463 0.010528523473868505 0.010469097942434261 0.00040316814212061505 0.0042135068535583678 -0.0073848155833710471 -0.0051810526927374943
leaf_weight=80.923649504780769 1568.1559893786907 409.30162097513676 910.8665167093277 230.68736809492111 660.69369006156921 1043.9729493558407 985.55909456312656 860.46888987720013 678.18155387043953 199.71878646314144 8620.2285417318344 833.26889924705029 1349.4286758601665 1714.4535399824381
leaf_count=326 6374 1664 3841 960 2664 4285 4109 3526 2726 803 35250 3373 5699 7203
internal_value=-1.407e-08 -0.00260267 -2.99958e-05 0.00143337 0.0029714 0.000811761 -0.00448592 0.00160757 0.00382469 -0.000774012 0.00104755 0.00705123 -0.00479368 -0.00349662
internal_weight=20145.9 7155.2 3024.83 12990.7 2113.97 1453.27 4130.36 12760 2571.64 1060.19 10188.4 1511.45 4049.44 2700.01
internal_count=82803 29791 12454 53012 8613 5949 17337 52052 10428 4329 41624 6099 17011 11312
is_linear=0
shrinkage=0.005


Tree=28
num_leaves=15
num_cat=0
split_feature=7 0 5 5 0 5 5 5 7 6 1 6 0 1
split_gain=2977.84 1586.99 1314.17 1431.38 904.697 880.208 725.892 1145.71 1444.16 1190.81 1101.19 1024.42 1031.59 1033.49
threshold=23899.325918171362 0.36965170627242366 1.4240810208858479 1.6185745228767636 0.32101375277894162 1.4540056836009208 2.6912405144658251 3.8368321845812541 1160310.2408759205 0.43092330768136727 8.1905299248869934 0.354760330283512 0.27277559836493076 2.3556680730507984
decision_type=2 2 2 2 2 2 2 2 2 2 2 2 2 2
left_child=1 4 -3 5 -1 -4 11 8 -8 -9 -11 -2 13 -13
right_child=6 2 3 -5 -6 -7 7 9 -10 10 -12 12 -14 -15
leaf_value=0.00050157117143279008 0.0045613530586742232 -0.0030355003152369481 0.00069124811006862326 -0.0077133362862598885 -0.0068782960296207424 0.0082596719754018336 0.0084992095730495685 -0.0048167685887876331 -0.0072993550274067847 0.0099818108452837794 -0.0062905370904783242 -0.0060576042348689726 0.0030431790902424893 -8.0410836726549955e-05
leaf_weight=506.78507608175278 1569.0447437018156 2535.7885965108871 776.56651136279106 286.88469535112381 2282.4847309738398 761.46783189475536 1291.2866251319647 597.33851116895676 162.3346381187439 378.51216533780098 142.68003766238689 827.83351047337055 2318.4111933261156 5704.803912371397
leaf_count=2081 6374 10582 3166 1212 9689 3061 5204 2454 664 1526 580 3399 9457 23354
internal_value=-1.75636e-08 -0.00259157 -0.000706765 0.00252767 -0.0055367 0.0044414 0.00142603 0.00380482 0.00673127 0 0.00552059 0.000838448 0.000177978 -0.000838645
internal_weight=20142.2 7149.98 4360.71 1824.92 2789.27 1538.03 12992.2 2572.15 1453.62 1118.53 521.192 10420.1 8851.05 6532.64
internal_count=82803 29791 18021 7439 11770 6227 53012 10428 5868 4560 2106 42584 36210 26753
is_linear=0
shrinkage=0.005


Tree=29
num_leaves=15
num_cat=0
split_feature=7 5 7 3 8 5 5 5 7 5 5 7 5 5
split_gain=2949.45 1362.82 1848.88 955.352 1044.88 949.064 931.427 771.054 768.105 1306.55 1238.38 614.591 1382.17 589.37
threshold=23899.325918171362 1.4240810208858479 18848.639990258187 -1.4772513054858463 -0.0065085092644376905 2.729527585112447 1.3055858094467159 1.2444064146625022 237485.23868586545 1.7629926497503303 1.8757271791555168 16509.280144030075 1.4540056836009208 3.8368321845812541
decision_type=2 2 2 2 2 2 2 2 2 2 2 2 2 2
left_child=1 7 11 4 6 8 -2 -1 10 -10 -5 -3 -13 -8
right_child=3 2 -4 5 -6 -7 13 -9 9 -11 -12 12 -14 -15
leaf_value=0.010773458537956559 0.010688154692974636 0.0112774063654598 -0.0041448845785561003 0.0013500459947574403 -0.0033395253564619328 0.0060078772362716802 0.0011693786279003398 -0.0047573588304017271 0.0062126756579287705 -0.0055228466538528578 0.0086703509768602891 -0.0037108433430275696 0.0065547598553402572 -0.0067045986978854812
leaf_weight=80.975322037935257 247.1818934828043 227.9377119988203 1434.2757949084044 3084.0580107718706 1682.5451762974262 1672.9817075133324 4220.2759647667408 4040.9760519266129 339.07679492235184 785.3273708820343 710.88612170517445 549.43850906193256 811.06413227319717 251.2695627361536
leaf_count=326 1001 925 6009 12586 6921 6740 17231 17011 1378 3235 2884 2244 3276 1036
internal_value=-2.63325e-08 -0.00258054 -2.95787e-05 0.00141875 4.24666e-05 0.00275466 0.00124913 -0.00445038 0.00164729 -0.00198046 0.00272294 0.00368488 0.00240732 0.000725657
internal_weight=20138.3 7144.67 3022.72 12993.6 6401.27 6592.33 4718.73 4121.95 4919.35 1124.4 3794.94 1588.44 1360.5 4471.55
internal_count=82803 29791 12454 53012 26189 26823 19268 17337 20083 4613 15470 6445 5520 18267
is_linear=0
shrinkage=0.005


Tree=30
num_leaves=15
num_cat=0
split_feature=7 0 2 2 3 0 1 2 7 2 7 7 7 1
split_gain=2921.25 1566.41 1340.83 1599.84 945.459 899.053 893.686 1558.92 1099.67 1147.59 845.58 812.789 988.244 849.364
threshold=23899.325918171362 0.36965170627242366 -0.27782993080929419 -0.14144412863295716 -1.4772513054858463 0.32101375277894162 13.223723747896914 -7.4977524189279149e-12 50012.966460191681 0.11098661575763104 21705.266040297709 36226.298777936223 29721.721309731682 5.7988372634751251
decision_type=2 2 2 2 2 2 2 2 2 2 2 2 2 2
left_child=1 5 -3 -4 11 -1 8 -8 -6 -10 -5 12 -2 -13
right_child=4 2 3 10 6 -7 7 -9 9 -11 -12 13 -14 -15
leaf_value=0.00052019869171004865 0.00084521984928379327 -0.0066661601074297803 0.0025821201108944627 -0.0065382669316607581 0.0014185695808329641 -0.00684023569606124 -0.006443478072119503 0.0056266302379179471 0.0066796572196582086 -0.0080249022934682935 0.0097279912604126603 -0.0059459210680647698 0.0092634488998429108 -0.0001938403029605177
leaf_weight=506.4846513569355 2281.0314779877663 773.28598687052727 2644.855823174119 851.275191411376 2865.9713800549507 2276.1601207256317 636.96709014475346 460.32227645814419 2491.0573565214872 139.58637234568596 87.60710845887661 825.40587815642357 411.26328107714653 2883.3200521618128
leaf_count=2081 9309 3280 10812 3576 11686 9689 2632 1871 10052 582 353 3395 1669 11816
internal_value=-2.68237e-08 -0.00256944 -0.000696975 0.000591087 0.00141151 -0.00549977 0.00274024 -0.00137743 0.00356275 0.00589708 -0.00501343 4.22512e-05 0.00213356 -0.00147531
internal_weight=20134.6 7139.67 4357.02 3583.74 12994.9 2782.64 6593.9 1097.29 5496.62 2630.64 938.882 6401.02 2692.29 3708.73
internal_count=82803 29791 18021 14741 53012 11770 26823 4503 22320 10634 3929 26189 10978 15211
is_linear=0
shrinkage=0.005


Tree=31
num_leaves=15
num_cat=0
split_feature=0 0 2 2 5 5 2 5 1 5 2 1 0 5
split_gain=2696.2 1727.16 1329.98 1528.11 1256.51 875.997 835.993 829.494 712.212 821.048 1435.52 491.307 288.821 149.473
threshold=0.32365685136445788 0.36965170627242366 -0.28113814835149159 -0.14144412863295716 1.4540056836009208 1.2444064146625022 0.11098661575763104 1.2554981527120563 1.2713213455377488 2.6912405144658251 -1.1789569320796998e-11 1.6865947598737072 0.27403848708298501 1.2701328053404703
decision_type=2 2 2 2 2 2 2 2 2 2 2 2 2 2
left_child=6 7 -3 4 -4 -5 8 -2 12 11 -11 -10 -1 -9
right_child=1 2 3 5 -6 -7 -8 13 9 10 -12 -13 -14 -15
leaf_value=-0.0047430913483660006 0.010975412771233829 -0.0070405473469992543 0.00026681924970668784 0.010655207264912422 0.0078020848139204501 -0.0064843414686300569 -0.0081341972584303233 -0.0030394654588938451 -0.001810706952542629 -0.00070145440195294739 0.0069302125411682238 0.0011407430254367849 0.010712120890661311 -0.0069489538788003891
leaf_weight=33.4746373295784 69.560488685965538 693.47483050823212 1952.4414308518171 81.099906459450722 771.91234332323074 856.63339018821716 230.13667988777161 281.49732486903667 1685.6829006224871 1037.8808340877295 1513.7691429108381 8595.2860810905695 272.12363477051258 2055.4943411797285
leaf_count=137 281 2952 8037 326 3103 3603 960 1195 6910 4239 6100 35108 1097 8755
internal_value=-3.50279e-08 -0.00257291 -0.000693731 0.000508255 0.0024038 -0.00499447 0.00130126 -0.00597211 0.00146704 0.00128696 0.00382553 0.000656511 0.00900604 -0.00647987
internal_weight=20130.5 6762.11 4355.56 3662.09 2724.35 937.733 13368.4 2406.55 13138.2 12832.6 2551.65 10281 305.598 2336.99
internal_count=82803 28252 18021 15069 11140 3929 54551 10231 53591 52357 10339 42018 1234 9950
is_linear=0
shrinkage=0.005


Tree=32
num_leaves=15
num_cat=0
split_feature=7 0 0 7 1 3 0 1 7 1 6 7 7 1
split_gain=2867.83 1542.81 958.616 1016.44 951.476 935.412 885.956 883.718 1082.24 940.876 808.976 805.12 977.283 840.387
threshold=23899.325918171362 0.36965170627242366 0.50812750212998947 18848.639990258187 1.377370618763768 -1.4772513054858463 0.32101375277894162 13.223723747896914 50012.966460191681 16.575623424657369 0.36677525491930107 36226.298777936223 29721.721309731682 5.7988372634751251
decision_type=2 2 2 2 2 2 2 2 2 2 2 2 2 2
left_child=1 6 3 4 -3 11 -1 8 10 -9 -7 12 -2 -13
right_child=5 2 -4 -5 -6 7 -8 9 -10 -11 -12 13 -14 -15
leaf_value=0.00051159948078747088 0.00083498926975382384 -0.00075590781378779258 -0.0069874979043116313 -0.0035714146852746367 0.0053291371358632333 0.0088850744305483086 -0.0067964333118922552 -0.0062446882249814206 0.0058515662940162383 0.0030225360067526199 0.00046474782550801459 -0.0059244152063873739 0.0092021543673784963 -0.0002008920379144797
leaf_weight=506.61359731853008 2281.460847273469 1441.7704406231642 530.25006926059723 1224.4631412774324 1157.164330676198 320.87500707805157 2268.6616950780153 520.89673821628094 2632.0483925193548 576.16001236438751 2545.7224585562944 824.65507799386978 411.74340546131134 2883.841824606061
leaf_count=2081 9309 5966 2263 5110 4682 1302 9689 2155 10634 2348 10384 3395 1669 11816
internal_value=-4.11413e-08 -0.00254854 -0.000690569 0.00018287 0.00195297 0.00139763 -0.00546163 0.00271904 0.00353661 -0.00137622 0.00140954 3.56811e-05 0.00211658 -0.00147493
internal_weight=20126.3 7128.92 4353.65 3823.4 2598.93 12997.4 2775.28 6595.7 5498.65 1097.06 2866.6 6401.7 2693.2 3708.5
internal_count=82803 29791 18021 15758 10648 53012 11770 26823 22320 4503 11686 26189 10978 15211
is_linear=0
shrinkage=0.005


Tree=33
num_leaves=15
num_cat=0
split_feature=7 5 2 2 5 5 5 1 5 1 5 2 5 1
split_gain=2840.52 1322.44 2430.51 848.706 826.445 1235.85 750.137 692.279 872.602 631.386 736.411 1416.61 618.049 548.107
threshold=23899.325918171362 1.4240810208858479 -0.14144412863295716 0.11098661575763104 1.5255848766099067 1.4383997967466688 1.2444064146625022 1.0121726571201608 1.4144015254286681 1.2713213455377488 2.6912405144658251 -1.1789569320796998e-11 1.3055858094467159 1.2713213455377488
decision_type=2 2 2 2 2 2 2 2 2 2 2 2 2 2
left_child=1 6 4 9 5 -3 -1 8 -8 -2 12 -12 -11 -9
right_child=3 2 -4 -5 -6 -7 7 13 -10 10 11 -13 -14 -15
leaf_value=0.010614904236262305 0.008952746089641991 0.0081438974363807412 -0.0068868118124062851 -0.0081185535028207578 0.0075360564890903058 -0.0020954621901732706 0.010263109946351196 -0.0074052419929622557 -0.0070940041253530319 0.0042739193865035888 -0.00070757338668962658 0.0068729033469962925 0.00033340181536698393 -0.0035451008176667839
leaf_weight=81.139058008790016 282.23614010214806 410.11699464917183 903.67906355857849 229.91962812840939 661.98244416713715 1042.829281821847 165.61702521145344 1666.616743773222 127.76184532046318 1121.5752649456263 1037.8268238157034 1514.5983842611313 8812.4905382841825 2063.8793447762728
leaf_count=326 1138 1664 3841 960 2664 4285 675 7110 536 4567 4239 6099 36009 8690
internal_value=-4.71463e-08 -0.0025377 -2.4557e-05 0.00139051 0.00290734 0.000794846 -0.0043849 -0.00468926 0.00269665 0.00156224 0.00139464 0.00379014 0.000778738 -0.00527107
internal_weight=20122.3 7123.62 3018.61 12998.6 2114.93 1452.95 4105.01 4023.87 293.379 12768.7 12486.5 2552.43 9934.07 3730.5
internal_count=82803 29791 12454 53012 8613 5949 17337 17011 1211 52052 50914 10338 40576 15800
is_linear=0
shrinkage=0.005


Tree=34
num_leaves=15
num_cat=0
split_feature=7 5 1 5 5 3 8 5 5 7 5 5 5 1
split_gain=2813.56 1311.31 2170.06 1090.12 1397.83 924.39 1035.82 913.384 902.823 750.802 1278.21 1210.06 743.001 686.476
threshold=23899.325918171362 1.4240810208858479 1.8010616780652036 1.5255848766099067 1.4383997967466688 -1.4772513054858463 -0.0065085092644376905 1.3055858094467159 2.729527585112447 237485.23868586545 1.7629926497503303 1.8757271791555168 1.2444064146625022 1.0121726571201608
decision_type=2 2 2 2 2 2 2 2 2 2 2 2 2 2
left_child=1 12 3 4 -3 6 7 -2 9 11 -11 -7 -1 -14
right_child=5 2 -4 -5 -6 8 -8 -9 -10 10 -12 -13 13 -15
leaf_value=0.010555038113321978 0.010567878478416719 0.0080955593664331343 -0.0079082255885186623 0.0076305545197348883 -0.0025242359794851849 0.0013212699274901757 -0.003338245932458832 0.00071177165372086882 0.0058666230779665434 0.0061189410677523195 -0.0054838200128561601 0.0085506104768470325 0.0026828259279350571 -0.0052513723695935466
leaf_weight=81.193957462906837 247.67978122830391 410.50494533777237 676.67729894816875 671.76477637887001 1258.526217892766 3086.0015373080969 1682.2911995053291 4472.3495886474848 1675.7657822519541 339.74979284405708 783.86372308433056 712.4303892403841 293.4105618596077 3725.7860008627176
leaf_count=326 1001 1664 2890 2701 5199 12586 6921 18267 6740 1378 3235 2884 1211 15800
internal_value=-5.08569e-08 -0.00252707 -2.44476e-05 0.00225473 8.78903e-05 0.0013834 2.94886e-05 0.00123056 0.00269672 0.00161649 -0.00197208 0.0026788 -0.00436791 -0.00467127
internal_weight=20118 7117.86 3017.47 2340.8 1669.03 13000.1 6402.32 4720.03 6597.81 4922.05 1123.61 3798.43 4100.39 4019.2
internal_count=82803 29791 12454 9564 6863 53012 26189 19268 26823 20083 4613 15470 17337 17011
is_linear=0
shrinkage=0.005


Tree=35
num_leaves=15
num_cat=0
split_feature=7 7 2 3 8 2 7 8 7 2 2 7 2 3
split_gain=2786.86 1243.63 1758.65 914.876 1025.86 775.58 1344.77 753.555 1127.04 726.451 660.511 544.148 817.053 710.944
threshold=23899.325918171362 18848.639990258187 -0.18357994613262354 -1.4772513054858463 -0.0065085092644376905 -0.28113814835149159 17323.340016597602 -0.0096708228780664606 50012.966460191681 -0.10042141721447483 -0.14144412863295716 237485.23868586545 -0.052962192646758798 -0.72269878601108473
decision_type=2 2 2 2 2 2 2 2 2 2 2 2 2 2
left_child=1 2 5 4 -2 -1 -7 11 9 -9 -4 12 -5 -13
right_child=3 -3 10 7 -6 6 -8 8 -10 -11 -12 13 -14 -15
leaf_value=-0.0069628810309245656 0.0012242301070969326 -0.0045608213497649822 0.0074898600458241371 -0.00090801419058792951 -0.0033234063887960285 0.0020097664437522776 -0.0070115813127194374 0.0069859273805169698 0.0067845684250915188 -0.0006670141237867254 -0.0058164719414874957 0.0031723661329821746 0.0059966159764723624 -0.0046191820509906226
leaf_weight=689.26617302000523 4720.7290226370096 3635.689729526639 750.62398935854435 833.06315222382545 1681.3584633916616 1332.7886012941599 597.9406735599041 409.58292707800865 1958.1192643195391 1269.7234883010387 105.89341503381729 467.3503133058548 880.2569168061018 781.0185122936964
leaf_count=2952 19268 15371 3013 3402 6921 5486 2524 1665 7894 5170 445 1897 3584 3211
internal_value=-5.01404e-08 -0.00251644 -0.000377392 0.00137637 2.93431e-05 -0.00241144 -0.000783914 0.00268271 0.00420733 0.00119957 0.00583941 0.000808993 0.00263865 -0.00170017
internal_weight=20113.4 7112.2 3476.51 13001.2 6402.09 2620 1930.73 6599.11 3637.43 1679.31 856.517 2961.69 1713.32 1248.37
internal_count=82803 29791 14420 53012 26189 10962 8010 26823 14729 6835 3458 12094 6986 5108
is_linear=0
shrinkage=0.005


Tree=36
num_leaves=15
num_cat=0
split_feature=7 0 5 5 0 5 5 5 7 8 1 1 5 5
split_gain=2760.34 1503.73 1218.65 1360.51 873.648 837.737 676.484 1094.6 1404.55 1144.09 992.979 917.584 679.381 872.087
threshold=23899.325918171362 0.36965170627242366 1.4240810208858479 1.6185745228767636 0.32101375277894162 1.4540056836009208 2.6912405144658251 3.8368321845812541 1160310.2408759205 0.040919193645974614 8.1905299248869934 1.2713213455377488 1.3055858094467159 1.2973323870375448
decision_type=2 2 2 2 2 2 2 2 2 2 2 2 2 2
left_child=1 4 -3 5 -1 -4 11 8 -8 -9 -11 -2 13 -13
right_child=6 2 3 -5 -6 -7 7 9 -10 10 -12 12 -14 -15
leaf_value=0.00054155004274827488 0.010057929768311505 -0.0029248051929716148 0.00063702922631984015 -0.0075992023579511368 -0.0067225573875796243 0.0080142518127212081 0.0082591866571436554 -0.004079472804207309 -0.0073176541082630867 0.010495086976222338 -0.0072866009908293151 0.001430551560051161 0.00010841731386450695 0.011174332930944891
leaf_weight=506.0717011988163 260.59815920889378 2520.3595756739378 777.39739440381527 284.27293074131012 2255.4573541581631 763.28195974230766 1294.5311364233494 684.84191355109215 162.36303159594536 331.49482546746731 102.26589471101761 800.4541964828968 9043.8136228770018 322.06426559388638
leaf_count=2081 1048 10582 3166 1212 9689 3061 5204 2812 664 1334 414 3263 36969 1304
internal_value=-5.69657e-08 -0.00250577 -0.000671425 0.0024392 -0.00539059 0.00429488 0.00136936 0.00366413 0.0065196 -5.39121e-05 0.00629346 0.000802155 0.000564169 0.00423212
internal_weight=20109.3 7106.84 4345.31 1824.95 2761.53 1540.68 13002.4 2575.5 1456.89 1118.6 433.761 10426.9 10166.3 1122.52
internal_count=82803 29791 18021 7439 11770 6227 53012 10428 5868 4560 1748 42584 41536 4567
is_linear=0
shrinkage=0.005


Tree=37
num_leaves=15
num_cat=0
split_feature=0 0 2 2 2 3 2 1 1 8 2 1 1 2
split_gain=2549.09 1660.4 1283.84 1523.9 823.564 844.768 1057.32 1696.29 1584.46 874.211 837.808 761.828 615.363 441.92
threshold=0.32365685136445788 0.36965170627242366 -0.27782993080929419 -0.14144412863295716 0.11098661575763104 -1.4772513054858463 -7.4977524189279149e-12 13.223723747896914 5.6700294892772565 -0.0065085092644376905 0.08171010176738043 1.377370618763768 2.2247194709530858 -0.074596326899961721
decision_type=2 2 2 2 2 2 2 2 2 2 2 2 2 2
left_child=4 -2 -3 11 5 9 7 -7 -8 10 -1 -4 -11 -5
right_child=1 2 3 13 -6 6 8 -9 -10 12 -12 -13 -14 -15
leaf_value=0.00080034099264889903 -0.0058604698295356287 -0.0065411532034381336 -0.00023490803672681859 -0.0063267724239280537 -0.0081095213302478271 0.0024732353674527317 -0.0049879723910894024 -0.0063839129464230574 0.0068100500220310009 0.0069192825730497644 0.011115985789631891 0.0051316230270814058 -0.003792959122354167 0.0034121917098504156
leaf_weight=4465.6794272363186 2386.1746511608362 765.97030514478683 1283.610780403018 796.58279430866241 229.79240438342094 3611.7448774725199 327.18668141961098 635.11268071830273 2157.5510331839323 145.74213925004005 205.47724288702011 1361.6475314795971 1596.5261154770851 135.73660413920879
leaf_count=18220 10231 3280 5299 3370 960 14684 1334 2632 8704 600 840 5513 6577 559
internal_value=-5.92067e-08 -0.00251 -0.000668343 0.000589083 0.00126271 0.00142704 0.0026642 0.00114747 0.00525481 0.000128009 0.00125579 0.00252702 -0.00289371 -0.00490513
internal_weight=20104.5 6729.72 4343.55 3577.58 13374.8 13145 6731.6 4246.86 2484.74 6413.42 4671.16 2645.26 1742.27 932.319
internal_count=82803 28252 18021 14741 54551 53591 27354 17316 10038 26237 19060 10812 7177 3929
is_linear=0
shrinkage=0.005


Tree=38
num_leaves=15
num_cat=0
split_feature=0 0 5 5 5 5 1 5 6 5 6 6 8 1
split_gain=2524.98 1647.42 1196.99 1341.24 825.043 805.129 721.601 877.749 1051.99 1033.58 1096.78 720.403 640.064 597.857
threshold=0.32365685136445788 0.36965170627242366 1.4240810208858479 1.6185745228767636 1.4540056836009208 1.2554981527120563 1.2713213455377488 2.6912405144658251 0.354760330283512 3.8368321845812541 0.43092330768136727 0.34994100355667151 0.01142652777000947 1.0121726571201608
decision_type=2 2 2 2 2 2 2 2 2 2 2 2 2 2
left_child=6 5 12 4 -4 -2 -1 8 -8 11 -11 -9 13 -3
right_child=1 2 3 -5 -6 -7 7 9 -10 10 -12 -13 -14 -15
leaf_value=0.008837614811159366 0.010835581953301351 0.011386623713060441 0.00062676201403864622 -0.0075664043827528187 0.0079464918811495578 -0.0063459157160616429 0.0043055860095525499 -0.0064792965670365469 -0.00020739971117352169 -0.0046783572070884698 0.0053344719627432518 0.007418306499757792 -0.0061567364785955715 -0.001716761834731321
leaf_weight=306.27307215332985 69.711180433630943 91.953811794519424 777.58909095823765 283.48348766565323 763.67851664125919 2312.8692288994789 1506.6919764727354 99.551677793264389 9008.623478770256 579.8853270560503 516.71184350550175 1357.9123977273703 943.35064426064491 1481.6724846512079
leaf_count=1234 281 374 3166 1212 3061 9950 6112 406 36866 2387 2084 5462 3994 6214
internal_value=-6.8233e-08 -0.00249948 -0.000665294 0.00241692 0.00425662 -0.00583999 0.00125631 0.00107813 0.000439182 0.00370716 3.76468e-05 0.00646542 -0.00290086 -0.000946112
internal_weight=20100 6724.31 4341.73 1824.75 1541.27 2382.58 13375.6 13069.4 10515.3 2554.06 1096.6 1457.46 2516.98 1573.63
internal_count=82803 28252 18021 7439 6227 10231 54551 53317 42978 10339 4471 5868 10582 6588
is_linear=0
shrinkage=0.005


Tree=39
num_leaves=15
num_cat=0
split_feature=7 0 0 7 3 8 0 8 7 0 8 7 0 7
split_gain=2688.94 1472.46 918.119 960.872 891.659 1002.21 854.809 730.805 1096.01 676.694 648.805 647.821 575.776 671.025
threshold=23899.325918171362 0.36965170627242366 0.50812750212998947 18848.639990258187 -1.4772513054858463 -0.0065085092644376905 0.32101375277894162 -0.0096708228780664606 50012.966460191681 0.25949869031556921 -0.019449756788795274 21705.266040297709 0.033525966928635888 29877.689921728346
decision_type=2 2 2 2 2 2 2 2 2 2 2 2 2 2
left_child=1 6 3 10 5 -2 -1 12 9 -9 -3 -5 -6 -14
right_child=4 2 -4 11 7 -7 -8 8 -10 -11 -12 -13 13 -15
leaf_value=0.0005242772992627247 0.0012004249343403985 0.0066190830219083905 -0.0068599479139153209 -0.0044915145594304077 -0.0013759527556278569 -0.0032960882583207064 -0.0066627320992814643 -0.0026419206163668957 0.0066801035451047605 0.0038106022191519472 0.00058182809919160214 0.0095681986130899174 0.00079987139129268994 0.0081905777320539896
leaf_weight=506.34566739201546 4723.0152237564325 570.16869716346264 524.76452311873436 1130.0005402863026 1503.3882724642754 1679.4407148212194 2244.2626777887344 686.04933844506741 1960.0051275789738 994.24518957734108 2027.0327321439981 87.764788493514061 1018.7340055257082 439.81361736357212
leaf_count=2081 19268 2318 2263 4757 6157 6921 9689 2794 7894 4041 8330 353 4158 1779
internal_value=-7.05886e-08 -0.00247713 -0.000662276 0.000190371 0.00135031 2.03801e-05 -0.00533895 0.00263952 0.00414006 0.0011746 0.00190918 -0.00347266 0.000794076 0.00303224
internal_weight=20095 7090.34 4339.73 3814.97 13004.7 6402.46 2750.61 6602.24 3640.3 1680.29 2597.2 1217.77 2961.94 1458.55
internal_count=82803 29791 18021 15758 53012 26189 11770 26823 14729 6835 10648 5110 12094 5937
is_linear=0
shrinkage=0.005


Tree=40
num_leaves=15
num_cat=0
split_feature=7 5 1 5 5 5 1 6 5 5 7 6 1 6
split_gain=2663.4 1254.42 2090.06 1039.76 1373.09 726.572 671.089 1006.15 656.007 1062.44 1375.78 1124.54 1070.83 987.977
threshold=23899.325918171362 1.4240810208858479 1.8010616780652036 1.5255848766099067 1.4383997967466688 1.2444064146625022 1.0121726571201608 0.43778218401093111 2.6912405144658251 3.8368321845812541 1160310.2408759205 0.43092330768136727 8.1905299248869934 0.354760330283512
decision_type=2 2 2 2 2 2 2 2 2 2 2 2 2 2
left_child=1 5 3 4 -3 -1 7 -7 13 10 -10 -11 -13 -2
right_child=8 2 -4 -5 -6 6 -8 -9 9 11 -12 12 -14 -15
leaf_value=0.010475196571613539 0.0044362154018235313 0.0080199797571861124 -0.0077998372123450578 0.0074569653258831385 -0.0025025173717200724 0.011404094753867833 -0.0051537528492847139 -0.0071208219225395372 0.0081333185940079405 -0.0047590290565356795 -0.0072898872937809623 0.0096768585846851787 -0.0063594922903940998 0.00013611821346864685
leaf_weight=81.260913282632828 1572.7982416749001 411.08252763748169 670.22364175319672 672.57113161683083 1255.9356437325478 155.44076970219612 3700.6019455641508 137.70578351616859 1295.8289316743612 595.55881977081299 162.1808073669672 379.61613708734512 142.76906315982342 8857.0095515549183
leaf_count=326 6374 1664 2890 2701 5199 632 15800 579 5204 2454 664 1526 580 36210
internal_value=-7.33685e-08 -0.00246668 -1.77176e-05 0.00221175 9.24317e-05 -0.00427465 -0.00457667 0.00269618 0.00134345 0.00360305 0.0064141 -6.20949e-05 0.00528742 0.000784987
internal_weight=20090.6 7084.82 3009.81 2339.59 1667.02 4075.01 3993.75 293.147 13005.8 2575.95 1458.01 1117.94 522.385 10429.8
internal_count=82803 29791 12454 9564 6863 17337 17011 1211 53012 10428 5868 4560 2106 42584
is_linear=0
shrinkage=0.005


Tree=41
num_leaves=15
num_cat=0
split_feature=0 0 0 3 8 1 0 6 1 1 1 1 1 1
split_gain=2452.88 1612.91 906.307 773.217 782.098 749.027 997.74 1060.4 911.741 739.385 718.423 609.907 604.361 828.272
threshold=0.32365685136445788 0.36965170627242366 0.50812750212998947 -1.4772513054858463 -0.0065085092644376905 13.223723747896914 0.062895132533388728 0.36677525491930107 16.575623424657369 1.8010616780652036 1.7349039597213354 2.2247194709530858 1.2713213455377488 1.6730100612926369
decision_type=2 2 2 2 2 2 2 2 2 2 2 2 2 2
left_child=3 -2 9 4 12 6 -5 -8 -7 10 -3 -6 -1 -14
right_child=1 2 -4 5 11 8 7 -9 -10 -11 -12 -13 13 -15
leaf_value=0.0085753875728201406 -0.0057827378285338592 -9.0388232239851322e-05 -0.0068222458154852837 0.0052824382300835429 0.0068993896734385642 -0.0061853971942765571 0.0090411129735985789 4.5710730990444617e-06 0.0029410493102302636 -0.0078753050004851128 0.0065094684335959361 -0.0037634176191856522 -0.0040173977092433834 0.0016152282160508834
leaf_weight=252.14821472764015 2371.5545711368322 3073.1193129718304 523.05438424646854 2780.5817721188068 145.81368857622147 519.33208931982517 370.0118456184864 2626.7493589818478 577.05016830563545 263.72974261641502 475.61106584966183 1594.5111235380173 790.82512252032757 3721.2491569072008
leaf_count=1015 10231 12714 2263 11220 600 2155 1497 10716 2348 1136 1908 6577 3244 15179
internal_value=-7.68284e-08 -0.00246785 -0.000653548 0.00123698 8.8317e-07 0.00240623 0.00312534 0.00112247 -0.00138052 0.0001929 0.000794232 -0.00286687 0.00104916 0.000627116
internal_weight=20085.3 6707.07 4335.51 13378.3 6504.55 6873.73 5777.34 2996.76 1096.38 3812.46 3548.73 1740.32 4764.22 4512.07
internal_count=82803 28252 18021 54551 26615 27936 23433 12213 4503 15758 14622 7177 19438 18423
is_linear=0
shrinkage=0.005


Tree=42
num_leaves=15
num_cat=0
split_feature=7 0 5 5 3 5 0 5 7 7 7 5 5 5
split_gain=2617.26 1444.53 1164.06 1304.21 870.339 839.884 839.395 808.784 772.178 966.776 725.931 1237.42 1172.97 692.883
threshold=23899.325918171362 0.36965170627242366 1.4240810208858479 1.6185745228767636 -1.4772513054858463 2.729527585112447 0.32101375277894162 1.4540056836009208 36226.298777936223 29721.721309731682 237485.23868586545 1.7629926497503303 1.8757271791555168 1.6086194565321621
decision_type=2 2 2 2 2 2 2 2 2 2 2 2 2 2
left_child=1 6 -3 7 8 10 -1 -4 9 -2 12 -12 -6 -10
right_child=4 2 3 -5 5 -7 -8 -9 13 -11 11 -13 -14 -15
leaf_value=0.00051767970303303744 0.000778293404603151 -0.0028593662363506716 0.00060369656532132223 -0.0074930884457093359 0.0012689200684850128 0.0056594099748807913 -0.0066070068141345726 0.0078491019951637681 -0.0083373646009309351 0.0090929530320245731 0.0059749336628495036 -0.0054342403911539564 0.008377825602637598 -0.00078286610144495932
leaf_weight=506.41071356832981 2283.7684229463339 2510.3242380023003 777.9475479722023 281.65883296728134 3089.6280075609684 1678.124657407403 2233.4251743257046 764.1061304807663 333.21049638092518 412.52903510630131 340.70544190704823 781.93974328041077 714.40044029057026 3372.6149840950966
leaf_count=2081 9309 10582 3166 1212 12586 6740 9689 3061 1365 1669 1378 3235 2884 13846
internal_value=-8.13579e-08 -0.00244783 -0.000650517 0.00238852 0.00133099 0.0026043 -0.00528937 0.00419688 1.68714e-05 0.0020528 0.00156269 -0.00196839 0.00260556 -0.00146384
internal_weight=20080.8 7073.87 4334.04 1823.71 13006.9 6604.8 2739.84 1542.05 6402.12 2696.3 4926.67 1122.65 3804.03 3705.83
internal_count=82803 29791 18021 7439 53012 26823 11770 6227 26189 10978 20083 4613 15470 15211
is_linear=0
shrinkage=0.005


Tree=43
num_leaves=15
num_cat=0
split_feature=0 0 2 2 2 3 2 1 1 8 1 2 2 1
split_gain=2405.85 1587.59 1243.12 1472.5 814.435 807.258 1014.36 1650.88 1541.86 843.187 735.138 733.266 432.174 410.746
threshold=0.32365685136445788 0.36965170627242366 -0.27782993080929419 -0.14144412863295716 0.11098661575763104 -1.4772513054858463 -7.4977524189279149e-12 13.223723747896914 5.6700294892772565 -0.035345980331963248 1.377370618763768 0.08171010176738043 -0.074596326899961721 2.2247194709530858
decision_type=2 2 2 2 2 2 2 2 2 2 2 2 2 2
left_child=4 -2 -3 10 5 9 7 -7 -8 11 -4 -1 -5 -11
right_child=1 2 3 12 -6 6 8 -9 -10 13 -12 -13 -14 -15
leaf_value=0.0010286989291551428 -0.0057423925647343962 -0.0064509816792889989 -0.00022555708345954416 -0.0062441693442887814 -0.0080990373247621841 0.0024158292620197657 -0.0049761897387835636 -0.0063315408067247904 0.0066631575353115783 0.0038263979862677641 0.0050467773091828162 0.010991444160897737 0.0033997274206335154 -0.0029571727980399753
leaf_weight=3844.5382881909609 2363.8417227864265 760.29465390741825 1282.6242398917675 791.74137428402901 229.64026722311974 3614.8940204530954 327.03783574700356 633.38246285915375 2161.055573374033 248.56549237668514 1362.0304318070412 193.60548101365566 135.44716617465019 2126.7766681015491
leaf_count=15664 10231 3280 5299 3370 960 14684 1334 2632 8704 1022 5513 790 559 8761
internal_value=-8.46386e-08 -0.00244682 -0.000647552 0.000587783 0.00122428 0.00138759 0.00259633 0.00111049 0.00513157 0.000117507 0.00248926 0.00150828 -0.00483158 -0.0022456
internal_weight=20075.5 6695.98 4332.14 3571.84 13379.5 13149.9 6736.37 4248.28 2488.09 6413.49 2644.65 4038.14 927.189 2375.34
internal_count=82803 28252 18021 14741 54551 53591 27354 17316 10038 26237 10812 16454 3929 9783
is_linear=0
shrinkage=0.005


Tree=44
num_leaves=15
num_cat=0
split_feature=0 0 2 2 2 3 2 1 1 1 1 6 2 0
split_gain=2383.19 1575.29 1233.39 1406.76 807.309 799.005 1003.71 1635.45 1525.79 796.091 741.991 720.658 428.655 322.285
threshold=0.32365685136445788 0.36965170627242366 -0.28113814835149159 -0.14144412863295716 0.11098661575763104 -1.4772513054858463 -7.4977524189279149e-12 13.223723747896914 5.6700294892772565 1.377370618763768 1.2713213455377488 0.35414815338681921 -0.074596326899961721 0.27403848708298501
decision_type=2 2 2 2 2 2 2 2 2 2 2 2 2 2
left_child=4 -2 -3 9 5 10 7 -7 -8 -4 13 -12 -5 -1
right_child=1 2 3 12 -6 6 8 -9 -10 -11 11 -13 -14 -15
leaf_value=-0.006865026067670971 -0.0057226736053280223 -0.0068199388069089964 -0.00038510022003285515 -0.0062224754711581497 -0.0080723308738169484 0.0024030874013487784 -0.0049547982390202713 -0.0063076764766555162 0.0066268612529186924 0.0050194861854970744 0.0032505901884207918 -0.0010684439049601826 0.0033812669013428736 0.010561650826186294
leaf_weight=29.572949856519699 2360.1379560232162 680.90877191722393 1360.6407280117273 790.53394834697247 229.25062930583954 3615.8910557478666 326.81024938821793 632.60372543334961 2162.0278112590313 1362.5899346917868 1198.6270490586758 4961.9396985024214 135.50832025706768 223.24459514021873
leaf_count=121 10231 2952 5627 3370 960 14684 1334 2632 8704 5513 4858 20362 559 896
internal_value=-9.33923e-08 -0.00243667 -0.000644619 0.00050771 0.00121811 0.00138056 0.00258297 0.00110487 0.00510438 0.00231863 0.000116925 -0.000227512 -0.00481339 0.0085038
internal_weight=20070.3 6690.32 4330.18 3649.27 13380 13150.7 6737.33 4248.49 2488.84 2723.23 6413.38 6160.57 926.042 252.818
internal_count=82803 28252 18021 15069 54551 53591 27354 17316 10038 11140 26237 25220 3929 1017
is_linear=0
shrinkage=0.005


Tree=45
num_leaves=15
num_cat=0
split_feature=7 0 0 7 3 8 0 8 7 0 8 7 0 7
split_gain=2552.55 1416.54 883.139 923.999 844.949 969.139 820.533 699.488 1052.97 672.324 630.915 627.517 559.602 652.32
threshold=23899.325918171362 0.36965170627242366 0.50812750212998947 18848.639990258187 -1.4772513054858463 -0.0065085092644376905 0.32101375277894162 -0.0096708228780664606 50012.966460191681 0.25949869031556921 -0.019449756788795274 21705.266040297709 0.033525966928635888 29877.689921728346
decision_type=2 2 2 2 2 2 2 2 2 2 2 2 2 2
left_child=1 6 3 10 5 -2 -1 12 9 -9 -3 -5 -6 -14
right_child=4 2 -4 11 7 -7 -8 8 -10 -11 -12 -13 13 -15
leaf_value=0.00049402892212348042 0.0011774414806274603 0.0065185092083490303 -0.0067523148333298345 -0.0044177077016946268 -0.0013796403496201027 -0.0032472821753159685 -0.0065513217857015704 -0.0026740345595185348 0.0065226137860282972 0.0037546658070854106 0.00056591859012968026 0.0094120774228498971 0.00076462128798430768 0.0080449255472309061
leaf_weight=506.77748253941536 4724.8228357583284 570.51357820630074 519.74755404889584 1124.6461778432131 1501.978316411376 1676.1077822744846 2222.1829011142254 686.53747671842575 1962.2672565877438 995.4829733222723 2025.3677777647972 87.904115632176399 1019.6084915548563 440.80626937747002
leaf_count=2081 19268 2318 2263 4757 6157 6921 9689 2794 7894 4041 8330 353 4158 1779
internal_value=-1.03855e-07 -0.0024213 -0.000641707 0.000192346 0.00131334 1.82573e-05 -0.00524221 0.00256761 0.00403447 0.00112921 0.00187612 -0.00340959 0.000761888 0.00296579
internal_weight=20064.8 7057.14 4328.18 3808.43 13007.6 6400.93 2728.96 6606.68 3644.29 1682.02 2595.88 1212.55 2962.39 1460.41
internal_count=82803 29791 18021 15758 53012 26189 11770 26823 14729 6835 10648 5110 12094 5937
is_linear=0
shrinkage=0.005


Tree=46
num_leaves=15
num_cat=0
split_feature=7 0 2 2 3 0 7 7 7 0 7 2 0 2
split_gain=2528.4 1405.64 1217.28 1438.85 836.326 814.98 783.463 755.287 954.321 670.699 656.951 678.652 633.16 626.24
threshold=23899.325918171362 0.36965170627242366 -0.27782993080929419 -0.14144412863295716 -1.4772513054858463 0.32101375277894162 21705.266040297709 36226.298777936223 29721.721309731682 0.44297141181061001 51086.680698812859 -1.7060769463839162e-11 0.27470134292366438 0.11098661575763104
decision_type=2 2 2 2 2 2 2 2 2 2 2 2 2 2
left_child=1 5 -3 9 7 -1 -5 8 12 -4 -9 -12 -2 -6
right_child=4 2 3 6 13 -7 -8 10 -10 -11 11 -13 -14 -15
leaf_value=0.00049152242675141165 -0.0018005680455145346 -0.0063970207718530335 0.0015245428870499754 -0.0062822563529138318 0.0027803596434856728 -0.0065309427789484731 0.0093608233670385808 -0.0051069376196784377 0.009020840198346718 0.0092558716479340802 -0.007132867027161034 0.00064820518387996085 0.0034641789437206394 -0.007932305266888106
leaf_weight=506.8173945993185 1171.0667330920696 756.75045678019524 2326.9146841466427 836.17421293258667 6468.8641428202391 2217.9833948910236 87.946130067110062 920.78242208063602 413.02373643219471 318.79198490083218 315.60314601659775 2467.0223556309938 1113.214861407876 138.77463223040104
leaf_count=2081 4783 3280 9513 3576 26241 9689 353 3783 1669 1299 1312 10116 4526 582
internal_value=-1.06205e-07 -0.00241117 -0.000638734 0.000581962 0.0013067 -0.00522398 -0.00478658 1.81623e-05 0.00203089 0.00245864 -0.00144717 -0.000234542 0.00076424 0.00255441
internal_weight=20059.7 7051.38 4326.58 3569.83 13008.4 2724.8 924.12 6400.71 2697.31 2645.71 3703.41 2782.63 2284.28 6607.64
internal_count=82803 29791 18021 14741 53012 11770 3929 26189 10978 10812 15211 11428 9309 26823
is_linear=0
shrinkage=0.005


Tree=47
num_leaves=15
num_cat=0
split_feature=0 0 2 2 2 1 3 2 1 1 8 2 1 2
split_gain=2315.06 1538.65 1208.03 1374.79 795.234 787.307 773.656 986.93 1615.76 1503.61 821.765 820.92 598.501 418.223
threshold=0.32365685136445788 0.36965170627242366 -0.28113814835149159 -0.14144412863295716 0.11098661575763104 1.377370618763768 -1.4772513054858463 -7.4977524189279149e-12 13.223723747896914 5.6700294892772565 -0.0065085092644376905 0.08171010176738043 2.2247194709530858 -0.074596326899961721
decision_type=2 2 2 2 2 2 2 2 2 2 2 2 2 2
left_child=4 -2 -3 5 6 -4 10 8 -8 -9 11 -1 -12 -5
right_child=1 2 3 13 -6 -7 7 9 -10 -11 12 -13 -14 -15
leaf_value=0.00075676833145414343 -0.005663804318899064 -0.0067650292123924019 -0.00039845073355190477 -0.0061664163632985033 -0.0080334003585519759 0.0049750185008673696 0.0023667697805174878 -0.0049458146543541236 -0.0062936820899348791 0.0065524967237680122 0.0068478545688037476 0.010950771469747753 -0.0037095832870943902 0.0033224484993794466
leaf_weight=4469.1257841140032 2348.2161140441895 677.45934890210629 1361.1353538781404 787.3200519233942 228.66134063899517 1363.3267960697412 3618.3963865786791 326.69594103097916 632.13581822812557 2163.684813067317 145.99983449280262 206.19377955794334 1591.0021633058786 135.50820143520832
leaf_count=18220 10231 2952 5627 3370 960 5513 14684 1334 2632 8704 600 840 6577 559
internal_value=-1.13621e-07 -0.00240583 -0.000635811 0.000502735 0.00119937 0.00228995 0.00136036 0.00254302 0.00107762 0.00504242 0.000116614 0.00120801 -0.00281905 -0.00476932
internal_weight=20054.9 6672.97 4324.75 3647.29 13381.9 2724.46 13153.2 6740.91 4250.53 2490.38 6412.32 4675.32 1737 922.828
internal_count=82803 28252 18021 15069 54551 11140 53591 27354 17316 10038 26237 19060 7177 3929
is_linear=0
shrinkage=0.005


Tree=48
num_leaves=15
num_cat=0
split_feature=5 1 1 5 8 5 2 8 5 2 1 5 1 2
split_gain=1895.75 1974.89 1199.37 1128.63 1161.13 963.667 1322.61 790.588 684.696 619.186 579.204 804.323 742.478 606.229
threshold=1.4221183671766302 1.6865947598737072 1.2713213455377488 1.3443872906516852 0.029658685515113189 2.6912405144658251 -1.1789569320796998e-11 0.039667859983011373 1.293294978995128 0.11098661575763104 1.0121726571201608 1.4144015254286681 1.2782311854741211 -0.17502799154389628
decision_type=2 2 2 2 2 2 2 2 2 2 2 2 2 2
left_child=1 10 -2 4 -3 9 7 -7 -6 -4 11 -1 -12 -14
right_child=2 3 5 -5 8 6 -8 -9 -10 -11 12 -13 13 -15
leaf_value=0.010103998021849166 0.008497606013987323 0.0063569249546844044 0.00031774492055288919 -0.0082144701816995146 -0.0064250013610540613 -0.0025468903104861589 0.0065486507083094636 0.0099777333769995556 0.0025831662077236963 -0.0080074146841447175 -0.0067741561607849226 -0.0080809762024959386 0.0010801846485938126 -0.0039980897500519917
leaf_weight=166.1523048132658 533.80705316364765 1157.3561202734709 9420.9610805511475 247.38124343752861 371.42713297903538 890.98355658352375 1516.9205869734287 146.20508834719658 486.47252550721169 228.25900723040104 1737.6657143682241 95.152148813009262 793.30814746022224 2257.1274763643742
leaf_count=675 2159 4688 38701 1013 1553 3654 6100 585 1974 960 7553 402 3297 9489
internal_value=-1.22058e-07 -0.00202938 0.00116466 0.00185141 0.00309001 0.000843357 0.00357406 -0.000775017 -0.00131547 0.000120144 -0.00376887 0.00346973 -0.00416475 -0.00267663
internal_weight=20049.2 7312.04 12737.1 2262.64 2015.26 12203.3 2554.11 1037.19 857.9 9649.22 5049.41 261.304 4788.1 3050.44
internal_count=82803 30644 52159 9228 8215 50000 10339 4239 3527 39661 21416 1077 20339 12786
is_linear=0
shrinkage=0.005


Tree=49
num_leaves=15
num_cat=0
split_feature=5 1 1 5 6 5 5 6 6 1 1 6 1 5
split_gain=1877.63 1957.19 1186.32 1118.06 1218.56 954.04 975.405 1048.37 694.725 675.191 574.052 946.894 738.103 547.048
threshold=1.4221183671766302 1.6865947598737072 1.2713213455377488 1.3443872906516852 0.44100974570787127 2.6912405144658251 3.8368321845812541 0.43092330768136727 0.34994100355667151 2.3769597273842602 1.0121726571201608 0.43778218401093111 1.2782311854741211 1.2973323870375448
decision_type=2 2 2 2 2 2 2 2 2 2 2 2 2 2
left_child=1 10 -2 4 9 -4 8 -8 -7 -3 11 -1 -12 -6
right_child=2 3 5 -5 13 6 7 -9 -10 -11 12 -13 -14 -15
leaf_value=0.011275662057462253 0.0084489682847780079 0.0080159623983762189 0.00011953843574065296 -0.0081834955733109706 -0.0051801718041930801 -0.0064806952314981148 -0.0046322148145680059 0.005161258892642755 0.0071679955505724244 0.001048156954458517 -0.0067530964910582896 -0.0080778989764270625 -0.0026647730097968331 0.011178306147652202
leaf_weight=155.82379248738289 534.19750037789345 926.45679970085621 9649.2464227080345 247.07864528894424 474.46979524195194 99.52446822822094 578.43055534362793 517.05779513716698 1359.1429394632578 558.04124955832958 1734.3790286928415 105.50782629847527 3048.6980131417513 56.716257303953171
leaf_count=632 2159 3742 39661 1013 1974 406 2387 2084 5462 2269 7553 445 12786 230
internal_value=-1.26826e-07 -0.0020206 0.0011588 0.00184203 0.0030739 0.000839135 0.00355614 -7.28194e-06 0.00623313 0.0053996 -0.00375376 0.00345197 -0.0041483 -0.00341996
internal_weight=20044.8 7307.17 12737.6 2262.76 2015.68 12203.4 2554.16 1095.49 1458.67 1484.5 5044.41 261.332 4783.08 531.186
internal_count=82803 30644 52159 9228 8215 50000 10339 4471 5868 6011 21416 1077 20339 2204
is_linear=0
shrinkage=0.005


end of trees

feature_importances:
Column_5=176
Column_1=113
Column_2=109
Column_7=96
Column_0=91
Column_6=44
Column_8=41
Column_3=29
Column_4=1

parameters:
[boosting: gbdt]
[objective: binary]
[metric: auc]
[tree_learner: serial]
[device_type: cpu]
[data_sample_strategy: bagging]
[data: ]
[valid: ]
[num_iterations: 50]
[learning_rate: 0.005]
[num_leaves: 15]
[num_threads: 14]
[seed: 42]
[deterministic: 0]
[force_col_wise: 1]
[force_row_wise: 0]
[histogram_pool_size: -1]
[max_depth: 5]
[min_data_in_leaf: 50]
[min_sum_hessian_in_leaf: 0.001]
[bagging_fraction: 1]
[pos_bagging_fraction: 1]
[neg_bagging_fraction: 1]
[bagging_freq: 0]
[bagging_seed: 400]
[bagging_by_query: 0]
[feature_fraction: 0.7]
[feature_fraction_bynode: 1]
[feature_fraction_seed: 30056]
[extra_trees: 0]
[extra_seed: 12879]
[early_stopping_round: 0]
[early_stopping_min_delta: 0]
[first_metric_only: 0]
[max_delta_step: 0]
[lambda_l1: 0.5]
[lambda_l2: 0.5]
[linear_lambda: 0]
[min_gain_to_split: 0]
[drop_rate: 0.1]
[max_drop: 50]
[skip_drop: 0.5]
[xgboost_dart_mode: 0]
[uniform_drop: 0]
[drop_seed: 17869]
[top_rate: 0.2]
[other_rate: 0.1]
[min_data_per_group: 100]
[max_cat_threshold: 32]
[cat_l2: 10]
[cat_smooth: 10]
[max_cat_to_onehot: 4]
[top_k: 20]
[monotone_constraints: ]
[monotone_constraints_method: basic]
[monotone_penalty: 0]
[feature_contri: ]
[forcedsplits_filename: ]
[refit_decay_rate: 0.9]
[cegb_tradeoff: 1]
[cegb_penalty_split: 0]
[cegb_penalty_feature_lazy: ]
[cegb_penalty_feature_coupled: ]
[path_smooth: 0]
[interaction_constraints: ]
[verbosity: -1]
[saved_feature_importance_type: 0]
[use_quantized_grad: 0]
[num_grad_quant_bins: 4]
[quant_train_renew_leaf: 0]
[stochastic_rounding: 1]
[linear_tree: 0]
[max_bin: 255]
[max_bin_by_feature: ]
[min_data_in_bin: 3]
[bin_construct_sample_cnt: 200000]
[data_random_seed: 175]
[is_enable_sparse: 1]
[enable_bundle: 1]
[use_missing: 1]
[zero_as_missing: 0]
[feature_pre_filter: 1]
[pre_partition: 0]
[two_round: 0]
[header: 0]
[label_column: ]
[weight_column: ]
[group_column: ]
[ignore_column: ]
[categorical_feature: ]
[forcedbins_filename: ]
[precise_float_parser: 0]
[parser_config_file: ]
[objective_seed: 16083]
[num_class: 1]
[is_unbalance: 0]
[scale_pos_weight: 1]
[sigmoid: 1]
[boost_from_average: 1]
[reg_sqrt: 0]
[alpha: 0.9]
[fair_c: 1]
[poisson_max_delta_step: 0.7]
[tweedie_variance_power: 1.5]
[lambdarank_truncation_level: 30]
[lambdarank_norm: 1]
[label_gain: ]
[lambdarank_position_bias_regularization: 0]
[eval_at: ]
[multi_error_top_k: 1]
[auc_mu_weights: ]
[num_machines: 1]
[local_listen_port: 12400]
[time_out: 120]
[machine_list_filename: ]
[machines: ]
[gpu_platform_id: -1]
[gpu_device_id: -1]
[gpu_use_dp: 0]
[num_gpu: 1]

end of parameters

pandas_categorical:null
