tree
version=v4
num_class=1
num_tree_per_iteration=1
label_index=0
max_feature_idx=9
objective=regression
feature_names=Column_0 Column_1 Column_2 Column_3 Column_4 Column_5 Column_6 Column_7 Column_8 Column_9
feature_infos=[0:0.7162229260923314] [0.46506071389014014:20.4209205808591] [-0.37954567924312732:0.12944539678761882] [-70000000:70000000] [0:100000000] [1.1167821838269782:52.547015713236391] [0.002486825329792055:0.67170969324328145] [0:13428575.189825613] [-0.24085745773956885:0.48005684740359889] -1:2:1
tree_sizes=1579 1539 1547 1564 1543 1557 1533 1554 1564 1565 1543 1542 1546 1557 1572 1547 1576 1549 1562 1573 1560 1563 1549 1544 1499 1539 1557 1550 1571 1503 1500 1550 1498 1568 1568 1526 1562 1575 1561 1566 1539 1577 1566 1575 1569 1561 1576 1567 1553 1480

Tree=0
num_leaves=15
num_cat=0
split_feature=4 7 2 1 2 2 6 6 4 2 1 6 7 7
split_gain=0.525834 0.321456 0.4185 0.502323 0.704949 0.169578 0.158414 0.150949 0.148202 0.106696 0.0899307 0.08775 0.0775972 0.0502974
threshold=50000000.605290145 55123.370049640384 -1.9335538725684382e-11 15.112827140453616 -1.1693918056110418e-11 -1.1693918056110418e-11 0.38253101637816755 0.2586718312753003 0.14643818726861638 0.07867072093583613 11.623838860288041 0.35229259145410979 23899.325918171362 27097.04873740637
decision_type=2 2 2 2 2 2 2 2 2 2 2 2 2 2
left_child=8 7 6 4 -4 -5 10 13 -1 12 -3 -11 -9 -2
right_child=1 2 3 5 -6 -7 -8 9 -10 11 -12 -13 -14 -15
leaf_value=3.9601614204921748e-05 -5.6088395194467316e-05 -9.2094204982051111e-05 6.1485511366455621e-05 -0.0001029440883364845 -3.2617596900984616e-05 -5.0209608239278449e-05 3.9947529907034704e-06 -6.7840363702188661e-05 0.00024995661290551309 -5.1213675012431041e-05 -0.0001679193817804813 -0.00010480863824269145 -5.5984348110609408e-05 3.6667251529313823e-05
leaf_weight=343 237 2248 2563 2015 9416 6046 338 29788 145 946 540 2742 24944 492
leaf_count=343 237 2248 2563 2015 9416 6046 338 29788 145 946 540 2742 24944 492
internal_value=-5.60884e-05 -5.7059e-05 -4.1306e-05 -3.28344e-05 -1.22707e-05 -6.30836e-05 -9.48108e-05 -6.32711e-05 0.000107472 -6.42016e-05 -0.000107695 -9.03845e-05 -6.23914e-05 7.82386e-06
internal_weight=82803 82315 23166 20040 11979 8061 3126 59149 488 58420 2788 3688 54732 729
internal_count=82803 82315 23166 20040 11979 8061 3126 59149 488 58420 2788 3688 54732 729
is_linear=0
shrinkage=1


Tree=1
num_leaves=15
num_cat=0
split_feature=5 8 6 7 7 6 5 1 7 5 1 7 7 5
split_gain=0.715724 0.514175 0.375445 0.550517 0.316781 0.145308 0.137903 0.162062 0.121211 0.119272 0.117728 0.113411 0.0907754 0.153522
threshold=2.1920803104026487 -0.019078178784966943 0.32047244224534316 325202.78600627551 74889.625468536469 0.2586718312753003 3.7538048709159173 15.711378721587115 1334384.8920437524 2.817819996474173 20.093939506989731 418498.27437700826 952371.27617292001 1.9983343782813803
decision_type=2 2 2 2 2 2 2 2 2 2 2 2 2 2
left_child=5 6 9 4 -4 -1 7 11 -5 -3 12 -2 13 -7
right_child=1 2 3 8 -6 10 -8 -9 -10 -11 -12 -13 -14 -15
leaf_value=6.3599461789834059e-05 5.0818927091065091e-05 -9.9741311231720848e-05 0.00015516878523844847 0.00013593178546186192 3.3588442862905139e-05 -6.7445461832089494e-06 -5.623507207593957e-05 -6.6254683692213879e-05 0.00031240925220737742 1.106226119597882e-05 6.0002400842122663e-05 -2.2360622392444213e-05 8.2077515884530739e-05 -5.1357890151685452e-05
leaf_weight=729 1581 423 612 1423 5524 66439 1203 585 133 489 640 740 275 2007
leaf_count=729 1581 423 612 1423 5524 66439 1203 585 133 489 640 740 275 2007
internal_value=0 3.45162e-05 5.65379e-05 6.8028e-05 4.61338e-05 -6.25999e-06 -1.09889e-05 6.888e-06 0.000152718 -3.7617e-05 -7.03072e-06 2.64106e-05 -7.69181e-06 -8.08961e-06
internal_weight=82803 12713 8604 7692 6136 70090 4109 2906 1556 912 69361 2321 68721 68446
internal_count=82803 12713 8604 7692 6136 70090 4109 2906 1556 912 69361 2321 68721 68446
is_linear=0
shrinkage=0.005


Tree=2
num_leaves=15
num_cat=0
split_feature=4 7 2 1 2 2 6 6 4 2 1 6 7 7
split_gain=0.514903 0.315355 0.411954 0.492796 0.695217 0.166611 0.155135 0.148004 0.145378 0.10506 0.088556 0.0866012 0.0768228 0.0497956
threshold=50000000.605290145 55123.370049640384 -1.9335538725684382e-11 15.112827140453616 -1.1693918056110418e-11 -1.1693918056110418e-11 0.38253101637816755 0.2586718312753003 0.14643818726861638 0.07867072093583613 11.623838860288041 0.35229259145410979 23899.325918171362 27097.04873740637
decision_type=2 2 2 2 2 2 2 2 2 2 2 2 2 2
left_child=8 7 6 4 -4 -5 10 13 -1 12 -3 -11 -9 -2
right_child=1 2 3 5 -6 -7 -8 9 -10 11 -12 -13 -14 -15
leaf_value=9.4535823732145471e-05 0 -3.5700232530896773e-05 0.00011666282566149133 -4.6421513680136636e-05 2.3208896267285281e-05 5.8483820176131096e-06 5.9294703784214742e-05 -1.1659487006792301e-05 0.00030303614655720817 4.8840643120760785e-06 -0.00011097176932202304 -4.8347286130503151e-05 1.3724946242003879e-07 9.1974668545166259e-05
leaf_weight=343 237 2248 2563 2015 9416 6046 338 29788 145 946 540 2742 24944 492
leaf_count=343 237 2248 2563 2015 9416 6046 338 29788 145 946 540 2742 24944 492
internal_value=0 -9.5936e-07 1.46431e-05 2.30489e-05 4.34168e-05 -6.90942e-06 -3.84395e-05 -7.1125e-06 0.000161852 -8.03425e-06 -5.11932e-05 -3.40164e-05 -6.23752e-06 6.32817e-05
internal_weight=82803 82315 23166 20040 11979 8061 3126 59149 488 58420 2788 3688 54732 729
internal_count=82803 82315 23166 20040 11979 8061 3126 59149 488 58420 2788 3688 54732 729
is_linear=0
shrinkage=0.005


Tree=3
num_leaves=15
num_cat=0
split_feature=5 2 2 6 1 1 5 1 2 6 3 1 2 5
split_gain=0.70305 0.559873 0.689537 0.647448 0.44699 0.204886 0.175073 0.559353 0.147402 0.142488 0.122921 0.116356 0.0769603 0.107333
threshold=2.1920803104026487 -1.3361511896903264e-11 -1.1693918056110418e-11 0.3830594110095647 9.1180754775924964 2.3366367863085502 2.7690153936392066 11.514193285779518 -1.3214485061752155e-11 0.2586718312753003 -1.0624921727917207 20.093939506989731 0.043316895034455911 1.2799065304589672
decision_type=2 2 2 2 2 2 2 2 2 2 2 2 2 2
left_child=9 3 8 6 -4 -5 -2 -8 -3 -1 -6 12 13 -11
right_child=1 2 4 5 10 -7 7 -9 -10 11 -12 -13 -14 -15
leaf_value=6.2971528710269078e-05 -7.6593431733063013e-05 5.4825161446908764e-05 0.00014389453964883984 0.00029801151962944558 -1.4007011987993582e-05 8.0790787530151908e-05 -3.588087227442391e-05 0.00015927773211391565 0.00019589591647544848 -1.1967462578921096e-05 3.7422618375845269e-05 5.9673405520982709e-05 -2.0305686542501221e-05 1.5241230500391515e-06
leaf_weight=729 1378 292 883 148 1608 671 2586 426 1022 29915 3699 640 10310 28496
leaf_count=729 1378 292 883 148 1608 671 2586 426 1022 29915 3699 640 10310 28496
internal_value=0 3.42103e-05 6.18809e-05 -5.17367e-06 3.9261e-05 0.000123253 -2.97137e-05 -7.42703e-06 0.000166482 -6.20318e-06 2.13688e-05 -6.96671e-06 -7.62414e-06 -5.34279e-06
internal_weight=82803 12713 7504 5209 6190 819 4390 3012 1314 70090 5307 69361 68721 58411
internal_count=82803 12713 7504 5209 6190 819 4390 3012 1314 70090 5307 69361 68721 58411
is_linear=0
shrinkage=0.005


Tree=4
num_leaves=15
num_cat=0
split_feature=5 8 3 8 1 7 6 1 5 1 6 1 7 7
split_gain=0.696133 0.500422 0.393648 0.351854 0.323762 0.206318 0.141073 0.136574 0.13525 0.157832 0.115883 0.115204 0.10969 0.0888066
threshold=2.1920803104026487 -0.019078178784966943 -0.78608812787665883 0.079452765578015713 9.1180754775924964 1040154.8986812589 0.2586718312753003 2.3021304486958871 3.7538048709159173 15.711378721587115 0.34157536781821218 20.093939506989731 418498.27437700826 952371.27617292001
decision_type=2 2 2 2 2 2 2 2 2 2 2 2 2 2
left_child=6 8 3 10 7 -6 -1 -4 9 12 -3 13 -2 -8
right_child=1 2 4 -5 5 -7 11 -9 -10 -11 -12 -13 -14 -15
leaf_value=6.2656889970729034e-05 5.0138660606364472e-05 -0.00011859362350137781 0.00030408546964893134 0.00021331831901830989 6.9564911363823154e-05 -3.6510791072635716e-05 -7.9798469828585397e-06 0.00012460250038179524 -5.5655494295247564e-05 -6.5309144851661557e-05 4.1798071136085509e-06 5.9375271863035712e-05 -2.1788646313690838e-05 8.119781982464658e-05
leaf_weight=729 1581 205 140 198 3430 496 68446 1464 1203 585 2671 640 740 275
leaf_count=729 1581 205 140 198 3430 496 68446 1464 1203 585 2671 640 740 275
internal_value=0 3.40424e-05 5.57683e-05 9.47766e-06 8.1045e-05 5.5524e-05 -6.1718e-06 0.000141916 -1.08432e-05 6.85405e-06 -3.72141e-06 -6.93169e-06 2.61296e-05 -7.58602e-06
internal_weight=82803 12713 8604 3074 5530 3926 70090 1604 4109 2906 2876 69361 2321 68721
internal_count=82803 12713 8604 3074 5530 3926 70090 1604 4109 2906 2876 69361 2321 68721
is_linear=0
shrinkage=0.005


Tree=5
num_leaves=15
num_cat=0
split_feature=5 8 3 8 6 7 6 5 5 7 6 7 5 5
split_gain=0.689173 0.495556 0.389693 0.34835 0.284411 0.328257 0.139671 0.133877 0.147073 0.149484 0.114734 0.086527 0.155255 0.0755741
threshold=2.1920803104026487 -0.019078178784966943 -0.78608812787665883 0.079452765578015713 0.32047244224534316 325202.78600627551 0.2586718312753003 3.7538048709159173 2.4901345504882442 291489.61069683271 0.34157536781821218 952371.27617292001 1.9983343782813803 1.2799065304589672
decision_type=2 2 2 2 2 2 2 2 2 2 2 2 2 2
left_child=6 7 3 10 -4 -6 -1 8 9 -2 -3 12 13 -8
right_child=1 2 4 -5 5 -7 11 -9 -10 -11 -12 -13 -14 -15
leaf_value=6.2343818864352189e-05 5.8835793182993836e-05 -0.00011800209863605363 -9.8524538921677694e-06 0.00021225441767794832 6.779884925973692e-05 0.00016285412757554389 -1.1867727495067228e-05 -5.5377331352092447e-05 3.731000928212774e-05 -6.7744272896840631e-05 4.1589120988206222e-06 8.0792567229571129e-05 -5.0776016165244202e-05 -1.1075066718186139e-06
leaf_weight=729 294 205 707 198 3499 1324 29915 1203 1708 904 2671 275 2007 37164
leaf_count=729 294 205 707 198 3499 1324 29915 1203 1708 904 2671 275 2007 37164
internal_value=0 3.38723e-05 5.54925e-05 9.43035e-06 8.06422e-05 9.44257e-05 -6.1404e-06 -1.07921e-05 6.81115e-06 -3.45829e-05 -3.69856e-06 -6.89667e-06 -7.28249e-06 -5.94353e-06
internal_weight=82803 12713 8604 3074 5530 4823 70090 4109 2906 1198 2876 69361 69086 67079
internal_count=82803 12713 8604 3074 5530 4823 70090 4109 2906 1198 2876 69361 69086 67079
is_linear=0
shrinkage=0.005


Tree=6
num_leaves=15
num_cat=0
split_feature=5 2 2 4 1 5 1 2 1 1 5 2 7 5
split_gain=0.682334 0.544738 0.678506 0.584716 0.439357 0.219362 0.495158 0.143925 0.140371 0.11124 0.0991844 0.0858708 0.121227 0.10967
threshold=2.1920803104026487 -1.3361511896903264e-11 -1.1693918056110418e-11 50000000.605290145 9.1180754775924964 2.817819996474173 11.400043616726853 -1.3214485061752155e-11 2.3021304486958871 20.093939506989731 3.4531489661231283 0.043316895034455911 23899.325918171362 1.2816729187972631
decision_type=2 2 2 2 2 2 2 2 2 2 2 2 2 2
left_child=9 3 7 8 -4 -5 -7 -3 -2 11 -6 12 13 -1
right_child=1 2 4 5 10 6 -8 -9 -10 -11 -12 -13 -14 -15
leaf_value=-1.962442895302521e-05 0.00030175908100774703 5.4269643882901463e-05 0.00014228924915732314 -7.4701412207877561e-05 3.0419418460038981e-05 -2.5256063444191578e-05 0.00014955569186775143 0.00019383900165133758 9.4136587897040682e-05 5.9084161152097098e-05 -2.7686758440881346e-05 -2.0130306684058539e-05 2.7718113915632072e-06 0
leaf_weight=17337 140 292 883 1414 4473 2838 472 1022 345 640 834 10310 29352 12451
leaf_count=17337 140 292 883 1414 4473 2838 472 1022 345 640 834 10310 29352 12451
internal_value=0 3.3704e-05 6.09985e-05 -5.13832e-06 3.85573e-05 -2.25822e-05 0 0.000164758 0.000159467 -6.10969e-06 2.08152e-05 -6.74689e-06 -4.37131e-06 -1.14937e-05
internal_weight=82803 12713 7504 5209 6190 4724 3310 1314 485 70090 5307 69450 59140 29788
internal_count=82803 12713 7504 5209 6190 4724 3310 1314 485 70090 5307 69450 59140 29788
is_linear=0
shrinkage=0.005


Tree=7
num_leaves=15
num_cat=0
split_feature=5 2 2 6 1 1 5 1 2 6 3 1 7 5
split_gain=0.675633 0.539313 0.671785 0.624162 0.434956 0.19787 0.16909 0.544208 0.142325 0.138101 0.119784 0.11284 0.0869688 0.148811
threshold=2.1920803104026487 -1.3361511896903264e-11 -1.1693918056110418e-11 0.3830594110095647 9.1180754775924964 2.3366367863085502 2.7690153936392066 11.514193285779518 -1.3214485061752155e-11 0.2586718312753003 -1.0624921727917207 20.093939506989731 952371.27617292001 1.9983343782813803
decision_type=2 2 2 2 2 2 2 2 2 2 2 2 2 2
left_child=9 3 8 6 -4 -5 -2 -8 -3 -1 -6 12 13 -11
right_child=1 2 4 5 10 -7 7 -9 -10 11 -12 -13 -14 -15
leaf_value=6.2018462351561864e-05 -7.5285844114242041e-05 5.3998758694231382e-05 0.00014157820733789474 0.00029281361395436706 -1.4209856720847472e-05 7.9162772960788974e-05 -3.5368936856783548e-05 0.00015712671431713899 0.0001928702802542474 -6.5444916388875441e-06 3.6563953670824902e-05 5.878896926559741e-05 8.0375504230373887e-05 -5.0468745190790272e-05
leaf_weight=729 1378 292 883 148 1608 671 2586 426 1022 66439 3699 640 275 2007
leaf_count=729 1378 292 883 148 1608 671 2586 426 1022 66439 3699 640 275 2007
internal_value=0 3.35386e-05 6.0697e-05 -5.10762e-06 3.83646e-05 0.000120977 -2.92105e-05 -7.29202e-06 0.000163944 -6.07912e-06 2.07088e-05 -6.83133e-06 -7.47925e-06 -7.86934e-06
internal_weight=82803 12713 7504 5209 6190 819 4390 3012 1314 70090 5307 69361 68721 68446
internal_count=82803 12713 7504 5209 6190 819 4390 3012 1314 70090 5307 69361 68721 68446
is_linear=0
shrinkage=0.005


Tree=8
num_leaves=15
num_cat=0
split_feature=5 2 8 2 1 5 1 2 1 1 5 2 0 5
split_gain=0.668987 0.533943 0.677347 0.66513 0.4306 0.186157 0.514647 0.140742 0.1366 0.109441 0.0979094 0.0869497 0.104957 0.0975245
threshold=2.1920803104026487 -1.3361511896903264e-11 0.034709377485134939 -1.1693918056110418e-11 9.1180754775924964 2.7690153936392066 11.514193285779518 -1.3214485061752155e-11 2.3021304486958871 20.273236450899052 3.4531489661231283 0.043316895034455911 0.36989354441652328 1.2816729187972631
decision_type=2 2 2 2 2 2 2 2 2 2 2 2 2 2
left_child=9 2 5 7 -5 -2 -7 -3 -4 11 -6 12 -1 -14
right_child=1 3 8 4 10 6 -8 -9 -10 -11 -12 -13 13 -15
leaf_value=2.1267809790378105e-06 -7.4909552804297832e-05 5.3729227434223893e-05 0.00029879680413792567 0.00014087071577187187 3.014764415184246e-05 -2.9905022529974064e-05 0.0001563420042544079 0.00019190639727546842 0.00010188862864273163 8.5875564028203388e-05 -2.7580226208961156e-05 -1.9971804037635844e-05 -1.8402246876677112e-05 5.1456393511535737e-07
leaf_weight=31210 1378 292 140 883 4473 2804 426 1022 461 318 834 10310 17512 10740
leaf_count=31210 1378 292 140 883 4473 2804 426 1022 461 318 834 10310 17512 10740
internal_value=0 3.3374e-05 -5.07708e-06 6.0397e-05 3.81729e-05 -2.61368e-05 -4.5469e-06 0.000163134 0.000152124 -6.04836e-06 2.06029e-05 -6.50377e-06 -4.12638e-06 -1.11227e-05
internal_weight=82803 12713 5209 7504 6190 4608 3230 1314 601 70090 5307 69772 59462 28252
internal_count=82803 12713 5209 7504 6190 4608 3230 1314 601 70090 5307 69772 59462 28252
is_linear=0
shrinkage=0.005


Tree=9
num_leaves=15
num_cat=0
split_feature=5 2 8 2 2 5 5 2 6 3 7 7 5 5
split_gain=0.662407 0.528626 0.670764 0.658542 0.37945 0.184297 0.353543 0.139176 0.136558 0.136236 0.132385 0.0846484 0.15185 0.0737879
threshold=2.1920803104026487 -1.3361511896903264e-11 0.034709377485134939 -1.1693918056110418e-11 0.066070218503936864 2.7690153936392066 3.4531489661231283 -1.3214485061752155e-11 0.2586718312753003 -1.0624921727917207 1334384.8920437524 952371.27617292001 1.9983343782813803 1.2799065304589672
decision_type=2 2 2 2 2 2 2 2 2 2 2 2 2 2
left_child=8 2 5 7 9 -2 -7 -3 -1 -5 -4 12 13 -10
right_child=1 3 10 4 -6 6 -8 -9 11 -11 -12 -13 -14 -15
leaf_value=6.1697959366473418e-05 -7.4535141624659215e-05 5.3461039629386756e-05 0.00010323150408565561 -1.4254216500005086e-05 0.00014685215773574349 7.7455306504591913e-05 -3.8260170108941862e-05 0.00019094733734214737 -1.1676812722981444e-05 3.9542224481370038e-05 0.00030108300864361648 7.9963742172220443e-05 -5.0162148998852622e-05 -1.0442320548686847e-06
leaf_weight=729 1378 292 468 1609 716 920 2310 1022 29915 3865 133 275 2007 37164
leaf_count=729 1378 292 468 1609 716 920 2310 1022 29915 3865 133 275 2007 37164
internal_value=0 3.32102e-05 -5.04668e-06 6.00985e-05 3.7982e-05 -2.60061e-05 -4.5202e-06 0.000162329 -6.01776e-06 2.3273e-05 0.000151386 -6.76595e-06 -7.14795e-06 -5.82333e-06
internal_weight=82803 12713 5209 7504 6190 4608 3230 1314 70090 5474 601 69361 69086 67079
internal_count=82803 12713 5209 7504 6190 4608 3230 1314 70090 5474 601 69361 69086 67079
is_linear=0
shrinkage=0.005


Tree=10
num_leaves=15
num_cat=0
split_feature=5 6 3 3 1 1 1 1 6 1 1 7 5 7
split_gain=0.655904 0.434713 0.463874 0.522746 0.19281 0.188573 0.182763 0.358404 0.135204 0.110771 0.0925563 0.0851765 0.145682 0.0754708
threshold=2.1920803104026487 0.33997996367784972 -0.78608812787665883 35001581.200265877 2.3021304486958871 11.623838860288041 6.3882734346431524 8.0713769269779796 0.2586718312753003 20.093939506989731 5.9715134643518937 952371.27617292001 1.9983343782813803 1160310.2408759205
decision_type=2 2 2 2 2 2 2 2 2 2 2 2 2 2
left_child=8 5 6 4 -4 10 -3 -8 -1 11 -2 12 -10 -7
right_child=1 2 3 -5 -6 13 7 -9 9 -11 -12 -13 -14 -15
leaf_value=6.1389679722471171e-05 -8.7497100398382729e-05 -5.3381269773364024e-05 0.00029585735825987474 -2.31480602270929e-06 9.7582879478058158e-05 -2.7939819932542294e-05 0.00013136386169511385 -6.8545606305775188e-07 -6.4497030843070579e-06 5.8281942800335896e-05 1.87884516536395e-05 7.9564649337892523e-05 -4.9911399339828062e-05 -0.00013081319774900163
leaf_weight=729 229 943 140 1488 4251 430 638 2446 66439 640 1711 275 2007 437
leaf_count=729 229 943 140 1488 4251 430 638 2446 66439 640 1711 275 2007 437
internal_value=0 3.30473e-05 4.86882e-05 7.70467e-05 0.000104507 -2.12584e-05 6.6626e-06 2.58385e-05 -5.98767e-06 -6.7323e-06 4.93473e-06 -7.37458e-06 -7.76098e-06 -8.27192e-05
internal_weight=82803 12713 9906 5879 4391 2807 4027 3084 70090 69361 1940 68721 68446 867
internal_count=82803 12713 9906 5879 4391 2807 4027 3084 70090 69361 1940 68721 68446 867
is_linear=0
shrinkage=0.005


Tree=11
num_leaves=15
num_cat=0
split_feature=5 8 6 7 7 6 5 1 5 1 7 7 7 5
split_gain=0.649252 0.469216 0.343855 0.510049 0.296937 0.133861 0.12945 0.147974 0.110592 0.109674 0.107726 0.102096 0.084336 0.144221
threshold=2.1920803104026487 -0.019078178784966943 0.32047244224534316 325202.78600627551 74889.625468536469 0.2586718312753003 3.7538048709159173 15.711378721587115 2.817819996474173 20.093939506989731 1334384.8920437524 418498.27437700826 952371.27617292001 1.9983343782813803
decision_type=2 2 2 2 2 2 2 2 2 2 2 2 2 2
left_child=5 6 8 4 -4 -1 7 11 -3 12 -5 -2 13 -7
right_child=1 2 3 10 -6 9 -8 -9 -10 -11 -12 -13 -14 -15
leaf_value=6.1082938943379653e-05 4.8590865068582686e-05 -9.5966019246126186e-05 0.00014939783938533189 0.00013042502531113417 3.1665429246851743e-05 -6.4174549653907778e-06 -5.4416205594719372e-05 -6.3101496812787583e-05 1.0591613551767598e-05 5.799076397442101e-05 0.00029810948471786379 -2.0721302400505834e-05 7.9167549060606913e-05 -4.9661904383033358e-05
leaf_weight=729 1581 423 612 1423 5524 66439 1203 585 489 640 133 740 275 2007
leaf_count=729 1581 423 612 1423 5524 66439 1203 585 489 640 133 740 275 2007
internal_value=0 3.28791e-05 5.39186e-05 6.49203e-05 4.38266e-05 -5.95737e-06 -1.0569e-05 6.72851e-06 -3.61173e-05 -6.69846e-06 0.000146455 2.54156e-05 -7.33771e-06 -7.72236e-06
internal_weight=82803 12713 8604 7692 6136 70090 4109 2906 912 69361 1556 2321 68721 68446
internal_count=82803 12713 8604 7692 6136 70090 4109 2906 912 69361 1556 2321 68721 68446
is_linear=0
shrinkage=0.005


Tree=12
num_leaves=15
num_cat=0
split_feature=5 6 3 3 1 5 1 1 6 1 1 7 5 7
split_gain=0.642799 0.426653 0.457015 0.514285 0.188544 0.18555 0.180219 0.354464 0.132532 0.10866 0.0952951 0.0831279 0.144038 0.0702961
threshold=2.1920803104026487 0.33997996367784972 -0.78608812787665883 35001581.200265877 2.3021304486958871 2.817819996474173 6.3882734346431524 8.0713769269779796 0.2586718312753003 20.273236450899052 5.9715134643518937 952371.27617292001 1.9983343782813803 1160310.2408759205
decision_type=2 2 2 2 2 2 2 2 2 2 2 2 2 2
left_child=8 5 6 4 -4 13 -3 -8 -1 11 -7 12 -10 -2
right_child=1 2 3 -5 -6 10 7 -9 9 -11 -12 -13 -14 -15
leaf_value=6.0777736216550693e-05 -2.4791506017846403e-05 -5.3128489849685917e-05 0.00029293986083773956 -2.3447534448002112e-06 9.6739445526521881e-05 -8.6789079997607373e-05 0.00013048956254750491 -8.3212857736601919e-07 -6.2058932591083147e-06 8.4871621510040245e-05 2.1174122941535733e-05 7.8772427640963491e-05 -4.9413656929764746e-05 -0.00012047135299627683
leaf_weight=729 439 943 140 1488 4251 229 638 2446 66761 318 1637 275 2007 502
leaf_count=729 439 943 140 1488 4251 229 638 2446 66761 318 1637 275 2007 502
internal_value=0 3.27158e-05 4.82118e-05 7.63595e-05 0.000103597 -2.10786e-05 6.49412e-06 2.55412e-05 -5.92722e-06 -6.66478e-06 6.56551e-06 -7.1232e-06 -7.50362e-06 -7.85265e-05
internal_weight=82803 12713 9906 5879 4391 2807 4027 3084 70090 69361 1866 69043 68768 941
internal_count=82803 12713 9906 5879 4391 2807 4027 3084 70090 69361 1866 69043 68768 941
is_linear=0
shrinkage=0.005


Tree=13
num_leaves=15
num_cat=0
split_feature=5 8 3 8 6 7 6 5 5 0 6 7 5 5
split_gain=0.63628 0.461387 0.367392 0.329785 0.264633 0.307458 0.131216 0.127644 0.137094 0.139405 0.107007 0.0813535 0.145858 0.072853
threshold=2.1920803104026487 -0.019078178784966943 -0.78608812787665883 0.079452765578015713 0.32047244224534316 325202.78600627551 0.2586718312753003 3.7538048709159173 2.4901345504882442 0.036736179778659096 0.34157536781821218 952371.27617292001 1.9983343782813803 1.2799065304589672
decision_type=2 2 2 2 2 2 2 2 2 2 2 2 2 2
left_child=6 7 3 10 -4 -6 -1 8 9 -2 -3 12 13 -8
right_child=1 2 4 -5 5 -7 11 -9 -10 -11 -12 -13 -14 -15
leaf_value=6.0474055565927535e-05 -6.5356660457729687e-05 -0.00011443460206081977 -9.3452926300460115e-06 0.00020604919893368 6.532156721295844e-05 0.00015739150354996534 -1.152306607571175e-05 -5.4071698311368079e-05 3.6108382371672472e-05 5.6779790368857709e-05 3.4673443262839033e-06 7.8379278956065647e-05 -4.9166649966807775e-05 -9.5866303874184881e-07
leaf_weight=729 904 205 707 198 3499 1324 29915 1203 1708 294 2671 275 2007 37164
leaf_count=729 904 205 707 198 3499 1324 29915 1203 1708 294 2671 275 2007 37164
internal_value=0 3.25493e-05 5.34132e-05 8.66725e-06 7.78313e-05 9.11284e-05 -5.89722e-06 -1.05311e-05 6.6395e-06 -3.32862e-05 -4.08597e-06 -6.63127e-06 -7.00641e-06 -5.70735e-06
internal_weight=82803 12713 8604 3074 5530 4823 70090 4109 2906 1198 2876 69361 69086 67079
internal_count=82803 12713 8604 3074 5530 4823 70090 4109 2906 1198 2876 69361 69086 67079
is_linear=0
shrinkage=0.005


Tree=14
num_leaves=15
num_cat=0
split_feature=5 2 2 8 1 5 1 2 1 3 1 2 7 7
split_gain=0.629967 0.509373 0.64211 0.640037 0.415422 0.176319 0.497776 0.135837 0.129634 0.114451 0.105663 0.0850724 0.12391 0.107665
threshold=2.1920803104026487 -1.3361511896903264e-11 -1.1693918056110418e-11 0.034709377485134939 9.1180754775924964 2.7690153936392066 11.514193285779518 -1.3214485061752155e-11 2.3021304486958871 -1.0624921727917207 20.273236450899052 0.043316895034455911 23899.325918171362 18848.639990258187
decision_type=2 2 2 2 2 2 2 2 2 2 2 2 2 2
left_child=10 3 7 5 -4 -2 -7 -3 -5 -6 11 12 13 -1
right_child=1 2 4 8 9 6 -8 -9 -10 -11 -12 -13 -14 -15
leaf_value=-1.1863265390721357e-06 -7.3118241918487115e-05 5.2073415516770962e-05 0.00013780676046142661 0.0002906962226930462 -1.4450262945269783e-05 -2.9557945234324774e-05 0.00015360283869529385 0.0001880016039132168 9.8495369072805383e-05 3.5184935926024995e-05 8.4452718347194049e-05 -1.9636541804588644e-05 3.2023033139788193e-06 -2.0403401053833197e-05
leaf_weight=14417 1378 292 883 140 1608 2804 426 1022 461 3699 318 10310 29674 15371
leaf_count=14417 1378 292 883 140 1608 2804 426 1022 461 3699 318 10310 29674 15371
internal_value=0 3.23876e-05 5.87832e-05 -5.15956e-06 3.69398e-05 -2.56433e-05 -4.60723e-06 0.000159729 0.000147628 1.96747e-05 -5.86773e-06 -6.31582e-06 -3.96398e-06 -1.11867e-05
internal_weight=82803 12713 7504 5209 6190 4608 3230 1314 601 5307 70090 69772 59462 29788
internal_count=82803 12713 7504 5209 6190 4608 3230 1314 601 5307 70090 69772 59462 29788
is_linear=0
shrinkage=0.005


Tree=15
num_leaves=15
num_cat=0
split_feature=4 7 2 1 2 2 6 6 4 2 6 1 7 7
split_gain=0.451862 0.27749 0.374543 0.439108 0.638756 0.152801 0.139688 0.133428 0.130111 0.0988694 0.0835148 0.0808676 0.0742027 0.0494008
threshold=50000000.605290145 55123.370049640384 -1.9335538725684382e-11 15.112827140453616 -1.1693918056110418e-11 -1.1693918056110418e-11 0.38253101637816755 0.2586718312753003 0.14643818726861638 0.07867072093583613 0.35229259145410979 11.623838860288041 23899.325918171362 27097.04873740637
decision_type=2 2 2 2 2 2 2 2 2 2 2 2 2 2
left_child=8 7 6 4 -4 -5 11 13 -1 12 -11 -3 -9 -2
right_child=1 2 3 5 -6 -7 -8 9 -10 10 -12 -13 -14 -15
leaf_value=8.7430435782486548e-05 0 -3.41081832637595e-05 0.00011119931849348842 -4.4352736672585473e-05 2.1605565886732903e-05 5.6980158321395344e-06 5.5675032329833287e-05 -1.1131178871603993e-05 0.00028547746945441384 5.443109472114757e-06 -4.6833785412076092e-05 -0.0001062132625127049 4.6619338493894472e-07 8.8700551747670638e-05
leaf_weight=343 237 2248 2563 2015 9416 6046 338 29788 145 946 2742 540 24944 492
leaf_count=343 237 2248 2563 2015 9416 6046 338 29788 145 946 2742 540 24944 492
internal_value=0 -8.93445e-07 1.37403e-05 2.17594e-05 4.09874e-05 -6.50498e-06 -3.68638e-05 -6.66714e-06 0.000151626 -7.5443e-06 -3.27477e-05 -4.89871e-05 -5.80007e-06 6.01559e-05
internal_weight=82803 82315 23166 20040 11979 8061 3126 59149 488 58420 3688 2788 54732 729
internal_count=82803 82315 23166 20040 11979 8061 3126 59149 488 58420 3688 2788 54732 729
is_linear=0
shrinkage=0.005


Tree=16
num_leaves=15
num_cat=0
split_feature=5 2 2 8 2 5 5 2 3 7 2 7 7 5
split_gain=0.618896 0.501963 0.631053 0.628809 0.366146 0.173187 0.340302 0.134436 0.130571 0.124155 0.0899313 0.138653 0.106591 0.0846826
threshold=2.1920803104026487 -1.3361511896903264e-11 -1.1693918056110418e-11 0.034709377485134939 0.066070218503936864 2.7690153936392066 3.4531489661231283 -1.3214485061752155e-11 -1.0624921727917207 1334384.8920437524 0.043316895034455911 23899.325918171362 18848.639990258187 1.2816729187972631
decision_type=2 2 2 2 2 2 2 2 2 2 2 2 2 2
left_child=10 3 7 5 8 -2 -7 -3 -4 -5 11 12 13 -1
right_child=1 2 4 9 -6 6 -8 -9 -10 -11 -12 -13 -14 -15
leaf_value=-1.2173386049272407e-05 -7.252867036723436e-05 5.125844845895342e-05 -1.4540980645879021e-05 9.9387982638403442e-05 0.00014358399831673646 7.5786466822542898e-05 -3.7732053756752742e-05 0.00018650633285151143 3.8129388115185065e-05 0.00029151121900880826 -1.9504299182425004e-05 4.1162545386907468e-06 -2.0245733270249025e-05 1.2164980198442703e-05
leaf_weight=7975 1378 292 1609 468 716 920 2310 1022 3865 133 10310 29992 15371 6442
leaf_count=7975 1378 292 1609 468 716 920 2310 1022 3865 133 10310 29992 15371 6442
internal_value=0 3.21029e-05 5.83062e-05 -5.16733e-06 3.6647e-05 -2.54745e-05 -4.61801e-06 0.000158384 2.21911e-05 0.000146268 -5.81485e-06 -3.41192e-06 -1.10755e-05 -1.12474e-06
internal_weight=82803 12713 7504 5209 6190 4608 3230 1314 5474 601 70090 59780 29788 14417
internal_count=82803 12713 7504 5209 6190 4608 3230 1314 5474 601 70090 59780 29788 14417
is_linear=0
shrinkage=0.005


Tree=17
num_leaves=15
num_cat=0
split_feature=4 7 2 1 2 2 6 6 4 2 6 1 7 7
split_gain=0.443041 0.271979 0.368395 0.431536 0.627939 0.150557 0.137917 0.131891 0.127408 0.0973601 0.0826959 0.0793375 0.0727616 0.0489042
threshold=50000000.605290145 55123.370049640384 -1.9335538725684382e-11 15.112827140453616 -1.1693918056110418e-11 -1.1693918056110418e-11 0.38253101637816755 0.2586718312753003 0.14643818726861638 0.07867072093583613 0.35229259145410979 11.623838860288041 23899.325918171362 27097.04873740637
decision_type=2 2 2 2 2 2 2 2 2 2 2 2 2 2
left_child=8 7 6 4 -4 -5 11 13 -1 12 -11 -3 -9 -2
right_child=1 2 3 5 -6 -7 -8 9 -10 10 -12 -13 -14 -15
leaf_value=8.6501146883988781e-05 0 -3.3876063656765574e-05 0.00011023594873412454 -4.4029725069325864e-05 2.1399538576005878e-05 5.6504525314935045e-06 5.5350502603214463e-05 -1.1020148035967807e-05 0.0002826816696174366 5.5133783104120001e-06 -4.650245269416868e-05 -0.00010534094166023326 4.6319093627361828e-07 8.8236936646972209e-05
leaf_weight=343 237 2248 2563 2015 9416 6046 338 29788 145 946 2742 540 24944 492
leaf_count=343 237 2248 2563 2015 9416 6046 338 29788 145 946 2742 540 24944 492
internal_value=0 -8.83582e-07 1.36037e-05 2.15575e-05 4.06193e-05 -6.4599e-06 -3.65811e-05 -6.59995e-06 0.00015014 -7.47228e-06 -3.24833e-05 -4.86308e-05 -5.74101e-06 5.98362e-05
internal_weight=82803 82315 23166 20040 11979 8061 3126 59149 488 58420 3688 2788 54732 729
internal_count=82803 82315 23166 20040 11979 8061 3126 59149 488 58420 3688 2788 54732 729
is_linear=0
shrinkage=0.005


Tree=18
num_leaves=15
num_cat=0
split_feature=5 8 3 8 1 3 5 1 1 1 5 8 1 0
split_gain=0.608025 0.441286 0.357735 0.318708 0.289083 0.1731 0.123752 0.139829 0.116689 0.10425 0.063139 0.065395 0.0943424 0.0638795
threshold=2.1920803104026487 -0.019078178784966943 -0.78608812787665883 0.079452765578015713 9.1180754775924964 -0.48694514457122512 3.7538048709159173 15.711378721587115 2.3021304486958871 20.273236450899052 1.8896213948852416 -0.0050170338576877955 15.112827140453616 0.36989354441652328
decision_type=2 2 2 2 2 2 2 2 2 2 2 2 2 2
left_child=9 6 3 -3 8 -6 7 -2 -4 10 13 12 -12 -1
right_child=1 2 4 -5 5 -7 -8 -9 -10 -11 11 -13 -14 -15
leaf_value=-6.621647888941059e-07 2.4782561812048253e-05 -4.458645848628198e-06 0.00028501271406102435 0.00020213635540946347 0.0001042788936347267 2.9366678560922935e-05 -5.3177206040338676e-05 -6.124780430808192e-05 0.00011763639960932511 8.3953914250096596e-05 7.0100346191538323e-05 -4.4901498023265107e-05 -2.1269246351388991e-05 -1.0688824478123438e-05
leaf_weight=37608 2321 2876 140 198 1160 2766 1203 585 1464 318 347 2105 1460 28252
leaf_count=37608 2321 2876 140 198 1160 2766 1203 585 1464 318 347 2105 1460 28252
internal_value=0 3.18208e-05 5.22262e-05 8.06595e-06 7.63188e-05 5.21479e-05 -1.02997e-05 6.59629e-06 0.000133888 -5.76246e-06 -6.20779e-06 -2.58771e-05 -2.32579e-06 -5.00131e-06
internal_weight=82803 12713 8604 3074 5530 3926 4109 2906 1604 70090 69772 3912 1807 65860
internal_count=82803 12713 8604 3074 5530 3926 4109 2906 1604 70090 69772 3912 1807 65860
is_linear=0
shrinkage=0.005


Tree=19
num_leaves=15
num_cat=0
split_feature=5 2 2 8 1 5 1 2 6 1 5 3 5 2
split_gain=0.602033 0.492007 0.61807 0.612213 0.405297 0.169828 0.482788 0.132121 0.127233 0.122538 0.116877 0.111442 0.0762219 0.0762305
threshold=2.1920803104026487 -1.3361511896903264e-11 -1.1693918056110418e-11 0.034709377485134939 9.1180754775924964 2.7690153936392066 11.514193285779518 -1.3214485061752155e-11 0.3091009038436684 2.3021304486958871 1.9983343782813803 -1.0624921727917207 1.2816729187972631 0.043316895034455911
decision_type=2 2 2 2 2 2 2 2 2 2 2 2 2 2
left_child=8 3 7 5 -4 -2 -7 -3 -1 -5 12 -6 -10 -14
right_child=1 2 4 9 11 6 -8 -9 10 -11 -12 -13 13 -15
leaf_value=1.1151556030174383e-05 -7.1872691940345643e-05 5.0376954606453476e-05 0.00013579472427912074 0.00028359272421148748 -1.4560680559543371e-05 -2.9195947324889846e-05 0.00015118046206228898 0.00018453475435533103 -1.3606949020735029e-05 9.6164022502716415e-05 -4.6603808613298208e-05 3.4419546247529702e-05 2.5999815373217772e-06 -1.4336331930610581e-05
leaf_weight=9514 1378 292 883 140 1608 2804 426 1022 25559 461 1963 3699 23924 9130
leaf_count=9514 1378 292 883 140 1608 2804 426 1022 25559 461 1963 3699 23924 9130
internal_value=0 3.16638e-05 5.76069e-05 -5.23152e-06 3.61665e-05 -2.52746e-05 -4.61277e-06 0.000156654 -5.73382e-06 0.00014418 -8.42716e-06 1.91077e-05 -7.10555e-06 -2.00259e-06
internal_weight=82803 12713 7504 5209 6190 4608 3230 1314 70090 601 60576 5307 58613 33054
internal_count=82803 12713 7504 5209 6190 4608 3230 1314 70090 601 60576 5307 58613 33054
is_linear=0
shrinkage=0.005


Tree=20
num_leaves=15
num_cat=0
split_feature=5 8 3 8 6 7 6 5 5 0 6 7 5 5
split_gain=0.596128 0.432556 0.351714 0.312954 0.250854 0.28874 0.126598 0.122012 0.129125 0.131715 0.101552 0.0779656 0.139305 0.0708183
threshold=2.1920803104026487 -0.019078178784966943 -0.78608812787665883 0.079452765578015713 0.32047244224534316 325202.78600627551 0.2586718312753003 3.7538048709159173 2.4901345504882442 0.036736179778659096 0.34157536781821218 952371.27617292001 1.9983343782813803 1.2799065304589672
decision_type=2 2 2 2 2 2 2 2 2 2 2 2 2 2
left_child=6 7 3 10 -4 -6 -1 8 9 -2 -3 12 13 -8
right_child=1 2 4 -5 5 -7 11 -9 -10 -11 -12 -13 -14 -15
leaf_value=5.9486249505116613e-05 -6.3342418397327978e-05 -0.00011194073283532749 -9.1979303138273291e-06 0.00020023540444132551 6.3500442087835251e-05 0.00015280985556658541 -1.1257522345975016e-05 -5.2766196660002793e-05 3.5201148852269388e-05 5.530777696098307e-05 2.8449644998634607e-06 7.67861677252581e-05 -4.7999224270061546e-05 -8.4204556273707044e-07
leaf_weight=729 904 205 707 198 3499 1324 29915 1203 1708 294 2671 275 2007 37164
leaf_count=729 904 205 707 198 3499 1324 29915 1203 1708 294 2671 275 2007 37164
internal_value=0 3.15086e-05 5.17116e-05 7.91778e-06 7.56006e-05 8.85491e-05 -5.70516e-06 -1.01881e-05 6.58389e-06 -3.21277e-05 -4.48583e-06 -6.4268e-06 -6.79477e-06 -5.52432e-06
internal_weight=82803 12713 8604 3074 5530 4823 70090 4109 2906 1198 2876 69361 69086 67079
internal_count=82803 12713 8604 3074 5530 4823 70090 4109 2906 1198 2876 69361 69086 67079
is_linear=0
shrinkage=0.005


Tree=21
num_leaves=15
num_cat=0
split_feature=5 6 3 3 1 1 1 1 6 7 5 1 5 5
split_gain=0.590214 0.394397 0.42824 0.484336 0.175559 0.172314 0.170798 0.334307 0.125594 0.127692 0.114651 0.0871758 0.0747793 0.0736199
threshold=2.1920803104026487 0.33997996367784972 -0.78608812787665883 35001581.200265877 11.623838860288041 2.3021304486958871 6.3882734346431524 8.0713769269779796 0.3091009038436684 27021.941283618231 1.9983343782813803 5.9715134643518937 1.2816729187972631 1.4109140728225504
decision_type=2 2 2 2 2 2 2 2 2 2 2 2 2 2
left_child=8 4 6 5 11 -4 -3 -8 9 -1 12 -2 -10 -14
right_child=1 2 3 -5 -6 -7 7 -9 10 -11 -12 -13 13 -15
leaf_value=-5.2558552752374331e-06 -8.4751350969546125e-05 -5.2183249857928033e-05 0.00028141847523293885 -2.8393941137314532e-06 -7.9659767905570692e-05 9.3338822627110941e-05 0.00012634869667950025 -1.1709084524300787e-06 -1.3483095771943767e-05 3.1196690696768948e-05 -4.6166502169305553e-05 1.8365568707431409e-05 6.2538383946442171e-06 -8.7211136273840335e-06
leaf_weight=5177 229 943 140 1488 867 4251 638 2446 25559 4337 1963 1711 14695 18359
leaf_count=5177 229 943 140 1488 867 4251 638 2446 25559 4337 1963 1711 14695 18359
internal_value=0 3.13521e-05 4.62542e-05 7.34999e-05 -2.03464e-05 9.99361e-05 5.85329e-06 2.44153e-05 -5.67663e-06 1.10992e-05 -8.35276e-06 4.88649e-06 -7.04331e-06 -1.98799e-06
internal_weight=82803 12713 9906 5879 2807 4391 4027 3084 70090 9514 60576 1940 58613 33054
internal_count=82803 12713 9906 5879 2807 4391 4027 3084 70090 9514 60576 1940 58613 33054
is_linear=0
shrinkage=0.005


Tree=22
num_leaves=15
num_cat=0
split_feature=4 7 2 1 2 2 6 6 4 2 6 1 7 7
split_gain=0.420928 0.259408 0.356759 0.412018 0.609425 0.145231 0.132528 0.128348 0.122482 0.0941345 0.0809527 0.0772979 0.0711422 0.0482141
threshold=50000000.605290145 55123.370049640384 -1.9335538725684382e-11 15.112827140453616 -1.1693918056110418e-11 -1.1693918056110418e-11 0.38253101637816755 0.2586718312753003 0.14643818726861638 0.07867072093583613 0.35229259145410979 11.623838860288041 23899.325918171362 27097.04873740637
decision_type=2 2 2 2 2 2 2 2 2 2 2 2 2 2
left_child=8 7 6 4 -4 -5 11 13 -1 12 -11 -3 -9 -2
right_child=1 2 3 5 -6 -7 -8 9 -10 10 -12 -13 -14 -15
leaf_value=8.3779610296168405e-05 0 -3.3330681420288259e-05 0.00010832537229279294 -4.3158021972386905e-05 2.0803865972155787e-05 5.6345047679965546e-06 5.393736044078566e-05 -1.082218653773592e-05 0.0002763694577892007 5.6819564279004523e-06 -4.5775156989829876e-05 -0.00010391338002885981 5.3282813713585647e-07 8.7290853715790104e-05
leaf_weight=343 237 2248 2563 2015 9416 6046 338 29788 145 946 2742 540 24944 492
leaf_count=343 237 2248 2563 2015 9416 6046 338 29788 145 946 2742 540 24944 492
internal_value=0 -8.60273e-07 1.32875e-05 2.1116e-05 3.97422e-05 -6.25392e-06 -3.60951e-05 -6.44364e-06 0.000146346 -7.30473e-06 -3.18993e-05 -4.79144e-05 -5.60153e-06 5.90924e-05
internal_weight=82803 82315 23166 20040 11979 8061 3126 59149 488 58420 3688 2788 54732 729
internal_count=82803 82315 23166 20040 11979 8061 3126 59149 488 58420 3688 2788 54732 729
is_linear=0
shrinkage=0.005


Tree=23
num_leaves=15
num_cat=0
split_feature=4 7 2 8 2 6 6 4 8 2 6 7 7 7
split_gain=0.416883 0.25681 0.353222 0.180661 0.364731 0.131255 0.127077 0.121121 0.10064 0.0931656 0.0801771 0.0704382 0.0477309 0.0456654
threshold=50000000.605290145 55123.370049640384 -1.9335538725684382e-11 -0.032461362914859279 -1.1693918056110418e-11 0.38253101637816755 0.2586718312753003 0.14643818726861638 -0.13179731587717813 0.07867072093583613 0.35229259145410979 23899.325918171362 27097.04873740637 1623748.4069387387
decision_type=2 2 2 2 2 2 2 2 2 2 2 2 2 2
left_child=7 6 5 8 -5 13 12 -1 -4 11 -11 -8 -2 -3
right_child=1 2 3 4 -6 -7 9 -9 -10 10 -12 -13 -14 -15
leaf_value=8.3361321341866911e-05 0 -5.7888310753375146e-05 8.6169722550488145e-05 8.8971614294489488e-05 1.9213396534640393e-05 5.3668071175296073e-05 -1.0768076296618552e-05 0.00027499235884840135 -6.4702942975318925e-07 5.6535623401652618e-06 -4.5546322203733008e-05 5.301642345363855e-07 8.6854841805956694e-05 -2.2892385113419498e-06
leaf_weight=343 237 2231 346 2393 9413 338 29788 145 7888 946 2742 24944 492 557
leaf_count=343 237 2231 346 2393 9413 338 29788 145 7888 946 2742 24944 492 557
internal_value=0 -8.55507e-07 1.3221e-05 2.10111e-05 3.35679e-05 -3.59147e-05 -6.41099e-06 0.000145642 2.7025e-06 -7.26799e-06 -3.17364e-05 -5.57329e-06 5.8798e-05 -4.76794e-05
internal_weight=82803 82315 23166 20040 11806 3126 59149 488 8234 58420 3688 54732 729 2788
internal_count=82803 82315 23166 20040 11806 3126 59149 488 8234 58420 3688 54732 729 2788
is_linear=0
shrinkage=0.005


Tree=24
num_leaves=15
num_cat=0
split_feature=4 7 1 1 8 7 6 4 7 1 8 8 6 6
split_gain=0.412877 0.254238 0.254242 0.414883 0.479549 0.247089 0.125819 0.119774 0.0472525 0.0458074 0.0470233 0.0283891 0.0175936 6.00158e-06
threshold=50000000.605290145 55123.370049640384 6.1827636104370951 9.1180754775924964 -0.022487110889034882 1160310.2408759205 0.2586718312753003 0.14643818726861638 27097.04873740637 1.1396961370154515 0.0073183382382515571 0.128685354939823 0.37163173506456043 0.23695182649716992
decision_type=2 2 2 2 2 2 2 2 2 2 2 2 2 2
left_child=7 6 12 4 -4 -5 8 -1 13 11 -11 -8 -3 -2
right_child=1 2 3 5 -6 -7 9 -9 -10 10 -12 -13 -14 -15
leaf_value=8.2945122624880654e-05 9.004453000648915e-07 -6.2609752225518673e-05 0 1.1673703811777057e-05 0.00012230467067074184 -7.9033375337564632e-05 3.8081777744448552e-05 0.00027362211649002081 8.6421006978465824e-05 -4.1122674917265988e-06 -1.3522927854803149e-05 -8.8584185524365982e-06 0 -4.5865240109550367e-07
leaf_weight=343 166 1120 1478 17884 1848 778 889 145 492 34254 22889 388 58 71
leaf_count=343 166 1120 1478 17884 1848 778 889 145 492 34254 22889 388 58 71
internal_value=0 -8.5076e-07 1.3155e-05 1.70773e-05 6.86166e-05 7.75624e-06 -6.3785e-06 0.000144941 5.85051e-05 -7.23144e-06 -7.9256e-06 2.18648e-05 -5.79123e-05 0
internal_weight=82803 82315 23166 21988 3326 18662 59149 488 729 58420 57143 1277 1178 237
internal_count=82803 82315 23166 21988 3326 18662 59149 488 729 58420 57143 1277 1178 237
is_linear=0
shrinkage=0.005


Tree=25
num_leaves=15
num_cat=0
split_feature=5 2 2 8 1 5 1 2 6 7 1 5 6 5
split_gain=0.572486 0.47408 0.597338 0.580832 0.394915 0.163612 0.467922 0.12948 0.12297 0.124477 0.11569 0.111843 0.10886 0.0731406
threshold=2.1920803104026487 -1.3361511896903264e-11 -1.1693918056110418e-11 0.034709377485134939 9.1180754775924964 2.7690153936392066 11.514193285779518 -1.3214485061752155e-11 0.3091009038436684 27021.941283618231 2.3021304486958871 1.9983343782813803 0.36431179662055091 1.2816729187972631
decision_type=2 2 2 2 2 2 2 2 2 2 2 2 2 2
left_child=8 3 7 5 -4 -2 -7 -3 9 -1 -5 13 -6 -10
right_child=1 2 4 10 12 6 -8 -9 11 -11 -12 -13 -14 -15
leaf_value=-5.1325914919919259e-06 -7.06066097966802e-05 4.8486165590716123e-05 0.00013359986389785281 0.00027590615747768261 4.5590136542297565e-05 -2.8782384957314784e-05 0.00014879093740183472 0.0001813078623721581 -1.3312793477812866e-05 3.0852337580039005e-05 9.328845041117379e-05 -4.5588225932107974e-05 0 -1.9435055147792868e-06
leaf_weight=5177 1378 292 883 140 2175 2804 426 1022 25559 4337 461 1963 3132 33054
leaf_count=5177 1378 292 883 140 2175 2804 426 1022 25559 4337 461 1963 3132 33054
internal_value=0 3.08788e-05 5.63465e-05 -5.33154e-06 3.52609e-05 -2.48654e-05 -4.56922e-06 0.000153723 -5.58955e-06 1.10093e-05 0.000140179 -8.23789e-06 1.84168e-05 -6.94396e-06
internal_weight=82803 12713 7504 5209 6190 4608 3230 1314 70090 9514 601 60576 5307 58613
internal_count=82803 12713 7504 5209 6190 4608 3230 1314 70090 9514 601 60576 5307 58613
is_linear=0
shrinkage=0.005


Tree=26
num_leaves=15
num_cat=0
split_feature=5 8 3 8 6 7 6 7 5 5 7 5 6 5
split_gain=0.566897 0.412485 0.341548 0.301821 0.239549 0.27515 0.121738 0.123246 0.117712 0.124052 0.12743 0.110719 0.096598 0.0724041
threshold=2.1920803104026487 -0.019078178784966943 -0.78608812787665883 0.079452765578015713 0.32047244224534316 325202.78600627551 0.3091009038436684 27021.941283618231 3.7538048709159173 2.4901345504882442 291489.61069683271 1.9983343782813803 0.34157536781821218 1.2816729187972631
decision_type=2 2 2 2 2 2 2 2 2 2 2 2 2 2
left_child=6 8 3 12 -4 -6 7 -1 9 10 -2 13 -3 -8
right_child=1 2 4 -5 5 -7 11 -9 -10 -11 -12 -13 -14 -15
leaf_value=-5.1069311352610269e-06 5.4500066343541158e-05 -0.00010962741628488631 -8.7917551470766898e-06 0.0001961958880373383 6.2167449278414591e-05 0.00014941730798431608 -1.324623050803107e-05 3.069809448507481e-05 -5.1804526450017817e-05 3.4544880343496601e-05 -6.2166359093298419e-05 -4.5360342778530521e-05 2.2500424602829665e-06 -1.9337880717748946e-06
leaf_weight=5177 294 205 707 198 3499 1324 25559 4337 1203 1708 904 1963 2671 33054
leaf_count=5177 294 205 707 198 3499 1324 25559 4337 1203 1708 904 1963 2671 33054
internal_value=0 3.07279e-05 5.0458e-05 7.29466e-06 7.39966e-05 8.66504e-05 -5.56196e-06 1.0953e-05 -9.97835e-06 6.48227e-06 -3.14386e-05 -8.19711e-06 -4.87309e-06 -6.90946e-06
internal_weight=82803 12713 8604 3074 5530 4823 70090 9514 4109 2906 1198 60576 2876 58613
internal_count=82803 12713 8604 3074 5530 4823 70090 9514 4109 2906 1198 60576 2876 58613
is_linear=0
shrinkage=0.005


Tree=27
num_leaves=15
num_cat=0
split_feature=5 2 2 8 1 5 1 2 6 1 5 6 5 2
split_gain=0.561286 0.465748 0.588722 0.569814 0.390271 0.160651 0.461236 0.127073 0.120518 0.114444 0.109605 0.107675 0.071675 0.0747537
threshold=2.1920803104026487 -1.3361511896903264e-11 -1.1693918056110418e-11 0.034709377485134939 9.1180754775924964 2.7690153936392066 11.514193285779518 -1.3214485061752155e-11 0.3091009038436684 2.3021304486958871 1.9983343782813803 0.36431179662055091 1.2816729187972631 0.043316895034455911
decision_type=2 2 2 2 2 2 2 2 2 2 2 2 2 2
left_child=8 3 7 5 -4 -2 -7 -3 -1 -5 12 -6 -10 -14
right_child=1 2 4 9 11 6 -8 -9 10 -11 -12 -13 13 -15
leaf_value=1.0896878793895845e-05 -6.9991049742109223e-05 4.8115806861367165e-05 0.00013263987896312504 0.00027378710709326633 4.5163186027245855e-05 -2.8589123576975577e-05 0.00014770917065991886 0.00017983194644116595 -1.318000051348144e-05 9.2143200467545479e-05 -4.5133598312201571e-05 0 2.6331581730162599e-06 -1.4139181537118245e-05
leaf_weight=9514 1378 292 883 140 2175 2804 426 1022 25559 461 1963 3132 23924 9130
leaf_count=9514 1378 292 883 140 2175 2804 426 1022 25559 461 1963 3132 23924 9130
internal_value=0 3.05753e-05 5.58186e-05 -5.31178e-06 3.48823e-05 -2.46638e-05 -4.54426e-06 0.000152493 -5.53451e-06 0.000138805 -8.15654e-06 1.8135e-05 -6.87512e-06 -1.92412e-06
internal_weight=82803 12713 7504 5209 6190 4608 3230 1314 70090 601 60576 5307 58613 33054
internal_count=82803 12713 7504 5209 6190 4608 3230 1314 70090 601 60576 5307 58613 33054
is_linear=0
shrinkage=0.005


Tree=28
num_leaves=15
num_cat=0
split_feature=5 2 2 6 2 7 5 5 2 3 6 2 5 7
split_gain=0.555789 0.461116 0.58289 0.515689 0.346635 0.162395 0.143106 0.352313 0.125653 0.123595 0.12004 0.0769075 0.116784 0.0917603
threshold=2.1920803104026487 -1.3361511896903264e-11 -1.1693918056110418e-11 0.3830594110095647 0.066070218503936864 1334384.8920437524 2.7690153936392066 3.4531489661231283 -1.3214485061752155e-11 -1.0624921727917207 0.2586718312753003 0.043316895034455911 1.2799065304589672 23023.0208104464
decision_type=2 2 2 2 2 2 2 2 2 2 2 2 2 2
left_child=10 3 8 6 9 -5 -2 -8 -3 -4 -1 12 13 -12
right_child=1 2 4 5 -6 -7 7 -9 -10 -11 11 -13 -14 -15
leaf_value=5.7967507221343922e-05 -6.9641219950007121e-05 4.7875638908540445e-05 -1.5103728866422235e-05 7.3098476650312045e-05 0.00013874621084382379 0.00027606369139215029 7.3533113629180367e-05 -4.3598919656786825e-05 0.00017893323063973365 3.6155749463980096e-05 -1.8760650131098218e-05 -1.8875408375682149e-05 3.1014978465295772e-06 -9.3138010358233316e-07
leaf_weight=729 1378 292 1609 686 716 133 920 2092 1022 3865 16610 10310 29136 13305
leaf_count=729 1378 292 1609 686 716 133 920 2092 1022 3865 16610 10310 29136 13305
internal_value=0 3.04258e-05 5.55434e-05 -5.28022e-06 3.47084e-05 0.000109258 -2.72279e-05 -6.9854e-06 0.00015174 2.06321e-05 -5.50684e-06 -6.21042e-06 -3.95671e-06 -1.09146e-05
internal_weight=82803 12713 7504 5209 6190 819 4390 3012 1314 5474 70090 69361 59051 29915
internal_count=82803 12713 7504 5209 6190 819 4390 3012 1314 5474 70090 69361 59051 29915
is_linear=0
shrinkage=0.005


Tree=29
num_leaves=15
num_cat=0
split_feature=4 7 1 1 8 7 6 4 7 1 8 8 6 6
split_gain=0.392987 0.242141 0.245938 0.399166 0.458996 0.239132 0.12205 0.114901 0.0463923 0.0454859 0.0456141 0.0280703 0.0170356 4.02519e-06
threshold=50000000.605290145 55123.370049640384 6.1827636104370951 9.1180754775924964 -0.022487110889034882 1160310.2408759205 0.2586718312753003 0.14643818726861638 27097.04873740637 1.1396961370154515 0.0073183382382515571 0.128685354939823 0.37163173506456043 0.23695182649716992
decision_type=2 2 2 2 2 2 2 2 2 2 2 2 2 2
left_child=7 6 12 4 -4 -5 8 -1 13 11 -11 -8 -3 -2
right_child=1 2 3 5 -6 -7 9 -9 -10 10 -12 -13 -14 -15
leaf_value=8.0494629855688282e-05 6.0371320415270731e-07 -6.1673430160337611e-05 0 1.1408828788214893e-05 0.00011977941423116974 -7.7823947527388734e-05 3.8053780203756361e-05 0.00026754588759232223 8.5337928340292835e-05 -3.9996305588171241e-06 -1.3269544294692865e-05 -8.5572325694194955e-06 0 -7.4744908386593935e-07
leaf_weight=343 166 1120 1478 17884 1848 778 889 145 492 34254 22889 388 58 71
leaf_count=343 166 1120 1478 17884 1848 778 889 145 492 34254 22889 388 58 71
internal_value=0 -8.28544e-07 1.28391e-05 1.66984e-05 6.72532e-05 7.55286e-06 -6.22386e-06 0.000141408 5.76779e-05 -7.06454e-06 -7.75659e-06 2.19369e-05 -5.70529e-05 0
internal_weight=82803 82315 23166 21988 3326 18662 59149 488 729 58420 57143 1277 1178 237
internal_count=82803 82315 23166 21988 3326 18662 59149 488 729 58420 57143 1277 1178 237
is_linear=0
shrinkage=0.005


Tree=30
num_leaves=15
num_cat=0
split_feature=4 7 1 1 8 7 6 4 7 1 8 8 6 6
split_gain=0.389216 0.239736 0.24345 0.395224 0.454357 0.236755 0.120841 0.113619 0.04593 0.0450112 0.0451514 0.0278123 0.0169081 3.98522e-06
threshold=50000000.605290145 55123.370049640384 6.1827636104370951 9.1180754775924964 -0.022487110889034882 1160310.2408759205 0.2586718312753003 0.14643818726861638 27097.04873740637 1.1396961370154515 0.0073183382382515571 0.128685354939823 0.37163173506456043 0.23695182649716992
decision_type=2 2 2 2 2 2 2 2 2 2 2 2 2 2
left_child=7 6 12 4 -4 -5 8 -1 13 11 -11 -8 -3 -2
right_child=1 2 3 5 -6 -7 9 -9 -10 10 -12 -13 -14 -15
leaf_value=8.0092738784477881e-05 6.0070302566742754e-07 -6.1365200991470029e-05 0 1.1351786103719764e-05 0.00011918067949676226 -7.743507771637986e-05 3.7863618049544438e-05 0.00026621274541282569 8.4911674866216432e-05 -3.9796328960004386e-06 -1.3203197897385848e-05 -8.5145010662965867e-06 0 -7.4373890313652017e-07
leaf_weight=343 166 1120 1478 17884 1848 778 889 145 492 34254 22889 388 58 71
leaf_count=343 166 1120 1478 17884 1848 778 889 145 492 34254 22889 388 58 71
internal_value=0 -8.24145e-07 1.27752e-05 1.66155e-05 6.69205e-05 7.51442e-06 -6.19274e-06 0.000140728 5.73898e-05 -7.02944e-06 -7.71802e-06 2.18175e-05 -5.67598e-05 0
internal_weight=82803 82315 23166 21988 3326 18662 59149 488 729 58420 57143 1277 1178 237
internal_count=82803 82315 23166 21988 3326 18662 59149 488 729 58420 57143 1277 1178 237
is_linear=0
shrinkage=0.005


Tree=31
num_leaves=15
num_cat=0
split_feature=5 8 3 8 1 7 6 7 5 1 5 1 6 7
split_gain=0.543216 0.396256 0.331859 0.290851 0.255327 0.168616 0.117962 0.120823 0.113919 0.128994 0.1085 0.100843 0.0927357 0.0865055
threshold=2.1920803104026487 -0.019078178784966943 -0.78608812787665883 0.079452765578015713 9.1180754775924964 1040154.8986812589 0.3091009038436684 27021.941283618231 3.7538048709159173 15.711378721587115 1.9983343782813803 2.3021304486958871 0.34157536781821218 418498.27437700826
decision_type=2 2 2 2 2 2 2 2 2 2 2 2 2 2
left_child=6 8 3 12 11 -6 7 -1 9 13 -8 -4 -3 -2
right_child=1 2 4 -5 5 -7 10 -9 -10 -11 -12 -13 -14 -15
leaf_value=-5.0850509604241583e-06 4.5229379823252382e-05 -0.00010767710330576575 0.00026843889765573991 0.00019232541735220106 6.2554702119281468e-05 -3.306844883251603e-05 -6.7622215687426867e-06 3.0363999147926938e-05 -5.0957678028839745e-05 -5.8737706405874636e-05 -4.4826115095699709e-05 0.00011146370086639641 1.8925493505133007e-06 -1.8383478230409148e-05
leaf_weight=5177 1581 205 140 198 3430 496 58613 4337 1203 585 1963 1464 2671 740
leaf_count=5177 1581 205 140 198 3430 496 58613 4337 1203 585 1963 1464 2671 740
internal_value=0 3.00809e-05 4.942e-05 6.8645e-06 7.26209e-05 4.98346e-05 -5.44293e-06 1.08125e-05 -9.80684e-06 6.37412e-06 -8.03733e-06 0.000126802 -5.06577e-06 2.38713e-05
internal_weight=82803 12713 8604 3074 5530 3926 70090 9514 4109 2906 60576 1604 2876 2321
internal_count=82803 12713 8604 3074 5530 3926 70090 9514 4109 2906 60576 1604 2876 2321
is_linear=0
shrinkage=0.005


Tree=32
num_leaves=15
num_cat=0
split_feature=4 7 1 1 8 7 6 4 7 1 8 8 6 6
split_gain=0.381191 0.23535 0.239973 0.388839 0.446342 0.232885 0.119186 0.111373 0.0452814 0.0445518 0.0444746 0.0275635 0.016686 4.0467e-06
threshold=50000000.605290145 55123.370049640384 6.1827636104370951 9.1180754775924964 -0.022487110889034882 1160310.2408759205 0.2586718312753003 0.14643818726861638 27097.04873740637 1.1396961370154515 0.0073183382382515571 0.128685354939823 0.37163173506456043 0.23695182649716992
decision_type=2 2 2 2 2 2 2 2 2 2 2 2 2 2
left_child=7 6 12 4 -4 -5 8 -1 13 11 -11 -8 -3 -2
right_child=1 2 3 5 -6 -7 9 -9 -10 10 -12 -13 -14 -15
leaf_value=7.9136361478254565e-05 6.2305749091686814e-07 -6.0950537983837374e-05 0 1.1250595540880225e-05 0.00011816746277381109 -7.6805527495396451e-05 3.7708197906979804e-05 0.00026357564851129588 8.4335883105466817e-05 -3.9403587293365924e-06 -1.3095498971782804e-05 -8.438216222439199e-06 0 -7.1479864027741902e-07
leaf_weight=343 166 1120 1478 17884 1848 778 889 145 492 34254 22889 388 58 71
leaf_count=343 166 1120 1478 17884 1848 778 889 145 492 34254 22889 388 58 71
internal_value=0 -8.15326e-07 1.26588e-05 1.64721e-05 6.63698e-05 7.44371e-06 -6.13485e-06 0.00013927 5.7009e-05 -6.96607e-06 -7.65134e-06 2.17324e-05 -5.63752e-05 0
internal_weight=82803 82315 23166 21988 3326 18662 59149 488 729 58420 57143 1277 1178 237
internal_count=82803 82315 23166 21988 3326 18662 59149 488 729 58420 57143 1277 1178 237
is_linear=0
shrinkage=0.005


Tree=33
num_leaves=15
num_cat=0
split_feature=5 2 2 8 2 5 5 2 3 6 7 5 7 5
split_gain=0.534321 0.445409 0.571267 0.539344 0.334001 0.15615 0.317416 0.124152 0.121044 0.116404 0.119186 0.107454 0.105097 0.0694816
threshold=2.1920803104026487 -1.3361511896903264e-11 -1.1693918056110418e-11 0.034709377485134939 0.066070218503936864 2.7690153936392066 3.4531489661231283 -1.3214485061752155e-11 -1.0624921727917207 0.3091009038436684 27021.941283618231 1.9983343782813803 1334384.8920437524 1.2816729187972631
decision_type=2 2 2 2 2 2 2 2 2 2 2 2 2 2
left_child=9 3 7 5 8 -2 -7 -3 -4 10 -1 13 -5 -11
right_child=1 2 4 12 -6 6 -8 -9 -10 11 -12 -13 -14 -15
leaf_value=-5.0373355869895727e-06 -6.8774615862115892e-05 4.6513052941693001e-05 -1.5299931896588214e-05 9.1150437838320361e-05 0.00013602108062899413 7.3381169032348822e-05 -3.625484862511504e-05 0.00017676674817705272 3.5433696677036513e-05 -1.291350784262494e-05 3.0168096620778798e-05 -4.4586524047490484e-05 0.00026937962038798283 -1.8305540402305141e-06
leaf_weight=5177 1378 292 1609 468 716 920 2310 1022 3865 25559 4337 1963 133 33054
leaf_count=5177 1378 292 1609 468 716 920 2310 1022 3865 25559 4337 1963 133 33054
internal_value=0 2.98339e-05 5.45209e-05 -5.25177e-06 3.38911e-05 -2.40914e-05 -4.24685e-06 0.000149752 2.00646e-05 -5.39792e-06 1.07492e-05 -7.97531e-06 0.00013494 -6.70615e-06
internal_weight=82803 12713 7504 5209 6190 4608 3230 1314 5474 70090 9514 60576 601 58613
internal_count=82803 12713 7504 5209 6190 4608 3230 1314 5474 70090 9514 60576 601 58613
is_linear=0
shrinkage=0.005


Tree=34
num_leaves=15
num_cat=0
split_feature=5 2 2 8 1 5 1 2 6 7 5 6 1 5
split_gain=0.529096 0.440975 0.565613 0.534119 0.367884 0.154589 0.44817 0.122764 0.115237 0.118008 0.106373 0.106023 0.105775 0.0687819
threshold=2.1920803104026487 -1.3361511896903264e-11 -1.1693918056110418e-11 0.034709377485134939 9.1180754775924964 2.7690153936392066 11.514193285779518 -1.3214485061752155e-11 0.3091009038436684 27021.941283618231 1.9983343782813803 0.36431179662055091 2.3021304486958871 1.2816729187972631
decision_type=2 2 2 2 2 2 2 2 2 2 2 2 2 2
left_child=8 3 7 5 -4 -2 -7 -3 9 -1 13 -6 -5 -10
right_child=1 2 4 12 11 6 -8 -9 10 -11 -12 -13 -14 -15
leaf_value=-5.0121514849237265e-06 -6.8430867834223816e-05 4.6280887323425704e-05 0.00012864327562777758 0.00026449058470034514 4.4280391248850242e-05 -2.7935593059910581e-05 0.00014585486291127076 0.00017588334997413135 -1.2848941466167216e-05 3.0017274077861773e-05 -4.4363648321001155e-05 -3.9397518924423793e-07 8.9085165415080781e-05 -1.8214012342463537e-06
leaf_weight=5177 1378 292 883 140 2175 2804 426 1022 25559 4337 1963 3132 461 33054
leaf_count=5177 1378 292 883 140 2175 2804 426 1022 25559 4337 1963 3132 461 33054
internal_value=0 2.96878e-05 5.42517e-05 -5.22056e-06 3.37217e-05 -2.3971e-05 -4.22172e-06 0.000149013 -5.37129e-06 1.06942e-05 -7.93585e-06 1.74466e-05 0.000134287 -6.67283e-06
internal_weight=82803 12713 7504 5209 6190 4608 3230 1314 70090 9514 60576 5307 601 58613
internal_count=82803 12713 7504 5209 6190 4608 3230 1314 70090 9514 60576 5307 601 58613
is_linear=0
shrinkage=0.005


Tree=35
num_leaves=15
num_cat=0
split_feature=4 7 7 8 3 3 6 4 8 7 8 0 7 3
split_gain=0.369982 0.228458 0.212731 0.223562 0.33266 0.134784 0.117078 0.107968 0.0922452 0.0444548 0.0387938 0.0477581 0.0300576 0.0235815
threshold=50000000.605290145 55123.370049640384 1160310.2408759205 -0.018381926537520386 -0.80880398099026851 34.018387411376985 0.2586718312753003 0.14581129730443651 -0.13179731587717813 27097.04873740637 0.0073183382382515571 0.28797485634285375 18848.639990258187 322.05125129677396
decision_type=2 2 2 2 2 2 2 2 2 2 2 2 2 2
left_child=7 6 3 8 -5 -4 9 -1 -3 -2 12 -12 -8 -7
right_child=1 2 5 4 -6 13 10 -9 -10 -11 11 -13 -14 -15
leaf_value=7.7306815199956213e-05 0 7.8542685222504125e-05 -0.00011350838689286497 -2.0061464425784073e-06 5.3707730184602594e-05 7.1475706825032673e-06 7.3771278907122296e-06 0.00025848083981012894 -2.6751101698882317e-06 8.3614004775881773e-05 -2.6886903838111695e-05 -8.2501993481426319e-06 -5.4150214653968808e-06 -9.6374218359835878e-05
leaf_weight=341 237 361 517 4297 6764 540 5300 147 10627 492 4429 19427 29264 60
leaf_count=341 237 361 517 4297 6764 540 5300 147 10627 492 4429 19427 29264 60
internal_value=0 -8.02492e-07 1.24723e-05 1.59708e-05 3.18388e-05 -5.43248e-05 -6.04397e-06 0.000137208 0 5.65376e-05 -6.86817e-06 -1.18155e-05 -3.38108e-06 0
internal_weight=82803 82315 23166 22049 11061 1117 59149 488 10988 729 58420 23856 34564 600
internal_count=82803 82315 23166 22049 11061 1117 59149 488 10988 729 58420 23856 34564 600
is_linear=0
shrinkage=0.005


Tree=36
num_leaves=15
num_cat=0
split_feature=5 8 3 8 3 7 5 5 0 7 7 5 7 7
split_gain=0.520508 0.380332 0.320145 0.281633 0.221385 0.139066 0.110822 0.115772 0.119546 0.0888609 0.0740294 0.13243 0.0721056 0.105363
threshold=2.1920803104026487 -0.019078178784966943 -0.78608812787665883 0.079452765578015713 35.137573476857689 1334384.8920437524 3.7538048709159173 2.4901345504882442 0.036736179778659096 1334384.8920437524 952371.27617292001 1.9983343782813803 23899.325918171362 18848.639990258187
decision_type=2 2 2 2 2 2 2 2 2 2 2 2 2 2
left_child=10 6 3 9 5 -4 7 8 -2 -3 11 12 13 -1
right_child=1 2 4 -5 -6 -7 -8 -9 -10 -11 -12 -13 -14 -15
leaf_value=-3.9557839746780603e-07 -6.0073623298309564e-05 1.645310586708304e-06 8.381555279860108e-05 0.00018909665716047253 1.6082452236897713e-05 0.0002564138872037222 -5.0214682523499175e-05 3.3459954094103811e-05 5.2842795736248215e-05 -0.00010557307847016412 7.5845112178995263e-05 -4.5840733354362217e-05 4.0894033371812381e-08 -1.9394251762998586e-05
leaf_weight=14417 904 2671 3940 198 1454 136 1203 1708 294 205 275 2007 38020 15371
leaf_count=14417 904 2671 3940 198 1454 136 1203 1708 294 205 275 2007 38020 15371
internal_value=0 2.9446e-05 4.83937e-05 6.58184e-06 7.11812e-05 9.02185e-05 -9.62196e-06 6.32787e-06 -3.02665e-05 -5.14508e-06 -5.32736e-06 -5.68344e-06 -4.45766e-06 -1.02832e-05
internal_weight=82803 12713 8604 3074 5530 4076 4109 2906 1198 2876 70090 69815 67808 29788
internal_count=82803 12713 8604 3074 5530 4076 4109 2906 1198 2876 70090 69815 67808 29788
is_linear=0
shrinkage=0.005


Tree=37
num_leaves=15
num_cat=0
split_feature=7 6 2 1 2 6 2 6 2 6 1 7 7 1
split_gain=0.297684 0.298514 0.252431 0.372492 0.569258 0.217364 0.135876 0.114213 0.0879364 0.0771652 0.0708831 0.06705 0.10457 0.0585397
threshold=55123.370049640384 0.49123065755027751 -1.9335538725684382e-11 15.112827140453616 -1.1693918056110418e-11 0.38253101637816755 -1.1693918056110418e-11 0.2586718312753003 0.07867072093583613 0.35229259145410979 11.623838860288041 23899.325918171362 18848.639990258187 2.3366367863085502
decision_type=2 2 2 2 2 2 2 2 2 2 2 2 2 2
left_child=7 2 5 4 -4 10 -5 -1 11 -10 -2 12 -9 -3
right_child=1 13 3 6 -6 -7 -8 8 9 -11 -12 -13 -14 -15
leaf_value=5.5780530060458563e-05 -3.1387444815648341e-05 0.000256351232339265 0.00010374008244155127 -4.1962345536893819e-05 1.9147316417317374e-05 6.1932737658839545e-05 5.217742488574733e-06 -3.7060474615579684e-07 6.0994786888901727e-06 -4.412679369006259e-05 -9.9099592438073623e-05 8.051199213767993e-07 -1.9297283718087163e-05 7.0389073872165715e-05
leaf_weight=730 2248 147 2563 2015 9416 550 6046 14419 946 2742 540 24944 15371 126
leaf_count=730 2248 147 2563 2015 9416 550 6046 14419 946 2742 540 24944 15371 126
internal_value=0 1.50047e-05 1.29678e-05 1.97456e-05 3.74589e-05 -2.69714e-05 -6.26757e-06 -5.9826e-06 -6.79761e-06 -3.05665e-05 -4.54144e-05 -5.15011e-06 -1.02204e-05 0.000179949
internal_weight=82803 23651 23378 20040 11979 3338 8061 59152 58422 3688 2788 54734 29790 273
internal_count=82803 23651 23378 20040 11979 3338 8061 59152 58422 3688 2788 54734 29790 273
is_linear=0
shrinkage=0.005


Tree=38
num_leaves=15
num_cat=0
split_feature=5 2 2 6 1 1 5 1 2 6 7 6 5 5
split_gain=0.511392 0.429504 0.554876 0.470733 0.362278 0.146961 0.135526 0.458632 0.120508 0.11323 0.115485 0.104496 0.103049 0.0675325
threshold=2.1920803104026487 -1.3361511896903264e-11 -1.1693918056110418e-11 0.3830594110095647 9.1180754775924964 2.3366367863085502 2.7690153936392066 11.514193285779518 -1.3214485061752155e-11 0.3091009038436684 27021.941283618231 0.36431179662055091 1.9983343782813803 1.2816729187972631
decision_type=2 2 2 2 2 2 2 2 2 2 2 2 2 2
left_child=9 3 8 6 -4 -5 -2 -8 -3 10 -1 -6 13 -11
right_child=1 2 4 5 11 -7 7 -9 -10 12 -12 -13 -14 -15
leaf_value=-4.8871456852336758e-06 -6.7519739303362455e-05 4.5422305501738775e-05 0.00012728269826949574 0.000253074361318691 4.3589709391230971e-05 6.7404115449741896e-05 -3.2367356132987782e-05 0.0001443292256248165 0.00017391270582719942 -1.2697694853887405e-05 2.9760270251647537e-05 -7.7262208499270629e-07 -4.3680081416267827e-05 -1.7703571254269222e-06
leaf_weight=5177 1378 292 883 148 2175 671 2586 426 1022 25559 4337 3132 1963 33054
leaf_count=5177 1378 292 883 148 2175 671 2586 426 1022 25559 4337 3132 1963 33054
internal_value=0 2.91879e-05 5.34313e-05 -5.25853e-06 3.30932e-05 0.000104141 -2.62471e-05 -6.52672e-06 0.000147289 -5.27959e-06 1.0645e-05 1.694e-05 -7.82202e-06 -6.57809e-06
internal_weight=82803 12713 7504 5209 6190 819 4390 3012 1314 70090 9514 5307 60576 58613
internal_count=82803 12713 7504 5209 6190 819 4390 3012 1314 70090 9514 5307 60576 58613
is_linear=0
shrinkage=0.005


Tree=39
num_leaves=15
num_cat=0
split_feature=5 2 2 8 1 5 1 2 6 7 6 5 1 5
split_gain=0.506393 0.425228 0.549385 0.512203 0.35865 0.148523 0.434954 0.119159 0.112095 0.114344 0.10347 0.102012 0.0996285 0.0668523
threshold=2.1920803104026487 -1.3361511896903264e-11 -1.1693918056110418e-11 0.034709377485134939 9.1180754775924964 2.7690153936392066 11.514193285779518 -1.3214485061752155e-11 0.3091009038436684 27021.941283618231 0.36431179662055091 1.9983343782813803 2.3021304486958871 1.2816729187972631
decision_type=2 2 2 2 2 2 2 2 2 2 2 2 2 2
left_child=8 3 7 5 -4 -2 -7 -3 9 -1 -6 13 -5 -10
right_child=1 2 4 12 10 6 -8 -9 11 -11 -12 -13 -14 -15
leaf_value=-4.8627123956505656e-06 -6.7182264381608452e-05 4.5195582106903482e-05 0.00012664664683716074 0.00025811245764383641 4.3371810643257892e-05 -2.7594969651769164e-05 0.00014360842289531917 0.00017304356493824189 -1.2634207639200135e-05 2.9611485697156605e-05 -7.687594077833928e-07 -4.3461736304034795e-05 8.7227791896264461e-05 -1.7615055351578222e-06
leaf_weight=5177 1378 292 883 140 2175 2804 426 1022 25559 4337 3132 1963 461 33054
leaf_count=5177 1378 292 883 140 2175 2804 426 1022 25559 4337 3132 1963 461 33054
internal_value=0 2.90451e-05 5.31676e-05 -5.22726e-06 3.29278e-05 -2.35981e-05 -4.2226e-06 0.000146563 -5.25355e-06 1.05905e-05 1.6853e-05 -7.78333e-06 0.000131372 -6.54542e-06
internal_weight=82803 12713 7504 5209 6190 4608 3230 1314 70090 9514 5307 60576 601 58613
internal_count=82803 12713 7504 5209 6190 4608 3230 1314 70090 9514 5307 60576 601 58613
is_linear=0
shrinkage=0.005


Tree=40
num_leaves=15
num_cat=0
split_feature=4 7 2 1 2 2 1 4 2 1 7 7 7 8
split_gain=0.352792 0.217263 0.309755 0.361166 0.554809 0.132555 0.103477 0.102221 0.0925601 0.0889848 0.0882712 0.103255 0.0465934 0.0442378
threshold=50000000.605290145 55123.370049640384 -1.9335538725684382e-11 15.112827140453616 -1.1693918056110418e-11 -1.1693918056110418e-11 11.623838860288041 0.14581129730443651 0.07867072093583613 5.76431856950067 23899.325918171362 18848.639990258187 24291.156728057802 -0.0043995495728397253
decision_type=2 2 2 2 2 2 2 2 2 2 2 2 2 2
left_child=7 8 6 4 -4 -5 9 -1 10 -3 11 -2 -12 -10
right_child=1 2 3 5 -6 -7 -8 -9 13 -11 12 -13 -14 -15
leaf_value=7.5396413566007484e-05 -3.1242916831317577e-07 -6.09173727654452e-05 0.00010234156263646987 -4.1406365029270722e-05 1.8823387976553119e-05 5.1922526883630033e-06 -9.7957980248492956e-05 0.00025222575178338312 0 0 4.4319310642115838e-05 -1.9120555398431642e-05 1.2969431778666704e-06 -3.9847511342864542e-05
leaf_weight=341 14417 863 2563 2015 9416 6046 540 147 865 1723 652 15371 25021 2823
leaf_count=341 14417 863 2563 2015 9416 6046 540 147 865 1723 652 15371 25021 2823
internal_value=0 -7.82366e-07 1.21622e-05 1.94628e-05 3.6905e-05 -6.14769e-06 -3.38355e-05 0.000133984 -5.89451e-06 -1.94628e-05 -4.22899e-06 -1.01018e-05 2.48777e-06 -3.02593e-05
internal_weight=82803 82315 23166 20040 11979 8061 3126 488 59149 2586 55461 29788 25673 3688
internal_count=82803 82315 23166 20040 11979 8061 3126 488 59149 2586 55461 29788 25673 3688
is_linear=0
shrinkage=0.005


Tree=41
num_leaves=15
num_cat=0
split_feature=5 2 2 8 2 5 5 2 3 6 7 2 5 7
split_gain=0.497544 0.419053 0.539896 0.503643 0.321321 0.145844 0.303762 0.117929 0.117161 0.110867 0.0956476 0.0747325 0.110823 0.0877335
threshold=2.1920803104026487 -1.3361511896903264e-11 -1.1693918056110418e-11 0.034709377485134939 0.066070218503936864 2.7690153936392066 3.4531489661231283 -1.3214485061752155e-11 -1.0624921727917207 0.2586718312753003 1334384.8920437524 0.043316895034455911 1.2799065304589672 23023.0208104464
decision_type=2 2 2 2 2 2 2 2 2 2 2 2 2 2
left_child=9 3 7 5 8 -2 -7 -3 -4 -1 -5 12 13 -11
right_child=1 2 4 10 -6 6 -8 -9 -10 11 -12 -13 -14 -15
leaf_value=5.5785861813160144e-05 -6.6641771373758597e-05 4.4459156239115228e-05 -1.5695185877781823e-05 8.8024062951628688e-05 0.00013283553927752079 7.1677243599483628e-05 -3.5568008462389496e-05 0.00017166731322698254 3.4231630509770802e-05 -1.8112549385240123e-05 0.00025907572163513093 -1.8366031689549293e-05 3.2124764340258574e-06 -6.7878990759116133e-07
leaf_weight=729 1378 292 1609 468 716 920 2310 1022 3865 16610 133 10310 29136 13305
leaf_count=729 1378 292 1609 468 716 920 2310 1022 3865 16610 133 10310 29136 13305
internal_value=0 2.87907e-05 5.27379e-05 -5.22906e-06 3.2669e-05 -2.34494e-05 -4.24113e-06 0.000145328 1.90996e-05 -5.20694e-06 0.000130218 -5.88443e-06 -3.66273e-06 -1.04424e-05
internal_weight=82803 12713 7504 5209 6190 4608 3230 1314 5474 70090 601 69361 59051 29915
internal_count=82803 12713 7504 5209 6190 4608 3230 1314 5474 70090 601 69361 59051 29915
is_linear=0
shrinkage=0.005


Tree=42
num_leaves=15
num_cat=0
split_feature=5 2 2 6 1 1 5 1 2 6 6 5 5 5
split_gain=0.492671 0.414881 0.534554 0.455547 0.352236 0.140308 0.130167 0.444828 0.116608 0.110255 0.102357 0.100047 0.0654854 0.0740103
threshold=2.1920803104026487 -1.3361511896903264e-11 -1.1693918056110418e-11 0.3830594110095647 9.1180754775924964 2.3366367863085502 2.7690153936392066 11.514193285779518 -1.3214485061752155e-11 0.3091009038436684 0.36431179662055091 1.9983343782813803 1.2816729187972631 1.4109140728225504
decision_type=2 2 2 2 2 2 2 2 2 2 2 2 2 2
left_child=9 3 8 6 -4 -5 -2 -8 -3 -1 -6 12 -11 -14
right_child=1 2 4 5 10 -7 7 -9 -10 11 -12 -13 13 -15
leaf_value=1.0532034165962199e-05 -6.6308683546342659e-05 4.4237241236174655e-05 0.00012538334605986744 0.00024813608006144612 4.2951865497011383e-05 6.6385895771375636e-05 -3.1966078246618696e-05 0.00014204374368216271 0.00017080939903710589 -1.24899562888982e-05 -9.548759566508025e-07 -4.3024712707453018e-05 6.5387661532390974e-06 -8.4813623917943046e-06
leaf_weight=9514 1378 292 883 148 2175 671 2586 426 1022 25559 3132 1963 14695 18359
leaf_count=9514 1378 292 883 148 2175 671 2586 426 1022 25559 3132 1963 14695 18359
internal_value=0 2.86499e-05 5.24777e-05 -5.19796e-06 3.25057e-05 0.000102412 -2.58524e-05 -6.50576e-06 0.000144612 -5.1809e-06 1.6571e-05 -7.6901e-06 -6.4637e-06 -1.72815e-06
internal_weight=82803 12713 7504 5209 6190 819 4390 3012 1314 70090 5307 60576 58613 33054
internal_count=82803 12713 7504 5209 6190 819 4390 3012 1314 70090 5307 60576 58613 33054
is_linear=0
shrinkage=0.005


Tree=43
num_leaves=15
num_cat=0
split_feature=5 2 2 6 2 2 5 5 3 2 6 2 5 5
split_gain=0.487847 0.410751 0.529264 0.451121 0.315482 0.137719 0.128863 0.327032 0.115737 0.115301 0.109482 0.0735643 0.108939 0.0816055
threshold=2.1920803104026487 -1.3361511896903264e-11 -1.1693918056110418e-11 0.3830594110095647 0.066070218503936864 -2.2202977234542228e-10 2.7690153936392066 3.4531489661231283 -1.0624921727917207 -1.3214485061752155e-11 0.2586718312753003 0.043316895034455911 1.2799065304589672 1.2114323527436379
decision_type=2 2 2 2 2 2 2 2 2 2 2 2 2 2
left_child=10 3 9 6 8 -5 -2 -8 -4 -3 -1 12 13 -12
right_child=1 2 4 5 -6 -7 7 -9 -10 -11 11 -13 -14 -15
leaf_value=5.5454500560973328e-05 -6.5977261253118377e-05 4.4016432518382763e-05 -1.5686145858232348e-05 0.00023630296106676797 0.00013160000837278673 6.3772837110992502e-05 7.1076142315230871e-05 -4.1774636046379841e-05 3.3935209661032946e-05 0.0001699557664038068 -2.2375711923717141e-06 -1.8212435031466133e-05 3.192180428271897e-06 -1.8975318719504734e-05
leaf_weight=729 1378 292 1609 166 716 653 920 2092 3865 1022 15573 10310 29136 14342
leaf_count=729 1378 292 1609 166 716 653 920 2092 3865 1022 15573 10310 29136 14342
internal_value=0 2.85097e-05 5.22188e-05 -5.167e-06 3.23433e-05 0.000101916 -2.57232e-05 -6.46899e-06 1.8893e-05 0.000143898 -5.155e-06 -5.82846e-06 -3.62381e-06 -1.03458e-05
internal_weight=82803 12713 7504 5209 6190 819 4390 3012 5474 1314 70090 69361 59051 29915
internal_count=82803 12713 7504 5209 6190 819 4390 3012 5474 1314 70090 69361 59051 29915
is_linear=0
shrinkage=0.005


Tree=44
num_leaves=15
num_cat=0
split_feature=5 8 3 8 1 3 6 5 1 5 1 6 6 5
split_gain=0.483069 0.354701 0.306129 0.265408 0.227536 0.143457 0.108739 0.105356 0.115766 0.0989461 0.0853656 0.0832289 0.0752186 0.0643742
threshold=2.1920803104026487 -0.019078178784966943 -0.78608812787665883 0.079452765578015713 9.1180754775924964 -0.48694514457122512 0.3091009038436684 3.7538048709159173 15.711378721587115 1.9983343782813803 2.2625354672378855 0.34157536781821218 0.33951051170658159 1.2816729187972631
decision_type=2 2 2 2 2 2 2 2 2 2 2 2 2 2
left_child=6 7 3 11 10 -6 -1 8 12 13 -4 -3 -2 -8
right_child=1 2 4 -5 5 -7 9 -9 -10 -11 -12 -13 -14 -15
leaf_value=1.0474738005982469e-05 -3.3435365089743269e-06 -0.00010271718617927492 0.00025404173198527907 0.00018300316322762613 9.4907456767017389e-05 2.6526632746052216e-05 -1.2376401375416815e-05 -4.8928050533458477e-05 -5.5418342983691507e-05 -4.2761284398539515e-05 0.00010597483235530026 9.4713113580334677e-07 5.1786186702208281e-05 -1.7055310086682188e-06
leaf_weight=9514 1175 205 136 198 1160 2766 25559 1203 585 1963 1468 2671 1146 33054
leaf_count=9514 1175 205 136 198 1160 2766 25559 1203 585 1963 1468 2671 1146 33054
internal_value=0 2.83702e-05 4.66703e-05 5.77265e-06 6.89498e-05 4.73771e-05 -5.12923e-06 -9.34172e-06 6.19133e-06 -7.6213e-06 0.000120163 -5.58947e-06 2.28053e-05 -6.40143e-06
internal_weight=82803 12713 8604 3074 5530 3926 70090 4109 2906 60576 1604 2876 2321 58613
internal_count=82803 12713 8604 3074 5530 3926 70090 4109 2906 60576 1604 2876 2321 58613
is_linear=0
shrinkage=0.005


Tree=45
num_leaves=15
num_cat=0
split_feature=5 2 2 8 2 5 5 3 2 6 7 7 5 7
split_gain=0.478315 0.40393 0.522042 0.485558 0.31064 0.140748 0.294497 0.113949 0.113354 0.108115 0.0914869 0.0729281 0.119806 0.0610648
threshold=2.1920803104026487 -1.3361511896903264e-11 -1.1693918056110418e-11 0.034709377485134939 0.066070218503936864 2.7690153936392066 3.4531489661231283 -1.0624921727917207 -1.3214485061752155e-11 0.2586718312753003 1334384.8920437524 952371.27617292001 1.9983343782813803 1160310.2408759205
decision_type=2 2 2 2 2 2 2 2 2 2 2 2 2 2
left_child=9 3 8 5 7 13 -7 -4 -3 -1 -5 12 -11 -2
right_child=1 2 4 10 -6 6 -8 -9 -10 11 -12 -13 -14 -15
leaf_value=5.5125082494996455e-05 -3.7458113073674602e-05 4.3654721050857049e-05 -1.565630241149198e-05 8.6359421520246311e-05 0.00013049357676643303 7.0561741642740701e-05 -3.5032613861889407e-05 3.3577813799514071e-05 0.00016864201806876742 -4.9493116665801819e-06 0.00025410661132036524 7.4731973659064615e-05 -4.4348745178328341e-05 -0.00011490642900667517
leaf_weight=729 912 292 1609 468 716 920 2310 3865 1022 67079 133 275 2007 466
leaf_count=729 912 292 1609 468 716 920 2310 3865 1022 67079 133 275 2007 466
internal_value=0 2.82304e-05 5.17423e-05 -5.16221e-06 3.19998e-05 -2.30607e-05 -4.17606e-06 1.86494e-05 0.000142796 -5.10376e-06 0.000127818 -5.77321e-06 -6.13039e-06 -6.54947e-05
internal_weight=82803 12713 7504 5209 6190 4608 3230 5474 1314 70090 601 69361 69086 1378
internal_count=82803 12713 7504 5209 6190 4608 3230 5474 1314 70090 601 69361 69086 1378
is_linear=0
shrinkage=0.005


Tree=46
num_leaves=15
num_cat=0
split_feature=7 8 1 2 1 7 8 2 2 7 7 1 1 1
split_gain=0.273487 0.326749 0.297774 0.223809 0.283387 0.570424 0.175423 0.127668 0.0893123 0.0862251 0.102526 0.0825305 0.0789559 0.047578
threshold=55123.370049640384 0.083090973827923562 9.0229346440645397 -1.9335538725684382e-11 15.112827140453616 325202.78600627551 0.031262090932599157 -1.1693918056110418e-11 0.07867072093583613 23899.325918171362 18848.639990258187 1.5499982304225177 11.623838860288041 2.2625354672378855
decision_type=2 2 2 2 2 2 2 2 2 2 2 2 2 2
left_child=8 3 13 6 5 -5 12 -6 9 10 11 -1 -2 -3
right_child=1 2 -4 4 7 -7 -8 -9 -10 -11 -12 -13 -14 -15
leaf_value=-8.9550415636743228e-06 -2.5949726051208709e-05 0.00025152873629942919 -9.0842816219137958e-06 1.8349537543752105e-05 -4.05265649979817e-05 0.00012411548570722547 9.8891681398504216e-05 5.2047451949213361e-06 -2.9665071470643028e-05 2.5439797044094064e-06 -1.8884991728637889e-05 1.6239647125588804e-05 -9.5930418810473807e-05 0.00012227338986424175
leaf_weight=9478 2456 136 440 9561 2015 1490 239 6046 3688 25673 15371 4942 540 728
leaf_count=9478 2456 136 440 9561 2015 1490 239 6046 3688 25673 15371 4942 540 728
internal_value=0 1.43851e-05 9.15356e-05 9.76937e-06 1.63627e-05 3.28411e-05 -2.84072e-05 -5.91835e-06 -5.73117e-06 -4.0944e-06 -9.89902e-06 -1.46729e-07 -3.94113e-05 0.000145645
internal_weight=82803 23651 1304 22347 19112 11051 3235 8061 59152 55464 29791 14420 2996 864
internal_count=82803 23651 1304 22347 19112 11051 3235 8061 59152 55464 29791 14420 2996 864
is_linear=0
shrinkage=0.005


Tree=47
num_leaves=15
num_cat=0
split_feature=5 2 2 8 1 5 1 2 6 6 5 1 1 2
split_gain=0.469986 0.398077 0.513416 0.475953 0.340189 0.138541 0.412286 0.111344 0.106972 0.101178 0.0964426 0.091158 0.0640719 0.0621774
threshold=2.1920803104026487 -1.3361511896903264e-11 -1.1693918056110418e-11 0.034709377485134939 9.1180754775924964 2.7690153936392066 11.514193285779518 -1.3214485061752155e-11 0.3091009038436684 0.36431179662055091 1.9983343782813803 2.3021304486958871 20.093939506989731 -0.069836095960907979
decision_type=2 2 2 2 2 2 2 2 2 2 2 2 2 2
left_child=8 3 7 5 -4 -2 -7 -3 13 -6 12 -5 -10 -1
right_child=1 2 4 11 9 6 -8 -9 10 -11 -12 -13 -14 -15
leaf_value=1.0919895352514133e-06 -6.4988916174722725e-05 4.3260256271213834e-05 0.00012302001882371496 0.00024820451263431127 4.2313259987545144e-05 -2.691988361671964e-05 0.00013975594026786642 0.00016725407891552714 -6.8426020860454125e-06 -1.3532612005465075e-06 -4.2226172896772161e-05 8.3878235531999109e-05 5.0088065447418154e-05 2.8778288679334057e-05
leaf_weight=6400 1378 292 883 140 2175 2804 426 1022 58125 3132 1963 461 488 3114
leaf_count=6400 1378 292 883 140 2175 2804 426 1022 58125 3132 1963 461 488 3114
internal_value=0 2.79842e-05 5.13255e-05 -5.1628e-06 3.17424e-05 -2.28877e-05 -4.14515e-06 0.000141629 -5.05851e-06 1.60741e-05 -7.53052e-06 0.000126488 -6.32553e-06 1.04177e-05
internal_weight=82803 12713 7504 5209 6190 4608 3230 1314 70090 5307 60576 601 58613 9514
internal_count=82803 12713 7504 5209 6190 4608 3230 1314 70090 5307 60576 601 58613 9514
is_linear=0
shrinkage=0.005


Tree=48
num_leaves=15
num_cat=0
split_feature=5 3 3 7 1 7 7 1 5 1 7 5 1 7
split_gain=0.465375 0.336495 0.300518 0.238231 0.375138 0.194296 0.162173 0.237454 0.164559 0.097172 0.070768 0.118262 0.0589428 0.0570041
threshold=2.1920803104026487 -0.80880398099026851 34.018387411376985 418498.27437700826 6.8246594319607476 325202.78600627551 226874.63239294422 9.3606056284422809 5.5518934663400108 20.273236450899052 952371.27617292001 1.9983343782813803 15.711378721587115 23899.325918171362
decision_type=2 2 2 2 2 2 2 2 2 2 2 2 2 2
left_child=9 6 3 5 -5 -3 7 8 -2 10 11 13 -4 -1
right_child=1 2 12 4 -6 -7 -8 -9 -10 -11 -12 -13 -14 -15
leaf_value=-9.8225450916083168e-06 0.00013955886319259479 6.8905747333260629e-05 1.3872767474821624e-05 0.00012018540598597336 -3.6723348576906875e-05 0.00015610780468660527 -4.2103167372262425e-05 -8.6550502656926915e-06 -8.8686123914892613e-06 8.1613490670872632e-05 7.3856052337467889e-05 -4.3781700421265034e-05 -5.0522343495539001e-05 -4.9350117136610324e-07
leaf_weight=29788 553 2786 2156 583 1067 933 1838 2141 236 318 275 2007 420 37702
leaf_count=29788 553 2786 2156 583 1067 933 1838 2141 236 318 275 2007 420 37702
internal_value=0 2.78474e-05 4.78045e-05 6.91235e-05 1.72227e-05 9.14726e-05 -4.88478e-06 1.76126e-05 9.20182e-05 -5.03286e-06 -5.46418e-06 -5.81455e-06 2.39549e-06 -4.64814e-06
internal_weight=82803 12713 7945 5369 1650 3719 4768 2930 789 70090 69772 69497 2576 67490
internal_count=82803 12713 7945 5369 1650 3719 4768 2930 789 70090 69772 69497 2576 67490
is_linear=0
shrinkage=0.005


Tree=49
num_leaves=15
num_cat=0
split_feature=4 7 1 1 8 7 6 4 1 7 8 8 6 6
split_gain=0.322205 0.199585 0.21858 0.347505 0.393362 0.209799 0.108969 0.0945486 0.0441658 0.043535 0.0410527 0.0272124 0.0153417 9.70864e-06
threshold=50000000.605290145 55123.370049640384 6.1827636104370951 9.1180754775924964 -0.022487110889034882 1160310.2408759205 0.2586718312753003 0.14581129730443651 1.1396961370154515 27097.04873740637 0.0073183382382515571 0.128685354939823 0.37086044508592336 0.23695182649716992
decision_type=2 2 2 2 2 2 2 2 2 2 2 2 2 2
left_child=7 6 12 4 -4 -5 9 -1 11 13 -10 -8 -3 -2
right_child=1 2 3 5 -6 -7 8 -9 10 -11 -12 -13 -14 -15
leaf_value=7.1338693497166933e-05 0 -5.9344139835828287e-05 0 1.0382304306646901e-05 0.00011110601949442238 -7.319288763408139e-05 3.8004501085642554e-05 0.00024195870889698047 -3.5577102855328529e-06 8.1524607947635174e-05 -1.2354862145703799e-05 -7.7022976417153212e-06 0 -1.8424516335338145e-06
leaf_weight=341 166 1092 1478 17884 1848 778 889 147 34254 492 22889 388 86 71
leaf_count=341 166 1092 1478 17884 1848 778 889 147 34254 492 22889 388 86 71
internal_value=0 -7.44538e-07 1.16608e-05 1.5305e-05 6.24776e-05 6.76231e-06 -5.64549e-06 0.000128047 -6.44211e-06 5.47273e-05 -7.12529e-06 2.21626e-05 -5.42152e-05 0
internal_weight=82803 82315 23166 21988 3326 18662 59149 488 58420 729 57143 1277 1178 237
internal_count=82803 82315 23166 21988 3326 18662 59149 488 58420 729 57143 1277 1178 237
is_linear=0
shrinkage=0.005


end of trees

feature_importances:
Column_5=135
Column_1=120
Column_2=113
Column_7=112
Column_6=96
Column_8=57
Column_3=34
Column_4=27
Column_0=6

parameters:
[boosting: gbdt]
[objective: regression]
[metric: l2]
[tree_learner: serial]
[device_type: cpu]
[data_sample_strategy: bagging]
[data: ]
[valid: ]
[num_iterations: 50]
[learning_rate: 0.005]
[num_leaves: 15]
[num_threads: 14]
[seed: 42]
[deterministic: 0]
[force_col_wise: 1]
[force_row_wise: 0]
[histogram_pool_size: -1]
[max_depth: 5]
[min_data_in_leaf: 50]
[min_sum_hessian_in_leaf: 0.001]
[bagging_fraction: 1]
[pos_bagging_fraction: 1]
[neg_bagging_fraction: 1]
[bagging_freq: 0]
[bagging_seed: 400]
[bagging_by_query: 0]
[feature_fraction: 0.7]
[feature_fraction_bynode: 1]
[feature_fraction_seed: 30056]
[extra_trees: 0]
[extra_seed: 12879]
[early_stopping_round: 0]
[early_stopping_min_delta: 0]
[first_metric_only: 0]
[max_delta_step: 0]
[lambda_l1: 0.5]
[lambda_l2: 0.5]
[linear_lambda: 0]
[min_gain_to_split: 0]
[drop_rate: 0.1]
[max_drop: 50]
[skip_drop: 0.5]
[xgboost_dart_mode: 0]
[uniform_drop: 0]
[drop_seed: 17869]
[top_rate: 0.2]
[other_rate: 0.1]
[min_data_per_group: 100]
[max_cat_threshold: 32]
[cat_l2: 10]
[cat_smooth: 10]
[max_cat_to_onehot: 4]
[top_k: 20]
[monotone_constraints: ]
[monotone_constraints_method: basic]
[monotone_penalty: 0]
[feature_contri: ]
[forcedsplits_filename: ]
[refit_decay_rate: 0.9]
[cegb_tradeoff: 1]
[cegb_penalty_split: 0]
[cegb_penalty_feature_lazy: ]
[cegb_penalty_feature_coupled: ]
[path_smooth: 0]
[interaction_constraints: ]
[verbosity: -1]
[saved_feature_importance_type: 0]
[use_quantized_grad: 0]
[num_grad_quant_bins: 4]
[quant_train_renew_leaf: 0]
[stochastic_rounding: 1]
[linear_tree: 0]
[max_bin: 255]
[max_bin_by_feature: ]
[min_data_in_bin: 3]
[bin_construct_sample_cnt: 200000]
[data_random_seed: 175]
[is_enable_sparse: 1]
[enable_bundle: 1]
[use_missing: 1]
[zero_as_missing: 0]
[feature_pre_filter: 1]
[pre_partition: 0]
[two_round: 0]
[header: 0]
[label_column: ]
[weight_column: ]
[group_column: ]
[ignore_column: ]
[categorical_feature: 9]
[forcedbins_filename: ]
[precise_float_parser: 0]
[parser_config_file: ]
[objective_seed: 16083]
[num_class: 1]
[is_unbalance: 0]
[scale_pos_weight: 1]
[sigmoid: 1]
[boost_from_average: 1]
[reg_sqrt: 0]
[alpha: 0.9]
[fair_c: 1]
[poisson_max_delta_step: 0.7]
[tweedie_variance_power: 1.5]
[lambdarank_truncation_level: 30]
[lambdarank_norm: 1]
[label_gain: ]
[lambdarank_position_bias_regularization: 0]
[eval_at: ]
[multi_error_top_k: 1]
[auc_mu_weights: ]
[num_machines: 1]
[local_listen_port: 12400]
[time_out: 120]
[machine_list_filename: ]
[machines: ]
[gpu_platform_id: -1]
[gpu_device_id: -1]
[gpu_use_dp: 0]
[num_gpu: 1]

end of parameters

pandas_categorical:null
