tree
version=v4
num_class=1
num_tree_per_iteration=1
label_index=0
max_feature_idx=8
objective=regression
feature_names=Column_0 Column_1 Column_2 Column_3 Column_4 Column_5 Column_6 Column_7 Column_8
feature_infos=[0:0.7162229260923314] [0.46506071389014014:20.4209205808591] [-0.37954567924312732:0.12944539678761882] [-70000000:70000000] [0:100000000] [1.1167821838269782:52.547015713236391] [0.002486825329792055:0.67170969324328145] [0:13428575.189825613] [-0.24085745773956885:0.48005684740359889]
tree_sizes=1579 1563 1546 1561 1513 1571 1563 1563 1529 1542 1561 1574 1556 1543 1575 1496 1567 1560 1549 1548 1541 1577 1576 1577 1514 1578 1546 1564 1561 1562 1578 1577 1470 1575 1553 1549 1543 1575 1565 1520 1549 1543 1536 1590 1568 1520 1523 1590 1570 1567

Tree=0
num_leaves=15
num_cat=0
split_feature=5 2 8 2 1 5 1 1 2 6 3 1 2 5
split_gain=0.721389 0.568746 0.727111 0.701258 0.449949 0.199626 0.543647 0.148031 0.147523 0.14671 0.122848 0.117937 0.0773449 0.107634
threshold=2.1920803104026487 -1.3361511896903264e-11 0.034709377485134939 -1.1693918056110418e-11 9.1180754775924964 2.7690153936392066 11.514193285779518 2.3021304486958871 -1.3214485061752155e-11 0.2586718312753003 -1.0624921727917207 20.093939506989731 0.043316895034455911 1.2799065304589672
decision_type=2 2 2 2 2 2 2 2 2 2 2 2 2 2
left_child=9 2 5 8 -5 -2 -7 -4 -3 -1 -6 12 13 -11
right_child=1 3 7 4 10 6 -8 -9 -10 11 -12 -13 -14 -15
leaf_value=7.823855143944137e-06 -0.00013343406743843633 1.4422962711248114e-07 0.00025402892092959864 8.8629618898460985e-05 -6.9659162764130466e-05 -8.6654360802793757e-05 0.00010477887345966727 4.9823321143797916e-05 0.0001413862324663319 -6.8156010027299835e-05 -1.8263262025331253e-05 3.9433757239460684e-06 -7.6523957731961797e-05 -5.4646494363690743e-05
leaf_weight=729 1378 292 140 883 1608 2804 426 461 1022 29915 3699 640 10310 28496
leaf_count=729 1378 292 140 883 1608 2804 426 461 1022 29915 3699 640 10310 28496
internal_value=-5.60884e-05 -2.14366e-05 -6.11337e-05 6.45138e-06 -1.63559e-05 -8.29373e-05 -6.06116e-05 0.000101767 0.000111934 -6.23738e-05 -3.43069e-05 -6.31481e-05 -6.38097e-05 -6.15226e-05
internal_weight=82803 12713 5209 7504 6190 4608 3230 601 1314 70090 5307 69361 68721 58411
internal_count=82803 12713 5209 7504 6190 4608 3230 601 1314 70090 5307 69361 68721 58411
is_linear=0
shrinkage=1


Tree=1
num_leaves=15
num_cat=0
split_feature=7 8 1 2 1 7 6 2 6 2 1 6 1 7
split_gain=0.422778 0.511518 0.393871 0.31052 0.410466 0.716425 0.261151 0.168591 0.147657 0.106266 0.0893961 0.0877306 0.0870028 0.0776053
threshold=55123.370049640384 0.083090973827923562 9.0229346440645397 -1.9335538725684382e-11 15.112827140453616 325202.78600627551 0.38253101637816755 -1.1693918056110418e-11 0.2586718312753003 0.07867072093583613 11.623838860288041 0.35229259145410979 2.3021304486958871 23899.325918171362
decision_type=2 2 2 2 2 2 2 2 2 2 2 2 2 2
left_child=8 3 12 6 5 -5 10 -6 -1 13 -2 -11 -3 -10
right_child=1 2 -4 4 7 -7 -8 -9 9 11 -12 -13 -14 -15
leaf_value=6.3117406204422962e-05 -3.5857659464300522e-05 0.00030857225648024753 -1.9062734079421296e-06 2.3488248659087705e-05 -4.673761378210525e-05 0.00014199490533171725 7.7039777662661716e-05 5.8419638724698572e-06 -1.170720629204548e-05 4.9768443373354172e-06 -0.00011146575048476803 -4.861838452742115e-05 0.00014718994540834042 1.499555133048231e-07
leaf_weight=730 2248 140 440 9561 2015 1490 447 6046 29790 946 540 2742 724 24944
leaf_count=730 2248 140 440 9561 2015 1490 447 6046 29790 946 540 2742 724 24944
internal_value=0 1.7868e-05 0.000114338 1.21245e-05 1.98744e-05 3.96983e-05 -3.28845e-05 -6.99327e-06 -7.14325e-06 -8.0645e-06 -5.14159e-05 -3.41942e-05 0.000176395 -6.2579e-06
internal_weight=82803 23651 1304 22347 19112 11051 3235 8061 59152 58422 2788 3688 864 54734
internal_count=82803 23651 1304 22347 19112 11051 3235 8061 59152 58422 2788 3688 864 54734
is_linear=0
shrinkage=0.005


Tree=2
num_leaves=15
num_cat=0
split_feature=5 6 3 3 1 5 1 1 6 1 1 1 6 5
split_gain=0.708762 0.468548 0.488421 0.549642 0.209971 0.199908 0.191681 0.376419 0.14385 0.116564 0.100324 0.0778986 0.0676327 0.126582
threshold=2.1920803104026487 0.33997996367784972 -0.78608812787665883 35001581.200265877 2.3021304486958871 2.817819996474173 6.3882734346431524 8.0713769269779796 0.2586718312753003 20.093939506989731 5.9715134643518937 15.711378721587115 0.3091009038436684 1.9983343782813803
decision_type=2 2 2 2 2 2 2 2 2 2 2 2 2 2
left_child=8 5 6 4 -4 -2 -3 -8 -1 12 -7 -5 -10 -14
right_child=1 2 3 11 -6 10 7 -9 9 -11 -12 -13 13 -15
leaf_value=6.3277540000684506e-05 -8.1670462432775607e-05 -5.4018329918683542e-05 0.00030703488087738961 1.88361665575836e-05 0.00010065562837443435 -8.9162963570332991e-05 0.00013521792187207364 -1.119394662971315e-07 5.2464886516728458e-06 5.9702662926954012e-05 2.1641747035272331e-05 -6.1828315179088413e-05 -8.1634523171686354e-06 -4.9288116427541795e-05
leaf_weight=729 941 943 140 1078 4251 229 638 2446 8633 640 1637 410 58125 1963
leaf_count=729 941 943 140 1078 4251 229 638 2446 8633 640 1637 410 58125 1963
internal_value=0 3.43485e-05 5.05836e-05 7.96854e-05 0.000107839 -2.20542e-05 7.47275e-06 2.70912e-05 -6.22889e-06 -6.99591e-06 6.68388e-06 -1.72369e-06 -7.65388e-06 -9.54895e-06
internal_weight=82803 12713 9906 5879 4391 2807 4027 3084 70090 69361 1866 1488 68721 60088
internal_count=82803 12713 9906 5879 4391 2807 4027 3084 70090 69361 1866 1488 68721 60088
is_linear=0
shrinkage=0.005


Tree=3
num_leaves=15
num_cat=0
split_feature=5 2 2 6 1 1 5 1 2 6 1 6 2 5
split_gain=0.701648 0.556153 0.686773 0.646773 0.442498 0.204786 0.174362 0.557069 0.144782 0.142421 0.115409 0.11081 0.076183 0.106478
threshold=2.1920803104026487 -1.3361511896903264e-11 -1.1693918056110418e-11 0.3830594110095647 9.1180754775924964 2.3366367863085502 2.7690153936392066 11.514193285779518 -1.3214485061752155e-11 0.2586718312753003 20.093939506989731 0.36431179662055091 0.043316895034455911 1.2799065304589672
decision_type=2 2 2 2 2 2 2 2 2 2 2 2 2 2
left_child=9 3 8 6 -4 -5 -2 -8 -3 -1 12 -6 13 -11
right_child=1 2 4 5 11 -7 7 -9 -10 10 -12 -13 -14 -15
leaf_value=6.296136919089473e-05 -7.6386517478877603e-05 5.5307305749912717e-05 0.00014329002328740406 0.00029800871793205788 4.8832279567324432e-05 8.0831918640354879e-05 -3.5757861730230958e-05 0.00015900298787099675 0.00019532656516021502 -1.1943580591852966e-05 5.9404381344003402e-05 1.5012790858378164e-06 -2.023388812570754e-05 1.4936254366621472e-06
leaf_weight=729 1378 292 883 148 2175 671 2586 426 1022 29915 640 3132 10310 28496
leaf_count=729 1378 292 883 148 2175 671 2586 426 1022 29915 640 3132 10310 28496
internal_value=0 3.41758e-05 6.1754e-05 -5.07512e-06 3.91784e-05 0.000123286 -2.96029e-05 -7.36031e-06 0.000166146 -6.19738e-06 -6.96075e-06 2.1373e-05 -7.61562e-06 -5.34544e-06
internal_weight=82803 12713 7504 5209 6190 819 4390 3012 1314 70090 69361 5307 68721 58411
internal_count=82803 12713 7504 5209 6190 819 4390 3012 1314 70090 69361 5307 68721 58411
is_linear=0
shrinkage=0.005


Tree=4
num_leaves=15
num_cat=0
split_feature=4 0 1 1 1 6 4 8 1 1 6 8 6 8
split_gain=0.505238 0.251262 0.265473 0.250633 0.187908 0.142865 0.142173 0.134283 0.0476444 0.0439291 0.0502711 0.028451 0.0193695 0.000923742
threshold=50000000.605290145 0.05578327034245685 6.1827636104370951 15.112827140453616 11.514193285779518 0.2586718312753003 0.14643818726861638 -0.13179731587717813 2.5825433230971346 1.1396961370154515 0.32193142198627539 0.128685354939823 0.37163173506456043 -0.042909134036565787
decision_type=2 2 2 2 2 2 2 2 2 2 2 2 2 2
left_child=6 2 12 4 -4 8 -1 -5 -3 11 -11 -7 13 -2
right_child=1 5 3 7 -6 9 -8 -9 -10 10 -12 -13 -14 -15
leaf_value=9.3629719691860788e-05 -9.7270841754593893e-05 0 1.6180694476121569e-05 8.8977313951238405e-05 5.4925521207706924e-05 3.7301337013221096e-05 0.00030005551746620755 -1.1280835553788116e-05 9.2046501585978202e-05 6.8317697373056971e-07 -1.0595198857917017e-05 -9.8658945656166844e-06 0 -5.3778827860710532e-05
leaf_weight=343 228 251 10154 346 4725 889 145 7263 478 12178 44466 388 58 891
leaf_count=343 228 251 10154 346 4725 889 145 7263 478 12178 44466 388 58 891
internal_value=0 -9.48962e-07 1.27675e-05 1.66863e-05 2.8654e-05 -6.52618e-06 0.000160327 -6.38777e-06 6.26468e-05 -7.4405e-06 -8.12632e-06 2.1015e-05 -5.99576e-05 -6.49131e-05
internal_weight=82803 82315 23665 22488 14879 58650 488 7609 729 57921 56644 1277 1177 1119
internal_count=82803 82315 23665 22488 14879 58650 488 7609 729 57921 56644 1277 1177 1119
is_linear=0
shrinkage=0.005


Tree=5
num_leaves=15
num_cat=0
split_feature=5 2 8 2 1 5 1 2 1 3 1 2 1 5
split_gain=0.689525 0.549457 0.696043 0.679572 0.439157 0.192965 0.524561 0.143167 0.139772 0.119788 0.110711 0.0855039 0.0850552 0.125656
threshold=2.1920803104026487 -1.3361511896903264e-11 0.034709377485134939 -1.1693918056110418e-11 9.1180754775924964 2.7690153936392066 11.514193285779518 -1.3214485061752155e-11 2.3021304486958871 -1.0624921727917207 20.093939506989731 0.043316895034455911 1.9120114986201566 1.2799065304589672
decision_type=2 2 2 2 2 2 2 2 2 2 2 2 2 2
left_child=10 2 5 7 -5 -2 -7 -3 -4 -6 11 12 13 -1
right_child=1 3 8 4 9 6 -8 -9 -10 -11 -12 -13 -14 -15
leaf_value=-1.699487685483102e-05 -7.6123775848549214e-05 5.4857091492755368e-05 0.00030252549240491566 0.00014254923641956273 -1.3812777818204994e-05 -3.0102674022186406e-05 0.00015793459904833249 0.00019415889740920133 0.00010350317911185397 3.6945017745621791e-05 5.8893151865850597e-05 -2.0133211466232703e-05 1.3999781158300854e-06 6.0888606548525895e-06
leaf_weight=20982 1378 292 140 883 1608 2804 426 1022 461 3699 640 10310 30150 8008
leaf_count=20982 1378 292 140 883 1608 2804 426 1022 461 3699 640 10310 30150 8008
internal_value=0 3.38811e-05 -5.1308e-06 6.12933e-05 3.88341e-05 -2.64729e-05 -4.50823e-06 0.000165137 0.000154234 2.10947e-05 -6.14184e-06 -6.77757e-06 -4.40683e-06 -1.05322e-05
internal_weight=82803 12713 5209 7504 6190 4608 3230 1314 601 5307 70090 69450 59140 28990
internal_count=82803 12713 5209 7504 6190 4608 3230 1314 601 5307 70090 69450 59140 28990
is_linear=0
shrinkage=0.005


Tree=6
num_leaves=15
num_cat=0
split_feature=5 2 2 6 2 7 5 5 2 6 7 5 6 5
split_gain=0.682742 0.543985 0.67284 0.631093 0.387953 0.197003 0.171578 0.393923 0.141575 0.139523 0.0883449 0.156449 0.0842882 0.0743888
threshold=2.1920803104026487 -1.3361511896903264e-11 -1.1693918056110418e-11 0.3830594110095647 0.066070218503936864 1334384.8920437524 2.7690153936392066 3.4531489661231283 -1.3214485061752155e-11 0.2586718312753003 952371.27617292001 1.9983343782813803 0.36431179662055091 1.2799065304589672
decision_type=2 2 2 2 2 2 2 2 2 2 2 2 2 2
left_child=9 3 8 6 12 -5 -2 -8 -3 -1 11 13 -4 -11
right_child=1 2 4 5 -6 -7 7 -9 -10 10 -12 -13 -14 -15
leaf_value=6.2338217435441002e-05 -7.5743295096078754e-05 5.458327504243049e-05 4.8131721378224046e-05 8.2340214417074117e-05 0.0001487223473777221 0.00030483637981758581 7.7938637676445689e-05 -4.5936309983469464e-05 0.00019318857454708472 -1.1790080056244586e-05 8.1757193028980939e-05 -5.0914459040510675e-05 6.9372874394371634e-06 -1.1137013598320794e-06
leaf_weight=729 1378 292 2176 686 716 133 920 2092 1022 29915 275 2007 3298 37164
leaf_count=729 1378 292 2176 686 716 133 920 2092 1022 29915 275 2007 3298 37164
internal_value=0 3.37148e-05 6.09903e-05 -5.10013e-06 3.864e-05 0.000121687 -2.93341e-05 -7.26281e-06 0.000164322 -6.11077e-06 -6.86668e-06 -7.25622e-06 2.37723e-05 -5.91233e-06
internal_weight=82803 12713 7504 5209 6190 819 4390 3012 1314 70090 69361 69086 5474 67079
internal_count=82803 12713 7504 5209 6190 819 4390 3012 1314 70090 69361 69086 5474 67079
is_linear=0
shrinkage=0.005


Tree=7
num_leaves=15
num_cat=0
split_feature=5 2 2 4 2 5 5 2 3 4 2 7 5 0
split_gain=0.676104 0.538624 0.66613 0.579857 0.384033 0.218267 0.328638 0.139999 0.136501 0.136054 0.0929407 0.145527 0.107699 0.084505
threshold=2.1920803104026487 -1.3361511896903264e-11 -1.1693918056110418e-11 50000000.605290145 0.066070218503936864 2.817819996474173 3.4531489661231283 -1.3214485061752155e-11 -1.0624921727917207 0.14643818726861638 0.043316895034455911 23899.325918171362 1.2816729187972631 0.45021673396842415
decision_type=2 2 2 2 2 2 2 2 2 2 2 2 2 2
left_child=10 3 7 9 8 -5 -7 -3 -4 -2 11 12 13 -1
right_child=1 2 4 5 -6 6 -8 -9 -10 -11 -12 -13 -14 -15
leaf_value=-3.1865177629242072e-05 9.2812825058260053e-05 5.4310825136470266e-05 -1.3898892413602283e-05 -7.4431190225079794e-05 0.00014797925495458749 8.2279996644832909e-05 -3.0301032764940843e-05 0.00019222311365774212 3.9936238472941825e-05 0.00029565997722581078 -1.9998484441547089e-05 4.0754343152647995e-06 -6.6524216366235722e-08 -9.1736060814002875e-06
leaf_weight=7814 340 292 1609 1414 716 884 2426 1022 3865 145 10310 29992 12451 9523
leaf_count=7814 340 292 1609 1414 716 884 2426 1022 3865 145 10310 29992 12451 9523
internal_value=0 3.35513e-05 6.06922e-05 -5.06967e-06 3.84509e-05 -2.2443e-05 0 0.00016351 2.36557e-05 0.000158849 -6.08022e-06 -3.63783e-06 -1.14878e-05 -1.95458e-05
internal_weight=82803 12713 7504 5209 6190 4724 3310 1314 5474 485 70090 59780 29788 17337
internal_count=82803 12713 7504 5209 6190 4724 3310 1314 5474 485 70090 59780 29788 17337
is_linear=0
shrinkage=0.005


Tree=8
num_leaves=15
num_cat=0
split_feature=4 0 2 1 2 2 6 6 4 1 2 0 2 1
split_gain=0.48617 0.242445 0.369926 0.349634 0.775468 0.168927 0.150316 0.139753 0.136093 0.0861175 0.0777782 0.0575955 0.0491091 0.0367138
threshold=50000000.605290145 0.05578327034245685 -1.9335538725684382e-11 15.112827140453616 -1.1693918056110418e-11 -1.1693918056110418e-11 0.38253101637816755 0.2586718312753003 0.14643818726861638 11.623838860288041 0.1157507892546789 0.071880151466729977 -0.069836095960907979 8.6826594187526442
decision_type=2 2 2 2 2 2 2 2 2 2 2 2 2 2
left_child=8 2 6 4 -4 -5 9 12 -1 -2 11 -9 -3 -12
right_child=1 7 3 5 -6 -7 -8 10 -10 -11 13 -13 -14 -15
leaf_value=9.1775076769175768e-05 -3.5106974314416465e-05 0 0.00011422581403896072 -4.570264673966395e-05 1.665195769340724e-05 7.4810519562961897e-06 5.8305218614269176e-05 1.9343470914072932e-05 0.00029418675036928086 -0.00010938204764037963 0 -7.5928902655631222e-06 8.4669312081403199e-05 -7.5790116222892006e-05
leaf_weight=343 2248 167 2563 2015 10367 5594 338 2009 145 540 139 55170 562 603
leaf_count=343 2248 167 2563 2015 10367 5594 338 2009 145 540 139 55170 562 603
internal_value=0 -9.28477e-07 1.25446e-05 2.03362e-05 3.61902e-05 -6.27649e-06 -3.78451e-05 -6.40747e-06 0.000157275 -5.04067e-05 -7.31223e-06 -6.60259e-06 6.20064e-05 -5.85888e-05
internal_weight=82803 82315 23665 20539 12930 7609 3126 58650 488 2788 57921 57179 729 742
internal_count=82803 82315 23665 20539 12930 7609 3126 58650 488 2788 57921 57179 729 742
is_linear=0
shrinkage=0.005


Tree=9
num_leaves=15
num_cat=0
split_feature=5 8 1 8 7 7 7 5 1 1 7 7 7 5
split_gain=0.664791 0.481517 0.348985 0.330915 0.42725 0.302289 0.480354 0.132418 0.150742 0.109147 0.105044 0.0882412 0.0861828 0.154356
threshold=2.1920803104026487 -0.019078178784966943 9.1180754775924964 0.034709377485134939 209197.87624762394 1160310.2408759205 325202.78600627551 3.7538048709159173 15.711378721587115 20.093939506989731 418498.27437700826 1334384.8920437524 952371.27617292001 1.9983343782813803
decision_type=2 2 2 2 2 2 2 2 2 2 2 2 2 2
left_child=9 7 3 4 -3 6 -4 8 10 12 -2 -5 13 -1
right_child=1 2 5 11 -6 -7 -8 -9 -10 -11 -12 -13 -14 -15
leaf_value=-5.7114490592050839e-06 4.9110669126204269e-05 0.00014877782673681234 2.1488769942233747e-05 0.00014174603569057687 -1.7863699069027663e-05 -7.7524432062389093e-05 0.00015150101878157369 -5.5093405352721952e-05 -6.3741898344523538e-05 5.8546744496767022e-05 -2.1234298366121398e-05 0.00030037972071532453 8.0876407609025393e-05 -5.0407348111406909e-05
leaf_weight=67168 1581 635 4328 1164 919 557 868 1203 585 640 740 133 275 2007
leaf_count=67168 1581 635 4328 1164 919 557 868 1203 585 640 740 133 275 2007
internal_value=0 3.327e-05 5.4583e-05 0.000100223 4.86476e-05 3.15239e-05 4.37011e-05 -1.0751e-05 6.75164e-06 -6.02851e-06 2.56061e-05 0.000160049 -6.66001e-06 -7.04472e-06
internal_weight=82803 12713 8604 2851 1554 5753 5196 4109 2906 70090 2321 1297 69450 69175
internal_count=82803 12713 8604 2851 1554 5753 5196 4109 2906 70090 2321 1297 69450 69175
is_linear=0
shrinkage=0.005


Tree=10
num_leaves=15
num_cat=0
split_feature=5 8 3 8 6 3 6 5 5 0 6 6 5 5
split_gain=0.658158 0.476837 0.37635 0.335886 0.275823 0.226482 0.13652 0.131074 0.140173 0.143518 0.112731 0.0736204 0.125217 0.077631
threshold=2.1920803104026487 -0.019078178784966943 -0.78608812787665883 0.079452765578015713 0.32047244224534316 35001581.200265877 0.2586718312753003 3.7538048709159173 2.4901345504882442 0.036736179778659096 0.34157536781821218 0.3091009038436684 1.9983343782813803 1.2816729187972631
decision_type=2 2 2 2 2 2 2 2 2 2 2 2 2 2
left_child=6 7 3 10 -4 -6 -1 8 9 -2 -3 -8 13 -13
right_child=1 2 4 -5 5 -7 11 -9 -10 -11 -12 12 -14 -15
leaf_value=6.1708771438366027e-05 -6.6198177707669115e-05 -0.00011713141674026304 -1.005421427274893e-05 0.00020821328899625451 0.00010990572281665892 2.0826071584589243e-05 6.6191833946134651e-06 -5.4818052811746583e-05 3.6499526936156022e-05 5.7783514774738101e-05 3.9350883848993491e-06 -1.3922367160342582e-05 -4.8233236740052248e-05 -2.2094069951995076e-06
leaf_weight=729 904 205 707 198 3858 965 8785 1203 1708 294 2671 25559 1963 33054
leaf_count=729 904 205 707 198 3858 965 8785 1203 1708 294 2671 25559 1963 33054
internal_value=0 3.31038e-05 5.43132e-05 9.03315e-06 7.90282e-05 9.26047e-05 -5.99819e-06 -1.07004e-05 6.70925e-06 -3.36746e-05 -3.84423e-06 -6.74629e-06 -8.72592e-06 -7.35973e-06
internal_weight=82803 12713 8604 3074 5530 4823 70090 4109 2906 1198 2876 69361 60576 58613
internal_count=82803 12713 8604 3074 5530 4823 70090 4109 2906 1198 2876 69361 60576 58613
is_linear=0
shrinkage=0.005


Tree=11
num_leaves=15
num_cat=0
split_feature=7 8 1 2 1 7 8 2 2 7 7 1 1 1
split_gain=0.385026 0.465019 0.369071 0.289966 0.376909 0.675071 0.22894 0.157587 0.109065 0.102242 0.107483 0.101864 0.0881231 0.0767056
threshold=55123.370049640384 0.083090973827923562 9.0229346440645397 -1.9335538725684382e-11 15.112827140453616 325202.78600627551 0.031262090932599157 -1.1693918056110418e-11 0.07867072093583613 23899.325918171362 18848.639990258187 11.623838860288041 1.5499982304225177 2.2625354672378855
decision_type=2 2 2 2 2 2 2 2 2 2 2 2 2 2
left_child=8 3 13 6 5 -5 11 -6 9 10 12 -2 -1 -3
right_child=1 2 -4 4 7 -7 -8 -9 -10 -11 -12 -13 -14 -15
leaf_value=-1.0416272036767463e-05 -2.9305321293167579e-05 0.00029689074258555426 -3.3492074258111215e-06 2.2320706593407462e-05 -4.5100655130550468e-05 0.0001373671204998299 0.00011397205940632456 5.7294621106578506e-06 -3.3260632202995483e-05 2.2236045018504337e-06 -2.053457985982548e-05 -0.00010834196422082802 1.5583481928281136e-05 0.00014166492576205589
leaf_weight=9478 2456 136 440 9561 2015 1490 239 6046 3688 25673 15371 540 4942 728
leaf_count=9478 2456 136 440 9561 2015 1490 239 6046 3688 25673 15371 540 4942 728
internal_value=0 1.70564e-05 0.000109048 1.15743e-05 1.90665e-05 3.80641e-05 -3.19119e-05 -6.66838e-06 -6.81207e-06 -5.00805e-06 -1.13239e-05 -4.44009e-05 -1.33208e-06 0.000169148
internal_weight=82803 23651 1304 22347 19112 11051 3235 8061 59152 55464 29791 2996 14420 864
internal_count=82803 23651 1304 22347 19112 11051 3235 8061 59152 55464 29791 2996 14420 864
is_linear=0
shrinkage=0.005


Tree=12
num_leaves=15
num_cat=0
split_feature=4 7 2 8 2 4 8 2 8 7 7 8 7 3
split_gain=0.467076 0.28692 0.382948 0.202835 0.394453 0.132615 0.117552 0.107959 0.104751 0.101278 0.106335 0.0496166 0.04615 0.0439471
threshold=50000000.605290145 55123.370049640384 -1.9335538725684382e-11 -0.032461362914859279 -1.1693918056110418e-11 0.14643818726861638 0.031262090932599157 0.07867072093583613 -0.13179731587717813 23899.325918171362 18848.639990258187 -0.0043995495728397253 24291.156728057802 34.018387411376985
decision_type=2 2 2 2 2 2 2 2 2 2 2 2 2 2
left_child=5 7 6 8 -5 -1 13 9 -4 10 -2 -9 -11 -3
right_child=1 2 3 4 -6 -7 -8 11 -10 12 -12 -13 -14 -15
leaf_value=8.940534966496555e-05 -1.3300622046595643e-06 -5.3840855187846936e-05 8.7859300227263271e-05 9.2994367796317854e-05 2.046595556764776e-05 0.00028931151537858334 0.00010415011328213288 0 -7.2275235310726142e-07 4.3821448060656915e-05 -2.0431910347212382e-05 -4.3244515380589796e-05 1.0274674164920989e-06 -1.4410509093741939e-06
leaf_weight=343 14417 2396 346 2393 9413 145 130 865 7888 652 15371 2823 25021 600
leaf_count=343 14417 2396 346 2393 9413 145 130 865 7888 652 15371 2823 25021 600
internal_value=0 -9.09122e-07 1.39718e-05 2.20793e-05 3.53821e-05 0.000154157 -3.71992e-05 -6.77963e-06 2.70105e-06 -4.98441e-06 -1.1271e-05 -3.30944e-05 2.21249e-06 -4.41832e-05
internal_weight=82803 82315 23166 20040 11806 488 3126 59149 8234 55461 29788 3688 25673 2996
internal_count=82803 82315 23166 20040 11806 488 3126 59149 8234 55461 29788 3688 25673 2996
is_linear=0
shrinkage=0.005


Tree=13
num_leaves=15
num_cat=0
split_feature=5 8 3 8 3 7 5 5 0 7 7 5 7 5
split_gain=0.642738 0.465036 0.370437 0.329598 0.257988 0.178615 0.128202 0.137592 0.141176 0.109837 0.0829929 0.154184 0.0825412 0.105421
threshold=2.1920803104026487 -0.019078178784966943 -0.78608812787665883 0.079452765578015713 35.137573476857689 1334384.8920437524 3.7538048709159173 2.4901345504882442 0.036736179778659096 1334384.8920437524 952371.27617292001 1.9983343782813803 23899.325918171362 1.2816729187972631
decision_type=2 2 2 2 2 2 2 2 2 2 2 2 2 2
left_child=10 6 3 9 5 -4 7 8 -2 -3 11 12 13 -1
right_child=1 2 4 -5 -6 -7 -8 -9 -10 -11 -12 -13 -14 -15
leaf_value=-1.9186369194173994e-05 -6.5596679998223244e-05 3.648956793719012e-06 9.1611205991311113e-05 0.00020605456101753861 1.8836847306738617e-05 0.00028555260705096381 -5.4173491940876847e-05 3.6192857851224635e-05 5.7349148377774568e-05 -0.00011582285531744398 8.0026512806677353e-05 -4.9626098632268154e-05 -3.3193242766989971e-08 0
leaf_weight=17337 904 2671 3940 198 1454 136 1203 1708 294 205 275 2007 38020 12451
leaf_count=17337 904 2671 3940 198 1454 136 1203 1708 294 205 275 2007 38020 12451
internal_value=0 3.27143e-05 5.36601e-05 8.73261e-06 7.81792e-05 9.87298e-05 -1.05378e-05 6.67216e-06 -3.33274e-05 -4.01648e-06 -5.92688e-06 -6.30183e-06 -4.98228e-06 -1.1215e-05
internal_weight=82803 12713 8604 3074 5530 4076 4109 2906 1198 2876 70090 69815 67808 29788
internal_count=82803 12713 8604 3074 5530 4076 4109 2906 1198 2876 70090 69815 67808 29788
is_linear=0
shrinkage=0.005


Tree=14
num_leaves=15
num_cat=0
split_feature=5 2 8 2 1 5 1 2 1 1 2 2 7 7
split_gain=0.636437 0.513404 0.642981 0.639576 0.419575 0.181609 0.496886 0.134866 0.127992 0.106978 0.0976086 0.0855208 0.122079 0.105213
threshold=2.1920803104026487 -1.3361511896903264e-11 0.034709377485134939 -1.1693918056110418e-11 9.1180754775924964 2.7690153936392066 11.514193285779518 -1.3214485061752155e-11 2.3021304486958871 20.273236450899052 -9.767187059139813e-12 0.043316895034455911 23899.325918171362 18848.639990258187
decision_type=2 2 2 2 2 2 2 2 2 2 2 2 2 2
left_child=9 2 5 7 -5 -2 -7 -3 -4 11 -6 12 13 -1
right_child=1 3 8 4 10 6 -8 -9 -10 -11 -12 -13 -14 -15
leaf_value=-1.2703476832211355e-06 -7.384395050666058e-05 5.2451753455078042e-05 0.00029033870552252198 0.00013862129648851642 -3.1326640893706172e-05 -2.9270303548880953e-05 0.00015373610276707032 0.00018799351045334129 9.9085704270952203e-05 8.4987031354377378e-05 2.889725172899411e-05 -1.9704057255850177e-05 3.1220565340240454e-06 -2.0271327216098597e-05
leaf_weight=14417 1378 292 140 883 751 2804 426 1022 461 318 4556 10310 29674 15371
leaf_count=14417 1378 292 140 883 751 2804 426 1022 461 318 4556 10310 29674 15371
internal_value=0 3.25538e-05 -5.14317e-06 5.90533e-05 3.72507e-05 -2.5673e-05 -4.33992e-06 0.000159806 0.000147998 -5.89753e-06 1.99017e-05 -6.34819e-06 -3.99025e-06 -1.11592e-05
internal_weight=82803 12713 5209 7504 6190 4608 3230 1314 601 70090 5307 69772 59462 29788
internal_count=82803 12713 5209 7504 6190 4608 3230 1314 601 70090 5307 69772 59462 29788
is_linear=0
shrinkage=0.005


Tree=15
num_leaves=15
num_cat=0
split_feature=4 7 1 1 8 7 6 4 7 1 8 8 6 8
split_gain=0.453619 0.278323 0.262421 0.439207 0.514496 0.265376 0.138307 0.128535 0.0495713 0.0450656 0.0488717 0.0281537 0.0183223 0.000300059
threshold=50000000.605290145 55123.370049640384 6.1827636104370951 9.1180754775924964 -0.022487110889034882 1160310.2408759205 0.2586718312753003 0.14643818726861638 27097.04873740637 1.1396961370154515 0.0073183382382515571 0.128685354939823 0.37163173506456043 -0.042909134036565787
decision_type=2 2 2 2 2 2 2 2 2 2 2 2 2 2
left_child=7 6 12 4 -4 -5 8 -1 -2 11 -11 -8 13 -3
right_child=1 2 3 5 -6 -7 9 -9 -10 10 -12 -13 -14 -15
leaf_value=8.8003939011510737e-05 0 -9.4292336508777791e-05 0 1.221257373835018e-05 0.00012637898227889517 -8.1797532412958613e-05 3.7442327723348904e-05 0.0002851132128093251 8.9970899528355781e-05 -4.3709637185827384e-06 -1.3965217903899024e-05 -9.3846250981270152e-06 0 -5.2418115297443527e-05
leaf_weight=343 237 229 1478 17884 1848 778 889 145 492 34254 22889 388 58 891
leaf_count=343 237 229 1478 17884 1848 778 889 145 492 34254 22889 388 58 891
internal_value=0 -8.94905e-07 1.37608e-05 1.77437e-05 7.07716e-05 8.15734e-06 -6.67722e-06 0.000151921 6.13688e-05 -7.56965e-06 -8.25784e-06 2.12595e-05 -5.84372e-05 -6.32493e-05
internal_weight=82803 82315 23166 21988 3326 18662 59149 488 729 58420 57143 1277 1178 1120
internal_count=82803 82315 23166 21988 3326 18662 59149 488 729 58420 57143 1277 1178 1120
is_linear=0
shrinkage=0.005


Tree=16
num_leaves=15
num_cat=0
split_feature=5 2 2 6 2 7 5 5 2 6 6 7 5 5
split_gain=0.62604 0.505833 0.631398 0.580449 0.368487 0.178425 0.161216 0.373875 0.13355 0.133339 0.0836086 0.0834822 0.147153 0.0703051
threshold=2.1920803104026487 -1.3361511896903264e-11 -1.1693918056110418e-11 0.3830594110095647 0.066070218503936864 1334384.8920437524 2.7690153936392066 3.4531489661231283 -1.3214485061752155e-11 0.2586718312753003 0.36431179662055091 952371.27617292001 1.9983343782813803 1.2799065304589672
decision_type=2 2 2 2 2 2 2 2 2 2 2 2 2 2
left_child=9 3 8 6 10 -5 -2 -8 -3 -1 -4 12 13 -11
right_child=1 2 4 5 -6 -7 7 -9 -10 11 -12 -13 -14 -15
leaf_value=6.1065363820685803e-05 -7.3377005425204596e-05 5.1834298192766763e-05 4.6651185977024922e-05 7.8738976856359926e-05 0.00014420621555275169 0.00029112704753987353 7.6017007189582142e-05 -4.4661492437147101e-05 0.00018674845128345205 -1.1376952796616372e-05 5.6772466557511471e-06 7.9550573850784134e-05 -4.9312096031374603e-05 -9.9668022335080448e-07
leaf_weight=729 1378 292 2176 686 716 133 920 2092 1022 29915 3298 275 2007 37164
leaf_count=729 1378 292 2176 686 716 133 920 2092 1022 29915 3298 275 2007 37164
internal_value=0 3.22875e-05 5.85913e-05 -5.12735e-06 3.69254e-05 0.000116437 -2.83865e-05 -6.96449e-06 0.000158701 -5.84842e-06 2.24245e-05 -6.58818e-06 -6.96782e-06 -5.66326e-06
internal_weight=82803 12713 7504 5209 6190 819 4390 3012 1314 70090 5474 69361 69086 67079
internal_count=82803 12713 7504 5209 6190 819 4390 3012 1314 70090 5474 69361 69086 67079
is_linear=0
shrinkage=0.005


Tree=17
num_leaves=15
num_cat=0
split_feature=5 2 2 4 1 5 1 2 1 1 2 2 7 7
split_gain=0.619961 0.50085 0.625102 0.528087 0.408539 0.205148 0.462452 0.13206 0.124946 0.105666 0.0962876 0.0845444 0.120022 0.104105
threshold=2.1920803104026487 -1.3361511896903264e-11 -1.1693918056110418e-11 50000000.605290145 9.1180754775924964 2.817819996474173 11.400043616726853 -1.3214485061752155e-11 2.3021304486958871 20.273236450899052 -9.767187059139813e-12 0.043316895034455911 23899.325918171362 18848.639990258187
decision_type=2 2 2 2 2 2 2 2 2 2 2 2 2 2
left_child=9 3 7 8 -4 -5 -7 -3 -2 11 -6 12 13 -1
right_child=1 2 4 5 10 6 -8 -9 -10 -11 -12 -13 -14 -15
leaf_value=-1.1943698213727318e-06 0.00028607413676497775 5.1575569594470467e-05 0.0001367793375741897 -7.2097990927684022e-05 -3.125950130433449e-05 -2.4267097734577718e-05 0.00014467428546773378 0.00018581516493776755 8.9033777587270424e-05 8.4506768683553489e-05 2.8556124888796806e-05 -1.9546354579043314e-05 3.1291199761019183e-06 -2.0094798066576177e-05
leaf_weight=14417 140 292 883 1414 751 2838 472 1022 345 318 4556 10310 29674 15371
leaf_count=14417 140 292 883 1414 751 2838 472 1022 345 318 4556 10310 29674 15371
internal_value=0 3.21311e-05 5.83051e-05 -5.09676e-06 3.67449e-05 -2.16967e-05 0 0.000157917 0.000151297 -5.81918e-06 1.96184e-05 -6.26729e-06 -3.92267e-06 -1.10313e-05
internal_weight=82803 12713 7504 5209 6190 4724 3310 1314 485 70090 5307 69772 59462 29788
internal_count=82803 12713 7504 5209 6190 4724 3310 1314 485 70090 5307 69772 59462 29788
is_linear=0
shrinkage=0.005


Tree=18
num_leaves=15
num_cat=0
split_feature=4 7 2 1 2 2 6 6 4 2 6 1 7 7
split_gain=0.440913 0.270025 0.365694 0.435603 0.627029 0.151936 0.140657 0.135386 0.124338 0.0977171 0.0841615 0.0815918 0.0719865 0.0490773
threshold=50000000.605290145 55123.370049640384 -1.9335538725684382e-11 15.112827140453616 -1.1693918056110418e-11 -1.1693918056110418e-11 0.38253101637816755 0.2586718312753003 0.14643818726861638 0.07867072093583613 0.35229259145410979 11.623838860288041 23899.325918171362 27097.04873740637
decision_type=2 2 2 2 2 2 2 2 2 2 2 2 2 2
left_child=8 7 6 4 -4 -5 11 13 -1 12 -11 -3 -9 -2
right_child=1 2 3 5 -6 -7 -8 9 -10 10 -12 -13 -14 -15
leaf_value=8.672742663011337e-05 0 -3.3684779848359532e-05 0.00011019803193449286 -4.4408712522542038e-05 2.1425008778483815e-05 5.4934238493933632e-06 5.6464005044197692e-05 -1.0976603051368505e-05 0.0002809378920807871 5.8494341436677941e-06 -4.666235502274566e-05 -0.00010604751032118484 4.4466324426656214e-07 8.9200854339272843e-05
leaf_weight=343 237 2248 2563 2015 9416 6046 338 29788 145 946 2742 540 24944 492
leaf_count=343 237 2248 2563 2015 9416 6046 338 29788 145 946 2742 540 24944 492
internal_value=0 -8.80768e-07 1.35543e-05 2.14791e-05 4.06312e-05 -6.67243e-06 -3.64452e-05 -6.57667e-06 0.00014978 -7.46005e-06 -3.25159e-05 -4.86136e-05 -5.72575e-06 6.07446e-05
internal_weight=82803 82315 23166 20040 11979 8061 3126 59149 488 58420 3688 2788 54732 729
internal_count=82803 82315 23166 20040 11979 8061 3126 59149 488 58420 3688 2788 54732 729
is_linear=0
shrinkage=0.005


Tree=19
num_leaves=15
num_cat=0
split_feature=4 7 2 1 2 2 6 6 4 2 6 1 7 7
split_gain=0.436672 0.267321 0.362069 0.431271 0.620736 0.150427 0.139304 0.134053 0.122955 0.0967119 0.0833545 0.0807307 0.0712741 0.048579
threshold=50000000.605290145 55123.370049640384 -1.9335538725684382e-11 15.112827140453616 -1.1693918056110418e-11 -1.1693918056110418e-11 0.38253101637816755 0.2586718312753003 0.14643818726861638 0.07867072093583613 0.35229259145410979 11.623838860288041 23899.325918171362 27097.04873740637
decision_type=2 2 2 2 2 2 2 2 2 2 2 2 2 2
left_child=8 7 6 4 -4 -5 11 13 -1 12 -11 -3 -9 -2
right_child=1 2 3 5 -6 -7 -8 9 -10 10 -12 -13 -14 -15
leaf_value=8.6294423451391204e-05 0 -3.3516393159463572e-05 0.00010964714965908076 -4.4186723145143437e-05 2.1317889746272179e-05 5.4659592238700882e-06 5.6182101239974844e-05 -1.0921720998758073e-05 0.00027953802406327011 5.8202023945733403e-06 -4.6429085683899976e-05 -0.00010551776220401918 4.4243979312307397e-07 8.875530496769144e-05
leaf_weight=343 237 2248 2563 2015 9416 6046 338 29788 145 946 2742 540 24944 492
leaf_count=343 237 2248 2563 2015 9416 6046 338 29788 145 946 2742 540 24944 492
internal_value=0 -8.75884e-07 1.34865e-05 2.13723e-05 4.04291e-05 -6.63753e-06 -3.6263e-05 -6.54333e-06 0.000149058 -7.42253e-06 -3.235e-05 -4.83751e-05 -5.69689e-06 6.04438e-05
internal_weight=82803 82315 23166 20040 11979 8061 3126 59149 488 58420 3688 2788 54732 729
internal_count=82803 82315 23166 20040 11979 8061 3126 59149 488 58420 3688 2788 54732 729
is_linear=0
shrinkage=0.005


Tree=20
num_leaves=15
num_cat=0
split_feature=5 2 8 2 1 5 1 2 6 1 1 6 2 5
split_gain=0.604312 0.491275 0.61104 0.609765 0.404481 0.173106 0.478388 0.130809 0.1293 0.119022 0.107056 0.106746 0.072144 0.098199
threshold=2.1920803104026487 -1.3361511896903264e-11 0.034709377485134939 -1.1693918056110418e-11 9.1180754775924964 2.7690153936392066 11.514193285779518 -1.3214485061752155e-11 0.2586718312753003 2.3021304486958871 20.093939506989731 0.36431179662055091 0.043316895034455911 1.2799065304589672
decision_type=2 2 2 2 2 2 2 2 2 2 2 2 2 2
left_child=8 2 5 7 -5 -2 -7 -3 -1 -4 12 -6 13 -10
right_child=1 3 9 4 11 6 -8 -9 10 -11 -12 -13 -14 -15
leaf_value=6.014451574816399e-05 -7.2201802059193389e-05 5.0220786279899971e-05 0.00028185645058698079 0.00013588079259139641 4.6215060998366755e-05 -2.879405643590043e-05 0.00015076780517051677 0.00018378785243861306 -1.1233056377716471e-05 9.6624490415332098e-05 5.74434299414009e-05 0 -1.9380983415550654e-05 1.6716015595700433e-06
leaf_weight=729 1378 292 140 883 2175 2804 426 1022 29915 461 640 3132 10310 28496
leaf_count=729 1378 292 140 883 2175 2804 426 1022 29915 461 640 3132 10310 28496
internal_value=0 3.17248e-05 -5.14207e-06 5.76481e-05 3.63473e-05 -2.51667e-05 -4.31836e-06 0.000156039 -5.74354e-06 0.000144128 -6.47251e-06 1.93042e-05 -7.10455e-06 -4.89472e-06
internal_weight=82803 12713 5209 7504 6190 4608 3230 1314 70090 601 69361 5307 68721 58411
internal_count=82803 12713 5209 7504 6190 4608 3230 1314 70090 601 69361 5307 68721 58411
is_linear=0
shrinkage=0.005


Tree=21
num_leaves=15
num_cat=0
split_feature=5 2 2 1 5 1 7 2 3 1 2 7 7 5
split_gain=0.598428 0.486429 0.60369 0.400399 0.332715 0.330747 0.282535 0.129349 0.114661 0.103647 0.0825983 0.116294 0.103031 0.0690195
threshold=2.1920803104026487 -1.3361511896903264e-11 -1.1693918056110418e-11 9.1180754775924964 2.817819996474173 11.514193285779518 629845.2370089466 -1.3214485061752155e-11 -1.0624921727917207 20.273236450899052 0.043316895034455911 23899.325918171362 18848.639990258187 1.7222073992543727
decision_type=2 2 2 2 2 2 2 2 2 2 2 2 2 2
left_child=9 4 7 -4 -2 6 -6 -3 -5 10 11 12 -1 -13
right_child=1 2 3 8 5 -7 -8 -9 -10 -11 -12 13 -14 -15
leaf_value=-1.0525975852616655e-06 -7.0937031901767715e-05 4.9970110942479383e-05 0.00013520177207584374 -1.496267233907388e-05 -3.4831297612994815e-05 0.00015001484973559207 5.8757111393106666e-05 0.00018286936367408789 3.4740377377539587e-05 8.3743418995261759e-05 -1.9284083554623554e-05 6.1429996105849605e-06 -1.9853899440173594e-05 -1.6288100803100151e-05
leaf_weight=14417 1414 292 883 1608 2038 426 1331 1022 3699 318 10310 25760 15371 3914
leaf_count=14417 1414 292 883 1608 2038 426 1331 1022 3699 318 10310 25760 15371 3914
internal_value=0 3.1571e-05 5.73663e-05 3.61692e-05 -5.11136e-06 1.87624e-05 1.40421e-06 0.000155268 1.92095e-05 -5.71446e-06 -6.15861e-06 -3.84062e-06 -1.08384e-05 3.09987e-06
internal_weight=82803 12713 7504 6190 5209 3795 3369 1314 5307 70090 69772 59462 29788 29674
internal_count=82803 12713 7504 6190 5209 3795 3369 1314 5307 70090 69772 59462 29788 29674
is_linear=0
shrinkage=0.005


Tree=22
num_leaves=15
num_cat=0
split_feature=7 8 1 2 1 7 6 2 6 2 6 1 7 7
split_gain=0.345232 0.419767 0.341896 0.264759 0.34666 0.630685 0.225796 0.14701 0.12947 0.0948089 0.0825186 0.0786593 0.0698016 0.102275
threshold=55123.370049640384 0.083090973827923562 9.0229346440645397 -1.9335538725684382e-11 15.112827140453616 325202.78600627551 0.38253101637816755 -1.1693918056110418e-11 0.2586718312753003 0.07867072093583613 0.35229259145410979 11.623838860288041 23899.325918171362 18848.639990258187
decision_type=2 2 2 2 2 2 2 2 2 2 2 2 2 2
left_child=8 3 -3 6 5 -5 11 -6 -1 12 -11 -2 13 -10
right_child=1 2 -4 4 7 -7 -8 -9 9 10 -12 -13 -14 -15
leaf_value=5.933388137826283e-05 -3.317991830213447e-05 0.00016143890831182457 -4.4496373553354291e-06 2.1099743749889156e-05 -4.3688407563387545e-05 0.00013231286091508338 7.1454089253008369e-05 5.3942969553247535e-06 -1.0228940092777776e-06 5.9843400667387515e-06 -4.6004257955062789e-05 -0.00010431011165145586 4.7345690973986344e-07 -1.9754633186859445e-05
leaf_weight=730 2248 864 440 9561 2015 1490 447 6046 14419 946 2742 540 24944 15371
leaf_count=730 2248 864 440 9561 2015 1490 447 6046 14419 946 2742 540 24944 15371
internal_value=0 1.61561e-05 0.000103568 1.09413e-05 1.81044e-05 3.63261e-05 -3.06008e-05 -6.56669e-06 -6.44532e-06 -7.31055e-06 -3.1992e-05 -4.78697e-05 -5.60155e-06 -1.07722e-05
internal_weight=82803 23651 1304 22347 19112 11051 3235 8061 59152 58422 3688 2788 54734 29790
internal_count=82803 23651 1304 22347 19112 11051 3235 8061 59152 58422 3688 2788 54734 29790
is_linear=0
shrinkage=0.005


Tree=23
num_leaves=15
num_cat=0
split_feature=5 2 8 2 2 5 5 3 2 7 2 7 5 0
split_gain=0.587942 0.479056 0.597542 0.593495 0.355741 0.168189 0.324671 0.129994 0.126972 0.115267 0.0873402 0.130511 0.102882 0.0823762
threshold=2.1920803104026487 -1.3361511896903264e-11 0.034709377485134939 -1.1693918056110418e-11 0.066070218503936864 2.7690153936392066 3.4531489661231283 -1.0624921727917207 -1.3214485061752155e-11 1334384.8920437524 0.043316895034455911 23899.325918171362 1.2816729187972631 0.45021673396842415
decision_type=2 2 2 2 2 2 2 2 2 2 2 2 2 2
left_child=10 2 5 8 7 -2 -7 -5 -3 -4 11 12 13 -1
right_child=1 3 9 4 -6 6 -8 -9 -10 -11 -12 -13 -14 -15
leaf_value=-3.0761716492473193e-05 -7.1280897842122842e-05 4.9526018132235188e-05 9.6985098265025776e-05 -1.5048579012328205e-05 0.00014127930465095208 7.4168209857228802e-05 -3.6713842744445726e-05 3.7525283455196554e-05 0.00018132720379532296 0.00028295910885829607 -1.9154382805628081e-05 4.0068270291713048e-06 3.4386337979565042e-08 -8.3695119010630666e-06
leaf_weight=7814 1378 292 468 1609 716 920 2310 3865 1022 133 10310 29992 12451 9523
leaf_count=7814 1378 292 468 1609 716 920 2310 3865 1022 133 10310 29992 12451 9523
internal_value=0 3.12935e-05 -5.10676e-06 5.6893e-05 3.58711e-05 -2.4914e-05 -4.35087e-06 2.16154e-05 0.00015397 0.000142498 -5.66386e-06 -3.29525e-06 -1.07312e-05 -1.86067e-05
internal_weight=82803 12713 5209 7504 6190 4608 3230 5474 1314 601 70090 59780 29788 17337
internal_count=82803 12713 5209 7504 6190 4608 3230 5474 1314 601 70090 59780 29788 17337
is_linear=0
shrinkage=0.005


Tree=24
num_leaves=15
num_cat=0
split_feature=4 7 2 1 2 2 4 1 2 1 7 7 8 7
split_gain=0.418112 0.254177 0.347571 0.412824 0.594621 0.144851 0.119156 0.116191 0.100195 0.0976059 0.0930439 0.100681 0.0478737 0.0458863
threshold=50000000.605290145 55123.370049640384 -1.9335538725684382e-11 15.112827140453616 -1.1693918056110418e-11 -1.1693918056110418e-11 0.14643818726861638 11.623838860288041 0.07867072093583613 5.76431856950067 23899.325918171362 18848.639990258187 -0.0043995495728397253 1160310.2408759205
decision_type=2 2 2 2 2 2 2 2 2 2 2 2 2 2
left_child=6 8 7 4 -4 -5 -1 9 10 -3 11 -2 -10 -9
right_child=1 2 3 5 -6 -7 -8 13 12 -11 -12 -13 -14 -15
leaf_value=8.3943546243967084e-05 -1.0022280549317697e-06 -6.3848135374348195e-05 0.00010727381011847334 -4.3370327606007534e-05 2.0811172984545519e-05 5.3487698223722874e-06 0.00027434518151113257 0 0 0 2.2451656007565959e-06 -1.9589399950566553e-05 -4.1705849293422679e-05 -0.0001258742092443364
leaf_weight=343 14417 863 2563 2015 9416 6046 145 103 865 1723 25673 15371 2823 437
leaf_count=343 14417 863 2563 2015 9416 6046 145 103 865 1723 25673 15371 2823 437
internal_value=0 -8.5464e-07 1.31494e-05 2.08774e-05 3.95229e-05 -6.52131e-06 0.000145858 -3.55889e-05 -6.3817e-06 -2.04339e-05 -4.65056e-06 -1.06775e-05 -3.17331e-05 -0.000103453
internal_weight=82803 82315 23166 20040 11979 8061 488 3126 59149 2586 55461 29788 3688 540
internal_count=82803 82315 23166 20040 11979 8061 488 3126 59149 2586 55461 29788 3688 540
is_linear=0
shrinkage=0.005


Tree=25
num_leaves=15
num_cat=0
split_feature=5 2 8 2 2 5 5 3 6 2 2 2 5 5
split_gain=0.577679 0.472063 0.587485 0.583259 0.352199 0.165131 0.319889 0.128699 0.126225 0.125661 0.106109 0.0772607 0.11754 0.0830418
threshold=2.1920803104026487 -1.3361511896903264e-11 0.034709377485134939 -1.1693918056110418e-11 0.066070218503936864 2.7690153936392066 3.4531489661231283 -1.0624921727917207 0.2586718312753003 -1.3214485061752155e-11 -2.2202977234542228e-10 0.043316895034455911 1.2799065304589672 1.2114323527436379
decision_type=2 2 2 2 2 2 2 2 2 2 2 2 2 2
left_child=8 2 5 9 7 -2 -7 -5 -1 -3 -4 12 13 -10
right_child=1 3 10 4 -6 6 -8 -9 11 -11 -12 -13 -14 -15
leaf_value=5.948560062829719e-05 -7.0700920650788228e-05 4.8743359459480516e-05 0.00025775770967205366 -1.50775790164294e-05 0.00014046985337566598 7.3559831359016397e-05 -3.6499519792063183e-05 3.7233475795622459e-05 -2.8713447796108436e-06 0.00017988490345113636 9.0790317846201781e-05 -1.9029945021280136e-05 3.005396684330959e-06 -1.9766236503120903e-05
leaf_weight=729 1378 292 166 1609 716 920 2310 3865 15573 1022 435 10310 29136 14342
leaf_count=729 1378 292 166 1609 716 920 2310 3865 15573 1022 435 10310 29136 14342
internal_value=0 3.10197e-05 -5.11099e-06 5.64321e-05 3.55876e-05 -2.47546e-05 -4.37094e-06 2.14008e-05 -5.61361e-06 0.000152674 0.00014124 -6.33429e-06 -4.07521e-06 -1.10549e-05
internal_weight=82803 12713 5209 7504 6190 4608 3230 5474 70090 1314 601 69361 59051 29915
internal_count=82803 12713 5209 7504 6190 4608 3230 5474 70090 1314 601 69361 59051 29915
is_linear=0
shrinkage=0.005


Tree=26
num_leaves=15
num_cat=0
split_feature=5 8 6 7 7 6 5 1 1 5 7 7 7 5
split_gain=0.572013 0.418489 0.314519 0.452838 0.277242 0.124973 0.118877 0.130917 0.104515 0.102994 0.0911807 0.0888338 0.079933 0.135228
threshold=2.1920803104026487 -0.019078178784966943 0.32001611722788054 325202.78600627551 74889.625468536469 0.2586718312753003 3.7538048709159173 15.711378721587115 20.093939506989731 2.817819996474173 1334384.8920437524 418498.27437700826 952371.27617292001 1.9983343782813803
decision_type=2 2 2 2 2 2 2 2 2 2 2 2 2 2
left_child=5 6 9 4 -4 -1 7 11 12 -3 -5 -2 13 -7
right_child=1 2 3 10 -6 8 -8 -9 -10 -11 -12 -13 -14 -15
leaf_value=5.9188372283627235e-05 4.5668934511910202e-05 -9.4522847843980136e-05 0.00014325791735734258 0.00012284998745317401 2.9489006929366201e-05 -6.0384158970321949e-06 -5.2165792877222495e-05 -5.9199574374652997e-05 5.6850705967748066e-05 8.8331401489474399e-06 0.00027889905364883975 -1.8832718355623692e-05 7.7290943225409616e-05 -4.7914650132655633e-05
leaf_weight=729 1581 414 612 1432 5528 66439 1203 585 640 485 133 740 275 2007
leaf_count=729 1581 414 612 1432 5528 66439 1203 585 640 485 133 740 275 2007
internal_value=0 3.08677e-05 5.07409e-05 6.11889e-05 4.12467e-05 -5.58554e-06 -1.01382e-05 6.40579e-06 -6.3028e-06 -3.60103e-05 0.000137793 2.40275e-05 -6.92773e-06 -7.30319e-06
internal_weight=82803 12713 8604 7705 6140 70090 4109 2906 69361 899 1565 2321 68721 68446
internal_count=82803 12713 8604 7705 6140 70090 4109 2906 69361 899 1565 2321 68721 68446
is_linear=0
shrinkage=0.005


Tree=27
num_leaves=15
num_cat=0
split_feature=5 2 2 8 2 5 5 2 6 7 6 7 5 5
split_gain=0.566329 0.464371 0.576324 0.575852 0.345792 0.162106 0.315205 0.123958 0.123732 0.11047 0.0820533 0.0778669 0.138191 0.0674785
threshold=2.1920803104026487 -1.3361511896903264e-11 -1.1693918056110418e-11 0.034709377485134939 0.066070218503936864 2.7690153936392066 3.4531489661231283 -1.3214485061752155e-11 0.2586718312753003 1334384.8920437524 0.36431179662055091 952371.27617292001 1.9983343782813803 1.2799065304589672
decision_type=2 2 2 2 2 2 2 2 2 2 2 2 2 2
left_child=8 3 7 5 10 -2 -7 -3 -1 -5 -4 12 13 -10
right_child=1 2 4 9 -6 6 -8 -9 11 -11 -12 -13 -14 -15
leaf_value=5.8892635527086677e-05 -7.0095897200200824e-05 4.8287480960363265e-05 4.5106076263901869e-05 9.5035092110756536e-05 0.00013912439488644003 7.298498281239831e-05 -3.6263338435085208e-05 0.00017861910620368425 -1.0969895632159917e-05 0.00027750978853260537 4.5564421581223615e-06 7.6905190581269905e-05 -4.7675136409844419e-05 -8.013701408676139e-07
leaf_weight=729 1378 292 2176 468 716 920 2310 1022 29915 133 3298 275 2007 37164
leaf_count=729 1378 292 2176 468 716 920 2310 1022 29915 133 3298 275 2007 37164
internal_value=0 3.07144e-05 5.59195e-05 -5.11747e-06 3.51967e-05 -2.457e-05 -4.36582e-06 0.000151588 -5.55725e-06 0.00013977 2.11349e-05 -6.2711e-06 -6.63893e-06 -5.37351e-06
internal_weight=82803 12713 7504 5209 6190 4608 3230 1314 70090 601 5474 69361 69086 67079
internal_count=82803 12713 7504 5209 6190 4608 3230 1314 70090 601 5474 69361 69086 67079
is_linear=0
shrinkage=0.005


Tree=28
num_leaves=15
num_cat=0
split_feature=5 6 7 0 1 1 6 7 5 1 5 5 7 6
split_gain=0.560838 0.380133 0.282801 0.281579 0.176465 0.168858 0.122915 0.124735 0.113291 0.0845835 0.0716067 0.0729525 0.0685056 0.0645864
threshold=2.1920803104026487 0.33997996367784972 1160310.2408759205 0.052907505952615293 11.107284574525215 11.623838860288041 0.3091009038436684 27021.941283618231 1.9983343782813803 5.9715134643518937 1.2816729187972631 1.4109140728225504 1160310.2408759205 0.2586718312753003
decision_type=2 2 2 2 2 2 2 2 2 2 2 2 2 2
left_child=6 5 3 4 -3 9 7 -1 10 -2 -8 -12 -7 -9
right_child=1 2 -4 -5 -6 12 8 13 -10 -11 11 -13 -14 -15
leaf_value=-5.0920218829045635e-06 -8.3756049141620707e-05 1.3535152601249565e-05 0.00024586657413714372 0.00014425388541743805 5.8718473237941777e-05 -2.5835676632797764e-05 -1.3177427380673978e-05 8.6766346097748892e-05 -4.5763438411674364e-05 1.7838365468697576e-05 6.2777242684616308e-06 -8.6300792965544153e-06 -0.00012421303881066188 2.3123950507260894e-05
leaf_weight=5177 229 5070 177 635 4024 430 25559 492 1963 1711 14695 18359 437 3845
leaf_count=5177 229 5070 177 635 4024 430 25559 492 1963 1711 14695 18359 437 3845
internal_value=0 3.05659e-05 4.51983e-05 4.12782e-05 3.38053e-05 -2.01806e-05 -5.52947e-06 1.10664e-05 -8.17734e-06 4.53922e-06 -6.87552e-06 -1.92681e-06 -7.83464e-05 3.09292e-05
internal_weight=82803 12713 9906 9729 9094 2807 70090 9514 60576 1940 58613 33054 867 4337
internal_count=82803 12713 9906 9729 9094 2807 70090 9514 60576 1940 58613 33054 867 4337
is_linear=0
shrinkage=0.005


Tree=29
num_leaves=15
num_cat=0
split_feature=5 8 3 8 6 7 6 7 5 5 7 5 6 5
split_gain=0.555275 0.409258 0.341837 0.298418 0.242773 0.26968 0.121697 0.123522 0.116305 0.11878 0.124681 0.112153 0.0957121 0.0708905
threshold=2.1920803104026487 -0.019078178784966943 -0.78608812787665883 0.079452765578015713 0.32047244224534316 325202.78600627551 0.3091009038436684 27021.941283618231 3.7538048709159173 2.4901345504882442 291489.61069683271 1.9983343782813803 0.34157536781821218 1.2816729187972631
decision_type=2 2 2 2 2 2 2 2 2 2 2 2 2 2
left_child=6 8 3 12 -4 -6 7 -1 9 10 -2 13 -3 -8
right_child=1 2 4 -5 5 -7 11 -9 -10 -11 -12 -13 -14 -15
leaf_value=-5.0665644983748041e-06 5.4109377767444008e-05 -0.00010943919248026943 -9.7831354405603032e-06 0.00019474963902787058 6.2101391044179006e-05 0.00014852282300746559 -1.3111541370125375e-05 3.0777538717454394e-05 -5.1701631714088143e-05 3.3699292390727492e-05 -6.1279402957725978e-05 -4.5534678419679017e-05 1.8794887048271845e-06 -1.9167948661550496e-06
leaf_weight=5177 294 205 707 198 3499 1324 25559 4337 1203 1708 904 1963 2671 33054
leaf_count=5177 294 205 707 198 3499 1324 25559 4337 1203 1708 904 1963 2671 33054
internal_value=0 3.04141e-05 5.0068e-05 6.89189e-06 7.36137e-05 8.63569e-05 -5.50182e-06 1.10111e-05 -1.01325e-05 6.22165e-06 -3.08653e-05 -8.13666e-06 -5.20379e-06 -6.84114e-06
internal_weight=82803 12713 8604 3074 5530 4823 70090 9514 4109 2906 1198 60576 2876 58613
internal_count=82803 12713 8604 3074 5530 4823 70090 9514 4109 2906 1198 60576 2876 58613
is_linear=0
shrinkage=0.005


Tree=30
num_leaves=15
num_cat=0
split_feature=7 6 2 1 2 6 2 6 2 6 1 7 7 1
split_gain=0.319699 0.321921 0.2634 0.391109 0.575852 0.240384 0.139587 0.12236 0.0902281 0.0803199 0.0729308 0.0670059 0.100081 0.0636744
threshold=55123.370049640384 0.49123065755027751 -1.9335538725684382e-11 15.112827140453616 -1.1693918056110418e-11 0.38253101637816755 -1.1693918056110418e-11 0.2586718312753003 0.07867072093583613 0.35229259145410979 11.623838860288041 23899.325918171362 18848.639990258187 2.3366367863085502
decision_type=2 2 2 2 2 2 2 2 2 2 2 2 2 2
left_child=7 2 5 4 -4 10 -5 -1 11 -10 -2 12 -9 -3
right_child=1 13 3 6 -6 -7 -8 8 9 -11 -12 -13 -14 -15
leaf_value=5.7740739487397992e-05 -3.2523258635193733e-05 0.00026613597893866442 0.00010518171986654311 -4.2479109684572668e-05 2.0091305940434097e-05 6.6269517232612709e-05 5.3457425529034366e-06 -7.966623472613548e-07 6.3370124488181024e-06 -4.4954761235861764e-05 -0.00010120917899427573 5.7739627231635209e-07 -1.9324577870189207e-05 7.3812795184523226e-05
leaf_weight=730 2248 147 2563 2015 9416 550 6046 14419 946 2742 540 24944 15371 126
leaf_count=730 2248 147 2563 2015 9416 550 6046 14419 946 2742 540 24944 15371 126
internal_value=0 1.55496e-05 1.34388e-05 2.03602e-05 3.85094e-05 -2.73628e-05 -6.30076e-06 -6.19996e-06 -7.0422e-06 -3.11212e-05 -4.67391e-05 -5.3738e-06 -1.04408e-05 0.000186809
internal_weight=82803 23651 23378 20040 11979 3338 8061 59152 58422 3688 2788 54734 29790 273
internal_count=82803 23651 23378 20040 11979 3338 8061 59152 58422 3688 2788 54734 29790 273
is_linear=0
shrinkage=0.005


Tree=31
num_leaves=15
num_cat=0
split_feature=5 2 2 8 1 5 1 2 1 1 2 2 0 0
split_gain=0.545498 0.451665 0.564103 0.557903 0.380664 0.156904 0.447239 0.121729 0.10861 0.100919 0.0929582 0.0788924 0.0910415 0.0906845
threshold=2.1920803104026487 -1.3361511896903264e-11 -1.1693918056110418e-11 0.034709377485134939 9.1180754775924964 2.7690153936392066 11.514193285779518 -1.3214485061752155e-11 2.3021304486958871 20.273236450899052 -9.767187059139813e-12 0.043316895034455911 0.36989354441652328 0.42886117554684128
decision_type=2 2 2 2 2 2 2 2 2 2 2 2 2 2
left_child=9 3 7 5 -4 -2 -7 -3 -5 11 -6 12 -1 -14
right_child=1 2 4 8 10 6 -8 -9 -10 -11 -12 -13 13 -15
leaf_value=2.1952825357868642e-06 -6.9137673676096704e-05 4.7219653144612759e-05 0.0001310517069311434 0.00026936196453630713 -3.2085963338847931e-05 -2.8137660361793966e-05 0.00014546300119699655 0.00017643842235444372 9.1671980910516777e-05 8.2829097831209458e-05 2.6750711835194108e-05 -1.8718612003673467e-05 -2.140634237366496e-05 -2.8284371090403752e-06
leaf_weight=31210 1378 292 883 140 751 2804 426 1022 461 318 4556 10310 10990 17262
leaf_count=31210 1378 292 883 140 751 2804 426 1022 461 318 4556 10310 10990 17262
internal_value=0 3.01455e-05 5.50045e-05 -5.18791e-06 3.44982e-05 -2.43416e-05 -4.44888e-06 0.000149654 0.00013741 -5.45286e-06 1.79514e-05 -5.89164e-06 -3.62542e-06 -1.0144e-05
internal_weight=82803 12713 7504 5209 6190 4608 3230 1314 601 70090 5307 69772 59462 28252
internal_count=82803 12713 7504 5209 6190 4608 3230 1314 601 70090 5307 69772 59462 28252
is_linear=0
shrinkage=0.005


Tree=32
num_leaves=15
num_cat=0
split_feature=4 7 1 1 7 3 6 4 7 1 6 6 6 6
split_gain=0.386805 0.23526 0.241381 0.396019 0.237062 0.16829 0.122619 0.110905 0.0474067 0.0441745 0.0429881 0.021488 0.0170412 3.10461e-06
threshold=50000000.605290145 55123.370049640384 6.1827636104370951 9.1180754775924964 1160310.2408759205 -4.9183452769768259 0.2586718312753003 0.14643818726861638 27097.04873740637 1.1396961370154515 0.32193142198627539 0.41145435713075723 0.37163173506456043 0.23695182649716992
decision_type=2 2 2 2 2 2 2 2 2 2 2 2 2 2
left_child=7 6 12 5 -5 -4 8 -1 13 11 -11 -8 -3 -2
right_child=1 2 3 4 -6 -7 9 -9 -10 10 -12 -13 -14 -15
leaf_value=8.0209766592882073e-05 1.6971765141640499e-07 -6.1220963872173225e-05 0 1.1206911696093293e-05 -7.7643464599978581e-05 8.4986344336031167e-05 4.1826030271825413e-05 0.0002644785922468733 8.5879846698212148e-05 5.4871145729016542e-07 -9.9033043914349871e-06 0 0 -1.00918413771616e-06
leaf_weight=343 166 1120 687 17884 778 2639 647 145 492 12010 45133 630 58 71
leaf_count=343 166 1120 687 17884 778 2639 647 145 492 12010 45133 630 58 71
internal_value=0 -8.19266e-07 1.26522e-05 1.64766e-05 7.36689e-06 6.68301e-05 -6.13777e-06 0.000140294 5.7919e-05 -6.98039e-06 -7.66282e-06 2.15912e-05 -5.65866e-05 0
internal_weight=82803 82315 23166 21988 18662 3326 59149 488 729 58420 57143 1277 1178 237
internal_count=82803 82315 23166 21988 18662 3326 59149 488 729 58420 57143 1277 1178 237
is_linear=0
shrinkage=0.005


Tree=33
num_leaves=15
num_cat=0
split_feature=5 2 2 8 1 5 1 2 1 1 2 2 7 5
split_gain=0.537038 0.445629 0.557425 0.547991 0.374367 0.15504 0.442257 0.120487 0.106114 0.0997541 0.0920379 0.0780797 0.107589 0.0988313
threshold=2.1920803104026487 -1.3361511896903264e-11 -1.1693918056110418e-11 0.034709377485134939 9.1180754775924964 2.7690153936392066 11.514193285779518 -1.3214485061752155e-11 2.3021304486958871 20.273236450899052 -9.767187059139813e-12 0.043316895034455911 23899.325918171362 1.2816729187972631
decision_type=2 2 2 2 2 2 2 2 2 2 2 2 2 2
left_child=9 3 7 5 -4 -2 -7 -3 -5 11 -6 12 13 -1
right_child=1 2 4 8 10 6 -8 -9 -10 -11 -12 -13 -14 -15
leaf_value=-1.8043657951576295e-05 -6.8697945653405459e-05 4.6737580290470925e-05 0.00012997274523705095 0.0002667022557445268 -3.1981638127999048e-05 -2.795069313694865e-05 0.00014468056893310262 0.00017534263564836152 9.0822377276832881e-05 8.2359652260093243e-05 2.6560944622870583e-05 -1.860654705583831e-05 3.0828047215605863e-06 2.2652521330295288e-07
leaf_weight=17337 1378 292 883 140 751 2804 426 1022 461 318 4556 10310 29674 12451
leaf_count=17337 1378 292 883 140 751 2804 426 1022 461 318 4556 10310 29674 12451
internal_value=0 2.99119e-05 5.46046e-05 -5.18195e-06 3.42172e-05 -2.41687e-05 -4.38986e-06 0.000148694 0.000136137 -5.40932e-06 1.78032e-05 -5.84576e-06 -3.59101e-06 -1.03232e-05
internal_weight=82803 12713 7504 5209 6190 4608 3230 1314 601 70090 5307 69772 59462 29788
internal_count=82803 12713 7504 5209 6190 4608 3230 1314 601 70090 5307 69772 59462 29788
is_linear=0
shrinkage=0.005


Tree=34
num_leaves=15
num_cat=0
split_feature=5 8 3 8 1 7 6 7 5 1 5 1 6 7
split_gain=0.531764 0.394015 0.333391 0.288496 0.253767 0.170605 0.118609 0.120351 0.113095 0.123475 0.109939 0.0964271 0.0916165 0.0820616
threshold=2.1920803104026487 -0.019078178784966943 -0.78608812787665883 0.079452765578015713 9.1180754775924964 1040154.8986812589 0.3091009038436684 27021.941283618231 3.7538048709159173 15.711378721587115 1.9983343782813803 2.3021304486958871 0.34157536781821218 418498.27437700826
decision_type=2 2 2 2 2 2 2 2 2 2 2 2 2 2
left_child=6 8 3 12 11 -6 7 -1 9 13 -8 -4 -3 -2
right_child=1 2 4 -5 5 -7 10 -9 -10 -11 -12 -13 -14 -15
leaf_value=-4.9445424768323498e-06 4.4057162960688653e-05 -0.00010741710870180033 0.0002653734963983828 0.00019114317601203262 6.2380657421660197e-05 -3.3855029078807464e-05 -6.7004393924718694e-06 3.0430745169627655e-05 -5.1004163363064011e-05 -5.7578340732376392e-05 -4.501036689295149e-05 0.00011122801147922241 1.4322162588840766e-06 -1.7850156757324383e-05
leaf_weight=5177 1581 205 140 198 3430 496 58613 4337 1203 585 1963 1464 2671 740
leaf_count=5177 1581 205 140 198 3430 496 58613 4337 1203 585 1963 1464 2671 740
internal_value=0 2.97654e-05 4.90511e-05 6.40555e-06 7.2302e-05 4.9583e-05 -5.38191e-06 1.09194e-05 -1.00103e-05 6.10571e-06 -7.98353e-06 0.000126319 -5.47473e-06 2.32429e-05
internal_weight=82803 12713 8604 3074 5530 3926 70090 9514 4109 2906 60576 1604 2876 2321
internal_count=82803 12713 8604 3074 5530 3926 70090 9514 4109 2906 60576 1604 2876 2321
is_linear=0
shrinkage=0.005


Tree=35
num_leaves=15
num_cat=0
split_feature=4 7 2 8 2 6 6 4 8 2 6 7 3 7
split_gain=0.374993 0.228452 0.320389 0.164513 0.334472 0.125784 0.120751 0.107605 0.0976382 0.0877661 0.0792489 0.0652666 0.0524724 0.0467409
threshold=50000000.605290145 55123.370049640384 -1.9335538725684382e-11 -0.032461362914859279 -1.1693918056110418e-11 0.38253101637816755 0.2586718312753003 0.14643818726861638 -0.13179731587717813 0.07867072093583613 0.35229259145410979 23899.325918171362 34.018387411376985 27097.04873740637
decision_type=2 2 2 2 2 2 2 2 2 2 2 2 2 2
left_child=7 6 5 8 -5 12 13 -1 -4 11 -11 -8 -3 -2
right_child=1 2 3 4 -6 -7 9 -9 -10 10 -12 -13 -14 -15
leaf_value=7.8798842687081546e-05 0 -5.7253099891441583e-05 8.4642981257004749e-05 8.4938328414843096e-05 1.8115205640048442e-05 5.3370037627344415e-05 -1.023868380027801e-05 0.00026056620301966813 -8.8763159435528524e-07 6.5748466534647186e-06 -4.4378575007506156e-05 6.3562781858163244e-07 -8.8099274143799964e-08 8.5283491155369024e-05
leaf_weight=343 237 2188 346 2393 9413 338 29788 145 7888 946 2742 24944 600 492
leaf_count=343 237 2188 346 2393 9413 338 29788 145 7888 946 2742 24944 600 492
internal_value=0 -8.05384e-07 1.24692e-05 1.98924e-05 3.18746e-05 -3.43149e-05 -6.04678e-06 0.000138137 2.40776e-06 -6.88328e-06 -3.06317e-05 -5.2371e-06 -4.58495e-05 5.75197e-05
internal_weight=82803 82315 23166 20040 11806 3126 59149 488 8234 58420 3688 54732 2788 729
internal_count=82803 82315 23166 20040 11806 3126 59149 488 8234 58420 3688 54732 2788 729
is_linear=0
shrinkage=0.005


Tree=36
num_leaves=15
num_cat=0
split_feature=5 8 1 7 7 7 7 5 1 1 7 7 5 5
split_gain=0.52335 0.386956 0.284834 0.294545 0.350098 0.2495 0.410022 0.111237 0.122326 0.0978444 0.080726 0.0756912 0.131907 0.0588826
threshold=2.1920803104026487 -0.019078178784966943 9.1180754775924964 209197.87624762394 652781.36256619974 1160310.2408759205 325202.78600627551 3.7538048709159173 15.711378721587115 20.093939506989731 418498.27437700826 952371.27617292001 1.9983343782813803 2.7690153936392066
decision_type=2 2 2 2 2 2 2 2 2 2 2 2 2 2
left_child=9 7 3 -3 -5 6 -4 8 10 11 -2 12 -1 -7
right_child=1 2 5 4 -6 13 -8 -9 -10 -11 -12 -13 -14 -15
leaf_value=-5.0658239072824045e-06 4.3799845479619088e-05 0.00014494981779828386 1.8282728993942342e-05 -1.8730319061452682e-05 0.00013473449559468363 -0.0001193245391440184 0.00013844353106243199 -5.0542670279511716e-05 -5.7286260530064685e-05 5.5803693958736403e-05 -1.7577534210596205e-05 7.6084451077205087e-05 -4.6392610253914349e-05 -4.7578271831291391e-06
leaf_weight=67168 1581 1331 4328 922 598 301 868 1203 585 640 740 275 2007 256
leaf_count=67168 1581 1331 4328 922 598 301 868 1203 585 640 740 275 2007 256
internal_value=0 2.95295e-05 4.86419e-05 8.99038e-05 4.00262e-05 2.77532e-05 3.88483e-05 -9.88342e-06 6.09399e-06 -5.33872e-06 2.31546e-05 -5.93856e-06 -6.30132e-06 -7.12049e-05
internal_weight=82803 12713 8604 2851 1520 5753 5196 4109 2906 70090 2321 69450 69175 557
internal_count=82803 12713 8604 2851 1520 5753 5196 4109 2906 70090 2321 69450 69175 557
is_linear=0
shrinkage=0.005


Tree=37
num_leaves=15
num_cat=0
split_feature=0 8 2 1 2 6 2 6 1 2 1 0 3 2
split_gain=0.255301 0.30955 0.2217 0.279303 0.632756 0.243348 0.141762 0.118102 0.0703367 0.0669357 0.0500492 0.0483176 0.162764 0.084157
threshold=0.05578327034245685 0.18377176304596862 -1.9335538725684382e-11 15.112827140453616 -1.1693918056110418e-11 0.38253101637816755 -1.1693918056110418e-11 0.2586718312753003 11.623838860288041 0.1157507892546789 2.3366367863085502 0.071880151466729977 -1.2353244535033108 0.043316895034455911
decision_type=2 2 2 2 2 2 2 2 2 2 2 2 2 2
left_child=1 2 5 4 -4 8 -5 -2 -1 11 -3 12 -9 -13
right_child=7 10 3 6 -6 -7 -8 9 -10 -11 -12 13 -14 -15
leaf_value=-3.1463420618112382e-05 5.7257450608394935e-05 0.00025650082187210038 0.00010268600741001868 -4.1878354005020848e-05 1.4511181234535385e-05 6.5799351413466995e-05 6.824411971814322e-06 -9.9062500347331216e-06 -9.8946403341532507e-05 -5.4030875542110163e-05 6.2248617098593584e-05 -4.8765211507901518e-06 8.7176011769302445e-05 -2.8406700907111612e-05
leaf_weight=2248 729 149 2563 2015 10368 581 5594 1407 540 742 95 50994 602 4176
leaf_count=2248 729 149 2563 2015 10368 581 5594 1407 540 742 95 50994 602 4176
internal_value=0 1.36956e-05 1.17737e-05 1.80116e-05 3.21846e-05 -2.55123e-05 -5.74632e-06 -5.61947e-06 -4.5446e-05 -6.45449e-06 0.000191377 -5.79291e-06 1.7955e-05 -6.70315e-06
internal_weight=82803 24153 23909 20540 12931 3369 7609 58650 2788 57921 244 57179 2009 55170
internal_count=82803 24153 23909 20540 12931 3369 7609 58650 2788 57921 244 57179 2009 55170
is_linear=0
shrinkage=0.005


Tree=38
num_leaves=15
num_cat=0
split_feature=5 8 6 1 8 6 5 1 5 5 6 5 5 0
split_gain=0.514078 0.380329 0.285815 0.216695 0.184598 0.116299 0.10958 0.12029 0.1063 0.0952314 0.0780897 0.0688717 0.0725984 0.0659618
threshold=2.1920803104026487 -0.019078178784966943 0.32001611722788054 2.3366367863085502 0.0026556703955988997 0.3091009038436684 3.7538048709159173 15.711378721587115 1.9983343782813803 2.817819996474173 0.33951051170658159 1.2816729187972631 1.4109140728225504 0.35538423167990024
decision_type=2 2 2 2 2 2 2 2 2 2 2 2 2 2
left_child=5 6 9 -4 -5 13 7 10 11 -3 -2 -7 -13 -1
right_child=1 2 3 4 -6 8 -8 -9 -10 -11 -12 12 -14 -15
leaf_value=2.1252172149375171e-05 -3.7171078152689762e-06 -9.0702943160655153e-05 0.00024941540414803341 0.00010137754450463497 4.010002221033892e-05 -1.2784651000916021e-05 -5.0160075200384583e-05 -5.679085974900886e-05 -4.4280811071006252e-05 8.5451941369878308e-06 5.2510200443934268e-05 6.4351950481919043e-06 -8.4398048919380374e-06 -5.4111522225853223e-06
leaf_weight=5896 1175 414 152 1670 5883 25559 1203 585 1963 485 1146 14695 18359 3618
leaf_count=5896 1175 414 152 1670 5883 25559 1203 585 1963 485 1146 14695 18359 3618
internal_value=0 2.92667e-05 4.82152e-05 5.81812e-05 5.39855e-05 -5.29121e-06 -9.80295e-06 6.04935e-06 -7.86769e-06 -3.44054e-05 2.29737e-05 -6.60516e-06 -1.75111e-06 1.08501e-05
internal_weight=82803 12713 8604 7705 7553 70090 4109 2906 60576 899 2321 58613 33054 9514
internal_count=82803 12713 8604 7705 7553 70090 4109 2906 60576 899 2321 58613 33054 9514
is_linear=0
shrinkage=0.005


Tree=39
num_leaves=15
num_cat=0
split_feature=4 7 7 8 3 3 6 4 8 7 8 0 7 3
split_gain=0.361707 0.220163 0.209775 0.219427 0.3359 0.130147 0.117872 0.103891 0.0895863 0.046274 0.039959 0.0459376 0.0286478 0.0234396
threshold=50000000.605290145 55123.370049640384 1160310.2408759205 -0.018381926537520386 -0.80880398099026851 34.018387411376985 0.2586718312753003 0.14643818726861638 -0.13179731587717813 27097.04873740637 0.0073183382382515571 0.28797485634285375 18848.639990258187 322.05125129677396
decision_type=2 2 2 2 2 2 2 2 2 2 2 2 2 2
left_child=7 6 3 8 -5 -4 9 -1 -3 -2 12 -12 -8 -7
right_child=1 2 5 4 -6 13 10 -9 -10 -11 11 -13 -14 -15
leaf_value=7.7184261546996895e-05 0 7.7292803136495302e-05 -0.00011227480401757404 -2.5816723332531986e-06 5.3414899343700057e-05 6.4620878952992323e-06 7.2732850212995118e-06 0.00025608934730905845 -2.7435097339591794e-06 8.4490654186397638e-05 -2.6573492906475142e-05 -8.2797292245218992e-06 -5.214972605131765e-06 -9.6502380584143416e-05
leaf_weight=343 237 361 517 4297 6764 540 5300 145 10627 492 4429 19427 29264 60
leaf_count=343 237 361 517 4297 6764 540 5300 145 10627 492 4429 19427 29264 60
internal_value=0 -7.9053e-07 1.22404e-05 1.57153e-05 3.14361e-05 -5.4092e-05 -5.93648e-06 0.000135668 0 5.68652e-05 -6.76343e-06 -1.17813e-05 -3.22763e-06 0
internal_weight=82803 82315 23166 22049 11061 1117 59149 488 10988 729 58420 23856 34564 600
internal_count=82803 82315 23166 22049 11061 1117 59149 488 10988 729 58420 23856 34564 600
is_linear=0
shrinkage=0.005


Tree=40
num_leaves=15
num_cat=0
split_feature=5 8 6 7 7 6 7 5 1 5 5 7 7 5
split_gain=0.505644 0.37402 0.281257 0.413411 0.257008 0.114762 0.116929 0.108468 0.119199 0.104878 0.0933987 0.078369 0.0761085 0.0680381
threshold=2.1920803104026487 -0.019078178784966943 0.32001611722788054 325202.78600627551 74889.625468536469 0.3091009038436684 27021.941283618231 3.7538048709159173 15.711378721587115 1.9983343782813803 2.817819996474173 418498.27437700826 1334384.8920437524 1.2816729187972631
decision_type=2 2 2 2 2 2 2 2 2 2 2 2 2 2
left_child=5 7 10 4 -4 6 -1 8 11 13 -3 -2 -5 -7
right_child=1 2 3 12 -6 9 -8 -9 -10 -11 -12 -13 -14 -15
leaf_value=-4.8446909892359578e-06 4.325023223572835e-05 -8.9883792605395548e-05 0.00013684396352999065 0.0001169295302969425 2.7290019280497261e-05 -1.2694944517691911e-05 3.0018530063809536e-05 -4.986897759999712e-05 -5.6493442859401605e-05 -4.3977406991725724e-05 8.3578428934279349e-06 -1.7188321365037075e-05 0.00026176269316159829 -1.7279505175478253e-06
leaf_weight=5177 1581 414 612 1432 5528 25559 4337 1203 585 1963 485 740 133 33054
leaf_count=5177 1581 414 612 1432 5528 25559 4337 1203 585 1963 485 740 133 33054
internal_value=0 2.90255e-05 4.78166e-05 5.77038e-05 3.86271e-05 -5.2478e-06 1.07859e-05 -9.71455e-06 6.0538e-06 -7.80736e-06 -3.41291e-05 2.29043e-05 0.000130915 -6.55298e-06
internal_weight=82803 12713 8604 7705 6140 70090 9514 4109 2906 60576 899 2321 1565 58613
internal_count=82803 12713 8604 7705 6140 70090 9514 4109 2906 60576 899 2321 1565 58613
is_linear=0
shrinkage=0.005


Tree=41
num_leaves=15
num_cat=0
split_feature=4 1 3 8 1 3 8 1 4 0 6 6 1 1
split_gain=0.354118 0.18202 0.204011 0.301417 0.250275 0.250267 0.107325 0.102455 0.101923 0.0820635 0.11322 0.0800529 0.043434 0.041627
threshold=50000000.605290145 6.4800337020311511 -0.85526879909025333 0.081180640451248454 15.112827140453616 34.018387411376985 -0.0050170338576877955 18.827836255741911 0.14643818726861638 0.047173393246236352 0.2586718312753003 0.38253101637816755 2.5825433230971346 1.1396961370154515
decision_type=2 2 2 2 2 2 2 2 2 2 2 2 2 2
left_child=8 9 3 6 5 -4 -3 -6 -1 11 12 -2 -11 -12
right_child=1 2 4 -5 7 -7 -8 -9 -10 10 13 -13 -14 -15
leaf_value=7.6216953995351551e-05 -5.6018090836873266e-05 3.8012749106349026e-06 5.8628267682002501e-05 0.00019223856356795333 -3.6172762573310269e-05 1.0153410083354267e-05 -2.6291713995322094e-05 1.1386072732210555e-05 0.00025356871943242365 0 2.1787652297588414e-05 9.1202172477330471e-05 8.4461745287339401e-05 -6.6887016101816527e-06
leaf_weight=343 1270 6789 5490 188 2001 5455 5102 2499 145 251 1277 87 478 51428
leaf_count=343 1270 6789 5490 188 2001 5455 5102 2499 145 251 1277 87 478 51428
internal_value=0 -7.82324e-07 9.67292e-06 -5.55551e-06 2.17442e-05 3.46983e-05 -8.90087e-06 -9.20793e-06 0.000134237 -6.08014e-06 -5.05196e-06 -4.47078e-05 5.64869e-05 -5.95111e-06
internal_weight=82803 82315 27524 12079 15445 10945 11891 4500 488 54791 53434 1357 729 52705
internal_count=82803 82315 27524 12079 15445 10945 11891 4500 488 54791 53434 1357 729 52705
is_linear=0
shrinkage=0.005


Tree=42
num_leaves=15
num_cat=0
split_feature=5 3 6 3 7 5 6 7 6 7 5 3 5 5
split_gain=0.496527 0.35885 0.354315 0.357449 0.172606 0.214122 0.1999 0.14706 0.113292 0.115317 0.103621 0.0850447 0.0672765 0.0722306
threshold=2.1920803104026487 -0.80880398099026851 0.32047244224534316 35001581.200265877 226874.63239294422 4.717860833944262 0.36470457205546442 1334384.8920437524 0.3091009038436684 27021.941283618231 1.9983343782813803 1.0223186874419894 1.2816729187972631 1.4109140728225504
decision_type=2 2 2 2 2 2 2 2 2 2 2 2 2 2
left_child=8 4 11 7 5 -2 -7 -4 9 -1 12 -3 -10 -14
right_child=1 2 3 -5 -6 6 -8 -9 10 -11 -12 -13 13 -15
leaf_value=-4.788560326566303e-06 -3.6460489069881712e-06 -7.6459232956337645e-05 8.1235979798837052e-05 0 -4.3437902105550441e-05 -7.5225947620381309e-06 0.00016492677387411832 0.00025919568574942007 -1.2603025144454061e-05 2.9830542750304465e-05 -4.3696161206764575e-05 3.7483720753999139e-06 6.4685325503112318e-06 -8.3696603701074848e-06
leaf_weight=5177 2278 461 4740 1627 1838 238 414 133 25559 4337 1963 984 14695 18359
leaf_count=5177 2278 461 4740 1627 1838 238 414 133 25559 4337 1963 984 14695 18359
internal_value=0 2.87634e-05 4.93718e-05 6.52072e-05 -5.05402e-06 1.81745e-05 9.81885e-05 8.66322e-05 -5.19944e-06 1.07307e-05 -7.74275e-06 -2.01284e-05 -6.49563e-06 -1.69733e-06
internal_weight=82803 12713 7945 6500 4768 2930 652 4873 70090 9514 60576 1445 58613 33054
internal_count=82803 12713 7945 6500 4768 2930 652 4873 70090 9514 60576 1445 58613 33054
is_linear=0
shrinkage=0.005


Tree=43
num_leaves=15
num_cat=0
split_feature=4 1 3 8 1 3 2 8 4 0 8 0 0 2
split_gain=0.347325 0.179001 0.200521 0.295869 0.245784 0.244842 0.175205 0.106233 0.0997453 0.0808333 0.075492 0.0530893 0.089601 0.068614
threshold=50000000.605290145 6.4800337020311511 -0.85526879909025333 0.081180640451248454 15.112827140453616 34.018387411376985 -8.4974527414516371e-12 -0.0050170338576877955 0.14581129730443651 0.047173393246236352 0.032997142961885211 0.36989354441652328 0.42886117554684128 0.043316895034455911
decision_type=2 2 2 2 2 2 2 2 2 2 2 2 2 2
left_child=8 9 3 7 5 -4 -6 -3 -1 10 -2 13 -13 -11
right_child=1 2 4 -5 6 -7 -8 -9 -10 11 -12 12 -14 -15
leaf_value=7.4917144118612201e-05 -5.6133819554238377e-05 3.8175926808674094e-06 5.8070414407360544e-05 0.0001904574708533856 -3.5802247482327763e-05 1.0115258238553404e-05 2.7167334402045398e-05 -2.6121650808316028e-05 0.00024989159354719064 3.0085185709735114e-06 7.6893895452732008e-05 -2.0904875329440182e-05 -2.4445313870540052e-06 -2.4619406553322704e-05
leaf_weight=341 1256 6789 5490 188 2632 5455 1868 5102 147 22690 101 10990 17262 2492
leaf_count=341 1256 6789 5490 188 2632 5455 1868 5102 147 22690 101 10990 17262 2492
internal_value=0 -7.7401e-07 9.5939e-06 -5.50229e-06 2.15618e-05 3.43995e-05 -9.10727e-06 -8.81858e-06 0.000132944 -6.02795e-06 -4.43664e-05 -5.00712e-06 -9.71432e-06 1.74761e-07
internal_weight=82803 82315 27524 12079 15445 10945 4500 11891 488 54791 1357 53434 28252 25182
internal_count=82803 82315 27524 12079 15445 10945 4500 11891 488 54791 1357 53434 28252 25182
is_linear=0
shrinkage=0.005


Tree=44
num_leaves=15
num_cat=0
split_feature=4 1 3 1 3 2 1 2 6 4 0 6 6 2
split_gain=0.344 0.177243 0.198512 0.243336 0.242366 0.173467 0.0992615 0.333439 0.109563 0.0986328 0.0799816 0.111557 0.0781441 0.0444784
threshold=50000000.605290145 6.4800337020311511 -0.85526879909025333 15.112827140453616 34.018387411376985 -8.4974527414516371e-12 8.0713769269779796 0.073970160796821019 0.35184925042912901 0.14643818726861638 0.047173393246236352 0.2586718312753003 0.38253101637816755 -0.069836095960907979
decision_type=2 2 2 2 2 2 2 2 2 2 2 2 2 2
left_child=9 10 6 4 -4 -5 7 -3 -8 -1 12 13 -2 -12
right_child=1 2 3 5 -6 -7 8 -9 -10 -11 11 -13 -14 -15
leaf_value=7.5050391599277021e-05 -5.5325122997120237e-05 0.00012950133604749622 5.7780089406043962e-05 -3.5623270357591763e-05 1.006468627062347e-05 2.7031534255323303e-05 3.8376658050550521e-06 -1.6807490711301688e-05 -2.8396324456306095e-05 0.00024984192775235963 -2.1038851700723172e-06 -5.8751807801115181e-06 9.0021062775381963e-05 7.7829425873027913e-05
leaf_weight=343 1270 564 5490 2632 5455 1868 5322 1186 5007 145 167 52705 87 562
leaf_count=343 1270 564 5490 2632 5455 1868 5322 1186 5007 145 167 52705 87 562
internal_value=0 -7.6983e-07 9.54686e-06 2.14548e-05 3.42286e-05 -9.05896e-06 -5.47268e-06 2.89411e-05 -1.15464e-05 0.000132307 -5.99804e-06 -4.98232e-06 -4.41353e-05 5.61023e-05
internal_weight=82803 82315 27524 15445 10945 4500 12079 1750 10329 488 54791 53434 1357 729
internal_count=82803 82315 27524 15445 10945 4500 12079 1750 10329 488 54791 53434 1357 729
is_linear=0
shrinkage=0.005


Tree=45
num_leaves=15
num_cat=0
split_feature=4 7 7 8 3 3 6 4 8 7 8 0 7 3
split_gain=0.340707 0.20897 0.205106 0.209825 0.322915 0.12837 0.113366 0.0975245 0.0882554 0.0446974 0.0390456 0.04498 0.0285371 0.0227055
threshold=50000000.605290145 55123.370049640384 1160310.2408759205 -0.018381926537520386 -0.80880398099026851 34.018387411376985 0.2586718312753003 0.14581129730443651 -0.13179731587717813 27097.04873740637 0.0073183382382515571 0.28797485634285375 18848.639990258187 322.05125129677396
decision_type=2 2 2 2 2 2 2 2 2 2 2 2 2 2
left_child=7 6 3 8 -5 -4 9 -1 -3 -2 12 -12 -8 -7
right_child=1 2 5 4 -6 13 10 -9 -10 -11 11 -13 -14 -15
leaf_value=7.4168403993775227e-05 0 7.6716683178954599e-05 -0.0001114432375725124 -2.6046932241395578e-06 5.2289786066558924e-05 6.3842906375703783e-06 7.3888315078670461e-06 0.00024741323734238997 -2.722927170762493e-06 8.2956036032759008e-05 -2.6187647237401226e-05 -8.0850060882401751e-06 -5.0805688023388185e-06 -9.496469901151155e-05
leaf_weight=341 237 361 517 4297 6764 540 5300 147 10627 492 4429 19427 29264 60
leaf_count=341 237 361 517 4297 6764 540 5300 147 10627 492 4429 19427 29264 60
internal_value=0 -7.6567e-07 1.19288e-05 1.53661e-05 3.07391e-05 -5.36613e-05 -5.77986e-06 0.000131672 0 5.58049e-05 -6.59161e-06 -1.15511e-05 -3.09612e-06 0
internal_weight=82803 82315 23166 22049 11061 1117 59149 488 10988 729 58420 23856 34564 600
internal_count=82803 82315 23166 22049 11061 1117 59149 488 10988 729 58420 23856 34564 600
is_linear=0
shrinkage=0.005


Tree=46
num_leaves=15
num_cat=0
split_feature=4 7 2 3 3 6 6 4 2 6 7 6 3 7
split_gain=0.337449 0.206861 0.302175 0.123421 0.258279 0.116838 0.112239 0.0964352 0.0826577 0.0768657 0.0634383 0.0620548 0.0507715 0.0442553
threshold=50000000.605290145 55123.370049640384 -1.9335538725684382e-11 -3.8235488374064857 1.8681810843241105 0.38253101637816755 0.2586718312753003 0.14643818726861638 0.07867072093583613 0.35229259145410979 23899.325918171362 0.33148518697452617 34.018387411376985 27097.04873740637
decision_type=2 2 2 2 2 2 2 2 2 2 2 2 2 2
left_child=7 6 5 11 -5 12 13 -1 10 -10 -8 -4 -3 -2
right_child=1 2 3 4 -6 -7 8 -9 9 -11 -12 -13 -14 -15
leaf_value=7.4300340601766521e-05 0 -5.5900891782018514e-05 2.0914715733087401e-05 4.287885841442295e-05 -2.5356027484375836e-07 5.0786115773848609e-05 -9.8926073714746964e-06 0.00024736418993663546 7.0306500867293901e-06 -4.3157171388678694e-05 8.3053859318270665e-07 -1.3947288940268906e-05 0 8.2541675264308901e-05
leaf_weight=343 237 2188 2009 9156 5405 338 29788 145 946 2742 24944 3470 600 492
leaf_count=343 237 2188 2009 9156 5405 338 29788 145 946 2742 24944 3470 600 492
internal_value=0 -7.62003e-07 1.18681e-05 1.908e-05 2.66971e-05 -3.35619e-05 -5.75097e-06 0.000131041 -6.55887e-06 -2.96066e-05 -4.95992e-06 -7.07354e-07 -4.46916e-05 5.55252e-05
internal_weight=82803 82315 23166 20040 14561 3126 59149 488 58420 3688 54732 5479 2788 729
internal_count=82803 82315 23166 20040 14561 3126 59149 488 58420 3688 54732 5479 2788 729
is_linear=0
shrinkage=0.005


Tree=47
num_leaves=15
num_cat=0
split_feature=4 1 3 8 1 3 2 8 4 0 8 0 0 2
split_gain=0.334221 0.172805 0.193878 0.290248 0.241414 0.237768 0.170803 0.1046 0.0953498 0.0789124 0.073527 0.0519406 0.0886183 0.0674927
threshold=50000000.605290145 6.4800337020311511 -0.85526879909025333 0.081180640451248454 15.112827140453616 34.018387411376985 -8.4974527414516371e-12 -0.0050170338576877955 0.14581129730443651 0.047173393246236352 0.032997142961885211 0.36989354441652328 0.42886117554684128 0.043316895034455911
decision_type=2 2 2 2 2 2 2 2 2 2 2 2 2 2
left_child=8 9 3 7 5 -4 -6 -3 -1 10 -2 13 -13 -11
right_child=1 2 4 -5 6 -7 -8 -9 -10 11 -12 12 -14 -15
leaf_value=7.3427146296058099e-05 -5.5430118048106104e-05 3.8371635882260366e-06 5.7249285064486604e-05 0.00018867314770936336 -3.5556258015346362e-05 9.9820908421723569e-06 2.6605299561645956e-05 -2.5870500900286768e-05 0.00024495947815604129 3.0245036056119312e-06 7.573031229678119e-05 -2.069593238999031e-05 -2.3379277433021083e-06 -2.4375033111585105e-05
leaf_weight=341 1256 6789 5490 188 2632 5455 1868 5102 147 22690 101 10990 17262 2492
leaf_count=341 1256 6789 5490 188 2632 5455 1868 5102 147 22690 101 10990 17262 2492
internal_value=0 -7.58034e-07 9.42824e-06 -5.41305e-06 2.11968e-05 3.39212e-05 -9.19672e-06 -8.69964e-06 0.000130413 -5.92073e-06 -4.38021e-05 -4.91152e-06 -9.5679e-06 2.13352e-07
internal_weight=82803 82315 27524 12079 15445 10945 4500 11891 488 54791 1357 53434 28252 25182
internal_count=82803 82315 27524 12079 15445 10945 4500 11891 488 54791 1357 53434 28252 25182
is_linear=0
shrinkage=0.005


Tree=48
num_leaves=15
num_cat=0
split_feature=5 2 2 8 1 5 1 2 3 1 1 2 1 5
split_gain=0.473389 0.411439 0.530233 0.484826 0.353122 0.146242 0.414956 0.11354 0.101 0.0939467 0.0898445 0.0712081 0.0684073 0.111017
threshold=2.1920803104026487 -1.3361511896903264e-11 -1.1693918056110418e-11 0.034709377485134939 9.1180754775924964 2.7690153936392066 11.514193285779518 -1.3214485061752155e-11 -1.0624921727917207 20.093939506989731 2.3021304486958871 0.043316895034455911 1.9120114986201566 1.2799065304589672
decision_type=2 2 2 2 2 2 2 2 2 2 2 2 2 2
left_child=9 3 7 5 -4 -2 -7 -3 -6 11 -5 12 13 -1
right_child=1 2 4 10 8 6 -8 -9 -10 -11 -12 -13 -14 -15
leaf_value=-1.5076700606426524e-05 -6.6757741898185855e-05 4.4313573024030319e-05 0.00012490435045214946 0.00024833167243576556 -1.6097795860519145e-05 -2.7117564544083463e-05 0.0001400932860489747 0.00016945303733084747 3.0593981391607923e-05 5.4839293101072684e-05 8.4825621931623201e-05 -1.7849174464358963e-05 1.7063136311582741e-06 6.6268266552651057e-06
leaf_weight=20982 1378 292 883 140 1608 2804 426 1022 3699 640 461 10310 30150 8008
leaf_count=20982 1378 292 883 140 1608 2804 426 1022 3699 640 461 10310 30150 8008
internal_value=0 2.80867e-05 5.18182e-05 -5.6223e-06 3.19267e-05 -2.35059e-05 -4.27223e-06 0.000143574 1.59753e-05 -5.07542e-06 0.000127245 -5.66394e-06 -3.49726e-06 -8.99522e-06
internal_weight=82803 12713 7504 5209 6190 4608 3230 1314 5307 70090 601 69450 59140 28990
internal_count=82803 12713 7504 5209 6190 4608 3230 1314 5307 70090 601 69450 59140 28990
is_linear=0
shrinkage=0.005


Tree=49
num_leaves=15
num_cat=0
split_feature=5 8 3 8 1 3 6 5 1 5 6 1 6 5
split_gain=0.468745 0.352723 0.303045 0.266367 0.229217 0.142351 0.110551 0.103139 0.113401 0.100939 0.082483 0.0783851 0.0748815 0.065481
threshold=2.1920803104026487 -0.019078178784966943 -0.78608812787665883 0.079452765578015713 9.1180754775924964 -0.48694514457122512 0.3091009038436684 3.7538048709159173 15.711378721587115 1.9983343782813803 0.34157536781821218 2.2625354672378855 0.33951051170658159 1.2816729187972631
decision_type=2 2 2 2 2 2 2 2 2 2 2 2 2 2
left_child=6 7 3 10 11 -6 -1 8 12 13 -3 -4 -2 -8
right_child=1 2 4 -5 5 -7 9 -9 -10 -11 -12 -13 -14 -15
leaf_value=1.0686427812896724e-05 -3.9567963223487463e-06 -0.00010253273155721507 0.00024918199322380866 0.00018307569437778196 9.4059974215725251e-05 2.5956431144062448e-05 -1.2355933489386233e-05 -4.8813660306942081e-05 -5.5293716980320919e-05 -4.3047710068074796e-05 6.2261282097145139e-07 0.00010597096213983595 5.1091981077593706e-05 -1.5966253244460241e-06
leaf_weight=9514 1175 205 136 198 1160 2766 25559 1203 585 1963 2671 1468 1146 33054
leaf_count=9514 1175 205 136 198 1160 2766 25559 1203 585 1963 2671 1468 1146 33054
internal_value=0 2.79494e-05 4.62003e-05 5.50768e-06 6.83657e-05 4.67248e-05 -5.04969e-06 -9.65956e-06 5.69457e-06 -7.56253e-06 -5.87769e-06 0.000119746 2.21519e-05 -6.33109e-06
internal_weight=82803 12713 8604 3074 5530 3926 70090 4109 2906 60576 2876 1604 2321 58613
internal_count=82803 12713 8604 3074 5530 3926 70090 4109 2906 60576 2876 1604 2321 58613
is_linear=0
shrinkage=0.005


end of trees

feature_importances:
Column_2=122
Column_1=118
Column_5=111
Column_7=103
Column_6=87
Column_8=60
Column_3=41
Column_4=35
Column_0=23

parameters:
[boosting: gbdt]
[objective: regression]
[metric: l2]
[tree_learner: serial]
[device_type: cpu]
[data_sample_strategy: bagging]
[data: ]
[valid: ]
[num_iterations: 50]
[learning_rate: 0.005]
[num_leaves: 15]
[num_threads: 14]
[seed: 42]
[deterministic: 0]
[force_col_wise: 1]
[force_row_wise: 0]
[histogram_pool_size: -1]
[max_depth: 5]
[min_data_in_leaf: 50]
[min_sum_hessian_in_leaf: 0.001]
[bagging_fraction: 1]
[pos_bagging_fraction: 1]
[neg_bagging_fraction: 1]
[bagging_freq: 0]
[bagging_seed: 400]
[bagging_by_query: 0]
[feature_fraction: 0.7]
[feature_fraction_bynode: 1]
[feature_fraction_seed: 30056]
[extra_trees: 0]
[extra_seed: 12879]
[early_stopping_round: 0]
[early_stopping_min_delta: 0]
[first_metric_only: 0]
[max_delta_step: 0]
[lambda_l1: 0.5]
[lambda_l2: 0.5]
[linear_lambda: 0]
[min_gain_to_split: 0]
[drop_rate: 0.1]
[max_drop: 50]
[skip_drop: 0.5]
[xgboost_dart_mode: 0]
[uniform_drop: 0]
[drop_seed: 17869]
[top_rate: 0.2]
[other_rate: 0.1]
[min_data_per_group: 100]
[max_cat_threshold: 32]
[cat_l2: 10]
[cat_smooth: 10]
[max_cat_to_onehot: 4]
[top_k: 20]
[monotone_constraints: ]
[monotone_constraints_method: basic]
[monotone_penalty: 0]
[feature_contri: ]
[forcedsplits_filename: ]
[refit_decay_rate: 0.9]
[cegb_tradeoff: 1]
[cegb_penalty_split: 0]
[cegb_penalty_feature_lazy: ]
[cegb_penalty_feature_coupled: ]
[path_smooth: 0]
[interaction_constraints: ]
[verbosity: -1]
[saved_feature_importance_type: 0]
[use_quantized_grad: 0]
[num_grad_quant_bins: 4]
[quant_train_renew_leaf: 0]
[stochastic_rounding: 1]
[linear_tree: 0]
[max_bin: 255]
[max_bin_by_feature: ]
[min_data_in_bin: 3]
[bin_construct_sample_cnt: 200000]
[data_random_seed: 175]
[is_enable_sparse: 1]
[enable_bundle: 1]
[use_missing: 1]
[zero_as_missing: 0]
[feature_pre_filter: 1]
[pre_partition: 0]
[two_round: 0]
[header: 0]
[label_column: ]
[weight_column: ]
[group_column: ]
[ignore_column: ]
[categorical_feature: ]
[forcedbins_filename: ]
[precise_float_parser: 0]
[parser_config_file: ]
[objective_seed: 16083]
[num_class: 1]
[is_unbalance: 0]
[scale_pos_weight: 1]
[sigmoid: 1]
[boost_from_average: 1]
[reg_sqrt: 0]
[alpha: 0.9]
[fair_c: 1]
[poisson_max_delta_step: 0.7]
[tweedie_variance_power: 1.5]
[lambdarank_truncation_level: 30]
[lambdarank_norm: 1]
[label_gain: ]
[lambdarank_position_bias_regularization: 0]
[eval_at: ]
[multi_error_top_k: 1]
[auc_mu_weights: ]
[num_machines: 1]
[local_listen_port: 12400]
[time_out: 120]
[machine_list_filename: ]
[machines: ]
[gpu_platform_id: -1]
[gpu_device_id: -1]
[gpu_use_dp: 0]
[num_gpu: 1]

end of parameters

pandas_categorical:null
